23 1024
tôi 0.027776154 0.02129553 -0.030680764 -0.01855098 -0.013765394 -0.017949548 -0.03710915 -0.010346569 0.0076523395 0.0016653232 0.011870519 -0.0449551 -0.021881627 0.030594504 0.027980784 0.0017328946 -0.05508458 0.020665823 0.03458936 -0.008873417 0.0107994415 0.04850188 0.027431587 0.0063483557 -0.03356429 -0.021623801 -0.009456639 -0.055609334 0.032256473 0.021723483 -0.03365007 -0.03291733 0.0104519995 0.021802075 0.0206294 0.0013404054 0.009651206 -0.053089064 0.0006512732 0.020125251 -0.03220615 -0.0058638547 -0.0394061 0.003532402 0.030728687 -0.013932644 -0.01723933 0.012988083 0.011409021 -0.0062606568 0.01652959 0.023109414 0.010700241 -0.058025133 0.05847513 0.048014022 0.022548715 -0.009378525 -0.032010145 -0.044200793 -0.016021607 0.028819436 0.0035554052 0.0151810385 0.00039200988 0.03712209 -0.004535909 -0.015060272 -0.0032079637 -0.027607944 -0.019573178 0.011402791 0.018973183 -0.014094625 0.015847167 0.02234696 -0.057638872 -0.0052767983 -0.01060104 0.008589713 -0.0292656 0.052904084 -0.02507713 0.0034662683 -0.013583765 -0.014283921 -0.005483825 -0.0143788075 -0.010719889 0.017707057 0.017290607 -0.012108697 -0.01562864 -0.046170425 0.08162624 -0.02454375 0.0017472715 0.029124705 0.010443852 -0.0028370398 -0.009772931 -0.0037614738 -0.021143613 0.018991394 0.027919443 -0.008829328 -0.029287165 0.02886688 -0.01235502 -0.036766022 0.031929158 0.035645586 -0.0024824098 -0.020015508 0.028032541 -0.051990192 -0.013018275 -0.039163608 -0.010498964 -0.014187595 -0.04723863 -0.004437667 -0.005441174 0.013354215 -0.0063378126 0.020453043 0.027888771 0.0345908 -0.056678973 0.004260352 -0.0005712418 -0.0073724696 -0.028011454 0.015010432 -0.026414182 -0.014718582 0.047831435 0.011735856 0.00916383 0.025039751 -0.017473673 0.007953296 -0.012012372 0.0014798613 0.011373079 0.074162714 -0.004214825 0.019032128 -0.042563744 0.012655977 -0.014807718 -0.04295144 0.0001547912 -0.04670333 -0.062290274 0.05047918 -0.0077841277 0.027314175 -0.00077587285 0.007567995 0.031246735 -0.048151083 0.005593569 0.022887532 0.0019935956 -0.07429546 -0.013756768 0.055148315 -0.038903866 -0.01912366 0.00036229764 -0.016058028 0.03157261 -0.00019744263 0.0035180252 -0.029600581 0.0013197985 0.06759966 -0.023754936 -0.022233862 -0.005297405 -0.047021057 -0.031154722 0.015918093 0.007331256 -0.0064978753 -0.0053084274 -0.02855538 -0.0013830569 0.029005857 -0.02273945 -0.02002653 -0.04901705 -0.011455506 0.011363494 0.008627572 0.039630856 -0.034156136 -0.011445443 -0.0027086062 0.015192539 0.0069732713 0.02074729 0.024508286 -0.02206086 -0.061626542 0.024620906 -7.188445e-05 0.06947728 0.008127736 0.020725725 -0.015209313 -0.012638724 -0.030064953 -0.0144353565 0.059422087 -0.005299801 -0.04972727 -0.01603886 -0.013540635 0.0034998145 -0.058563784 -0.00423064 -0.034033936 -0.017224953 -0.025471536 0.002524582 -0.02788973 0.0023721869 -0.02331213 -0.0074961106 0.027650116 -0.009251529 0.010951357 -0.0050381417 0.020707995 0.033185218 -0.05311734 -0.008136841 0.043488655 0.0029338442 -0.034044478 0.021077001 0.012326267 0.00689947 0.039813925 0.019088197 -0.026672967 0.0011444004 0.0022935933 -0.030923255 0.043850474 0.031711586 0.01298377 0.028716402 -0.023776982 -0.005457947 -0.04207493 -0.033530265 -0.016354673 -0.013608206 -0.025399175 0.01042085 -0.031532835 0.05107582 0.03277356 0.023424746 -0.048169293 -0.0021378438 -0.021156553 0.019475894 -0.0044424594 -0.0041807997 -0.06823033 -0.028768158 0.021371247 -0.00015862503 -0.0012373711 0.0197457 0.0071357302 0.008620863 0.004383514 -0.020453524 -0.009036355 0.012677542 0.0032894325 -0.023804298 -0.001214368 -0.033378348 -0.043707665 -0.032541133 -0.0055020363 -0.017079268 0.03108092 -0.0006560655 0.020071577 0.0021402398 -0.0067044236 0.02812695 0.013204695 -0.040513597 -0.00941303 0.031016225 0.009451368 -0.0501442 0.008984598 -0.015263945 -0.03459751 0.0058154524 -0.0017213931 0.018780533 -0.05242102 0.0037245732 0.014431523 -0.021372207 0.03200296 0.016051318 0.03642433 0.030269586 0.05182917 0.007996906 0.01193809 -0.021156553 0.00097235705 0.019923974 -0.010236346 0.021153199 -0.053512227 0.023206698 -0.0055168923 -0.044548713 -0.018361207 -0.019498898 -0.012881694 0.02023164 -0.025702046 -0.06952233 0.07320281 -0.04737377 0.009047857 0.012821311 -0.035699256 -0.03524255 -0.04773032 -0.0048790374 -0.057669062 0.029528217 0.021368852 -0.011362057 -0.027662575 -0.04493018 -0.0197596 -0.008623259 -0.06779279 0.037709627 -0.025641184 0.0060291886 0.04625525 -0.01762511 0.019783081 0.012611409 0.0072152824 -0.021778114 -0.016226718 0.017851306 -0.03524255 0.022678588 0.00026549326 -0.07546478 0.02086614 0.02046119 0.0059803072 -0.0071261455 -0.020454003 -0.030866226 0.0113956025 0.038078632 -0.013463958 -0.020966299 -0.054121327 0.054798476 0.009548652 0.007200905 -0.02472394 0.0397545 -0.012885528 0.00070973916 -0.00013753893 0.029126622 0.038650833 -0.023233535 -0.026337026 -0.0002099026 0.03248219 0.042053364 -0.008469906 -0.006480144 0.012484892 -0.016681507 0.034489203 0.035376735 0.032099284 -0.000277474 -0.020579081 0.028825186 0.055527385 0.024928091 0.03145424 -0.0038031668 0.022117889 0.0660829 -0.083006896 0.012682814 -0.028973747 -0.032795604 -0.0077855657 0.010898641 -0.018530853 0.071198195 0.00063689623 -0.022003831 -0.010747684 0.011053912 -0.018915195 -0.026463063 0.015347331 0.024991829 -0.054465413 -0.00013514278 -0.025443742 0.028277906 -0.033648156 -0.010334109 0.0033306463 0.056790154 0.02197939 0.0027421522 0.009181082 -0.05156176 0.019944582 -0.009441304 0.0018296989 -0.0009781078 0.024247585 0.00082044123 0.034269717 -0.04395974 -0.003703487 0.0063013914 0.10865479 0.02142588 -0.024492951 0.04798431 0.0032472603 -0.002916592 0.017590605 0.04234282 -0.044833854 0.018314242 0.028930139 0.017647633 -0.002697584 0.0056903735 0.026105558 -0.015499246 0.008944343 0.0176069 0.009234756 0.018552897 -0.032116055 0.008543228 0.003083843 0.0014511076 -0.009507917 -0.042997446 0.013904849 -0.027739732 -0.0077745435 0.025772015 -0.018157534 -0.010025006 0.006330624 0.026728557 -0.033758376 0.00037811222 0.008812555 0.010466376 0.04414664 -0.052574374 0.045142956 0.0062472383 -0.007871827 -0.0070945164 0.0324242 0.0050994833 0.01608151 -0.02017509 0.057468746 0.023753019 0.014824012 0.008290194 0.031011432 -0.0036210595 0.04913494 -0.0016279432 0.0053448486 -0.00205302 0.119058385 -0.03437898 -0.004362428 0.037529916 -0.04091759 0.020545535 0.00062539475 -0.023337048 -0.038845878 0.001746313 0.0046058767 -0.015443656 -0.03582817 0.050675664 -0.019952249 -0.018212644 -0.027053475 -0.018553857 0.061052904 0.011551352 0.008255211 -0.0340555 0.04619343 -0.0050563524 0.009667021 0.019100659 0.024740713 0.060655624 -0.06091057 -0.05537547 0.007837801 0.025335915 0.0031308075 0.009543859 0.04435079 0.044417884 -0.049809698 0.06491598 0.038737096 0.0022624433 -0.043721564 -0.0027306508 0.017400831 0.05238316 0.03733918 0.0035026898 0.010457271 -0.03413505 0.040359765 0.022609578 0.012241922 0.015533272 0.014548934 0.01935513 -0.026614022 -0.022662772 0.043355912 -0.038823355 -0.016703552 0.04333147 0.024032889 0.025102051 -0.015877359 0.027063059 -0.004782233 -0.029353777 0.035732802 0.044006225 0.020823488 -0.010475482 0.06836882 0.0021848083 -0.03629494 0.023351425 -0.06214315 0.012438406 0.014404207 0.030394664 -0.00409358 0.061519675 0.03885211 -0.039189488 0.009771973 -0.014005967 -0.03768806 -0.0007523906 0.041591864 0.0048378236 0.020754 -0.07791508 0.0056994786 0.005102838 -0.0026472649 -0.016721282 -0.01170854 -0.018269194 0.043820284 -0.017389808 -0.016210424 0.07369115 -0.02377123 -0.041189793 -0.004331278 -0.025435116 -0.020743936 -0.020056242 -0.0107980035 -0.04827616 0.025780162 0.0832168 -0.0075440337 -0.019318707 0.021299843 -0.02033132 -0.07332406 0.054159187 0.057642706 -0.022089135 0.009280283 0.027980305 -0.059149403 0.026936542 0.000742806 0.02746609 0.004621691 -0.011038098 -0.016865531 0.06139028 0.05110793 -0.026924083 0.004495654 -0.019233404 0.12464141 -0.033326592 -0.010726119 0.006211296 0.014427689 0.021754632 0.01746265 -0.03468377 -0.015001327 4.7922967e-06 -0.04847025 -0.034066044 0.02205415 -0.013682008 -0.06402173 0.0061489963 0.017293962 0.010841134 0.101003885 -0.003849173 0.034419235 -0.019277973 0.06555383 -0.018854333 -0.035791747 -0.013569389 -0.016317291 -0.03775132 0.058526404 0.034971308 -0.020938983 0.027456986 0.04012686 -0.0023395994 -0.05985914 0.007866076 -0.00624628 -0.056112524 -0.05388794 0.023984008 0.007020715 0.037394293 -0.02846912 0.04307556 -0.0062084207 0.028897071 -0.039873827 0.0073657604 0.0038290452 0.013066198 0.021975078 -0.004538305 -0.042551283 -0.0036090787 -0.0168847 -0.040303696 -0.00875313 0.025995335 -0.0030852808 -0.03765643 -0.03554782 -0.0036253727 0.053740818 -0.009980437 -0.011138735 -0.021268694 -0.021192016 0.017248435 -0.04240464 -0.023756854 0.015967455 -0.024676975 -0.019038359 0.005416733 0.06144204 0.014093666 0.020046657 -0.01763182 -0.037276402 -0.036279127 -0.02148818 0.026635585 0.03677225 0.0047702524 -0.008348661 0.0037049248 0.028083818 -0.013726097 0.01738166 -0.017199075 0.00912022 -0.0530421 -0.00058370177 0.026682071 -0.030470861 0.018268235 -0.01921088 0.026803795 -0.051621184 -0.0031207437 0.029626459 -0.031836186 0.0015095735 -0.052150734 0.030792424 -0.049287815 0.0070719924 -0.016873678 0.0077098473 -0.014511075 -0.06606181 0.008982682 0.008330929 -0.03322835 -0.02171198 -0.01338201 0.0882396 0.00092012103 0.040117275 0.01066286 -0.0018958327 -0.018922385 -0.0041347938 -0.011441609 -0.0018450343 0.031069899 0.0016121287 0.00702407 -0.0354237 -0.007954733 -0.0088048875 0.0049082707 -0.012496873 -0.07761748 -0.05402452 0.02120208 0.0048387824 0.012178664 0.0040825577 0.0037998122 -0.039277665 -0.008928049 -0.024021389 -0.003862112 0.009510313 -0.032788895 -0.012822749 -0.06521933 -0.03324656 -0.003887032 0.020958632 -0.010788418 0.040573023 -0.0011554228 0.026648525 -0.04173851 -0.010692573 -0.006993399 0.021378916 0.016148124 -0.029715596 -0.017928941 -0.024475697 -0.046708122 0.0017348115 0.0052945297 0.01665419 0.036472254 0.02010608 0.04508593 0.02089058 0.036495257 -0.035499897 -0.020525407 0.0055005983 -0.035982 0.012031062 -0.009737468 -0.019951291 -0.009104885 0.016997319 -0.00234535 0.04033676 0.041026376 -0.07082967 0.009434116 -0.0010193215 0.04781227 -0.042319816 0.02209728 0.011911733 -0.0049413373 -0.019147143 0.02923972 -0.033832178 -0.026716577 -0.022205587 0.017900188 -0.029538281 0.059017617 -0.03279321 0.030025657 -0.028763367 -0.0071989885 -0.012172913 -0.020516781 -0.04553305 0.024478573 0.03275439 0.026229199 0.029306334 -0.06682475 -0.008433963 -0.034542397 -0.035073385 0.043967888 -0.04059267 -0.02932023 -0.04726978 0.0102075925 0.030014155 -0.022006227 0.034716837 0.017957695 -0.012544316 -0.057193667 0.010655672 0.06418755 0.0070092133 -0.018469991 -0.015380397 -0.0013432808 -0.019256886 0.002653974 0.012090486 0.018842353 -0.020456878 0.0062644905 -0.023986883 0.029141 -0.0062649697 0.0018090921 0.01843309 -0.0016533424 0.017274793 -0.0016739493 -0.043453675 -0.086897284 0.039308336 0.035160605 -0.02477953 0.042958148 -0.03702289 0.058416184 0.014678326 -0.027981743 -0.032541614 0.028025351 -0.07020188 0.054589055 0.018318076 0.0032232988 0.04913015 -0.012483933 -0.048188463 -0.045449186 0.04114714 0.009127888 0.0047702524 0.012689523 0.008840829 -0.045574743 0.0046475697 0.003653168 -0.020620296 -0.0073398817 0.015941575 0.042104643 0.043090418 0.0049959696 0.0058576246 0.09657054 0.01974618 0.023733372 -0.12087323 0.04237924 -0.008370705 -0.04458945 -0.0019413595 -0.033801988 0.02716849 0.022825232 -0.07213365 -0.0055073076 0.009904719 0.009806477 -0.029656172 -0.0068108123 0.015899403 0.03826122 -0.056499742 -0.010130916 -0.018443635 0.083951935 0.00624005 0.011533621 0.020565663 0.09984894 -0.027041974 0.023504779 -0.00605315 0.023643754 0.044268843 -0.019992026 0.050864004 -0.0037106755 -0.023655737 0.023886245 0.014533119 -0.0156526 -0.048534468 0.017135337 0.08779009 0.0451027 -0.006505543 0.019639311 0.019909598 0.012315244 0.049562894 0.015912822 -0.028236693 0.05103892 0.009346896 0.0021526997 0.0062793465 -0.008284923 -0.05701731 -0.0064815814 -0.05223172 0.027044369 0.06499553 -0.001811009 -0.015917614 -0.05579336 -0.014987908 -0.023227785 0.0051037963 -0.032113183 -0.02594933 -0.015649246 -0.046631444 0.01611937 -0.018889796 0.035227217 -0.009598012 0.007492277 -0.005758424 0.069391504 -0.0027565293 -0.024105253 0.0047458117 -0.04616851 0.033394642 0.055262852 -0.0043111504 0.022915326 0.079917304 -0.016436141 0.01251077 0.005076001 0.03488313 -0.03514431 0.025596617 0.04140353 -0.005954908 -0.004685429 0.009546734 -0.055951506 0.0008515912 0.029021192 0.09801637 0.0073513836 -0.023108456 -0.033913646 -0.06133517
yêu 0.018781234 -0.008174676 -0.017067147 -0.005146571 -0.018879957 -0.04418731 -0.03208006 0.011595951 -0.008245809 0.003704514 -0.0017778907 -0.028022904 -0.054540806 0.045512967 0.027666377 -0.018329432 -0.0020688889 -0.015013347 -0.0227276 0.031085497 -0.012881948 0.017439194 0.009349446 -0.061731692 0.02484391 -0.06008788 -0.016874442 -0.017314173 0.035359934 0.025494453 -0.008174245 0.028291484 0.028968755 0.06555002 0.034881406 -0.03142133 0.014413244 -0.042206798 0.036436412 0.051238086 0.012009384 0.022516787 0.0051409667 0.07963735 0.020862626 -0.0338364 0.0007453863 0.00096223375 0.0074667963 0.07385748 -0.03077596 -0.028228542 0.016261837 -0.029578341 0.027665945 0.044476584 0.029108865 0.01809146 0.049930967 -0.004685285 0.04733397 0.010401782 0.01465682 -0.019207168 -0.032392617 0.0479802 -0.036052294 0.047437005 0.035700943 -0.04664592 -0.030982893 0.006836947 -0.025434097 -0.00238446 0.0028267773 -0.0016601981 -0.008597593 0.027496088 -0.011962393 -0.028380292 -0.016929192 -0.030862615 0.021317445 -0.04862471 -0.05600528 0.012797882 -0.02359887 0.020235794 0.0072266688 0.045655232 -0.037371486 -0.0016351938 0.049087718 -0.003103549 -0.0035329326 -0.060273256 0.03638468 0.021748552 0.015094396 0.030343559 0.03694469 0.040304746 0.02704084 0.0020507823 0.020493165 0.0775025 -0.009154154 0.02023838 -0.035425033 -0.025797091 0.0015739765 0.015353923 -0.021898579 0.04860574 0.04227319 -0.00085187005 0.0007009821 0.024877537 -0.011055342 -0.025039634 -0.0020533688 -0.0134398015 -0.021180782 0.040424597 0.003617861 0.024099385 0.015234075 0.0193822 -0.062416725 -0.00086221664 0.025053428 0.004258919 -0.043744992 0.01200378 -0.016954629 -0.049499426 0.002200377 -0.0071576913 -0.036251467 0.022329256 -0.03283838 0.0059040287 0.003223828 0.023205267 -0.01643083 0.02104714 -0.009691746 0.01579667 -0.03458782 -0.018701049 -0.041688174 0.019121379 0.04207617 0.03549789 0.013662685 -0.013755804 0.006861089 0.013003521 -0.038607474 0.016334694 -0.012862548 -0.023748895 0.052031327 -0.012380138 0.005062505 -0.017073182 -0.02552032 0.0133389225 -0.0034630932 0.044558924 0.0153327985 -0.00902396 -0.031521346 0.028762685 0.028862271 0.0018658368 -0.038947187 -0.011227354 0.034195945 -0.0446736 -0.0005337121 0.01986504 -0.04224689 0.022707768 0.02770647 0.03903039 -0.0021266574 -0.011468775 0.020233206 -0.03938433 -0.025115939 -0.032706466 -0.008245378 0.028944181 0.030080153 -0.042086087 0.047523227 -0.005452227 -0.02681623 -0.023413492 0.020196993 0.020187078 0.031476513 0.031032901 -0.041870102 0.03611351 -0.0075362045 0.021798993 0.04252237 -0.0039442102 0.04585182 0.017283564 -0.061860595 0.0076263063 0.02403429 -0.0071055274 0.07675021 0.038241893 -0.057954755 -0.028851924 -0.016870562 -0.016683461 0.0416054 0.056923974 0.024805972 -0.0032966854 0.009457654 -0.009987918 0.03872301 -0.07205027 -0.09328149 -0.0039192056 -0.03687744 -0.02505386 -0.02749264 -0.0012105522 -0.026324335 -0.012790552 -0.01941755 0.030263804 0.0019486096 -0.010215112 0.019678371 0.032647833 0.0035031862 0.012629318 0.02857386 -0.018187597 -0.030952284 0.02063069 -0.0005281077 -0.015787186 -0.040766034 -0.011803315 -0.001484306 -0.044446405 -0.024775364 -0.040765602 0.017444799 0.057643063 -0.018832967 0.002089582 0.006849018 0.0028345373 -0.011242874 0.03209429 0.016600689 -0.05522196 -0.004656401 -0.06250252 0.017022312 -0.0020641466 0.03333502 -0.10064913 -0.017960835 0.012735371 0.0033846314 -0.03249091 0.005121567 0.023822615 0.0073810057 -0.03969904 0.02465293 -0.023361329 0.043801036 -0.022607751 -0.024610681 -0.06791465 -0.018627329 -0.031357527 0.02773794 0.02701066 0.014547319 0.036704563 -0.021954192 0.0015511278 -0.073724695 0.018385045 0.0120184375 0.017806929 0.00028841148 -0.043037545 -0.06863675 0.033702753 0.020794941 0.0073891967 0.04496417 0.008043188 -0.037156366 -0.0075405156 -0.044001933 0.015527229 -0.04292287 -0.030875547 -0.016765803 -0.05061729 0.060943197 -0.05418342 -0.03484864 0.08786936 -0.049312327 0.017352972 0.021878317 0.015879875 0.021142846 -0.003502324 0.007020168 0.011254514 0.019943072 -0.038651016 -0.0037459002 -0.01051387 -0.013241492 -0.035628516 -7.932393e-05 -0.027841406 -0.09204551 -0.04232751 -0.043532457 -0.040122822 -0.06778143 -0.006355399 0.02486288 -0.014167944 -0.030471167 -0.030532816 0.0047335695 0.00602905 -0.052186955 -0.0036450208 -0.012537061 0.028673876 -0.0035825102 -0.013449717 0.03925888 -0.025712594 -0.054525718 0.0013097071 -0.00923779 -0.04524137 0.004279612 0.032979786 0.009046377 -0.008030254 -0.036312684 -0.05007237 -0.032694824 0.0073443614 -0.023970917 -0.004474473 0.010697522 0.02342039 -0.024593867 -0.051864054 0.006904631 0.012152513 0.03099712 -0.034982715 -0.026101453 0.011557152 -0.066404045 0.016202776 0.010175019 -0.047950454 0.013768306 -0.029999103 0.0119029 -0.030395292 0.006785214 0.020845382 -0.017484892 0.023561362 0.017044298 -0.025916507 -0.02425631 -0.0004513704 -0.0077233054 0.04266722 -0.033543244 -0.0066761435 -0.0035958744 0.042074878 -0.0127724465 -0.053820424 0.019778818 -0.00944817 0.042792674 -0.0138394395 0.036410976 -0.0018054816 0.028256133 -0.04386527 0.0033324673 0.037053328 -0.030112917 -0.0035208617 -0.05860702 0.026121285 -0.029017901 0.025894953 -0.013941181 0.043241028 0.06982187 0.004645192 -0.023671728 -0.025667327 0.033963144 0.026943408 -0.0018335037 0.04129371 0.079574406 -0.019334346 -0.025051273 0.041618336 -0.019015757 -0.0073969564 0.038533755 0.006223911 -0.023041015 0.060409054 -0.008613976 -0.022357278 0.035000823 -0.0014730971 0.012089571 -0.014899965 -0.027402107 0.032951765 0.0003375578 0.017057233 0.04709772 0.0039998232 -0.016817536 0.035749227 0.00967407 -0.00975555 -0.011962393 -0.028572135 0.029766304 0.032022294 0.03502798 -0.023429444 -0.015696222 -0.032379683 -0.0068033203 0.016338574 0.0024611973 0.0008902387 0.016786065 0.039160155 -0.019062316 -0.031115243 0.0018218638 -0.003466111 -0.029561097 -0.024264932 0.005906184 -0.009485676 -0.03288667 0.01136186 0.011509299 -5.0008566e-05 -0.0046344143 -0.029430041 0.014017487 -0.012378844 -0.014868926 -0.0029392964 -0.002610361 -0.013696742 -0.0028996347 -0.012152513 -0.036398906 0.033314757 -0.024901249 -0.048370354 0.061484236 -0.050046936 0.02634158 -0.014591724 0.047791377 0.0119360965 -0.0034600755 -0.02075528 0.010924716 -0.025615163 0.016013518 0.10303058 -0.01783409 -0.0031233798 -0.011030769 -0.07776289 0.06546768 -0.020471178 -0.023450568 -0.019433932 -0.013601468 -0.03085011 -0.012908245 -0.0038584194 0.0038467795 -0.006611477 -0.0032815966 -0.041600227 -0.03844969 -0.046559267 0.05140708 -0.010748824 0.019682681 -0.030012038 0.012272792 -0.028821748 -0.021416169 -0.032796998 0.0037174472 -0.02118725 0.01581909 -0.04356048 -0.02770259 -0.022901768 0.019964626 -0.018314775 -0.0078224605 0.04720593 0.024359776 0.032474957 -0.022537911 -0.036016513 0.025794074 -0.09180797 -0.002912568 -0.024206301 -0.012228819 -0.0152155375 -0.041933045 0.037982367 0.021356244 -0.02707274 -0.02075571 0.028396674 -0.0029556786 0.046306208 0.005712185 -0.0112295095 0.028960563 -0.0072654686 -0.00928866 -0.002037849 -0.0006013961 -0.016658025 0.02661749 0.015892807 0.017105516 0.007879798 -0.048536763 -0.033757076 0.0034652487 0.061642453 -0.027929783 0.066725224 -0.026181208 -0.03896745 -0.029195517 0.008668726 -0.011061808 -0.050264213 -0.015558699 -0.013348838 -0.020143537 0.031272598 -0.00063847145 -0.019046366 0.028812693 -0.015852284 0.026327355 -0.00774831 -0.045327593 -0.017206395 -0.028128956 -0.052677557 -0.018598875 0.02722018 -0.027070154 -0.061812744 -0.011930492 -0.012595692 0.04664161 -0.04962057 0.017440056 0.07200328 0.006918426 0.00794662 0.088862635 0.015619917 -0.026760187 -0.039659377 0.025017217 0.058385864 0.0074094585 -0.00461717 0.027343908 0.02021855 0.033881236 0.03072854 0.0031772684 -0.016073873 0.018415224 -0.013354442 -0.009732271 0.009479641 -0.008979555 -0.015172858 -0.012141304 -0.019364523 -0.040179726 0.012210712 -0.012344787 0.023263898 0.047292583 -0.06010426 -0.007903078 0.019676214 -0.0040386226 -0.03464947 -0.07318064 0.0071257893 -0.03925241 -0.035157315 -0.04956366 -0.012264601 0.043144457 0.0009803403 -0.030152578 -0.0131328525 -0.0029229145 -0.03032028 -0.014918072 0.06872384 0.0045861304 -0.018761404 -0.06117341 -0.016897291 -0.04669248 -0.010641478 0.019628793 0.07433169 -0.03654333 0.011283398 0.024590418 0.011956358 0.011019128 0.016470494 -0.022775453 -0.05589966 0.0007738394 0.0012588362 -0.03853117 -0.04860315 -0.0015338834 0.0053866985 0.05323886 -0.017377114 -0.015146129 -0.0047667646 0.03790951 0.0104591185 0.015078445 -0.028882964 0.0060381033 0.023582488 -0.0012299521 -0.0146469055 0.026807178 0.006296337 -0.019535674 0.0046309656 0.053776022 0.021220876 0.0024219665 -0.011257532 0.009170967 5.087078e-05 0.0018270371 -0.007588369 0.0026500227 0.025278898 -0.0036325187 0.035542727 -0.03278708 -0.0060273255 -0.009833581 -0.03023837 0.042836647 -0.036965813 -0.020786319 0.0217589 -0.036001857 -0.026566189 -0.060202554 -0.013899795 0.067620635 -0.013969634 0.078123726 0.004763747 -0.058063824 -0.06666185 0.0011273483 0.033271216 0.0028039285 0.056640305 -0.028369514 -0.027291313 -0.0080901785 -0.039117046 0.0413213 0.04362342 0.055975534 -0.034247246 0.008467399 -0.02446626 -0.009967225 0.0026362273 -0.044823196 -0.032053765 -0.054298524 0.0014023953 0.008187609 0.013372118 -0.00884893 0.0019180009 -0.03434252 -0.030569028 0.016023003 0.025481088 0.0472956 0.01607991 -0.037589196 0.072605535 0.014025247 -0.023273382 -0.04722102 0.007381437 0.012419368 -0.036219135 0.021289423 0.012084829 0.023163019 -0.030047819 -0.036526944 -0.012900054 0.009993522 0.03894072 -0.012453857 0.030564718 0.045576774 -0.009183469 -0.013618281 0.021088958 -0.0240774 -0.0032863386 -0.019743899 -0.050836723 0.02564146 -0.018595858 0.049571853 -0.08818838 0.010081037 0.000875581 -0.020769937 -0.014577497 0.06463003 -0.036728706 -0.014961614 0.0030397447 -0.0051362244 -0.010838926 0.05157435 -0.008978693 -0.0006022583 -0.0004910324 -0.034332175 -0.01956542 0.012385311 0.032081787 0.013531628 -0.0032527123 -0.00034488665 -0.02333115 0.009527494 -0.013414366 0.0043347944 -0.004345572 -0.004583975 0.04017326 -0.035713013 0.06122902 0.009909024 -0.015654836 0.06370013 -0.05019653 0.012388329 0.013344958 -0.0011070862 0.0018813567 -0.013661822 0.019714152 0.021384265 0.0014838749 -0.0027133957 0.01701326 -0.010126734 0.035735 -0.011473517 0.009756412 -0.0065593133 0.006948604 -0.03759394 0.0019257609 0.04794873 -0.020999717 -0.021485146 -0.05018877 -0.015406949 0.039209303 0.039127823 -0.055371985 -0.0009596471 0.0011006196 -0.030374167 -0.034301996 -0.042718094 -0.03182916 -0.06419979 -0.018601462 0.035744052 -0.03442314 0.0023965312 0.01730124 -0.0030656112 -0.0124573065 -0.015825124 0.003996374 -0.027125336 -0.006235982 0.032781906 -0.044137303 0.065482765 0.026312266 -0.01872131 -0.014674065 -0.03685847 -0.038415633 0.02249825 0.021833481 -0.035066783 -0.0128547875 -0.02981071 -0.057554685 -0.03570008 0.03211757 -0.038933393 -0.046118245 -0.025841925 -0.010975587 0.013959288 -0.0149435075 -0.004008445 -0.03522586 -0.00018365214 -0.020711306 -0.0019218809 0.015632419 -0.031999446 0.030007295 0.012146045 -0.030871667 0.0065037003 0.021693802 -0.009790039 0.047392167 -0.014140784 0.01611483 0.014258908 0.013343665 0.012537492 -0.006980075 0.01972881 0.012572843 0.025019802 0.023564382 -0.0354897 -0.023846326 -0.042797416 0.014443853 -0.025923405 -0.027253807 0.03010257 0.0015817364 -0.007953086 -0.017450834 -0.017549127 -0.022743981 0.017142592 -0.07115443 0.011263136 0.009123114 -0.081465244 -0.034857262 -0.029960304 0.007454725 -0.031151887 0.08831297 -0.057964668 -0.018422551 0.005372472 0.0469796 -0.0055186176 0.01156793 0.022061538 0.03867861 -0.022111114 -0.015350905 0.0037377093 -0.024417976 -0.03887304 0.009334789 0.09171312 -0.005200891 0.013409194 0.043827333 -0.022841843 0.02931321 0.0038260864 -0.052897852 -0.006227791 0.02188737 0.0575133 -0.004934466 -0.017750023 0.03172526 -0.008932133 0.060813863 0.04810048 -0.052136946 -0.022784937 0.04282328 0.05131655 0.0075560356 0.013325989 -0.012202521 0.021066539 0.0063622966 0.030338816 -0.07257364 0.006464038 -0.047537882 0.009439116 0.031392876 0.012015851 -0.010759601 -0.0019667163 -0.006340741 -0.022908233 -0.010143547 -0.05282715 0.051089354 -0.04668903 -0.019920653 -0.03669292 0.04508488 0.010345306 0.023269935 -0.03936062 0.003088891 0.001977494 0.007052932 0.05713263 -0.033923052 -0.029069634 -0.0029591275 -0.0543675 0.030716468 -0.0150486985 -0.07765899 0.031292427 0.04001289 -0.0047934935 -0.019611979 -0.005440587 0.014452044 0.004787458 -0.019475318 0.024520148 0.071488105 -0.03365447 -0.00011036373 -0.032267164 0.02034745 -0.022465916 0.056784727 0.03880363 0.03540046 0.0147684775 -0.07614451
hà_nội 0.03806966666666666 -0.0006308333333333336 -0.051610333333333334 0.0320145 0.019662166666666668 0.02743033333333333 0.017123166666666665 -0.01183 -0.031086500000000003 -0.026711666666666672 0.04209433333333334 -0.009205166666666667 -0.0081695 -0.012419333333333333 0.016702833333333333 -0.0092455 0.015280666666666665 -0.02959116666666667 -0.0051495 -0.037536 -0.020232333333333335 0.0064996666666666675 -0.00038299999999999993 0.016399166666666666 -0.004031666666666668 0.02554016666666667 0.004433833333333333 0.0012733333333333331 0.0055565 -0.015821833333333334 0.018062833333333334 -0.02881766666666667 -0.0006488333333333334 -0.024643 0.0239115 0.009652666666666665 -0.04004866666666667 0.031655499999999996 0.0020266666666666666 0.0314545 -0.016555 0.011230166666666666 -0.013026833333333335 0.0003226666666666668 -0.027044333333333333 -0.034407 0.039652 -0.0058085 0.0069165 0.029193833333333332 0.0095645 0.05322033333333334 0.03289583333333333 -0.0333645 0.054733000000000004 0.007356833333333333 -0.010812166666666666 0.03342833333333333 -0.014430499999999999 0.019609666666666668 -0.019463333333333332 -0.03300433333333333 -0.011020999999999998 -0.007117166666666667 0.013496166666666665 0.009390666666666667 0.0399865 -0.016841 0.028038499999999997 0.009026500000000002 -0.03734083333333333 -0.012780499999999998 0.02963666666666667 0.01310716666666667 -0.041399500000000006 0.018644833333333336 -0.011236000000000001 0.030222833333333334 -0.014920500000000001 -0.014925166666666668 0.015725833333333335 -0.0017855 -0.0014845 0.03185983333333333 -0.027765666666666664 -0.054007 -0.013385833333333333 -0.013685833333333333 -0.006777166666666665 -0.019546833333333336 -0.0010626666666666666 0.03483633333333333 -0.009448833333333333 -0.015097666666666669 -0.0009568333333333335 -0.011473166666666666 -0.0043525 -0.02437716666666666 -0.0033181666666666667 -0.0095425 -0.014108333333333334 0.009508 -0.0034043333333333334 -0.012438166666666667 0.018590333333333334 -0.007431333333333334 -0.0169365 0.0009001666666666666 0.04749116666666667 0.004678666666666667 0.026837000000000003 0.0208445 0.013685833333333333 -0.0091875 0.009862833333333333 -0.00041566666666666634 -0.017512666666666666 -0.0018515000000000005 -0.006647333333333334 -0.041799833333333335 0.007715 -0.006585833333333333 0.04467616666666666 0.024428166666666667 0.027953666666666665 0.014330833333333334 -0.012004333333333334 -0.013201333333333334 -0.010698333333333332 -0.005356833333333334 -0.011690333333333336 -0.008189666666666666 -0.024970999999999997 0.021584000000000002 -0.014264833333333336 0.020659166666666666 -0.023566666666666666 0.0161775 0.007670333333333334 0.043049 -0.010425666666666666 -0.0018168333333333333 0.030788666666666662 0.02442683333333333 -0.038671500000000004 -0.03095366666666667 0.040744166666666665 0.00040400000000000006 -0.006834833333333334 -0.037870666666666664 0.004013333333333333 0.006317666666666666 0.025773666666666667 0.027472333333333335 -0.005458166666666667 0.010036499999999999 0.005514666666666667 -0.0161645 -0.0007916666666666662 -0.029407833333333338 -0.006517166666666667 0.012812666666666667 0.016889166666666667 0.004668666666666667 -0.016295499999999997 -0.004509833333333334 0.021378166666666667 -0.0266115 0.023234666666666667 0.02598333333333333 -0.034936 -0.027029333333333332 -0.012105666666666667 0.021260166666666667 -0.027072833333333338 -0.018989166666666665 0.002310666666666666 0.006269333333333334 -0.01642633333333333 -0.02534966666666667 0.038177666666666665 -0.001084 -0.0021551666666666668 -0.010775666666666668 -0.006970666666666667 -0.004978166666666666 0.0015826666666666665 0.0087535 -0.06519266666666666 -0.017117333333333335 0.009076666666666667 0.02313833333333333 -0.03141766666666667 -0.025004666666666665 -0.018741 0.03302016666666666 0.000624166666666667 0.004927166666666667 0.008376999999999999 -0.0010623333333333333 -0.047593833333333335 -0.03268666666666667 0.013260666666666665 0.029077000000000002 0.027541499999999997 -0.0005896666666666668 0.012334166666666667 -0.009179666666666668 -0.008284999999999999 0.028058 -0.036138833333333335 0.004541666666666667 0.003402 0.0151605 0.008819166666666666 0.048056833333333326 0.012770333333333333 -0.023839333333333334 0.007907666666666667 0.015090333333333336 0.018601666666666666 0.013606 0.0011858333333333334 -0.011389000000000002 -0.015551500000000001 -0.010765499999999999 0.0147715 0.0094415 -0.005035 -0.014618500000000001 0.0015478333333333336 -0.010213833333333333 -0.016016166666666665 -0.037012 -0.036855 0.009446833333333333 -0.010948666666666667 -0.04583416666666667 0.02909716666666667 0.020170166666666666 -0.0010745000000000002 0.036534833333333336 -0.013304000000000002 0.011564666666666668 0.0027696666666666664 -0.013245833333333333 0.0366205 -0.00026783333333333346 0.03302066666666667 0.05719250000000001 0.008892166666666666 0.010886666666666668 0.009396 -0.04855966666666667 -0.0295455 -0.016317166666666667 -0.007827333333333334 0.02424916666666667 -0.015412 -0.031428000000000005 0.007667333333333334 0.0010611666666666669 0.014718666666666666 -0.028780499999999997 -0.029685 -0.028895166666666663 -0.01763416666666667 -0.008120333333333334 -0.0002966666666666666 -0.0024298333333333338 0.018052 -0.008666833333333334 0.007538833333333335 0.0004266666666666667 0.020361 -0.003049 0.008691333333333334 0.028030666666666666 0.036206833333333334 -0.04691816666666667 0.0006166666666666667 -0.007904 0.005151500000000001 0.018474833333333333 -0.03125216666666667 0.0029373333333333335 -0.001661 -0.004995833333333334 -0.035664 -0.008547 0.014048833333333335 -0.03899866666666667 0.018516333333333333 -0.05972266666666667 -0.008669666666666666 0.014016166666666668 0.014346166666666667 0.003952499999999999 0.043106 -0.009016833333333333 0.0 0.0 0.0 0.0 0.0 0.0 0.0 0.0 0.0 0.0 0.0 0.0 0.0 0.0 0.0 0.0 0.0 0.0 0.0 0.0 0.0 0.0 0.0 0.0 0.0 0.0 0.0 0.0 0.0 0.0 0.0 0.0 0.0 0.0 0.0 0.0 0.0 0.0 0.0 0.0 0.0 0.0 0.0 0.0 0.0 0.0 0.0 0.0 0.0 0.0 0.0 0.0 0.0 0.0 0.0 0.0 0.0 0.0 0.0 0.0 0.0 0.0 0.0 0.0 0.0 0.0 0.0 0.0 0.0 0.0 0.0 0.0 0.0 0.0 0.0 0.0 0.0 0.0 0.0 0.0 0.0 0.0 0.0 0.0 0.0 0.0 0.0 0.0 0.0 0.0 0.0 0.0 0.0 0.0 0.0 0.0 0.0 0.0 0.0 0.0 0.0 0.0 0.0 0.0 0.0 0.0 0.0 0.0 0.0 0.0 0.0 0.0 0.0 0.0 0.0 0.0 0.0 0.0 0.0 0.0 0.0 0.0 0.0 0.0 0.0 0.0 0.0 0.0 0.0 0.0 0.0 0.0 0.0 0.0 0.0 0.0 0.0 0.0 0.0 0.0 0.0 0.0 0.0 0.0 0.0 0.0 0.0 0.0 0.0 0.0 0.0 0.0 0.0 0.0 0.0 0.0 0.0 0.0 0.0 0.0 0.0 0.0 0.0 0.0 0.0 0.0 0.0 0.0 0.0 0.0 0.0 0.0 0.0 0.0 0.0 0.0 0.0 0.0 0.0 0.0 0.0 0.0 0.0 0.0 0.0 0.0 0.0 0.0 0.0 0.0 0.0 0.0 0.0 0.0 0.0 0.0 0.0 0.0 0.0 0.0 0.0 0.0 0.0 0.0 0.0 0.0 0.0 0.0 0.0 0.0 0.0 0.0 0.0 0.0 0.0 0.0 0.0 0.0 0.0 0.0 0.0 0.0 0.0 0.0 0.0 0.0 0.0 0.0 0.0 0.0 0.0 0.0 0.0 0.0 0.0 0.0 0.0 0.0 0.0 0.0 0.0 0.0 0.0 0.0 0.0 0.0 0.0 0.0 0.0 0.0 0.0 0.0 0.0 0.0 0.0 0.0 0.0 0.0 0.0 0.0 0.0 0.0 0.0 0.0 0.0 0.0 0.0 0.0 0.0 0.0 0.0 0.0 0.0 0.0 0.0 0.0 0.0 0.0 0.0 0.0 0.0 0.0 0.0 0.0 0.0 0.0 0.0 0.0 0.0 0.0 0.0 0.0 0.0 0.0 0.0 0.0 0.0 0.0 0.0 0.0 0.0 0.0 0.0 0.0 0.0 0.0 0.0 0.0 0.0 0.0 0.0 0.0 0.0 0.0 0.0 0.0 0.0 0.0 0.0 0.0 0.0 0.0 0.0 0.0 0.0 0.0 0.0 0.0 0.0 0.0 0.0 0.0 0.0 0.0 0.0 0.0 0.0 0.0 0.0 0.0 0.0 0.0 0.0 0.0 0.0 0.0 0.0 0.0 0.0 0.0 0.0 0.0 0.0 0.0 0.0 0.0 0.0 0.0 0.0 0.0 0.0 0.0 0.0 0.0 0.0 0.0 0.0 0.0 0.0 0.0 0.0 0.0 0.0 0.0 0.0 0.0 0.0 0.0 0.0 0.0 0.0 0.0 0.0 0.0 0.0 0.0 0.0 0.0 0.0 0.0 0.0 0.0 0.0 0.0 0.0 0.0 0.0 0.0 0.0 0.0 0.0 0.0 0.0 0.0 0.0 0.0 0.0 0.0 0.0 0.0 0.0 0.0 0.0 0.0 0.0 0.0 0.0 0.0 0.0 0.0 0.0 0.0 0.0 0.0 0.0 0.0 0.0 0.0 0.0 0.0 0.0 0.0 0.0 0.0 0.0 0.0 0.0 0.0 0.0 0.0 0.0 0.0 0.0 0.0 0.0 0.0 0.0 0.0 0.0 0.0 0.0 0.0 0.0 0.0 0.0 0.0 0.0 0.0 0.0 0.0 0.0 0.0 0.0 0.0 0.0 0.0 0.0 0.0 0.0 0.0 0.0 0.0 0.0 0.0 0.0 0.0 0.0 0.0 0.0 0.0 0.0 0.0 0.0 0.0 0.0 0.0 0.0 0.0 0.0 0.0 0.0 0.0 0.0 0.0 0.0 0.0 0.0 0.0 0.0 0.0 0.0 0.0 0.0 0.0 0.0 0.0 0.0 0.0 0.0 0.0 0.0 0.0 0.0 0.0 0.0 0.0 0.0 0.0 0.0 0.0 0.0 0.0 0.0 0.0 0.0 0.0 0.0 0.0 0.0 0.0 0.0 0.0 0.0 0.0 0.0 0.0 0.0 0.0 0.0 0.0 0.0 0.0 0.0 0.0 0.0 0.0 0.0 0.0 0.0 0.0 0.0 0.0 0.0 0.0 0.0 0.0 0.0 0.0 0.0 0.0 0.0 0.0 0.0 0.0 0.0 0.0 0.0 0.0 0.0 0.0 0.0 0.0 0.0 0.0 0.0 0.0 0.0 0.0 0.0 0.0 0.0 0.0 0.0 0.0 0.0 0.0 0.0 0.0 0.0 0.0 0.0 0.0 0.0 0.0 0.0 0.0 0.0 0.0 0.0 0.0 0.0 0.0 0.0 0.0 0.0 0.0 0.0 0.0 0.0 0.0 0.0 0.0 0.0 0.0 0.0 0.0 0.0 0.0 0.0 0.0 0.0 0.0 0.0 0.0 0.0 0.0 0.0 0.0 0.0 0.0 0.0 0.0 0.0 0.0 0.0 0.0 0.0 0.0 0.0 0.0 0.0 0.0 0.0 0.0 0.0 0.0 0.0 0.0 0.0 0.0 0.0 0.0 0.0 0.0 0.0 0.0 0.0 0.0 0.0 0.0 0.0 0.0 0.0 0.0 0.0 0.0 0.0 0.0 0.0 0.0 0.0 0.0 0.0 0.0 0.0 0.0 0.0 0.0 0.0 0.0 0.0 0.0 0.0 0.0 0.0 0.0 0.0 0.0 0.0 0.0 0.0 0.0 0.0 0.0 0.0 0.0 0.0 0.0 0.0 0.0 0.0 0.0 0.0 0.0 0.0 0.0 0.0 0.0 0.0 0.0 0.0 0.0 0.0 0.0 0.0 0.0 0.0 0.0 0.0 0.0 0.0 0.0 0.0 0.0
ghét -0.02798257 -0.056457493 0.0003145713 0.0010556332 0.0039208573 -0.11351603 -0.019083379 0.027432185 0.0089388 -0.022321207 -0.027449226 -0.03719495 -0.030086007 0.033363905 -0.017053174 -0.008501716 -0.038712077 0.01220334 0.016842691 0.022955878 -0.018021759 -0.015877793 0.035488527 -0.012584235 0.0047650877 -0.013805674 0.0320112 -0.018556945 -0.007627088 0.012361317 0.04602828 0.031403705 0.02113385 0.028808838 0.029404359 -0.018733805 0.03127244 -0.04714701 -0.0065037506 0.003795121 -0.037647694 0.013807056 -0.013358918 0.01918102 0.025571931 0.00031042617 0.014808802 0.03480642 -0.04687205 -0.005770979 -0.059523065 -0.04216914 0.014929933 0.012044443 0.03344036 -0.025166627 -0.02272513 -0.0126583865 -0.028477225 0.030960634 0.05312755 0.042713534 -0.0121863 -0.06469622 0.0015604212 0.038728196 -0.011874491 0.00041589738 -0.015071789 0.020590374 -0.003087681 -0.004922143 -0.03857022 0.026846796 -0.01652766 -0.01601228 -0.063534655 0.003463048 -0.045645542 -0.012053194 0.009794544 0.006284057 0.022754146 -0.017924117 0.03529002 -0.005800456 -0.016568191 0.035471488 -0.0058046007 0.007563529 -0.023226233 -0.05777473 0.08308506 0.003376921 0.04555573 -0.016449824 0.020938568 0.028345041 -0.046088614 0.03957657 0.019320574 0.035670914 0.0018436735 0.011951868 0.013814885 0.012269664 0.041678626 0.04926887 -0.008928207 -0.02348047 -0.009937322 -0.021579225 -0.064922825 0.050287656 0.030706398 -0.039487682 0.041611843 -0.0008769309 0.026200613 -0.007558002 0.016813677 0.031903427 -0.00055176637 -0.0030503746 0.003716363 -0.004769233 0.001628586 0.00642315 -0.026129225 0.010664566 0.010516262 -0.028386032 -0.044875003 0.009344565 -0.04991229 -0.05745233 0.012077604 0.02241839 0.040292762 0.0035735855 -0.03602095 -0.016138475 -0.01449377 -0.013999576 0.006110882 0.023685886 -0.0047425195 0.03806497 -0.005623596 -0.0048806914 0.02883371 0.016637737 -0.009901397 0.0019288795 -0.020534184 0.039885618 0.018295338 -0.022746777 0.00927686 0.028677113 -0.035704996 0.036177546 0.03951716 0.024488203 -0.04770799 -0.0028532494 -0.014607992 -0.055817757 0.023849389 -0.0131631745 0.005159338 0.025243543 0.009415032 0.039624933 0.034752533 -0.048572943 -0.026485708 0.015113701 0.0229918 -0.014491007 0.016634513 0.033275936 -0.060664367 0.041009877 0.0074995095 -0.0007350744 0.0030862994 0.009936862 0.053462848 0.026036188 0.026755603 -0.069688834 0.01616611 0.011780535 -0.008492504 0.009552283 -0.025715169 0.0016939873 -0.008935115 0.03044203 0.029942308 0.042173743 -0.067969516 0.03791897 0.0017400446 0.0645341 -0.020307582 -0.005087489 0.034817934 0.02749206 0.00707394 0.037398983 -0.009808822 -0.056185756 0.07395466 0.02149586 0.031661168 0.0096946 -0.004508088 -0.055904806 -0.016156899 0.01869834 0.0052270424 0.0598252 -0.010268474 0.016331457 0.01427638 -0.031655177 0.024724476 -0.052754484 -0.058302086 -0.0077440734 0.0037159026 0.012929204 -0.03568243 -0.006341168 -0.008211095 -0.03478339 -0.010673778 0.047283802 0.035220474 -0.038049772 0.022857314 0.040846832 0.04634423 0.040500022 -0.0065083564 0.0027311975 -0.049497776 0.021420326 0.055551544 -0.03358544 -0.002947667 -0.022342393 -0.00026667173 -0.0684766 -0.029897632 -0.011199292 -0.009340419 0.047027722 -0.015822984 0.010033581 0.02160824 -0.017358534 0.020226521 -0.0054780548 -0.041806206 -0.027134655 -0.038796823 -0.010219192 0.0045044036 0.017619679 0.0055816835 0.0050704475 -0.03710053 -0.016273424 0.035325024 0.06499237 -0.0049143136 -0.064046815 -5.2044743e-05 -0.0010455006 0.053361982 -0.039261542 0.04436653 -0.033236787 0.036650553 -0.046815857 -0.055213947 -0.010589032 0.051386584 0.06189686 0.011545642 0.038700104 0.011216333 -0.006630408 -0.01631902 0.012662532 -0.018149337 0.01778134 -0.012236502 -0.013852192 -0.016442915 0.04866644 -0.01549828 -0.0072683017 0.059022885 -0.004535262 -0.032775752 -0.018129993 0.03209825 0.011869425 0.0165751 -0.036227286 0.006055613 -0.0047038314 0.039797187 -0.021570934 -0.031836186 0.00034266626 -0.025728066 0.026032504 0.04405196 -0.0053744256 0.020558594 0.0071835564 0.014909207 0.032510463 0.028958064 -0.014369876 -0.016343892 -0.015322341 0.032142006 -0.024905942 -0.025039509 0.011605057 -0.07428351 -0.035971668 -0.016462259 -0.01779792 -0.0358031 0.0035339762 0.04031349 0.0029877366 0.016702678 -0.051380597 -0.03713093 0.02434036 -0.053744256 0.010647525 -0.020045977 0.0009653609 0.0039167125 -0.00013356615 0.020357324 0.03130376 0.0074723354 -0.049457245 0.00952557 0.006160624 -0.019915175 -0.009023084 -0.013104222 0.03738793 -0.018800126 -0.075986706 0.0037159026 -0.0075713587 -0.05944569 0.0014637008 -0.021239782 0.025332434 -0.004733308 -0.026039412 -0.007983572 -0.008015811 -0.008383349 -0.017039817 -0.02139131 0.025223738 -0.043789435 0.033739273 -0.050365034 -0.014948816 -0.010802738 -0.036581926 -0.010427372 -0.0069132 -0.0104130935 -0.0064834855 0.006972153 -0.0014388299 -0.02195321 -0.008331304 0.008743517 0.007914946 0.014233546 -0.0047369925 -0.00055591157 -0.013574466 -0.019594615 0.023196297 0.028134558 0.009917517 0.033355612 0.0056443214 0.016862497 0.032118056 0.00841697 -0.023840638 -0.0195352 -0.057502072 0.022818165 0.051497582 0.048879225 0.03759473 0.004422882 0.015466961 -0.008245177 0.035799876 -0.057327516 0.07806712 0.022787306 0.019589549 -0.051492516 0.0027952173 0.01299046 0.018118478 0.0003831967 0.016654318 0.011613808 0.05893814 -0.0069491244 -0.006381699 0.03919706 -0.01918793 0.035455365 -0.0045615146 -0.031404167 -0.012478763 -0.035723418 -0.030331492 -0.017889114 0.043708373 -0.047458816 -0.017110746 -0.021062922 0.013549595 -0.021580145 0.07670842 0.030638233 -0.022720063 -0.0047922614 0.048182838 0.0023010224 0.02382774 0.022977984 -0.03377934 0.05682503 0.017615994 0.032503095 -0.032286625 -0.025014177 -0.04192181 -0.022868369 0.020009592 -0.0071282876 -0.05095779 0.020474771 -0.051234595 -0.009237711 -0.02807929 0.005754398 -0.06361802 0.018188026 0.016138475 0.019083379 0.020404764 -0.0062559624 0.006521713 0.0401919 -0.024383193 0.001585292 -0.0031507795 0.08254389 0.032205563 0.04401051 -0.0045550666 0.031779535 -0.0013121723 -0.013568479 -0.014171829 -0.009036441 -0.013526567 0.002614212 -0.012868408 0.026645986 -0.010656277 0.015515781 -0.013311479 0.001831238 -0.0023549094 0.031114005 -0.016960138 -0.022617817 -0.0044749267 0.011313975 0.122985415 0.01999301 -0.01773344 -0.017605402 -0.02496812 0.04439877 -0.019032257 -0.022258108 -0.00089443265 0.011954632 -0.07656518 -0.030879574 -0.001701817 0.0020444833 -0.038034573 -0.006249054 -0.022241067 -0.039056584 0.026265554 -0.029352315 0.042111564 -0.049777802 0.045301035 0.05997581 -0.015729027 -0.032125425 -0.02894839 0.05998548 0.022964628 -0.0017124102 -0.0066713993 -0.003535358 -0.013539002 0.007555699 0.008865108 0.053244997 -0.00041497624 0.005147363 0.05057229 -0.025549363 -0.005654915 0.017734822 -0.07653755 -0.048833627 -0.009864551 -0.032247934 -0.0074691116 -0.037369967 0.010685292 -0.011419445 0.031472333 0.033028148 0.008763322 -0.018414628 0.07072835 -0.0011528141 -0.036557518 0.03222675 -0.0041838447 0.0018155786 -0.040653855 -0.037036512 0.024588607 5.8953337e-05 0.009400754 -0.003542727 0.029078273 -0.03532963 -0.03628532 -0.015612502 0.04342374 0.0014802815 -0.015319116 -0.032183457 0.061598867 0.0006199312 0.038968157 -0.011291406 -0.03504914 0.01898666 -0.010836821 -0.022201918 0.031176643 -0.023658251 0.040804923 -0.035468724 -0.028511308 -0.005585829 -0.011678288 -0.009135004 -0.008957223 -0.03371394 -0.0058930307 -0.01623105 0.0045946757 -0.01716233 -3.2240107e-06 0.03432742 -0.043203585 0.0798067 -0.0012278875 -0.0039434256 0.026709085 -0.037699737 0.03072344 0.09278334 0.017283 -0.023313742 -0.019336695 0.041066527 0.021733977 0.016553452 0.019058509 -0.008324856 -0.0006830297 0.0077173603 0.0056645866 0.0048309495 0.028238649 0.056243327 -0.06242652 0.024621308 0.012826496 0.011207582 -0.037930023 0.029664122 0.036773987 -0.013113894 0.009364369 -0.0062145106 -0.008263139 0.0050078095 0.039828505 -0.04906023 -0.005712026 0.010158857 -0.039620787 -0.03780659 0.02222633 -0.03651883 -0.04440522 -0.015163904 0.023928147 0.04089289 0.007866126 -0.021385323 0.002509662 -0.019733248 -0.027889995 -0.019963995 0.019386437 -0.007454373 0.015476633 -0.008529811 0.0019344063 -0.011866662 -0.054024745 0.028901413 -0.014473965 -0.0128863705 0.012790111 0.031651955 -0.04475203 -0.044201646 0.01210616 -0.028905097 0.0017230033 -0.030440647 0.018634321 -0.06039585 -0.024286471 -0.03678596 -0.012679113 0.06196226 -0.018133217 -0.023748523 0.027182095 0.017107522 -0.025178602 0.025922887 -0.06652055 -0.05000164 0.06693737 -0.018386072 -0.027157683 0.04209959 -0.011725727 -0.052240025 0.03286925 -0.018323435 0.038019374 -0.016120054 -0.015338461 0.03320639 0.032205563 0.0056968266 -0.01502435 0.01837778 -0.046846718 0.033276856 0.035165664 -0.01948684 -0.04938263 -0.001136694 0.025071288 0.036690623 -0.016607339 -0.036236957 0.019733708 -0.046147566 0.014990267 -0.01658385 0.05393079 0.048327 0.023547713 0.041103832 -0.02122182 -0.060099702 -0.036235116 0.026244368 0.055640437 0.021491716 -0.00021923272 0.043452755 -0.03505605 -0.038944207 -0.014456003 -0.036090955 0.017562106 -0.0020983703 -0.015703695 -0.0055070706 -0.046080325 0.0020237574 -0.043973662 -0.030462295 -0.02374714 0.040768996 -0.010995258 -0.03811195 0.023542186 -0.008964592 0.0068639186 -0.014309541 0.043426502 -0.016090116 -0.0130706 0.009995354 0.017019551 0.023672068 0.032210167 6.0335056e-05 0.03186566 -0.01707436 -0.018824538 0.061140597 -0.02810232 0.033514973 0.0129490085 0.042962704 -0.054485317 -0.046165068 0.036219917 -0.022538137 0.017826015 -0.02196887 0.017461242 -0.02308714 -0.016598588 -0.018426603 -0.021523494 -0.06576521 0.021071212 -0.036072996 -0.006024294 0.04178364 0.03714429 -0.027435869 -0.010270316 0.033916593 0.026599469 -0.008667983 0.034081478 0.005220134 -0.053168543 -0.007575504 0.008620083 -0.0054338397 -0.013727837 -0.004306357 -0.014526471 0.032443218 0.010507051 0.0074571366 -0.06480031 0.039910026 0.053035434 0.03692229 0.041761532 -0.016788345 -0.045126475 -0.021320382 0.0051146625 0.017525721 0.007718742 -0.005569248 0.040084586 0.003403634 0.0603719 0.050178964 -0.04461432 0.06495092 -0.044097096 -0.010677002 -0.022752764 0.043733705 0.02308714 0.005204474 0.004747586 0.043744758 0.0012228212 0.011616571 0.000388263 0.005229345 -0.040266052 0.0025782874 -0.01020906 0.03515139 -0.029429229 0.008642651 -0.010429675 -0.0112080425 0.02895438 -0.025302496 -0.02105325 -0.044297908 0.016162425 0.026965626 -0.047681734 -0.011302 0.04736578 -0.049916897 -0.008110229 0.012567654 -0.027702542 -0.007494443 -0.030702254 0.0919649 -0.05311972 0.009633344 -0.023152081 -0.039794423 0.027449226 -0.028716723 0.016136633 0.012707668 -0.00014600162 -0.017252142 -0.0093537755 0.055880856 0.07335591 0.043822594 -0.041167393 0.04113331 0.01586904 -0.035825208 -0.019191613 -0.059875403 0.025663584 -0.004695541 -0.038257953 -0.024443068 -0.022592945 -0.053197555 -0.0024907785 -0.02959918 0.028107386 0.0028799626 -0.0012269664 -0.006728971 -0.083173946 -0.02308806 -0.0068150978 0.014987965 0.04220276 -0.07866079 0.038831364 -0.045272477 -0.021925114 -0.023349207 -0.0075501725 -0.053051095 0.025241701 -0.0069873524 0.002374714 0.025487646 -0.020972189 0.010309004 0.030576978 -0.0033492865 0.023419213 0.02177773 0.00952557 -0.024973648 -0.07300127 -0.021452567 -0.0011915022 -0.009148821 0.023978349 0.020154212 0.013993127 -0.022021374 0.06943644 -0.04896443 -0.045074433 -0.011658022 -0.09394813 -0.0046886327 0.017965568 0.010012856 -0.0053016553 0.016148608 0.0026791529 -0.010676081 -0.018350147 -0.08784185 0.04021723 -0.012686482 -0.004635206 -0.012681415 -0.003662476 0.039595455 0.02861033 0.0004103705 0.030592177 -0.039741457 0.012175706 0.032159965 -0.04527985 0.11225222 -0.004168646 0.033811122 -0.0027136959 -0.032964125 -0.015680205 -0.020327847 -0.050093297 -0.016981784 0.033814806 -0.012247095 0.005111899 -0.029286452 -0.0053274473 -0.0146651035 0.07541744 -0.0074893767 -0.045680545 0.016046362 0.023591928 0.061742105 0.036194585 0.03641474 0.0034087005 0.04986301 0.009679401 0.026962861 -0.05911638 -0.044731304 -0.0011984108 0.037282918 0.010563701 0.021102991 -0.03812577 0.0033147435 -0.017860098 0.023248801 -0.011903048 -0.0032263135 -0.04319852 0.001739584 0.027967371 0.018240532 0.020308964 0.03924266 0.012598052 0.07593282 -0.019241355 -0.023361642 0.026773566 0.02260446 0.018704329 0.048478525 0.0043049753 0.0016815518 0.049933016 -0.021875372 -0.034087464 0.045751013 0.0038407177 -0.016581547 0.027975662 -0.0030319516 0.008759176 -0.0014765969 0.004655011 0.00926811 0.030307082 0.034720752 3.4082397e-05 -0.016879998 0.029031295 -0.02073177 0.074032955 0.011235217 0.007446083 0.03379546 -0.029474827
em 0.00021794699 -0.026860552 -0.03016543 -0.008991945 0.025206156 -0.07428425 -0.047040444 -0.026562996 0.022118356 0.016590072 -0.013755457 0.0061360127 -0.008332013 -0.013248219 0.011256244 -0.040679958 0.029364115 0.029918771 0.019731816 -0.018824356 0.009331264 0.010342694 0.05520758 -0.02027255 0.003323583 0.0054082177 -0.057010323 -0.06837271 0.018746052 0.010699849 0.017172135 0.033785265 0.017145162 0.029777823 -0.014840841 0.017065553 -0.0039043399 -0.028735505 0.032851703 0.051099215 0.0054286635 -0.04367684 -0.049530953 -0.0010866898 0.007394972 -0.048424255 -0.011353689 0.019951938 0.01620116 -0.006015076 -0.05106833 -0.0038125496 0.046348754 -0.033862263 0.032755125 0.003652896 0.010054273 -0.024425723 0.026702639 0.00080435927 -0.016331669 -0.035724167 0.005615289 0.007869148 0.004783088 0.024957323 -0.0077886684 0.0003980469 -0.06910442 -0.003472361 0.0021372726 -0.019897994 0.011943147 0.011328893 -0.029189236 -0.026153203 -0.016107196 0.014577652 -0.0023173725 0.02373969 -0.06390371 0.003471491 0.052178945 0.0152506335 0.016498718 0.0056487857 -0.013891619 -0.03837433 -0.0037381607 0.022933591 -0.07634061 -0.027511783 0.0075768116 -0.006019426 0.038103744 -0.04384998 -0.032851703 0.0142648695 0.00500321 0.020985555 -0.016863702 0.02080676 -0.02390065 -0.030305507 -0.0023808859 0.051937073 -0.07038644 0.021057768 -0.011744341 -0.0477491 0.066408575 -0.005909365 -0.018130926 0.017788129 -0.038204238 -0.03763131 0.008981069 -0.022166645 -0.005503488 0.05522977 0.0077456012 -0.05171086 -0.0013590148 -0.014387111 -0.00900543 -0.048001844 0.043001246 0.008830551 -0.011555975 -0.017612379 -0.003818205 -0.045012362 0.030530414 0.041144565 0.010365315 -0.012693129 0.016247708 -0.014632029 -0.0115655465 -0.015821386 0.0163482 -0.0017161694 -0.0059006647 0.021634175 0.0033744806 -0.01592144 -0.014093906 -0.006887299 -0.023801465 0.024185155 -0.03506728 -0.06799163 0.03506815 -0.028933007 0.0010584132 -0.02252728 0.03855878 -0.019135833 0.0230815 0.04199895 -0.0077199345 -0.05158775 0.042823322 0.034959827 -0.016535694 -0.06339691 0.018877428 -0.0028876888 -0.013012871 -0.0926105 -0.03645196 0.020462656 0.020697568 -0.011343249 -0.01972094 -0.046658058 -0.038905494 0.05237079 0.028608479 0.038867213 0.025886534 -0.043292277 -0.049333017 -0.0006973434 0.019543884 -0.045643147 -0.012629615 -0.01144722 0.022615153 0.0074054124 -0.04521334 0.044876635 -0.0360078 0.0028024241 0.029135728 0.033028323 0.03788493 -0.024286952 -0.045957234 0.028395751 0.023242893 0.021750327 -0.01735528 0.019034907 -0.01862642 -0.031756748 0.008963233 0.006761577 0.010913881 -0.02891343 0.0318729 0.031775452 0.009417833 0.014496737 0.021971319 0.09029704 0.015512084 -0.019982388 -0.0034671407 -0.016024977 0.033669982 -0.02180514 -0.0025740366 0.051946208 0.012083225 -0.013038972 -0.015197996 -0.0052951113 0.007632495 -0.06367967 -0.0014695108 0.0008961493 -0.033418972 -0.022053538 -0.083612904 -0.014611148 0.020976854 -0.0069129653 0.012324228 0.012560446 -0.032068223 0.03347596 0.0483155 -0.017487092 0.03182113 0.041298997 -0.006981264 -0.049547922 -0.009691028 0.002707154 -0.03089453 0.021340968 -0.059567828 -0.01425878 -0.0031756747 -0.013494007 -0.034549166 0.0060611884 -0.051129233 0.0022229722 0.020316053 0.014230068 0.017443154 -0.02236023 0.030051017 0.042445283 0.057312664 -0.028475797 -0.05535288 -0.016332973 0.008074479 -0.023878898 0.09101614 -0.08614996 -0.010790333 0.041138038 0.022152288 -0.0056683617 0.03657333 -0.017595412 -0.02617191 0.032177415 0.037312873 -0.020026326 0.014075634 -0.011880504 -0.06843013 -0.030404257 0.023342514 -0.06925102 0.027600093 -0.023472587 -0.045976374 0.079109974 -0.016397793 0.008771823 -0.05373633 0.025526334 -0.024935137 0.015206262 0.054842595 -0.018328428 -0.03126343 -0.0062791356 -0.017720265 -0.030955868 0.03680955 -0.043758187 -0.04408924 0.040647767 0.01855116 -0.030245474 -0.015827475 0.038660143 -0.0016957233 0.0052420385 0.01509881 0.035568863 -0.009502227 0.018017385 0.016022366 0.024067264 -0.0036694268 0.05111705 0.0026057933 0.015981909 -0.04817281 0.006249989 -0.021113016 0.0026305898 -0.0016896329 0.031844623 0.049931612 -0.04805187 -0.02690275 -0.011044823 -0.05335264 0.03224354 -0.03869712 0.03926004 -0.07798021 -0.0051715644 -0.01336785 0.036482412 0.008722665 -0.027182035 0.0058101797 0.0003349684 -0.05499703 0.0027867632 -0.014009075 0.049814153 0.020592293 0.0075154733 0.054350585 0.0077382056 -0.0026066634 0.01027309 -0.054699037 -0.005163734 0.057190422 -0.0010832095 -0.021598067 -0.0035571908 0.0026606063 0.007561151 -0.031597093 0.039993055 -0.005108921 -0.034192447 -0.006906875 -0.0496632 -0.07316058 0.0029912246 0.005348184 0.013247783 0.0029498972 -0.031841576 0.011837436 -0.0045338194 -0.00082480535 0.07040384 -0.002143363 -0.03703968 -0.009064158 -0.02916096 0.04391523 -0.011442434 -0.017850338 0.039859504 -0.057705488 -0.03965678 -0.009872433 -0.0006760272 0.04473525 -0.013895534 -0.0002601443 0.038784124 0.029491141 0.016413888 0.003037337 -0.032034293 -0.03502073 -0.037932348 0.049441773 0.023837136 0.008599118 0.029492883 0.01663488 0.044958416 -0.0074284687 -0.00472697 -0.009578791 -0.035209965 -0.07026376 -0.019453835 -0.063433014 0.04061862 0.0189131 0.05638258 -0.0030621334 0.019736601 -0.026560387 -0.017401827 0.027827611 0.0059702685 0.03656202 -0.050300077 0.00572187 0.029485486 -0.0073031816 -0.05161559 0.046240434 0.008121462 0.03902034 -0.014760362 -0.018101346 0.04299994 -0.023929797 0.030485172 0.043814305 0.013487917 -0.03562411 -0.03816465 -0.06882165 -0.034155034 -0.020781092 -0.008882319 -0.015170154 0.07092587 0.0031691494 0.05230554 -0.02126397 0.032184374 0.038860686 -0.002510088 0.010511918 0.024203861 -0.027014986 0.008954532 0.034742314 -0.0025296642 -0.0054308386 -0.04075478 -0.0727273 0.018805215 0.07237798 -0.04260755 0.09017698 -0.003107376 0.01055455 -0.0053564496 -0.031085504 0.018960953 -0.056145057 0.013342619 0.06370534 -0.012559576 0.030664837 0.012370775 0.0066319397 0.012658326 -0.026785728 -0.028779877 0.03345769 -0.010069499 -0.052497383 0.0203365 -0.039134316 0.043574173 -0.006514048 -0.07337505 0.010764232 0.07450307 0.013206457 -0.041084096 0.054731667 0.0056983787 -0.013122497 0.018475901 -0.0038269055 0.04208291 -0.022150984 -0.008206726 0.01697507 0.02409989 0.052435175 0.10099037 -0.028767262 0.008310262 0.033730015 -0.036829997 -0.003215262 -0.03413459 -0.0083903065 0.0042462684 -0.028935181 -0.0874198 -0.031116826 -0.023048438 0.006002895 -0.032129996 -0.029254489 -0.024516208 -0.012543045 0.013222117 0.0065009976 0.005234208 -0.029942697 0.06586523 0.014705114 -0.012138473 0.0059724436 0.041683123 0.016795838 -0.0020411322 -0.039745092 -0.017709823 -0.01181786 -0.01236425 -0.0038573572 0.011924876 0.021929557 -0.0019754437 0.010893434 -0.020971633 0.020843301 -0.05351621 0.00015704364 0.013732836 0.021269625 0.0086639365 -0.016274245 -0.024702398 -0.006894694 0.074404754 0.037244137 -0.040616445 -0.011686918 0.0324132 -0.023683138 -0.04661151 0.028800324 -0.002382626 -0.053058565 -0.02006287 0.03903339 -0.054792132 -0.02053922 0.0029851343 0.074945055 -0.025183536 -0.021895625 -0.010486252 0.006130792 -0.0020472226 -0.01880304 0.043069977 -0.0075028576 -0.024378741 -0.047401514 -0.036169194 -0.009291676 -0.0075711566 -0.0045238137 0.016138082 -0.021268755 -0.008511678 -0.015067924 0.014131317 0.0295229 -0.0067607067 0.040600784 -0.0025414098 0.035350915 0.010328773 -0.025540255 0.01717431 -0.025551131 -0.011501597 -0.028082535 -0.0057510165 -0.041721404 4.9157705e-05 0.038784992 -0.043611582 0.044833567 -0.01973312 -0.025843032 0.042698033 -0.009835021 -0.008064909 -0.02308063 -0.011977949 -0.020882454 -0.0336913 0.035694584 0.03099763 -0.023828436 0.030963698 0.0051093563 -0.05489045 0.05392513 -0.0024217782 -0.029011745 0.056193344 0.02052182 0.019061444 -0.015750477 -0.038385205 0.052115865 0.04986636 -0.05725176 -0.018191831 0.018826965 0.011871368 -0.016799754 0.0102134915 -0.021191321 0.031304322 0.010969563 -0.029813495 -0.027165504 0.009690158 0.030465595 -0.013879003 -0.014113916 -0.018072635 0.009243389 -0.037018795 0.0042092917 0.0356302 -0.010614149 -0.0132408235 0.0074954624 -0.0038208151 -0.019486897 0.027282525 -0.010308762 0.011524654 -0.02444878 -0.009381726 -0.031427868 -0.051008295 0.012121942 0.0030473426 0.011982734 0.007840436 0.034046277 -0.030959347 0.049215563 0.054431066 -0.0389503 -0.010423173 -0.025475001 0.0390012 -0.008760512 -0.024531435 -0.0071000257 0.022395901 -0.0116482 -0.033726536 -0.010782068 0.037108846 -0.011101375 -0.028737681 0.0030608284 -0.03801326 -0.005978969 0.034472167 0.024807675 -0.006095555 -0.0027928536 -0.007629885 -0.082666725 0.047013473 -0.016635315 0.00082437036 -0.033879664 0.00048809685 0.017518414 -0.033712614 -0.02035912 -0.011147923 -0.05746579 -0.002778933 0.03627273 0.023536969 -0.018532455 -0.03980991 -0.037107542 0.0062586893 -0.01742532 -0.0010388371 0.023908481 -0.0010514528 0.010059059 -0.0044694357 -0.02409293 -0.0071539683 0.020530084 -0.0020985554 0.028707229 0.047430225 -0.018295802 0.008191501 0.03433731 0.035450537 0.01909581 -0.0037298952 -0.050773818 -0.028605433 0.020671032 -0.014501522 0.028739857 -0.0008852737 -0.031427868 -0.03073618 -0.045034546 0.017054243 -0.025578972 -0.012740546 -0.038048062 -0.02072976 0.0023787108 -0.016367774 -0.07360648 0.038960308 0.008002265 -0.0072274874 -0.007930486 -0.006293056 0.049598817 0.013516193 0.02681183 0.027152019 0.008140168 0.029516809 0.008430329 0.007056088 -0.03885155 0.0064422693 0.012880188 0.03911561 0.0036250544 0.011033077 0.045653585 -0.0300893 -0.042892925 -0.008303301 -0.020072004 0.04294643 0.002236458 -0.02199742 0.0507947 -0.022321077 0.053386137 0.038686678 0.0068598925 -0.01672754 -0.0090745995 -0.028284822 0.03597039 -0.036606394 -0.0086287 -0.050834723 -0.040252328 -0.0073371134 -0.0034832365 -0.01925329 0.030310292 -0.011596868 -0.066222385 0.022857463 0.0067150295 0.017942127 0.029661236 -0.03629666 -0.07802589 -0.013688463 -0.011348034 -0.017533204 -0.023926752 0.026670882 -0.021123458 0.041313354 0.0077369004 0.022237988 -0.015391147 -0.02710025 -0.0050632437 -0.04351414 -0.007835216 0.026378982 -0.036776055 0.034659225 0.0089101605 -0.0044259336 0.044788323 -0.0058589024 -0.04201722 -0.009509188 0.026254565 -0.022398077 0.022886174 -0.020027632 -0.06242985 0.0002888559 0.0066410755 0.015070534 -0.032004274 0.0041692695 -0.0010353569 -0.021065598 0.0073510343 0.07754606 -0.00028581073 0.033816583 -0.0075002476 0.027402593 0.015894905 -0.034331653 -0.036635105 0.053808544 0.016963324 0.014619414 0.0014616804 0.016403882 -0.008641751 0.057331804 -0.056121565 -0.02162939 -0.05675496 -0.029750416 0.00808753 -0.043099124 0.021397958 -0.03901686 0.0073927967 0.031153804 -0.02718769 0.03990344 -0.03998827 0.01744359 -0.0033575147 0.00617386 0.05884525 0.038526155 0.019713545 -0.034543946 -0.013570136 -0.04734148 0.064026825 0.03319276 0.012826245 0.017495792 0.013058548 0.009861993 -0.0034984625 0.050492357 -0.0064457497 -0.011441129 -0.004687818 0.060503997 0.011711279 -0.004741761 -0.030525628 -0.010553245 0.014138713 -0.04158959 0.019481242 0.033080958 0.017845986 0.009928986 0.057146918 -0.001981534 0.015382446 -0.03399364 0.0123211825 0.02881903 0.019028382 0.04502454 0.0027171595 -0.020577502 0.004194066 0.023165025 0.05485391 -0.014124357 0.00020663637 0.024164274 0.015266295 0.029016096 0.008026191 -0.014440619 -0.031875942 -0.012386437 0.00855605 0.040193167 -0.006150368 -0.00042414834 0.06181516 -0.023939801 -0.035377014 -0.10059624 0.043959603 -0.006758967 -0.027387802 -0.028110811 -0.016673163 0.043190047 0.015648682 0.006613669 -0.036715586 0.020216867 -0.02455623 -0.03276513 -0.021573272 0.03497201 0.016891109 -0.042574923 0.012421673 -0.008559096 0.0043528494 -0.058308434 0.0378001 0.036080886 0.08257885 -0.023467366 -0.0071961656 0.0029546826 0.02497951 0.042929903 -0.0021211766 0.006849452 -0.019402502 -0.031406116 0.0444477 -0.009864167 -0.01688937 -0.026994105 0.01573525 0.08441813 0.043414082 0.0010523229 0.004013966 0.015174504 0.03576071 0.009317342 0.016412148 0.007478061 0.023901954 0.008161919 -0.035613235 0.015586037 0.0044646505 -0.059500832 -0.017569311 -0.018876124 0.076757364 0.020816766 0.014567646 0.006979959 -0.060689755 -0.0369083 -0.02955335 -0.013143813 -0.02407205 0.007749081 -0.015373311 -0.004756117 -0.03055956 -0.015482937 0.034850203 -0.01943948 0.017913416 -0.025332313 0.026764847 -0.017939081 0.019188905 -0.00109104 -0.028331803 0.06522531 -0.024301307 -0.019422948 0.007477626 0.037263714 -0.0021868653 -0.034977663 0.0074885017 -7.351904e-05 -0.013552736 -0.0017596718 -0.004322398 -0.014502828 0.032608524 -0.04008789 -0.022513794 -0.023339033 -0.009970749 0.10888214 -0.023901954 0.012954143 0.027490467 -0.034157645
iphone 0.03072166666666667 0.004917 -0.05740916666666667 0.03179333333333333 0.023989333333333335 0.035936666666666665 0.010432499999999999 0.0028074999999999997 -0.027209 -0.029381666666666667 0.04096666666666667 0.009431333333333333 -0.006907666666666667 -0.033794833333333336 0.025783833333333336 -0.007548166666666666 0.006965833333333333 -0.032232833333333336 -0.009158833333333333 -0.043303 -0.019336000000000002 0.001253 -0.0011205 0.016876 0.009200166666666667 0.028635166666666666 -0.0015273333333333335 -0.003199166666666666 -0.010332333333333334 -0.024356166666666665 0.020292833333333336 -0.03230683333333333 -0.0156915 -0.040363 0.0164455 0.0182625 -0.048473499999999996 0.041758333333333335 0.009593000000000003 0.023893499999999998 -0.0246575 0.008865166666666667 -0.005432 0.0018751666666666665 -0.025936999999999998 -0.030059500000000003 0.04392516666666666 -0.0030450000000000004 0.002037 0.027327666666666667 0.008807333333333334 0.06234466666666666 0.03180283333333334 -0.035453000000000005 0.04939416666666666 0.006079333333333333 -0.0068484999999999996 0.033415 -0.01911833333333333 0.024957000000000003 -0.02509566666666667 -0.035279666666666674 -0.014499666666666668 -0.015533333333333335 0.011771166666666666 0.016859 0.038387166666666674 -0.0135345 0.03344516666666667 0.013904666666666668 -0.045387666666666666 -0.0118155 0.027392833333333335 0.012338333333333333 -0.05676016666666667 0.0076528333333333335 -0.028375333333333336 0.0277255 -0.022151166666666666 -0.019960500000000003 0.011910833333333334 0.0002395 -0.004698333333333333 0.031633666666666664 -0.02948133333333333 -0.06369999999999999 -0.003086 -0.005049666666666667 -0.0210645 -0.008575666666666667 -0.006384000000000001 0.03641783333333334 -0.007193833333333333 -0.018957666666666668 0.005415166666666666 -0.013034333333333334 0.003939166666666666 -0.03495633333333333 -6.933333333333336e-05 -0.008446333333333333 -0.015165999999999999 0.001226 -0.0030151666666666664 -0.019868166666666666 0.014449333333333333 -0.0011740000000000001 -0.019388666666666665 0.015488500000000002 0.0378685 0.0019686666666666667 0.040536166666666665 0.024742333333333328 0.0255015 -0.012021833333333334 0.009826166666666667 0.005709 -0.019103666666666668 0.0006108333333333333 -0.011308666666666667 -0.046619333333333325 0.013969833333333334 -0.003277 0.044499500000000004 0.027506500000000003 0.035888333333333335 0.010437166666666666 -0.011149 -0.014328500000000001 -0.0138365 -0.014694666666666667 -0.022031 -0.009652833333333333 -0.0250185 0.02447033333333333 -0.021578 0.01590566666666667 -0.021744 0.007676333333333334 0.0018530000000000003 0.05576916666666667 -0.006080833333333334 -0.007535166666666667 0.024457999999999997 0.024118166666666666 -0.039818 -0.043513500000000004 0.04615266666666667 0.0018706666666666665 -0.001174 -0.045654 0.0030891666666666667 0.015712833333333332 0.02889816666666667 0.034903500000000004 -0.005251666666666666 0.006419 -0.0021845000000000002 -0.022263 0.0129325 -0.02398233333333333 -0.016069333333333335 0.018700166666666667 0.02378116666666667 0.006390166666666666 -0.010794833333333332 -0.009085333333333334 0.025845333333333335 -0.031636333333333336 0.023786166666666667 0.0316015 -0.035048833333333335 -0.025139333333333333 -0.012614 0.03526783333333333 -0.023195833333333332 -0.031631 -0.010654166666666666 0.0039180000000000005 -0.033515833333333335 -0.028063333333333332 0.03851266666666666 -0.011554166666666666 -0.0031753333333333334 -0.009036666666666667 -0.007991666666666666 -0.014837499999999998 -0.00044300000000000003 0.01563016666666667 -0.07151533333333332 -0.003841833333333333 0.008206666666666666 0.03231883333333333 -0.03728616666666667 -0.04564083333333333 -0.007421500000000001 0.037969833333333335 -0.013531833333333331 0.005183833333333334 0.008254666666666665 0.0001395 -0.04672083333333334 -0.035322 0.015181 0.028617 0.0183265 0.010058666666666667 0.017709333333333334 -0.009765666666666667 -0.00709 0.039724999999999996 -0.034767166666666675 -0.0006115000000000001 -0.0067625 0.026731500000000002 0.003937666666666667 0.067004 0.007000666666666666 -0.028757500000000002 0.0039045 0.003469833333333333 -0.0007631666666666667 0.014001833333333333 -0.004713333333333334 0.0026745000000000002 -0.02164416666666667 -0.0048088333333333325 0.005547666666666666 0.0146695 -0.012232833333333332 -0.020890500000000003 0.000593 0.0008991666666666667 -0.012067000000000001 -0.032927333333333336 -0.041550166666666666 0.005927333333333333 -0.0160415 -0.03969966666666667 0.031166666666666665 0.03238233333333333 0.002773166666666667 0.03114183333333333 -0.013237833333333332 0.015278166666666667 0.0097845 -0.019024666666666665 0.045553500000000004 -0.005195333333333334 0.038455166666666665 0.056924833333333334 0.020857666666666667 0.014059000000000002 0.008077833333333334 -0.05180166666666667 -0.04126683333333333 -0.025012166666666665 -0.0066166666666666665 0.018082 -0.020797333333333334 -0.031131166666666668 0.0090325 -0.005282833333333334 0.03338533333333333 -0.0208 -0.030290833333333333 -0.017673333333333333 -0.026581833333333332 -0.010422333333333334 0.004762666666666666 -0.002366833333333333 0.0247795 -0.007233666666666666 0.010296333333333334 0.004755166666666666 0.01634333333333333 0.005315333333333334 0.005272666666666666 0.02833933333333333 0.04043733333333333 -0.05361183333333334 -0.0009933333333333333 -0.018015833333333335 0.0105735 0.022856500000000002 -0.028274833333333332 -0.002980166666666667 0.005742333333333333 -0.009628666666666666 -0.027874999999999997 -0.018509 0.010911166666666666 -0.04564633333333334 0.015545333333333333 -0.07033433333333333 -0.011200833333333333 0.009007333333333334 0.01614866666666667 0.010901000000000001 0.039662166666666665 0.0003003333333333333 0.0 0.0 0.0 0.0 0.0 0.0 0.0 0.0 0.0 0.0 0.0 0.0 0.0 0.0 0.0 0.0 0.0 0.0 0.0 0.0 0.0 0.0 0.0 0.0 0.0 0.0 0.0 0.0 0.0 0.0 0.0 0.0 0.0 0.0 0.0 0.0 0.0 0.0 0.0 0.0 0.0 0.0 0.0 0.0 0.0 0.0 0.0 0.0 0.0 0.0 0.0 0.0 0.0 0.0 0.0 0.0 0.0 0.0 0.0 0.0 0.0 0.0 0.0 0.0 0.0 0.0 0.0 0.0 0.0 0.0 0.0 0.0 0.0 0.0 0.0 0.0 0.0 0.0 0.0 0.0 0.0 0.0 0.0 0.0 0.0 0.0 0.0 0.0 0.0 0.0 0.0 0.0 0.0 0.0 0.0 0.0 0.0 0.0 0.0 0.0 0.0 0.0 0.0 0.0 0.0 0.0 0.0 0.0 0.0 0.0 0.0 0.0 0.0 0.0 0.0 0.0 0.0 0.0 0.0 0.0 0.0 0.0 0.0 0.0 0.0 0.0 0.0 0.0 0.0 0.0 0.0 0.0 0.0 0.0 0.0 0.0 0.0 0.0 0.0 0.0 0.0 0.0 0.0 0.0 0.0 0.0 0.0 0.0 0.0 0.0 0.0 0.0 0.0 0.0 0.0 0.0 0.0 0.0 0.0 0.0 0.0 0.0 0.0 0.0 0.0 0.0 0.0 0.0 0.0 0.0 0.0 0.0 0.0 0.0 0.0 0.0 0.0 0.0 0.0 0.0 0.0 0.0 0.0 0.0 0.0 0.0 0.0 0.0 0.0 0.0 0.0 0.0 0.0 0.0 0.0 0.0 0.0 0.0 0.0 0.0 0.0 0.0 0.0 0.0 0.0 0.0 0.0 0.0 0.0 0.0 0.0 0.0 0.0 0.0 0.0 0.0 0.0 0.0 0.0 0.0 0.0 0.0 0.0 0.0 0.0 0.0 0.0 0.0 0.0 0.0 0.0 0.0 0.0 0.0 0.0 0.0 0.0 0.0 0.0 0.0 0.0 0.0 0.0 0.0 0.0 0.0 0.0 0.0 0.0 0.0 0.0 0.0 0.0 0.0 0.0 0.0 0.0 0.0 0.0 0.0 0.0 0.0 0.0 0.0 0.0 0.0 0.0 0.0 0.0 0.0 0.0 0.0 0.0 0.0 0.0 0.0 0.0 0.0 0.0 0.0 0.0 0.0 0.0 0.0 0.0 0.0 0.0 0.0 0.0 0.0 0.0 0.0 0.0 0.0 0.0 0.0 0.0 0.0 0.0 0.0 0.0 0.0 0.0 0.0 0.0 0.0 0.0 0.0 0.0 0.0 0.0 0.0 0.0 0.0 0.0 0.0 0.0 0.0 0.0 0.0 0.0 0.0 0.0 0.0 0.0 0.0 0.0 0.0 0.0 0.0 0.0 0.0 0.0 0.0 0.0 0.0 0.0 0.0 0.0 0.0 0.0 0.0 0.0 0.0 0.0 0.0 0.0 0.0 0.0 0.0 0.0 0.0 0.0 0.0 0.0 0.0 0.0 0.0 0.0 0.0 0.0 0.0 0.0 0.0 0.0 0.0 0.0 0.0 0.0 0.0 0.0 0.0 0.0 0.0 0.0 0.0 0.0 0.0 0.0 0.0 0.0 0.0 0.0 0.0 0.0 0.0 0.0 0.0 0.0 0.0 0.0 0.0 0.0 0.0 0.0 0.0 0.0 0.0 0.0 0.0 0.0 0.0 0.0 0.0 0.0 0.0 0.0 0.0 0.0 0.0 0.0 0.0 0.0 0.0 0.0 0.0 0.0 0.0 0.0 0.0 0.0 0.0 0.0 0.0 0.0 0.0 0.0 0.0 0.0 0.0 0.0 0.0 0.0 0.0 0.0 0.0 0.0 0.0 0.0 0.0 0.0 0.0 0.0 0.0 0.0 0.0 0.0 0.0 0.0 0.0 0.0 0.0 0.0 0.0 0.0 0.0 0.0 0.0 0.0 0.0 0.0 0.0 0.0 0.0 0.0 0.0 0.0 0.0 0.0 0.0 0.0 0.0 0.0 0.0 0.0 0.0 0.0 0.0 0.0 0.0 0.0 0.0 0.0 0.0 0.0 0.0 0.0 0.0 0.0 0.0 0.0 0.0 0.0 0.0 0.0 0.0 0.0 0.0 0.0 0.0 0.0 0.0 0.0 0.0 0.0 0.0 0.0 0.0 0.0 0.0 0.0 0.0 0.0 0.0 0.0 0.0 0.0 0.0 0.0 0.0 0.0 0.0 0.0 0.0 0.0 0.0 0.0 0.0 0.0 0.0 0.0 0.0 0.0 0.0 0.0 0.0 0.0 0.0 0.0 0.0 0.0 0.0 0.0 0.0 0.0 0.0 0.0 0.0 0.0 0.0 0.0 0.0 0.0 0.0 0.0 0.0 0.0 0.0 0.0 0.0 0.0 0.0 0.0 0.0 0.0 0.0 0.0 0.0 0.0 0.0 0.0 0.0 0.0 0.0 0.0 0.0 0.0 0.0 0.0 0.0 0.0 0.0 0.0 0.0 0.0 0.0 0.0 0.0 0.0 0.0 0.0 0.0 0.0 0.0 0.0 0.0 0.0 0.0 0.0 0.0 0.0 0.0 0.0 0.0 0.0 0.0 0.0 0.0 0.0 0.0 0.0 0.0 0.0 0.0 0.0 0.0 0.0 0.0 0.0 0.0 0.0 0.0 0.0 0.0 0.0 0.0 0.0 0.0 0.0 0.0 0.0 0.0 0.0 0.0 0.0 0.0 0.0 0.0 0.0 0.0 0.0 0.0 0.0 0.0 0.0 0.0 0.0 0.0 0.0 0.0 0.0 0.0 0.0 0.0 0.0 0.0 0.0 0.0 0.0 0.0 0.0 0.0 0.0 0.0 0.0 0.0 0.0 0.0 0.0 0.0 0.0 0.0 0.0 0.0 0.0 0.0 0.0 0.0 0.0 0.0 0.0 0.0 0.0 0.0 0.0 0.0 0.0 0.0 0.0 0.0 0.0 0.0 0.0 0.0 0.0 0.0 0.0 0.0 0.0 0.0 0.0 0.0 0.0 0.0 0.0 0.0 0.0 0.0 0.0 0.0 0.0 0.0 0.0 0.0 0.0 0.0 0.0 0.0 0.0 0.0 0.0 0.0 0.0 0.0
thích -0.052666847 -0.016789911 0.005137715 0.026966566 0.007106197 -0.039068636 -0.046021286 0.030054813 -0.019884713 -0.01362817 0.011949928 -0.037584666 -0.025946982 -0.019028036 0.02692584 -0.04243589 0.008378572 -0.0006460179 -0.008233451 -0.039432842 -0.027569985 0.039867733 0.04921112 -0.0508594 -0.0061423196 -0.027903762 0.0030737345 -0.05844777 0.048198085 -0.01132357 -0.01321528 0.021203432 0.04760637 0.006200836 1.3575739e-05 0.028963137 -0.010130778 -0.046957076 0.0023359633 0.039217032 -0.029872712 -0.008430066 -0.020984815 -0.004273549 -0.015598992 -0.02169684 0.03478432 0.04936045 -0.004443948 0.023337632 -0.043859 -0.0015289091 0.008876661 -0.035178017 0.021867707 0.0016183218 0.029636307 -0.05855029 0.00063384656 0.027598074 0.06819609 0.037557986 -0.02056303 -0.0060739727 -0.024094127 -0.0064681373 -0.01909498 -0.0067504193 -0.045356076 0.013121186 -0.038849086 -0.01200423 0.030881997 0.03274 -0.027406609 -0.026335998 -0.068845846 -0.017496787 -0.0060955067 -0.034382667 0.012637609 0.021689817 0.00970759 -0.023639575 0.0029169114 0.018830955 -0.0011843662 -0.0031350595 0.009098554 0.020902425 -0.028067606 -0.004986509 0.011799658 -0.0033761458 0.05350667 -0.015768455 -0.026681477 -0.022813328 0.004783341 -0.016114403 0.028425725 0.0009095745 -0.049243886 -0.01467397 0.001579467 -0.025675936 0.0024455055 0.020656656 -0.039103277 -0.027298938 0.023311416 -0.01334027 -0.02989097 0.011888134 -0.0055281348 -0.057689402 -0.0038714262 -0.08561236 0.011600703 0.055965282 0.028769331 -0.015546094 0.005071709 -0.0024693802 -0.013931985 -0.004963571 0.00062963343 -0.01461639 0.0009643456 -0.017706508 0.021822298 -0.0047355923 0.036551505 0.0226022 -0.029142898 -0.022126114 0.02515163 -0.009673884 0.012527131 0.004456119 -0.011395663 -0.053381678 -0.06345815 0.010245938 0.015078901 0.021742716 -0.053019814 0.0023645193 -0.027484786 -0.009445906 -0.04553771 -0.02448876 0.048432153 -0.0068300012 0.003348058 -0.025048643 0.010054473 -0.040679 0.0066071716 0.0215241 0.0017405034 -0.029136812 0.052434653 0.023412533 -0.033749755 -0.05506507 0.0129704485 -0.012169479 -0.039015736 -0.052421078 -0.046144404 0.052243188 0.012598285 0.032607052 -0.049110938 -0.05327635 -0.036392342 0.05741742 0.018856702 0.016614832 -0.018651193 -0.01841432 -0.011706032 0.018565994 0.01952004 -0.01408085 -0.016512312 -0.003031603 0.013539693 0.0055903955 -0.029815132 0.0028579272 -0.05101482 -0.0074488674 0.012429291 0.010643847 0.022983726 0.0036691946 -0.0072536576 0.059431307 0.0041265567 6.694244e-05 -0.00487135 0.002192248 -0.017078748 -0.026215687 0.012755109 0.023177063 0.04290074 -0.026735779 0.017502872 -0.0026786337 -0.034558214 -0.03773915 0.01954017 0.01660032 0.025843995 0.007782175 0.002731064 -0.042484574 -0.025483066 0.0048315586 0.015729131 0.017832903 0.04463235 -0.03258037 0.02921499 0.014179626 0.029177072 -0.03013065 0.0035390547 0.005123203 -0.05037863 -0.015396292 -0.03902791 0.009579791 0.016325528 -0.020215211 0.029879734 0.056992356 -0.022021253 0.015681852 0.009600388 0.019286444 0.0077788983 0.032964233 0.0018706432 -0.028207578 -0.020145461 -0.014132344 0.0006712969 -0.0143514285 -0.03584791 -0.021168321 0.024069317 -0.04737933 -0.008450664 0.0042566964 -0.015603205 -0.035085328 0.0223672 0.0047987895 0.03677106 -0.018587995 0.0040104603 0.008849509 0.033467475 -0.02483424 -0.017117135 -0.010421487 -0.028947221 -0.006826256 0.048174214 -0.032319155 -0.029596047 0.0024384835 -0.017157393 0.00040633592 -0.02215467 -0.037935294 -0.00794368 -0.037021976 0.04034382 -0.03357327 0.017097006 -0.042421374 -0.06387619 -0.044985786 -0.013124931 -0.0109888585 -0.0042028613 -0.03541255 -0.023225749 0.035691086 -0.02442135 0.007682932 -0.03459145 -0.0055463915 0.014784448 0.017119942 -0.0027675782 -0.023779077 -0.021848045 0.0074619753 0.027119176 -0.009416882 0.027965086 0.010629804 -0.040726747 0.051697817 0.0243736 -0.028258136 -0.03710858 0.037454996 0.03404655 0.0060360543 0.014107534 -0.0019197967 0.0003768438 -0.01653291 -0.018149827 0.023428917 0.046670582 0.056837406 0.028545566 -0.016587213 -0.021540485 0.031418007 -0.0014586898 -0.0064180475 -0.009304998 0.0011693861 0.0132068535 -0.03608057 -0.010055877 0.0032773707 -0.09622437 -0.0025798585 -0.09049447 0.031000433 -0.053807676 -0.03166471 0.025599163 -0.033504926 -0.012668973 0.034987956 0.003612551 -0.024408242 0.00043910494 0.019983957 -0.05366583 -0.029375091 0.024320703 -0.020228788 0.06765118 0.04270366 0.0078655025 0.0109888585 -0.035838548 0.010104563 0.05234758 0.019416116 -0.053709835 0.024364239 -0.036889497 -0.0358451 -0.012951723 0.040852208 -0.05519006 -0.020172143 -0.03087357 -0.0044542467 -0.0028031562 -0.01043553 -0.0029407858 -0.04666356 -0.026734844 0.00081267185 0.00028509053 0.01706564 -0.011236031 0.0004451906 -0.026019074 -0.056034565 -0.00010907404 -0.04797713 0.011400344 0.0006258884 -0.050335094 0.04777162 -0.023078756 -0.031666115 0.0019104342 0.05818234 -0.0036860472 -0.02421865 0.014149197 0.053177107 0.035354502 0.0623206 0.017375074 -0.0054836622 -0.008972159 -0.044820067 0.07688924 0.020352842 0.0030985454 0.04088732 0.02427389 0.01312774 -0.011052992 -0.026541974 -0.063065395 -0.008765246 -0.09857157 -0.0003426704 -0.055646956 -0.014202096 0.02511699 0.004390113 0.020242363 -0.0041883495 -0.004030122 0.01630774 -0.032621097 -0.011015542 0.012204121 -0.036659643 0.04550307 0.026534485 0.010842802 0.027693572 0.014958592 -0.005140524 0.03561806 -0.019469483 0.033161316 0.013422193 -0.03748636 0.035566095 0.0019937612 0.030787436 0.004317085 -0.008253113 -0.03249049 -0.04511452 0.027967894 0.00612219 0.015447787 0.041175686 0.0782941 0.002265744 -0.025189081 0.060622696 0.04400927 0.0025007448 0.016211772 -0.004839985 0.012868864 -0.019270059 0.041420985 0.039255887 0.008537736 -0.014083191 -0.013792951 0.04056384 0.013602423 -0.006295398 0.06447774 0.0135808885 -0.031898305 -0.018044965 0.027077982 0.0038452111 -0.040555883 0.0037534577 -0.006602959 -0.020490939 0.034474418 -0.0280868 -0.0013425938 -0.03552771 0.009323256 -0.0031795318 0.054290786 0.0036949418 -0.039609794 -0.018896492 0.020097712 0.018371252 0.022395289 -0.051438477 0.0311287 0.00899463 3.3237153e-05 0.0091673685 0.023971947 0.022105984 0.019693248 0.006100188 0.01734839 0.004937824 0.033107013 -0.014981531 0.012459251 0.015412677 -0.0012353923 0.09669905 -0.040301688 -0.0071909283 0.016323656 -0.04748419 0.01028292 -0.00632489 -0.02651529 0.036336634 0.0124147795 -0.073063694 -0.06894837 0.009453395 -0.028547907 -0.020799436 0.07443297 0.013649703 -0.056230243 -0.00034173412 0.047918145 0.04421665 -0.054430757 -0.0046007712 0.022689741 -0.059443947 -0.022361582 -0.010335819 0.02915507 -0.02394573 0.023118079 -0.029962592 -0.0040830206 -0.024360493 0.023407383 0.017013209 0.026751695 0.00017976151 0.025308454 0.027566709 -0.022413544 0.00819881 0.00011469159 -0.07646184 -0.0013912792 -0.010745431 -0.0072850226 0.014269506 -0.015186571 -0.014595324 -0.022213655 -0.035526305 0.03572994 0.06478483 -0.006443795 0.048376445 0.010951408 -0.00050042983 -0.039995063 0.015842887 0.010670063 -0.013367889 -0.0011211688 0.00018303841 0.033500243 -0.02712339 0.017728042 0.0006446135 -0.042776216 -0.050578523 -0.0031032267 0.015672958 0.0010022641 0.015948215 -0.020439913 0.0037380096 0.026764335 0.0076454817 0.0020255938 -0.01885951 -0.014487186 -0.07099503 -0.031675946 -0.019136643 0.0065959366 -0.045268066 0.015005873 -0.026000816 -0.016186025 -0.06369643 -0.036632024 0.014959997 -0.010962175 -0.03525479 0.015632698 -0.0058076074 -0.061079122 -0.0059007653 0.037798133 -0.03438828 0.055561285 0.010562393 -0.06592285 0.022588158 -0.011915754 0.0031692327 0.045666445 -0.015776413 -0.050382845 -0.005014597 0.030455532 0.007084195 0.018343164 0.043091267 -0.009099958 -0.018385764 0.015049409 -0.013311246 -0.05766178 -0.008359378 0.044266272 -0.0104018245 -0.047142923 -0.0457273 0.015525028 0.019033186 -0.02663841 -0.005154568 0.009375218 -0.015064857 -0.01847892 0.05281056 -0.02951272 0.0521725 -0.03289823 0.0067977 0.03491399 -0.000682532 -0.005137715 0.008159019 -0.04949574 0.0058684642 0.066132575 -0.011387704 0.031048182 0.005508941 0.016100358 -0.031663306 -0.037948873 -0.022164032 0.02060329 -0.014311169 -0.007970831 0.004236099 -0.010586267 -0.01695048 -0.02450608 -0.08105887 0.062761575 0.0063305073 -0.04187975 -0.023446238 0.015397228 -0.051131852 -0.0013074841 -0.008477347 -0.02158683 -0.06959813 -0.002751662 0.02976317 -0.051142618 -0.04191954 0.00419818 -0.011370383 0.015443105 -0.0053979945 -0.046032052 0.08816413 -0.0048128334 0.008361719 -0.02905489 -0.032671187 -0.012522917 0.06593783 0.011647516 -0.00038105695 0.009568087 -0.049072083 -0.025791096 0.03338368 0.009692609 0.033339206 -0.024432117 -0.005090902 0.01574458 -0.017677017 -0.038951606 -0.009248355 -0.032921635 -0.022268426 0.029501017 -0.0052823666 -0.03144984 -0.07708492 0.0037146031 0.0010869954 0.040533878 0.013216216 -0.01916988 0.015484769 0.007876737 -0.058891557 -0.041986953 -0.016399961 0.030569287 0.002643524 -0.0009741763 0.023916706 -0.0240534 -0.0035179888 -0.007526577 0.033411298 0.025450766 -0.027510066 -0.044923995 -0.036314167 -0.077793665 -0.0036368936 -0.0055763517 0.011714927 0.045342032 -0.021698711 -0.014165581 -0.04035178 0.031195644 -0.014482505 0.024727507 -0.06619483 0.0137615865 -0.0041008093 -0.058508158 0.04787648 0.015721174 0.0093382355 0.028696304 0.035814203 -0.0040310584 -0.0045010597 0.007496617 0.017254297 -0.014027951 0.03898297 0.03458115 -0.031513505 -0.06706228 0.032030787 0.050236788 -0.0092474185 -0.055842165 0.038246132 0.050210573 -0.023036625 -0.05752696 0.026129084 -0.038129568 0.0021440305 0.010463149 -0.0057930956 0.03416873 -0.04492493 0.049008887 0.05115151 -0.005470555 -0.039694056 -0.007843968 -0.044946462 0.022353625 -0.020828929 -0.0014399646 -0.06859633 -0.028250644 -0.0097670425 -0.08409047 -0.010097072 -0.02168935 0.0013201236 -0.013788737 -0.005551073 0.005726621 -0.03345858 0.011353531 -0.017075472 -0.0504114 -0.002363583 0.017520193 -0.012457847 -0.024070721 0.0285994 -0.0009680906 0.011209816 -0.0047655525 -0.011845066 -0.012317876 -0.044585068 0.057667397 0.0010326924 -0.038436662 -0.013934794 -0.028671492 0.03223021 0.046356466 -0.02896969 0.04205015 -0.017614286 -0.01640277 0.01882955 0.049632903 -0.046054058 -0.012360476 0.008426321 -0.0023013218 0.024664776 0.05564087 -0.0110581415 0.008596719 0.0025611334 -0.035038047 -0.032096323 0.04157219 0.044071063 -0.0005163462 0.023117611 -0.008508244 0.039176308 -0.0450429 0.021239009 -0.03447676 0.06416924 -0.03129161 -0.06323439 0.01698325 0.010851229 -0.030266408 0.034751084 -0.016956566 -0.0018551949 -0.036518738 -0.046047036 0.035229042 -0.07327341 -0.03752662 0.0044823345 -0.01659049 0.025196103 -0.037204545 0.038808357 -0.057960916 -0.026449285 0.02189205 -0.02867477 0.0475193 0.059580643 0.038298566 -0.006267778 0.025227468 -0.012895079 0.025551414 -0.0037829499 -0.036689606 0.013733966 -0.010032471 -0.011933074 0.017215442 0.050835524 -0.06305837 -0.011106359 -0.07107274 0.011792168 0.03433913 0.0058904663 -0.017128838 -0.055857614 -0.078946196 -0.017558113 0.0112262 0.020373907 -0.05076156 -0.008012495 0.037016828 0.002022317 0.0447124 0.0024211628 -0.011139596 -0.033790484 -0.04005311 0.047039468 0.0041738376 0.009771255 0.042067003 0.040893402 0.035028685 0.020772753 0.03840155 0.03124433 -0.009555916 0.005956941 0.037124965 0.03211177 -0.011728502 0.0011295951 0.025272409 0.027102793 0.00012967171 0.03424878 -0.009067189 -0.006998996 -0.026472691 -0.0966059 -0.030035153 -0.003398616 -0.04807918 -0.025175037 0.0077367667 -0.009864413 0.035447657 -0.01784882 -0.026916945 0.052218378 -0.051579382 0.02894207 -0.038135186 0.023236984 0.011975674 0.039063018 0.015681852 -0.01850186 -0.05733971 0.023978032 0.03868992 0.011909668 0.096896134 -0.014360791 0.008705325 -0.031743355 -0.0152001465 0.019627241 -0.042950362 -0.03649112 -0.009713675 0.010659764 0.0047660205 -0.029434543 0.017748171 0.011303909 0.021387406 0.033792824 0.06593643 -0.034785725 -0.01826124 0.0686586 0.08539467 0.017466359 0.05292853 0.05471444 0.01567436 -0.032458186 0.012457379 0.004055869 0.033183787 0.0066207475 -0.013016793 0.012125944 0.03405357 0.015037238 0.021028351 0.023363378 0.02343313 -0.052254423 0.03417435 -0.023789376 -0.02134387 -0.053156976 -0.02721374 -0.015770795 0.03114883 0.016762761 0.017499596 0.053425215 0.04292742 0.030023448 0.05378942 -0.0041738376 0.010208019 0.0068969433 0.004589536 0.05893837 -0.022338176 -0.044060763 -0.009637838 0.053182255 -0.009612559 0.013199363 -0.03416405 0.031353403 -0.0098119825 -0.0144520765 5.757986e-05 0.007954915 0.041734163 -0.02320562 -0.011456051 0.0158897 -0.021671092 0.060243513 -0.0027638332 0.018279966 0.020637464 -0.05076718
hận -0.011425744 -0.020851307 -0.019593254 -0.011266336 0.0058448245 -0.03214428 -0.002316129 -0.01380539 0.034952566 -0.023294881 -0.03374123 -0.036335602 -0.012246962 0.017666835 0.018803181 0.017761087 -0.013846369 -0.029953137 -0.04351757 -0.04507231 -0.023460435 0.015554781 0.021186514 -0.027641924 0.008042934 -0.0044884216 -0.009012495 -0.0082826605 0.015228179 -0.007713463 0.00079294224 0.0008621966 -0.010125074 0.014484821 0.024379592 -0.067616865 0.016162498 -0.04663156 0.022317123 0.022394983 0.0115818735 0.021865536 -0.0580864 0.028768435 0.029346239 -0.036679417 -0.00027619797 0.045416124 0.019237967 0.014922067 -0.0014445072 -0.016581712 0.0126391305 -0.032727 0.0072167986 0.0063570607 0.008898984 -0.01258176 -0.0015948998 0.07386205 0.008721136 -0.019394916 -0.074509114 -0.02485167 0.0028132033 0.014696682 -0.042444743 0.005395695 0.021554096 0.044769887 -0.01835569 0.051699422 -0.026897337 0.00015940802 -0.014615954 -0.008251927 -0.020874664 0.01944696 -0.0067299693 -0.028616404 -0.0068459394 -0.0051576076 0.0018018434 0.029183552 -0.009437856 0.02543316 -0.0004011837 -0.0045166975 -0.0020276373 -0.011567531 -0.0024923384 -0.012786655 0.012773131 -0.014960586 0.035098452 0.0016916101 0.03434444 0.005226862 -0.038028035 0.012493245 0.026244953 -0.005582149 0.0054034814 0.02815703 0.012576023 0.038047705 -0.0214873 0.021318467 -0.0030213762 -0.00025079102 0.047007747 0.02177948 0.025276212 -0.037606772 0.05576822 -0.013078014 0.022521608 0.00975995 -0.001917404 -0.042339835 0.022102393 0.023325205 -0.013939392 0.05288986 -0.0401028 -0.0054674083 0.010777048 0.022147061 0.008523617 -0.0071176295 -0.029005704 0.005475194 -0.08131366 -0.00713607 0.013711958 -0.01717099 -0.007964664 0.025633957 0.032232795 0.0074790637 -0.004515058 -0.03883696 -0.00029668742 -0.029952727 -0.0321033 0.009576775 0.027276803 0.014832732 -0.0063169017 -0.026420344 0.0069365026 0.024781186 -0.02413126 -0.045360394 0.016214132 0.02712723 0.0145774335 -0.0018194644 -0.05232353 0.0026132262 -0.0022329418 0.016165776 0.016327234 -0.0067545567 -0.056531657 -0.0116568655 0.012870251 -0.0097034 0.021766366 -0.013166119 -0.023364134 -0.046627052 0.053236544 0.009942307 0.015334724 -0.04445927 -0.01411642 0.05602229 0.003004575 0.025633138 0.045726337 0.048454303 -0.044987895 -0.0086670425 -0.039018493 0.03027851 -0.029489255 0.02459924 -0.016148156 0.010450446 -0.009819371 -0.019906742 -0.016598923 -0.020423077 0.007917538 0.002856641 -0.0063242777 -0.045087885 -0.011218801 -0.039604902 0.049616054 0.059539102 -0.007324983 0.014682749 -0.0312661 0.033710495 -0.017300893 0.0378592 0.031397235 0.016501803 0.04412242 -0.004151985 -0.028682789 -0.028470928 0.048437092 0.0061218417 0.021754483 -0.00046306188 -0.0048236293 -0.0430373 -0.022140915 -0.004771586 0.00015449055 0.022644134 0.0055743633 -0.0024300504 0.014081589 -0.025036074 0.04026876 -0.024322633 -0.044656374 -0.00045978357 -0.032249186 -0.022354824 -0.03443295 0.004435149 0.011993712 0.015976453 0.011311823 -0.02290804 0.013722613 -0.0072442545 0.005432986 -0.018482726 0.019408029 0.050027072 0.026430178 -0.0018366755 -0.036059406 -0.012083866 -0.010706974 0.011523274 -0.009873873 -0.01306818 -0.025926957 -0.02889711 -0.004649879 -0.015996125 0.023701392 0.036590904 -0.021732764 -0.022781415 0.054084808 -0.011381078 0.005033851 -0.0059157177 -0.028244315 -0.024331648 0.030350633 -0.0014215589 0.027731258 -0.02652566 -0.007232371 -0.02920937 -0.008114647 0.05243008 0.030909995 0.048913267 0.0068041408 0.0005880476 0.0069381422 0.033092942 -0.03601474 0.0025095495 0.054735553 -0.042243946 -0.033165064 -0.059605896 0.00064705726 -0.030088777 0.0075081587 -0.02228557 0.031588197 0.03179678 0.002907045 0.028771713 -0.059409197 0.037423596 -0.02664245 0.008873576 0.02584336 -0.05358855 0.011099962 0.058429804 0.02994863 -0.020094836 0.021635234 -0.04308975 0.006704972 -0.021708177 0.027446866 -0.01845199 0.022360152 -0.01320382 0.0031324292 -0.018089328 0.024193138 0.038473476 -0.0026591225 -0.0035434477 -0.04380524 0.06936954 -0.0030283427 -0.016105128 -0.01555724 -0.013419369 -0.00610586 -0.016630478 0.02354854 -0.030796483 -0.018499527 0.004542514 0.03558364 -0.058985066 -0.043884333 0.033161785 -0.06422094 -0.024493514 -0.057608996 -0.027502187 0.013798424 0.0011683092 0.028822938 -0.0102566155 0.010873348 -0.013235373 0.0042343526 -0.010954076 -0.024765614 -0.007049195 0.006249696 -0.001999362 -0.004237221 0.014537274 0.045466118 0.014390569 -0.04561733 -0.024844704 -0.017137798 0.020064922 -0.03153533 -0.023401426 0.01897775 -0.0022161403 -0.01336036 -0.05339759 0.013877514 -0.016526802 -0.055376463 -0.0069414205 -0.026025306 -0.023151044 0.024924202 -0.004622833 0.014085277 0.02790542 0.032605704 0.0045220247 -0.026711704 0.027813217 -0.030421525 0.014719221 -0.009311642 -0.0021013992 -0.027364908 0.011333542 0.049249705 -0.020425536 -0.020950885 -0.016648918 0.029172897 -0.018351592 -0.021324614 0.008507225 0.041044082 0.015122863 -0.00020530442 -0.020373493 -0.02359034 -0.050796658 -0.021115622 -0.00044011368 -0.0074302987 0.0099078845 -0.015404388 0.0055354335 -0.0016608759 0.022126162 -0.039893396 0.0042257467 -0.02421076 -0.089851215 -0.03930289 -0.022760516 0.0007101648 -0.030737473 -0.01182242 0.0065762983 -0.03251227 0.044778492 -0.036148332 -0.0019825604 0.03601064 0.022703964 -0.048470285 -0.013477969 0.04958327 0.025263509 0.034046933 -0.009953781 0.015630592 0.03237991 -0.0059009655 0.005856708 0.044722762 0.02693217 -0.015668292 0.019382212 -0.02874221 0.021164795 0.025097953 -0.022781825 0.050081577 0.0051461337 -0.03004534 -0.055103544 -0.028074253 0.0091899345 -0.010243912 0.06253056 0.027782073 -0.024721356 -0.040106487 0.06593919 0.011273713 -0.019521542 0.03910373 0.009413679 -0.0025968347 -0.019669065 0.018505264 -0.0029275345 -0.049627528 -0.035189424 -0.008199884 0.013976682 0.01771437 -0.015281452 -0.027214104 -0.026395757 -0.025086889 -0.014182396 0.039344687 0.024377953 -0.017291468 -0.0021866355 -0.0005073191 0.009174772 0.00037372782 0.029418362 0.04713027 -0.03348757 0.0066615343 -0.030292852 0.06794429 0.028343894 -0.011195852 -0.026681378 0.022936314 -0.024553344 0.015410535 -0.011494179 0.008245779 -0.005549366 -0.023827607 0.013054657 0.04833956 -0.0077757514 0.033745326 0.0017063625 0.023786627 -0.0029717917 -0.002325964 -0.038918916 -0.023356758 0.019225264 0.016533358 0.09608411 0.03276224 -0.007735592 -0.032467194 0.007955649 0.023051875 0.0022980983 -0.015399061 -0.01874663 0.0043290136 -0.02508484 -0.05214732 0.03107186 0.012887053 -0.05237025 -0.030077303 -0.058755994 -0.012948112 0.007130743 0.03758464 0.029145852 0.011946176 0.021873321 -0.009611198 -0.032831497 -0.044730548 -0.008121613 0.00622224 0.02494961 0.02753456 -0.05312221 -0.011229046 0.042362373 0.013723433 -0.027663235 0.046334464 -0.0031123494 0.04264431 0.022181483 0.0054256096 -0.048742384 0.04888581 -0.091248594 -0.026184715 -0.012545698 0.013682864 0.04239311 -0.07054686 0.018717945 -0.04665328 -0.0409568 0.026665807 0.02135084 -0.014563091 -0.013988567 0.0021575405 -0.020367756 -0.007221716 -0.0030754684 0.013192755 -0.03548365 -0.0061005326 -0.00018153664 -0.0006273874 -0.024954118 -0.0007142627 -0.014605709 -0.08205743 -0.04007534 0.010706974 0.013441497 -0.0033664189 0.06561095 0.007455296 0.0732777 -0.023647709 -0.007793782 -0.03873369 -0.026422802 0.037283447 -0.05864945 0.024392705 0.032698315 -0.011304856 -0.01431189 -6.8844594e-05 0.008137595 0.000688446 0.03580165 0.011951504 -0.015213016 0.010602068 -0.1103542 -0.0053657806 -0.0066578463 0.013137024 -0.06310591 -0.02259742 -0.018633528 0.03304254 -0.009652586 0.005176458 0.04332456 -0.0029074547 -0.051582225 0.074601725 -0.039272975 -0.010584037 -0.021084888 0.003959384 0.025293833 -0.018691719 -0.0029640058 -0.011591709 0.036818746 0.03553324 0.028443882 -0.010370537 0.0033688776 0.043570843 -0.057252888 0.03554717 -0.0026415016 -0.013602545 0.0012457593 0.035362355 0.028611487 -0.009985745 0.08013265 -0.021149224 0.02002886 0.00016555487 -0.00012334657 -0.00057370495 -0.020589452 -0.036155708 -0.0025398738 -0.056654595 -0.017487757 -0.018381508 -0.008830139 0.039538927 -0.024859866 0.07615483 0.059996426 0.0096173445 -0.047553994 0.0008519519 -0.06358659 -0.051866617 0.044772346 0.038882036 -0.010313986 -0.041435022 0.026489187 -0.02253759 -0.0072598266 0.005301444 -0.001975594 -0.0019321564 -0.009212063 -0.01462251 -4.917471e-06 -0.005691973 0.07895574 0.04167311 -0.05622063 -0.010779916 0.021127915 -0.039293464 -0.04213699 0.05479743 -0.014770035 0.038415283 0.033103187 -0.02734073 0.0062410906 0.07698424 0.006349275 0.010514783 -0.0024431637 0.015910069 0.06262358 0.008999382 -0.024446389 -0.0008589183 -0.010988909 -0.026071202 0.012630525 -0.017667655 0.03966965 -0.0045171073 -0.010214407 -0.006352553 0.0126333935 0.037533008 -0.030970233 -0.004058143 0.033731394 -0.032131575 0.021126276 -0.032736424 -0.07723298 0.0051498218 0.0026628107 0.024064874 0.035050504 -0.011676535 -0.008798585 -0.0057472945 -0.037658405 -0.023670657 -0.008958403 0.022410965 -0.0046367655 -0.05373034 -0.01627642 -0.021501234 -0.026729325 -0.021208234 0.018427813 -0.0059202253 0.0064078746 -0.03450221 0.022355644 -0.022317123 -0.041800145 -0.052316565 -0.022338023 0.03140789 -0.058018375 -0.0008470344 0.013556238 0.007154511 0.00637796 -0.0347657 -0.05985013 0.01119995 0.019998945 -0.0125227505 -0.007599542 -0.036744982 0.0018575747 -0.00838142 -0.009138301 -0.0014002499 -0.034915276 0.051438797 -0.0285074 0.016068246 0.022555212 0.02411405 -0.027062893 -0.018795395 -0.050710194 0.05265669 -0.022803543 -0.03718305 0.014464332 0.0066107204 0.0065328605 -0.015406027 -0.0043761395 -0.034679238 0.058339648 0.016728418 -0.009624311 0.09126171 -0.08674542 -0.055334255 0.007756491 -0.017562749 -0.035448 0.014030775 0.023677623 0.027838623 -0.0017510295 0.010545108 -0.013825471 0.022233117 -0.00577516 0.014834371 -0.0010662717 0.027337862 -0.019201085 0.080955505 0.0143692605 -0.019203953 0.004380647 -0.0033147854 -0.006010379 0.00460849 -0.025911385 0.02922658 -0.057660628 0.0049678753 0.055813707 0.058271624 -0.030538725 -0.023473958 0.026765795 -0.015465447 0.013917263 0.01829873 -0.01507123 0.00073106406 -0.02681579 -0.055464156 0.036474112 0.015157695 -0.0069237994 0.04714994 -0.114393085 -0.007854021 -0.008574431 0.029797006 0.025235232 -0.00501705 0.03364329 -0.0021493447 0.024705784 -0.01660712 0.075904034 0.024468927 -0.023637874 -0.024334107 0.0014531127 -0.044825617 0.013965208 0.00034545234 0.026244134 -0.0044863727 -0.032663893 -0.084152274 -0.023359217 -0.011802341 0.08848497 0.039770048 -0.06170156 0.0074815224 0.04332251 -0.046500016 -0.00044011368 -0.0058132703 0.007276628 -0.11079677 -0.02535858 0.050727814 -0.04682621 0.004335161 0.05682384 0.019625628 -0.01975676 0.023336269 -0.036661796 0.004215912 -0.026207253 0.032774534 -0.082240194 0.09739871 0.0540635 0.008839564 -0.010600429 -0.030699773 0.03286141 -0.025211465 -0.0009871824 0.017509066 -0.054608107 -0.0147311045 -0.076533884 -0.02430419 -0.0226929 -0.059882507 -0.035400465 0.004123709 -0.03274257 0.016669407 0.04357617 0.043879006 -0.00012457593 0.033244155 -0.025135243 -0.0135668935 0.019488757 -0.039470904 0.029072499 0.011213473 0.03041128 0.013956603 0.003264791 0.031375926 0.029375333 -0.032302048 -0.0064394283 0.011002841 0.013966028 0.016008828 0.02074845 0.0085207485 -0.0012912459 0.036994547 -0.02440172 -0.014752003 -0.041214146 -0.009435807 -0.015296614 -0.021886434 -0.038844336 -0.049069397 -0.032971233 -0.026782187 -0.015995715 -0.053881552 0.018572059 0.017590614 -0.08033017 -0.024331238 0.011428613 -0.020979982 -0.04783593 0.010534452 -0.0004917471 0.0075171744 0.041176036 -0.028206615 -0.046107028 0.03383261 0.012606347 -0.033397004 -0.026531396 0.04361264 0.0382149 -0.011188476 0.015421189 0.016908724 -0.026021209 -0.036819156 -0.023340777 0.09008151 0.0147085665 0.0086256545 0.024043566 0.02179669 0.043723285 -0.014323364 -0.09424415 0.01448605 -0.006477129 0.06308746 -0.0012904264 -0.018458137 -0.03642371 0.008610082 0.08501734 0.003712281 -0.01382588 -0.01860976 0.071162365 0.025154095 -0.02249743 0.031144803 0.020822622 0.016748087 0.017509475 0.06265104 0.017896727 -0.057095937 -0.06793691 0.06508683 0.034041192 0.043084834 -0.03912545 -0.017353347 0.0039446317 -0.02045873 -0.0014678652 0.061577395 0.013914804 -0.029171668 -0.05458065 -0.021366412 -0.0121146 0.037017904 -0.020723863 0.0035188603 0.001024883 0.0046994635 0.010872119 0.08696917 0.029811349 -0.04806828 0.01602481 -0.007827794 0.008975204 0.05236451 -0.028965134 0.009280907 -0.022935905 0.01674276 0.024199285 0.046817604 -0.001137575 0.10519168 0.019151501 0.0140918335 0.011423695 -0.018406095 0.032032818 -0.02638633 0.0032307785 -0.006434101 0.04058225 0.009094453 0.05520763 0.04350036 0.030819431
