23 300
tôi 0.01981081 0.020889733 -0.03780313 -0.0005338048 -0.044294827 0.14188156 0.006977781 -0.047029607 0.061489426 -0.007115883 0.009362537 -0.0714791 0.11521516 -0.049498636 0.03172937 0.05187226 0.11271206 -0.016313743 0.007861134 0.052889854 0.038359623 -0.03771 -0.062529735 0.078347854 -0.12954551 -0.015137605 -0.1278533 0.037203476 -0.039481703 -0.06193008 -0.06535991 0.042366397 0.016796645 0.02002387 0.0996151 -0.009979681 -0.05366895 0.02538077 -0.0061666593 -0.054736514 0.04346576 0.15021083 0.09721648 -0.004741575 -0.032890063 0.01016253 -0.032672007 0.017131906 -0.1177069 0.024981001 0.038068883 0.04712955 -0.043647476 0.00016562009 0.0019717456 -0.017863529 -0.047590647 -0.032558437 0.011736846 0.050064217 -0.078347854 -0.05355765 0.01597076 -0.02851532 0.03583154 -0.009193091 0.027095687 0.05307611 -0.014984966 0.01921093 -0.0017835363 0.068660274 -0.0064235562 0.005656273 -0.06665689 -0.006320434 -0.023104815 0.10408524 0.07464999 -0.014787126 -0.037778143 -0.05900904 0.08943008 -0.0876402 -0.074606836 -0.054641113 0.055124924 0.02901276 -0.021088708 0.021423515 0.06236619 -0.031674854 0.05944288 -0.011730486 0.04497852 0.10104154 -0.04490811 0.020526987 -0.11998058 0.037335217 -0.046320926 0.004490811 0.03487982 -0.068742044 0.08638411 -0.035742957 0.038441397 0.027302386 0.038234696 -0.030418765 -0.0358747 -0.10647703 -0.07575844 0.00029598785 -0.043424875 -0.022927644 -0.009525398 0.13189869 -0.035213716 -0.07981519 -0.0632475 0.017649107 0.103592336 0.0088944 0.0295261 -0.020388205 0.04985979 -0.11865408 -0.011530147 0.051820017 -0.08216837 -0.05351449 -0.0061991406 -0.06662736 -0.11207607 0.012758073 0.030357435 0.076389894 0.116103284 0.03366234 0.025714668 0.036240395 0.12687205 -0.12794416 0.08863054 0.013432229 0.036656063 -0.028651604 -0.021524819 0.033426117 -0.06616172 0.13241203 -0.04301602 -0.05312608 0.09145391 -0.011859502 0.0016234017 -0.046859253 0.03008941 0.007574254 -0.019110989 -0.013113322 0.13586685 0.006818328 0.087033734 0.03245849 -0.06407884 -0.036192697 -0.048099443 0.13763401 -0.022438835 0.009406376 0.09295985 -0.0062277606 0.05100458 -0.011117431 -0.062388904 0.08483728 -0.09082927 0.050513957 -0.07161311 0.06091476 0.0060914755 -0.07117927 -0.035145573 -0.09200359 0.014223361 0.05614479 -0.030643634 0.01917845 0.022092672 -0.014633806 -0.057248697 0.029124059 0.047304448 0.04851057 0.09089968 0.017461488 -0.02179012 -0.043343104 0.011344119 0.07486577 -0.005996985 -0.008280664 -0.0060778474 0.032801475 -0.04266168 0.062627405 0.053400923 0.033135373 -0.11148096 -0.013576237 -0.042554926 -0.014883434 -0.011975117 0.068530805 0.05706244 -0.015098537 0.03698542 0.04435843 -0.02780891 -0.024490377 -0.07193111 -0.14142045 -0.009459982 -0.082563594 -0.07696229 -0.017160298 0.004070827 -0.026518747 0.07181072 -0.014028929 0.0065732426 -0.008637048 0.04965763 -0.04285248 0.04216197 -0.061648425 0.07517469 -0.023302427 0.06735421 -0.01918163 0.068703435 -0.016812092 -0.027522713 -0.05403692 0.0075117904 0.05253097 0.06805835 -0.029155858 0.0014437329 0.14610864 -0.1380156 0.027066158 0.027088873 -0.03239944 0.07742566 -0.050302714 -0.14030519 -0.00069505244 0.06207318 -0.044992153 0.074843064 0.053930163 0.062118605 0.034066655 0.050670683 0.022219418 0.0440427 0.08516663 0.09372986 0.017870342 -0.052001733 -0.04998699 -0.05413913 -0.00048680927 -0.0023023044 0.019275438 0.032238167 0.06416061 0.050561655 0.018779589 -0.0212577 -0.016267179 0.003037788 -0.06782894 0.033912197 0.082563594 0.006210271 0.11840195 -0.05284897 0.01764252 -0.025262658 -0.020215122 0.08936421 -0.06560522 0.0029882712 -0.02542847 0.046366356 0.020563103
yêu -0.030428387 -0.008464548 -0.014155134 -0.030897979 -0.044946115 0.034339674 0.023103144 -0.14354463 -0.023216084 -0.063048206 -0.04448247 -0.03648157 0.06333551 -0.03296656 0.04225537 0.09450494 -0.0006814239 -0.038736403 -0.11260108 0.09461392 0.0482293 -0.0705062 -0.04711179 0.064001255 -0.025714632 -0.07536856 -0.08989818 0.072178505 -0.009534902 -0.014948289 0.034111813 0.072208226 0.09162794 0.0661808 -0.042481255 -0.069781005 0.009192912 -0.003066021 0.017505288 -0.015041019 0.094076954 0.18212055 -0.022918874 -0.027985318 0.051922634 0.06086866 -0.023033796 0.05445288 0.01448682 -0.09646653 -0.00056856323 0.029423816 0.014643747 -0.08202607 0.034072183 -0.033420302 0.01943973 -0.07558255 0.04143111 0.10478445 -0.054617338 -0.06667813 0.07790079 0.038944453 -0.06363074 0.06559431 -0.027898137 0.010300515 0.0018982027 -0.038607612 0.092474 0.035134215 -0.029685361 0.046806652 -0.053547382 0.0042259335 -0.015893813 0.09484574 0.0419225 -0.059596602 -0.05965406 0.024817057 -0.019962622 -0.13183455 -0.024587214 0.02327949 0.012559512 -0.04414761 -0.01506321 -0.018307954 0.107263185 -0.059671894 0.05841965 -0.053018346 -0.041526217 0.0746394 -0.003332916 0.09348848 0.059810594 -0.040262084 -0.05257055 -0.0429449 -0.0634643 -0.15893418 0.012118253 0.043582913 0.012078228 -0.027151149 0.07325044 -0.015693098 -0.07241825 -0.065186135 0.024042329 0.03480134 0.00065435795 -0.018207299 0.03959237 0.00068045297 -0.083054416 -0.05901407 0.030057864 -0.0047206897 0.10934762 0.012774097 0.028575776 0.03514016 0.040672235 0.0006962249 -0.0103554 0.010166968 -0.046751175 -0.13036633 -0.026275368 0.022920856 -0.019940827 0.06588359 -0.08846959 0.008141183 0.016559366 0.017590687 0.014437285 0.031173393 0.011255551 0.043676037 0.031969916 0.06605597 -0.024597121 -0.0029352487 0.0321423 0.027032264 -0.062045615 -0.023957128 -0.10006673 0.0020691778 0.06702488 0.04427244 0.07245788 -0.037608985 -0.06486317 0.027454302 -0.012552378 -0.031757906 0.20247945 0.04561385 0.04176597 -0.041478664 -0.13788179 -0.06381104 -0.13709913 0.016833395 -0.004640839 0.044494357 0.036406275 -0.03846099 0.09973782 -0.036192283 -0.047082067 -0.06477004 0.01123217 -0.07950573 -0.037878457 0.028720418 -0.09519843 0.124648005 0.0012533158 0.011766554 0.058954626 -0.06631553 -0.029273229 0.06664246 0.09858068 0.06819589 -0.00046988943 0.09235512 -0.026001936 -0.025185598 0.117833965 0.14093512 -0.078312926 -0.08726093 0.037664466 0.02168446 0.049124893 -0.010352626 -0.015144845 -0.12351068 0.02527278 0.015332681 -0.03733357 0.028958187 -0.10123576 0.037496045 0.021387251 -0.06588359 0.029938981 0.07353973 0.01588569 -0.06885173 -0.012297174 0.093652934 -0.023642085 -0.013307095 -0.020796793 -0.07226965 0.010353022 0.025407515 -0.05092599 0.02475167 -0.03679661 -0.024941886 0.012979766 0.078417934 0.06454416 0.017080674 -0.03361646 -0.043487806 -0.029251434 -0.033499558 0.06941246 -0.016624358 -0.016892837 -0.095832475 0.030915812 0.014853578 -0.06154828 -0.0034004818 0.11876324 -0.016684592 0.09010028 -0.011178474 0.024036385 0.08759579 -0.025944475 -0.039100982 0.012958764 0.008772458 0.044946115 -0.041363742 -0.06661869 -0.053028256 0.026697407 -0.049313128 -0.012765379 0.027339382 0.062699474 0.07871118 -0.05570513 -0.0094164135 0.116256766 0.04551874 0.10555323 -0.018396126 -0.048138157 -0.062455766 0.074148014 -0.016934842 0.06874077 0.040632606 0.018998077 0.0047448627 -0.016124647 0.012512354 -0.0057201087 -0.018544534 0.05100128 -0.057652846 0.00522991 0.048249114 0.03491824 0.040604867 -0.08259473 0.10660734 -0.08728867 -0.014522684 0.018114768 0.02332308 -0.025748316 -0.032189853 -0.022605812 -0.06449859
hà_nội -0.04773608 -0.0011605956 -0.051928014 0.0052624084 -0.008153718 0.022830721 -0.06755954 0.041547064 0.04378457 -0.16879997 0.02190198 0.094366975 0.18111402 -0.08942275 0.046458334 0.0024626155 -0.09283523 -0.09148769 -0.016990514 0.07131716 -0.028166613 -0.03467555 -0.06924446 -0.032081284 -0.14632407 0.034991592 -0.09802571 0.090316586 0.109950036 -0.00013540604 -0.037661478 -0.048277035 -0.0005268613 0.05071813 0.025341615 -0.041896068 0.0064275023 -0.07453382 0.08777661 0.11290106 -0.05986205 -0.032849092 -0.013171435 -0.05218589 0.00015606712 0.0212951 0.011334701 0.020236453 -0.02334647 0.04676856 -0.022819087 0.08607618 -0.09038251 -0.014982381 -0.018878825 0.010006739 -0.06834674 0.038468067 0.025231097 0.0052090883 0.023586897 0.010986278 0.028143346 -0.077923045 -0.051964853 0.0017512665 -0.013918887 0.020556374 -0.076883785 -0.035825327 0.07356242 0.09578626 0.029770095 -0.026615482 0.030580562 -0.09219539 -0.0021772073 0.018352797 0.030824866 -3.2829703e-05 -0.09528021 0.10252399 -0.031259183 -0.0010120166 0.019856425 -0.1026539 0.07268603 0.051171836 0.02999501 0.09464424 0.009681389 -0.072020985 0.08847268 0.047972627 0.031891268 0.055080686 -0.065393776 0.01846351 -0.044437986 0.07095458 -0.12807113 0.05540061 -0.009432432 -0.10748761 0.007823327 -0.0133438045 -0.009889628 -0.005941416 0.074043274 -0.05092753 0.08579309 -0.08789682 0.021211727 0.032752145 0.10294473 -0.017503746 -0.10352253 0.08931998 -0.078844026 -0.050279934 -0.09687012 -0.012499407 0.02556459 0.06924833 -0.027319308 -0.06264052 0.005798518 -0.00272941 -0.050778236 0.06388336 0.063608035 -0.049062297 -0.020587396 -0.036112286 -0.02006001 0.07562931 -0.060032677 0.05254071 0.0063228006 0.08115327 0.02204352 -0.06404817 -0.058175195 -0.055759307 0.057676893 0.030210229 -0.0027862203 -0.017517513 0.019037234 -0.043720588 -0.004774771 0.06884117 -0.1146868 0.002736972 0.13512297 0.009794427 0.0070712217 -0.0018615326 0.10831165 -0.0067179515 0.07078783 0.020593213 0.09011882 0.1564898 0.021469602 0.09449688 0.11841727 -0.029518036 -0.07968552 -0.031900965 -0.042454474 0.027100211 -0.04485679 0.0011904743 0.10900772 0.063590586 0.01862657 -0.02350934 -0.03326402 0.054729745 0.010557972 -0.006929487 -0.053139836 0.04571573 0.004192903 -0.05550725 0.034968324 0.051743817 -0.002279194 -0.026227698 0.0032701734 0.0052639595 -0.08939366 0.006682663 -0.057609033 0.0060108295 -0.04103907 -0.012017587 -0.012280116 -0.00060664763 -0.008074416 0.07813826 -0.0010954868 -0.027765257 0.084449425 -0.107514754 0.043968767 -0.013980932 0.021033347 0.06956826 -0.07572044 0.017145434 -0.014987228 0.04507007 -0.024792902 0.13444822 -0.0010114348 0.008514162 -0.009632916 -0.08365447 0.04607249 -0.0023540363 0.031683803 -0.105362564 0.034850053 0.026679466 -0.025217524 0.012154669 0.036449656 0.053566396 -0.05518151 0.0413396 0.011764364 0.014595956 -0.014679329 0.018331856 0.031790446 -0.09317455 -0.0036641608 0.07138308 0.081416965 0.027745869 0.0018997098 -0.069393754 -0.010858504 0.048940144 -0.022675607 -0.026301377 0.040275134 0.009248429 0.017832004 -0.07876647 -0.09219539 -0.0026865602 -0.011012066 0.020882111 -0.039501507 -0.011087489 0.01486721 -0.015869047 0.14545543 0.054087963 -0.04053883 -0.085539095 -0.004762944 -0.008052894 0.00848915 0.09932284 0.034361444 0.026210248 -0.017614458 0.09269951 0.040304217 0.03974581 0.004432553 -0.014014088 0.00077254116 -0.0272243 0.048490316 0.047710873 0.059229966 0.106396005 0.07591045 -0.11612742 0.11716474 -0.030755064 0.007859779 0.075547874 0.0112046 0.06946743 -0.105531245 -0.024583498 0.028973201 -0.051549923 0.009807031 0.035809815 -0.026499147 -0.011372122 0.043472406 -0.0811843
ghét -0.018237742 -0.020173306 0.01706273 -0.02982977 0.053774767 0.02021215 -0.060984097 -0.074179195 -0.01393273 0.020788973 0.024613105 -0.023166189 -0.0008603225 0.021004554 0.012414731 0.06853331 -0.007577954 -0.014560827 -0.013124788 0.015259425 0.018642489 -0.1075204 -0.027763302 0.06227758 -0.07906763 -0.029969605 -0.011363629 0.028623683 -0.034347255 -0.008463195 0.006179981 -0.050315764 0.009738422 -0.0034195764 -0.016926972 -0.06915869 0.024910256 0.026675688 -0.035287265 -0.05741051 0.028654758 0.17093804 0.0061038476 -0.035961196 -0.022812713 0.09616843 -0.06275342 -0.012995828 -0.07880156 -5.8507834e-05 0.07072213 0.004551278 0.108505085 -0.026157128 -0.020258762 0.006421198 0.07337319 -0.042247996 0.047190815 0.058074728 -0.09945264 -0.060910296 0.021927085 0.04828814 -0.039948467 -0.0010889934 -0.08417359 0.111160025 0.023189494 0.010276597 0.14868662 0.06995692 -0.017875332 0.007896664 -0.045110755 0.025215177 -0.02445579 0.07197483 0.08461641 -0.024294589 -0.0939058 0.013530895 0.042756844 -0.091538295 -0.037198357 0.009013217 0.080075614 -0.09864469 0.021781422 -0.075433835 0.09141982 -0.106893085 0.043533713 -0.02823525 0.061955184 0.018342812 0.021932911 0.034691017 0.0072738104 0.05719881 -0.030746473 0.014133162 -0.036749717 -0.10689697 0.12020665 0.03789948 -0.006112005 0.021571668 0.09065849 -0.055534374 -0.1004781 -0.036003925 -0.025108358 -0.05333778 0.004042818 0.05269104 0.055279948 -0.040340785 -0.073328525 -0.02872079 0.04268887 -0.013678306 0.08699751 -0.034131672 -0.03016188 -0.031257264 0.11882965 -0.05683174 0.02424215 0.004679073 -0.028489674 -0.08255576 0.05121693 -0.092796825 -0.12378995 -0.026778622 -0.015454419 -0.044069752 0.09622669 -0.028417813 0.0668475 -0.02338177 0.023805162 -0.0668747 0.0128748305 0.026285311 0.039882436 0.031942848 -0.039727062 0.019996569 -0.049670964 -0.06737577 0.046474155 -0.014580055 0.0017677037 -0.0013983808 0.0018502848 -0.08289759 0.06459847 -0.027102964 0.088450246 -0.025681296 0.0780946 0.10133265 0.0060650045 -0.04673829 -0.08253246 -0.091295525 -0.07469581 0.1328016 -0.009896903 0.039396893 -0.041593485 -0.06359437 0.07162524 0.08135939 -0.06334772 0.0035487306 -0.008317337 -0.058793332 -0.0068933396 0.014555972 -0.096838474 0.11337022 0.034708496 0.018022355 0.013257827 -0.030641597 -0.07437729 0.051075153 0.1650824 -0.058968127 -0.060648102 -0.0042195558 -0.109880134 -0.0024883065 0.08481839 0.09303377 -0.0113170175 -0.041801296 -0.11039481 0.059603214 0.043784253 0.004072922 0.014109662 0.006392066 -0.0051853964 0.05768047 0.059729457 0.0040589385 -0.08967187 0.01390923 0.00593585 -0.03258182 0.037006084 -0.075358085 -0.023836236 -0.008583997 0.033999607 0.06937815 0.10847789 -0.046330433 -0.025982333 0.04725491 0.05383886 0.030602753 -0.079160854 -0.043751236 -0.018464975 0.01919154 -0.0069578197 0.07123875 0.00029627784 -0.029503485 0.052609466 -0.031721443 0.03323245 -0.110610396 -0.061914396 -0.0062798085 0.0048897984 -0.037990764 0.06090447 -0.0499351 -0.048907693 -0.053011496 0.04270829 -0.016669635 0.066101715 0.033572327 0.051640324 -0.02928402 -0.11137366 -0.101334594 0.002468108 0.023133172 0.023855658 -0.04840273 -0.13236463 -0.07620487 0.024764594 0.030086135 0.06333024 0.024094544 -0.008913195 0.08546902 0.068471156 -0.027625408 0.052753188 -0.030033696 0.13501568 0.05148495 -0.034992054 -0.023908097 0.04138956 -0.03340142 0.12347532 0.043042343 0.029363649 -0.03375295 0.054578826 -0.10482467 -0.029637495 -0.00717845 0.05847093 -0.041003067 0.08824632 0.041766338 0.019930536 0.043296766 -0.13807654 0.029334517 -0.077434264 0.011069585 0.03129805 -0.11080849 -0.013214905 -0.0198276 -0.085047565 -0.0403874
em -0.032225855 0.061605174 -0.05504072 -0.12507899 -0.025117267 0.08566322 0.010943468 0.0047229216 -0.054752193 -0.07370197 0.018118862 0.0022247497 0.14475106 -0.099539585 -0.047329906 0.06773587 -0.0314997 -0.17600483 -0.04587953 0.09283377 -0.052213553 -0.06394631 -0.07151189 -0.058216445 -0.05052887 -0.05285451 -0.06001925 0.05231812 -0.06790821 -0.05517046 0.008303164 -0.0487067 -0.0035771434 0.03878837 0.05695003 0.019792119 0.0072057955 -0.054909047 0.027582327 0.017339453 0.045852423 0.05610575 -0.05227939 0.056460116 -0.028081922 0.060104452 0.051841762 -0.015751012 0.016959917 -0.067422174 -0.035542935 0.035085943 0.024414347 -0.030994292 0.05229488 -0.030107414 -0.064285174 0.01835433 0.015346687 0.07479218 -0.0473241 -0.032074813 0.08550056 0.009527753 -0.009432482 0.0064490438 -0.076023735 0.14949527 0.030279756 0.059093643 -0.0037177273 0.010360606 -0.024842296 0.0715022 -0.038544383 0.0033480653 0.043240193 0.15280461 0.12028442 -0.034900047 -0.041700743 -0.041894384 0.0017728674 -0.047812074 -0.04955098 -0.0018631625 0.022212641 0.05024809 -0.026437903 0.046721872 0.04932442 -0.008313813 -0.03433461 0.030872298 0.044398174 0.10369901 -0.033635568 0.049839504 -0.13704218 -0.009706291 -0.0503391 0.041323144 -0.07126402 -0.06319304 0.07779168 -0.06718593 0.026362384 0.030231345 0.07078767 -0.042301033 -0.047157567 0.03484389 -0.011319907 0.012665137 -0.01658367 -0.03532993 0.02812646 -0.04503913 0.04914627 -0.09091672 -0.07766388 -0.07251495 0.061880145 0.014780479 0.034642503 0.06233908 -0.03563976 0.08303357 -0.003549259 0.08109715 0.0081709055 -0.13051645 -0.018346392 -0.015367794 -0.12866718 -0.0072809285 -0.038228747 0.11794717 0.053853698 0.052157395 0.015592031 -0.021867959 0.0731559 0.01279933 -0.08243715 0.09156542 -0.013464683 0.049951818 -0.113262974 -0.012535203 -0.0048638927 0.027489377 0.009120525 0.014072718 0.046412047 0.11088118 0.10784682 -0.12193425 -0.011874303 -0.008109715 0.012925391 -0.0024114202 0.102854736 0.02115342 0.08539794 0.012287922 -0.10649133 -0.011123555 -0.061349567 0.09556025 0.0835351 0.009498513 0.05567974 -0.04993826 0.026139695 0.06845234 -0.07303972 0.05269572 0.03070383 0.03730314 -0.015211332 -0.029962182 -0.041377362 0.12796426 -0.107864246 -0.032719642 0.12273786 0.0818175 -0.094045974 -0.0038585048 -0.092159905 0.06318529 -0.05756581 0.036598284 0.029276691 0.039136928 0.075084575 -0.0302875 -0.097169414 -0.030200362 -0.052933898 -0.014682302 0.10717294 -0.017392512 0.040322013 -0.008460207 -0.024774522 -0.09580424 0.052043147 0.09066886 -0.08659464 -0.023541024 0.04183823 0.018999932 0.040931985 -0.06365197 -0.07409506 -0.019428072 -0.043418344 -0.020307207 -0.07927692 0.009976228 -0.10106355 -0.014254354 0.05310043 -0.010912679 -0.022282353 -0.052244537 0.048083175 0.011960668 -0.036956523 0.05386338 0.07833001 0.024913942 0.009261303 0.014469103 -0.02455377 -0.00487919 0.0078008566 0.046549533 0.057060406 -0.017235275 0.021194085 -0.030548917 0.00064221275 -0.0031691403 0.016587736 -0.033170827 0.11080566 0.020318825 0.031888917 0.01663789 -0.056919046 0.005107494 0.040153544 0.072408445 -0.004266314 -0.066727 -0.05099748 -0.051541615 -0.0011881469 0.07261177 0.057219192 -0.05088517 0.0017011618 0.08495449 -0.160955 -0.0034890363 -0.018414553 0.04995569 -0.004853049 0.012091182 0.044626668 -0.0076912553 0.03732057 -0.03407707 -0.02069449 0.100633666 -0.03597476 0.049742684 0.03291522 -0.03215227 -0.020880386 0.03602704 0.08965999 -0.03856181 0.09713843 -0.000736129 -0.0027142758 -0.010120491 -0.029402558 0.004988985 -0.07033841 -0.076068275 0.013546012 0.021900877 -0.009932271 0.0027510677 0.07983848 -0.07593854
iphone 0.03072166666666667 0.004917 -0.05740916666666667 0.03179333333333333 0.023989333333333335 0.035936666666666665 0.010432499999999999 0.0028074999999999997 -0.027209 -0.029381666666666667 0.04096666666666667 0.009431333333333333 -0.006907666666666667 -0.033794833333333336 0.025783833333333336 -0.007548166666666666 0.006965833333333333 -0.032232833333333336 -0.009158833333333333 -0.043303 -0.019336000000000002 0.001253 -0.0011205 0.016876 0.009200166666666667 0.028635166666666666 -0.0015273333333333335 -0.003199166666666666 -0.010332333333333334 -0.024356166666666665 0.020292833333333336 -0.03230683333333333 -0.0156915 -0.040363 0.0164455 0.0182625 -0.048473499999999996 0.041758333333333335 0.009593000000000003 0.023893499999999998 -0.0246575 0.008865166666666667 -0.005432 0.0018751666666666665 -0.025936999999999998 -0.030059500000000003 0.04392516666666666 -0.0030450000000000004 0.002037 0.027327666666666667 0.008807333333333334 0.06234466666666666 0.03180283333333334 -0.035453000000000005 0.04939416666666666 0.006079333333333333 -0.0068484999999999996 0.033415 -0.01911833333333333 0.024957000000000003 -0.02509566666666667 -0.035279666666666674 -0.014499666666666668 -0.015533333333333335 0.011771166666666666 0.016859 0.038387166666666674 -0.0135345 0.03344516666666667 0.013904666666666668 -0.045387666666666666 -0.0118155 0.027392833333333335 0.012338333333333333 -0.05676016666666667 0.0076528333333333335 -0.028375333333333336 0.0277255 -0.022151166666666666 -0.019960500000000003 0.011910833333333334 0.0002395 -0.004698333333333333 0.031633666666666664 -0.02948133333333333 -0.06369999999999999 -0.003086 -0.005049666666666667 -0.0210645 -0.008575666666666667 -0.006384000000000001 0.03641783333333334 -0.007193833333333333 -0.018957666666666668 0.005415166666666666 -0.013034333333333334 0.003939166666666666 -0.03495633333333333 -6.933333333333336e-05 -0.008446333333333333 -0.015165999999999999 0.001226 -0.0030151666666666664 -0.019868166666666666 0.014449333333333333 -0.0011740000000000001 -0.019388666666666665 0.015488500000000002 0.0378685 0.0019686666666666667 0.040536166666666665 0.024742333333333328 0.0255015 -0.012021833333333334 0.009826166666666667 0.005709 -0.019103666666666668 0.0006108333333333333 -0.011308666666666667 -0.046619333333333325 0.013969833333333334 -0.003277 0.044499500000000004 0.027506500000000003 0.035888333333333335 0.010437166666666666 -0.011149 -0.014328500000000001 -0.0138365 -0.014694666666666667 -0.022031 -0.009652833333333333 -0.0250185 0.02447033333333333 -0.021578 0.01590566666666667 -0.021744 0.007676333333333334 0.0018530000000000003 0.05576916666666667 -0.006080833333333334 -0.007535166666666667 0.024457999999999997 0.024118166666666666 -0.039818 -0.043513500000000004 0.04615266666666667 0.0018706666666666665 -0.001174 -0.045654 0.0030891666666666667 0.015712833333333332 0.02889816666666667 0.034903500000000004 -0.005251666666666666 0.006419 -0.0021845000000000002 -0.022263 0.0129325 -0.02398233333333333 -0.016069333333333335 0.018700166666666667 0.02378116666666667 0.006390166666666666 -0.010794833333333332 -0.009085333333333334 0.025845333333333335 -0.031636333333333336 0.023786166666666667 0.0316015 -0.035048833333333335 -0.025139333333333333 -0.012614 0.03526783333333333 -0.023195833333333332 -0.031631 -0.010654166666666666 0.0039180000000000005 -0.033515833333333335 -0.028063333333333332 0.03851266666666666 -0.011554166666666666 -0.0031753333333333334 -0.009036666666666667 -0.007991666666666666 -0.014837499999999998 -0.00044300000000000003 0.01563016666666667 -0.07151533333333332 -0.003841833333333333 0.008206666666666666 0.03231883333333333 -0.03728616666666667 -0.04564083333333333 -0.007421500000000001 0.037969833333333335 -0.013531833333333331 0.005183833333333334 0.008254666666666665 0.0001395 -0.04672083333333334 -0.035322 0.015181 0.028617 0.0183265 0.010058666666666667 0.017709333333333334 -0.009765666666666667 -0.00709 0.039724999999999996 -0.034767166666666675 -0.0006115000000000001 -0.0067625 0.026731500000000002 0.003937666666666667 0.067004 0.007000666666666666 -0.028757500000000002 0.0039045 0.003469833333333333 -0.0007631666666666667 0.014001833333333333 -0.004713333333333334 0.0026745000000000002 -0.02164416666666667 -0.0048088333333333325 0.005547666666666666 0.0146695 -0.012232833333333332 -0.020890500000000003 0.000593 0.0008991666666666667 -0.012067000000000001 -0.032927333333333336 -0.041550166666666666 0.005927333333333333 -0.0160415 -0.03969966666666667 0.031166666666666665 0.03238233333333333 0.002773166666666667 0.03114183333333333 -0.013237833333333332 0.015278166666666667 0.0097845 -0.019024666666666665 0.045553500000000004 -0.005195333333333334 0.038455166666666665 0.056924833333333334 0.020857666666666667 0.014059000000000002 0.008077833333333334 -0.05180166666666667 -0.04126683333333333 -0.025012166666666665 -0.0066166666666666665 0.018082 -0.020797333333333334 -0.031131166666666668 0.0090325 -0.005282833333333334 0.03338533333333333 -0.0208 -0.030290833333333333 -0.017673333333333333 -0.026581833333333332 -0.010422333333333334 0.004762666666666666 -0.002366833333333333 0.0247795 -0.007233666666666666 0.010296333333333334 0.004755166666666666 0.01634333333333333 0.005315333333333334 0.005272666666666666 0.02833933333333333 0.04043733333333333 -0.05361183333333334 -0.0009933333333333333 -0.018015833333333335 0.0105735 0.022856500000000002 -0.028274833333333332 -0.002980166666666667 0.005742333333333333 -0.009628666666666666 -0.027874999999999997 -0.018509 0.010911166666666666 -0.04564633333333334 0.015545333333333333 -0.07033433333333333 -0.011200833333333333 0.009007333333333334 0.01614866666666667 0.010901000000000001 0.039662166666666665 0.0003003333333333333
thích -0.115369156 -0.08861903 -0.014594884 -0.040136334 -0.0743327 -0.022675265 0.008667283 -0.16795103 -0.010190388 -0.0005589245 0.012766063 -0.06841909 0.018863956 -0.020045867 0.062051363 0.11622467 0.00868857 -0.016524054 -0.06492404 0.040322844 0.051493227 -0.07657691 -0.0022138034 0.08153365 0.018065203 -0.021789338 -0.056869604 0.03508027 0.0318589 0.007103835 -0.0069163106 0.100543566 0.08176881 0.056867577 -0.0093101375 -0.07056599 0.015681714 0.022772575 -0.081355244 -0.027982717 0.002720829 0.13776262 0.022434017 -0.017754013 0.002676026 0.06377456 0.011705789 -0.029109892 0.012348846 -0.04245353 0.07232366 0.017165286 0.04341244 -0.0070105796 -0.030822953 -0.07637216 0.054528084 -0.08889474 0.043416493 0.09579767 -0.04441392 -0.14268084 0.09102543 0.030977027 -0.07328865 -0.0077249976 -0.104506925 0.08443064 -0.0074427985 -0.05509167 0.08696882 0.034693055 0.007720943 0.12767887 -0.030820927 0.078044675 -0.061378304 0.03548978 0.017129201 -9.14248e-05 -0.05464972 -0.025363455 0.058359664 -0.127391 -0.067516945 0.01894971 -0.004198117 -0.029525487 0.049196303 -0.058592804 0.08041458 -0.022936786 -0.0026281818 -0.06473753 -0.006804607 0.002560673 0.11785462 0.08550309 0.0216008 0.011297289 -0.069976054 0.011153149 -0.01764393 -0.1285425 0.07302307 0.008774729 0.065443024 -0.010022934 0.016147384 -0.07640865 -0.07495508 0.022855693 0.051702037 0.0085055055 0.107943185 0.0068944157 0.09937787 0.0027031917 -0.09082675 -0.030062718 0.08134713 0.016176172 0.10866693 0.030956754 0.07535648 0.0074772625 0.024153162 -0.036387872 -0.043513805 0.014610696 -0.013351342 -0.09422246 0.0028982172 -0.088831894 0.0056299935 0.07094104 -0.030857418 0.016377887 0.0042117 0.018992485 0.046094548 0.012104152 -0.03330436 0.075070634 7.4841555e-05 0.038315825 -0.052819077 -0.0994022 0.016669411 -0.013786197 -0.0812701 -0.03744409 -0.11254108 0.0040600584 0.059340876 -2.374162e-05 0.03621555 -0.06515312 -0.04071614 0.06852046 0.0042710993 -0.03936191 0.08849334 0.042907644 -0.013645705 -0.04969502 -0.11682475 -0.016124273 -0.091745116 0.05002344 0.049899776 0.0642307 0.018837601 -0.02378825 0.051028974 -0.016406877 -0.052316308 -0.023646338 -0.014955741 -0.062012848 -0.05950914 0.05929222 -0.14153136 0.07587953 0.01626294 -0.052685276 0.10153086 -0.057264928 -0.053386718 0.089170456 0.17438364 0.06313191 -0.03026342 0.018415924 -0.084049515 -0.041370954 0.061041772 0.12842289 -0.0225962 -0.017384438 0.06591944 -0.022004232 0.08911977 0.01420909 -0.0414338 -0.054745004 0.017415252 0.037016332 0.001134858 0.03701836 -0.06916108 0.07839945 0.020319551 -0.08219252 0.046072245 0.07809333 0.0025012733 -0.07449894 0.051095877 0.08777973 0.030835116 -0.019265156 -0.033253677 -0.020779748 0.053388745 -0.009554021 -0.022198852 -0.00062894716 0.042222418 -0.0025809458 0.0035345843 0.022099514 0.090313844 -0.0063093393 0.019223394 -0.056105316 -0.0048095486 -0.07967259 0.031958237 0.023881504 -0.010563815 -0.06668981 0.0443308 -0.026498739 -0.116050325 -0.03763263 0.06694322 0.014894517 0.13606578 0.024250472 -0.03972074 0.040444482 -0.11115239 -0.048436068 0.038001597 -0.021906922 0.012996566 -0.008225941 -0.015310923 0.022847585 0.023765948 -0.015938573 0.01031162 -0.023512537 0.04705143 0.06568225 0.053741492 -0.122977585 0.09296149 0.061639823 0.1093035 0.03159738 -0.051079657 0.0064169886 0.012501907 0.028911216 -0.01187892 0.0075950483 0.042232554 0.010125717 0.058963798 0.028992308 -0.06667967 0.038396917 0.04327864 0.0013723553 0.056263447 0.042560976 0.030022172 0.024370082 -0.10173359 0.033770636 -0.04884153 -0.08007805 0.014633199 -0.012815935 0.0019164603 0.019580603 -0.06932124 -0.01288101
hận -0.057562016 0.011441143 0.11858619 -0.039689105 -0.0011811167 0.0038420972 -0.025728064 -0.04228655 -0.05672872 0.023348868 -0.059691556 0.00011368395 0.14419687 0.030848546 -0.0835695 0.117258534 0.063666254 0.0045760274 -0.025129545 0.0226528 0.024630228 -0.031280074 -0.03139581 -0.014867583 -0.037619088 -0.07474382 -0.1034248 -0.06658775 0.0053922953 -0.0136039145 0.101968184 0.022837976 0.03373863 -0.07597558 -0.024659988 -0.0024704628 0.013138326 0.10846426 -0.036602266 -0.123313166 0.024102803 0.14225747 0.030618727 -0.0023482789 0.0056966804 0.02906456 -0.009924012 -0.051259376 -0.066063635 0.012734243 0.03585164 0.01191599 0.038138248 -0.022581704 0.032723464 -0.05904674 -0.07496868 0.025470138 0.043329824 -0.054729797 -0.101769775 0.02110194 -0.001184688 0.04612236 -0.0030486458 0.02195177 -0.0026184393 0.035476323 0.04901741 -0.07519023 0.07305904 0.039409686 -0.03298635 -0.0416004 -0.091092326 0.09635169 0.01315767 0.055857394 0.02808246 -0.05035333 -0.058949195 0.11820757 -0.048048537 -0.039055865 -0.114492446 -0.0074323863 0.053894848 0.0027397966 0.00953977 0.042458497 -0.005590865 -0.010868913 0.035122503 -0.06610497 0.04026944 0.058044802 -0.08087451 0.050490562 -0.05473476 0.018752502 0.011204711 -0.051213082 0.017438075 -0.0956209 -0.035755742 -0.033434413 0.047053207 0.06983001 -0.0012163831 0.056540236 -0.01924686 -0.046109136 -0.028452815 0.0029342328 0.013629376 0.03564166 0.009113862 -0.0073216106 -0.03403789 -0.10981838 0.035367202 0.008899255 0.11790665 -0.02067537 -0.037476897 -0.01282617 0.05196867 -0.03412552 -0.071157664 0.042516366 -0.02406643 -0.095720105 -0.028105607 0.047684796 -0.066195905 0.077126324 -0.05301691 0.07186034 0.058939274 -0.0719116 0.03161075 -0.05282677 0.045647845 0.07089147 0.0646219 0.13541417 0.053648494 0.12140518 0.0869804 0.045538723 -0.11284404 -0.07904919 0.03577889 -0.012010398 0.02459716 0.027946884 -0.017872911 -0.008580485 0.06876028 0.058345713 -0.026687017 -0.033431105 0.07842587 0.057702553 0.030142557 0.0038409398 -0.013016307 -0.13488509 -0.086312436 0.08502116 -0.001597501 0.030628648 -0.04341745 0.002691849 0.02661923 -0.024840206 -0.19048455 0.022442821 -0.020961404 0.03464964 -0.040497605 0.010308255 -0.07661213 -0.007272671 -0.008859574 0.119057395 -0.03346583 0.04129122 0.045418028 0.04139869 0.030898146 -0.0043690256 -0.07709821 0.0678377 -0.06797493 0.036919713 0.08669437 0.08719203 -0.034388408 -0.02772864 -0.03064022 0.0147409355 0.11140065 -0.020657184 0.06866439 0.0079224445 0.0053947754 0.04719044 0.02317361 0.031428877 -0.08705976 0.09891111 0.033748552 0.03938819 -0.034824897 0.024499612 0.01242407 -0.04230804 2.1029191e-05 0.046973847 -0.009448173 -0.14943638 -0.09968819 0.085854456 0.018934373 0.03025664 -0.008084144 0.028642952 0.03291691 0.054261893 -0.030063195 -0.041735977 -0.026599389 0.03172318 -0.027083825 -0.07369889 0.07980478 0.08164828 -0.011313338 0.061634265 -0.013356901 -0.06273706 -0.06495754 -0.06125564 -0.09925335 -0.03013925 0.041372236 0.007818944 0.028657833 -0.03117922 -0.025982684 0.14615445 0.030691475 -0.060762938 0.0841085 0.030135944 0.09059962 -0.1042085 -0.01729754 -0.054587606 0.029489476 0.07888386 0.02538747 -0.032002598 0.005109735 0.067963354 -0.0111407265 -0.04436979 0.059288133 0.07730985 0.035418455 -0.02678622 -0.02856359 0.03392216 0.0851154 -0.039998285 0.09689234 0.060232207 0.015574234 0.035711102 0.009721475 -0.07902439 0.13035817 -0.07291685 -0.008201202 0.018074622 0.016492018 0.071721464 0.10114977 0.05538453 -0.07851846 0.062155075 -0.052623406 -0.03536224 0.028804982 -0.06665719 -0.046882913 0.019990876 -0.04433838 0.03591281
đắm_say 0.035702 0.003980857142857142 -0.053504142857142854 0.03221771428571429 0.02075242857142857 0.03124714285714286 0.013928285714285714 -0.004067285714285713 -0.029518714285714287 -0.02486771428571428 0.039360285714285716 0.002806714285714285 -0.008131285714285714 -0.023265857142857144 0.022190714285714286 -0.006307999999999999 0.011657142857142856 -0.02956114285714286 -0.005587571428571429 -0.03802957142857143 -0.019681 0.0022124285714285722 0.0006238571428571431 0.01662257142857143 0.001853 0.02697257142857143 0.0027574285714285713 -0.0036337142857142857 -0.0029519999999999998 -0.019487285714285714 0.021438285714285715 -0.030772714285714285 -0.008924857142857142 -0.031124857142857145 0.01901614285714286 0.012129571428571429 -0.040841714285714294 0.03329128571428571 0.00568242857142857 0.027204428571428574 -0.018581571428571426 0.012166571428571428 -0.009059857142857144 0.001293 -0.026378142857142853 -0.03102371428571429 0.041379285714285716 -0.005009428571428573 0.005132 0.026112857142857143 0.010681428571428573 0.057486714285714294 0.02998428571428571 -0.03662714285714286 0.050667 0.0043487142857142865 -0.009377285714285715 0.034112142857142855 -0.01753942857142857 0.021653428571428573 -0.02217614285714286 -0.03190328571428571 -0.012284285714285716 -0.010972714285714284 0.01253842857142857 0.012757571428571427 0.038394428571428565 -0.016060857142857144 0.030459142857142858 0.011976571428571428 -0.04228085714285714 -0.013794571428571425 0.02658 0.013561857142857141 -0.049720714285714285 0.012235000000000001 -0.01875342857142857 0.027661857142857144 -0.019043428571428572 -0.01651657142857143 0.013259428571428571 -0.0019421428571428571 -0.0012818571428571425 0.03199085714285714 -0.023910571428571427 -0.054441142857142855 -0.00786857142857143 -0.00922042857142857 -0.01359757142857143 -0.015065285714285713 -0.0036342857142857145 0.03479271428571428 -0.006764142857142857 -0.017945428571428574 0.004744857142857142 -0.014016142857142855 2.6000000000000354e-05 -0.028157285714285718 -0.0038822857142857136 -0.008542571428571429 -0.014890142857142855 0.008143857142857144 -0.0027311428571428578 -0.015157 0.016174285714285714 -0.004676 -0.01785542857142857 0.009452285714285715 0.04152528571428571 0.005572571428571428 0.033860857142857144 0.022775857142857143 0.019242428571428574 -0.008984571428571429 0.010134 0.0050461428571428575 -0.019351142857142855 -0.002210857142857143 -0.007771 -0.04494942857142858 0.007641857142857144 -0.0035112857142857138 0.045478714285714296 0.024913714285714286 0.032718285714285714 0.012446571428571428 -0.013141285714285713 -0.014172714285714285 -0.011939428571428571 -0.008726857142857142 -0.014421999999999999 -0.006474714285714286 -0.023751857142857147 0.024041285714285716 -0.018005714285714285 0.018321285714285714 -0.020860285714285713 0.013666999999999999 0.0022405714285714286 0.04634814285714285 -0.007906571428571428 -0.0031347142857142854 0.026600142857142857 0.024695857142857148 -0.038662857142857145 -0.035913571428571434 0.04284085714285714 0.0004268571428571429 -0.004044857142857143 -0.040840714285714286 0.004995285714285713 0.009833428571428571 0.024998999999999997 0.03072 -0.004796000000000001 0.008971999999999999 0.00167 -0.021051571428571426 0.005271142857142857 -0.024544142857142855 -0.011376285714285716 0.01452142857142857 0.020447857142857146 0.006906857142857143 -0.014465142857142855 -0.007716285714285715 0.022790428571428573 -0.030101857142857142 0.02692785714285714 0.027322571428571425 -0.03298971428571428 -0.02493771428571429 -0.013454285714285716 0.02807357142857143 -0.024712428571428576 -0.025451571428571428 -0.0039049999999999996 0.0036442857142857145 -0.02271185714285714 -0.02618971428571429 0.036305 -0.005518142857142856 -0.004316428571428572 -0.007544285714285714 -0.010476571428571429 -0.010429571428571427 0.0011138571428571428 0.011214 -0.06572914285714286 -0.008236857142857143 0.010567857142857143 0.02773628571428571 -0.032573000000000005 -0.029272 -0.013520571428571425 0.03498885714285715 -0.005473 0.0028867142857142863 0.009524142857142858 -0.00017500000000000003 -0.043653571428571424 -0.033899428571428566 0.012689142857142855 0.027494428571428576 0.022720999999999998 0.004914571428571429 0.014784142857142859 -0.011413000000000001 -0.008312285714285715 0.03192242857142857 -0.035359428571428576 0.0013294285714285712 0.00038514285714285734 0.018208571428571428 0.007099571428571428 0.05693771428571428 0.009471714285714286 -0.024547285714285712 0.0037761428571428573 0.010671285714285713 0.009223714285714285 0.009572571428571429 -0.003733571428571429 -0.007099714285714285 -0.016010714285714288 -0.004519142857142858 0.008136714285714285 0.013723 -0.008729142857142855 -0.01835785714285714 -0.00041042857142857146 -0.006710571428571429 -0.012885428571428572 -0.03539485714285714 -0.03873457142857143 0.00922985714285714 -0.014655857142857142 -0.04312071428571428 0.02744342857142857 0.026921000000000004 0.002742285714285714 0.030405428571428576 -0.016467285714285716 0.010253714285714286 0.005501428571428571 -0.012715428571428572 0.03803371428571429 -0.002460571428571429 0.031764714285714285 0.053971428571428566 0.013786714285714286 0.013702285714285712 0.010443571428571429 -0.048286142857142854 -0.03447328571428571 -0.022426571428571428 -0.007564285714285715 0.020196142857142857 -0.018473 -0.03326342857142857 0.008520857142857143 -0.003727857142857143 0.023933714285714287 -0.02144357142857143 -0.030397 -0.02064757142857143 -0.02148514285714286 -0.010815999999999997 0.0018968571428571428 -0.0006154285714285715 0.02023285714285714 -0.007855714285714284 0.008901142857142857 0.0018198571428571428 0.017402857142857144 -0.00016099999999999993 0.008795142857142856 0.025696142857142855 0.03737185714285714 -0.04898142857142857 -0.002048714285714286 -0.013250857142857144 0.008211857142857142 0.02059357142857143 -0.030653999999999997 -0.0010755714285714286 0.004717285714285714 -0.004603 -0.030251142857142855 -0.01348042857142857 0.012580000000000003 -0.04157171428571429 0.014565999999999999 -0.0641227142857143 -0.009638571428571429 0.009994 0.012000142857142859 0.007542714285714285 0.03847642857142857 -0.0017545714285714287
đẹp -0.043797694 0.07805925 0.12294768 -0.007069834 -0.066468365 -0.04110929 -0.04156636 0.050018 0.08855939 0.017918598 0.03758985 0.010439271 0.1337657 0.01094371 0.10348272 -0.009599093 0.105288155 -0.1211464 0.007295668 0.12632169 0.02526766 -0.10335392 -0.010437609 0.10257482 -0.06233188 -0.06071344 -0.028217841 -0.0117658125 0.053057518 -0.068142906 0.031222036 -0.013127258 0.083741456 0.1016212 -0.07721159 -0.060270913 -0.13121234 0.09007396 0.016539078 0.08418398 -0.033804484 0.02270807 0.044285927 -0.022305015 0.095321946 0.004008712 -0.064149775 -0.011758749 0.01675868 -0.06766921 -0.0056024315 0.061388656 0.09335239 0.071176186 0.0047377385 0.11352996 -0.05367456 -0.020962892 -0.02116442 0.033968613 -0.05514134 -0.025884705 0.05235737 -0.04502763 0.0064906017 -0.038433354 -0.02669912 -0.07507583 -0.0008013476 0.023823734 0.06208465 0.06333744 0.047824066 -0.015739828 -0.011583192 0.040614825 -0.08899984 0.050747234 0.0545887 -0.08531211 -0.027773235 -0.026391638 0.0025749663 -0.0615424 -0.027663123 0.03523802 0.048229195 0.02971786 0.07223991 0.019577347 -0.06442194 -0.048910644 0.025194945 -0.05225349 -0.052621223 0.07693943 -0.07311458 0.08986827 -0.07636393 0.054493133 -0.06899264 0.057854675 0.05443496 -0.13944376 0.013696726 0.048781835 0.0008184046 -0.04624094 0.0999342 0.033654895 0.060840175 -0.05178811 -0.0072713606 -0.024606988 0.056919757 -0.049577553 -0.02424133 0.017722266 -0.05233244 0.013166109 0.061241146 0.045106575 0.068394296 -0.010181234 0.052008335 0.06787697 0.008249698 0.039276857 -0.048006892 0.02411252 -0.08670203 -0.041900855 -0.009523677 -0.097571984 -0.044080246 -0.03498871 -0.032416653 -0.08501502 -0.016049182 0.010262468 -0.003918752 -0.0043334393 0.08439382 0.019776588 0.10936646 0.0554883 -0.022820259 0.058617152 -0.021563316 0.0041522733 -0.03740287 0.013079681 -0.076669335 0.002404396 0.053032584 0.025228187 0.06242122 -0.05143284 -0.05080541 0.043434117 0.08490075 0.0045463922 0.1600119 -0.037363395 -0.003430726 -0.07131331 -0.027548855 -0.057407994 -0.06944971 0.029300265 0.04132744 0.005570229 0.0075327214 0.046263795 0.06477928 -0.044470835 -0.05575631 0.054397564 -0.0695432 0.09976799 -0.0020742253 0.047749273 0.033118878 0.005265654 -0.06103131 -0.06328758 0.08963974 -0.06806603 0.026524603 0.06912561 0.084755324 0.018874498 -0.05069945 0.15467872 -0.01905982 0.0734366 0.012844498 0.12949625 0.052093513 -0.0007268036 0.022338258 -0.03519647 0.01856639 0.05908045 -0.029655533 -0.10825703 0.06950996 0.017649135 0.12528704 -0.05891217 0.005938378 -0.044115566 -0.010476875 0.025053669 -0.06731187 0.0717226 -0.016487762 0.10631033 -0.021384643 0.13720202 0.01087515 0.0033370266 -0.10537957 -0.019110097 -0.01251146 0.028893057 -0.00029084194 0.08698665 0.018953446 0.0522244 -0.07387706 0.07336804 0.031905565 0.052671086 -0.005188783 0.069780044 0.031766366 -0.0893094 -0.034068335 -0.019762669 -0.045952156 0.045368355 0.06486862 0.061372034 -0.01269408 -0.084042706 0.018987104 0.07527943 0.011324532 0.0254588 -0.03385019 0.096678615 0.00082721363 -0.0031224114 -0.007763957 -0.061559018 0.04361279 -0.049178656 -0.08671449 -0.11601891 0.00024783582 0.0566933 -0.001697371 -0.0036607152 -0.04683098 0.0034481776 0.0054771528 -0.0057846364 0.06661587 0.009078241 0.059286136 0.034591887 -0.049282536 0.016433744 0.004241194 -0.005504785 -0.018557666 0.06882436 -0.072414435 -0.03164379 0.034498397 0.113789655 -0.028903445 -0.10812822 -0.009741616 -0.04772434 -0.029541265 0.03466876 -0.018338688 0.026805079 -0.05367456 0.059824232 -0.041138377 -0.003996246 0.029152757 -0.060939897 0.05608249 0.06717059 -0.019441266 0.05251319
giận -0.045808874 0.028460657 -0.010134199 -0.093375675 0.03131066 0.067622945 0.014789032 0.032197326 -0.016474385 0.030233992 -0.011171326 -0.0693843 0.047645543 -0.05046302 0.07732494 0.038939767 0.016306465 -0.06097123 -0.12845723 0.015557592 0.030704714 -0.056642305 -0.033979222 -0.011939201 -0.07529827 -0.06857124 -0.06341898 0.025561016 -0.03558652 -0.043871213 -0.008366512 0.012369526 0.060012672 0.025223808 -0.026642818 -0.093093246 0.14871195 0.09432054 0.0026232006 -0.089178555 -0.04431626 0.092848465 0.023536058 0.011226444 0.0150849875 0.1531898 -0.016872017 0.014536212 0.025497682 0.009484604 0.017276322 0.0036620395 0.09157838 -0.10770785 -0.02050119 0.008353332 0.052325364 0.03723148 0.033313364 0.06869961 -0.061387178 0.021733625 0.031699218 0.0030745796 -0.071628354 -0.051472932 0.00502696 0.11212407 0.06277709 -0.00071979256 0.021579571 0.06705979 -0.017678576 -0.051094644 -0.012657949 0.008526044 -0.086852334 0.054066177 -0.0009357081 0.04593554 0.01766317 0.036776163 0.065871865 0.0161697 -0.06359186 -0.021182453 0.059149966 -0.031252462 0.0019063351 0.05223978 0.07997809 0.013315076 0.032606427 -0.0024722277 0.032245256 -0.0550487 -0.035410214 0.0754917 -0.022680202 0.057540957 -0.055103477 0.05527636 -0.0127770845 -0.08183701 0.03406652 0.056332488 -0.012654183 0.022483354 0.010257271 0.008752333 -0.049245995 -0.04564797 0.017271187 0.027262459 0.018508757 -0.04957293 -0.0331285 0.02497732 0.03744373 -0.0050105276 0.019373171 0.05670393 0.076304756 0.04913987 0.00700125 0.0068738987 0.105439834 -0.08216738 0.04912446 -0.03195769 -0.06931412 -0.031245615 -0.0034049402 0.03397751 -0.09699082 -0.0012837336 -0.023142364 0.0104097845 0.0113733085 -0.06369285 -0.03885076 -0.0020578217 0.04292635 -0.01900173 0.037666254 0.106465146 0.1394841 0.1327913 -0.037454 -0.0038777154 -0.019213982 0.008974342 -0.026680477 -0.0054025096 0.06719331 0.06691943 0.003077147 -0.10984749 0.107190914 -0.007872341 0.107493885 0.0020858939 0.06685439 0.04484518 0.060466275 0.04582599 -0.027900929 -0.093918286 -0.06979682 0.044482294 -0.035271566 0.03910067 -0.0048388424 -0.098127395 0.008684378 0.043272115 -0.10015235 -0.041305356 -0.035379402 -0.010476542 -0.020295786 -0.006657538 -0.1265949 0.038847335 -0.040654905 -0.04125914 -0.053908702 0.08201161 -0.020905156 0.060457718 0.09526883 -0.010598074 -0.025538763 0.021505967 -0.13907842 0.08373873 0.11643759 0.091340445 0.0028734533 -0.03966896 -0.093765944 0.12577157 0.0917427 -0.0386813 0.012868661 -0.0025410384 -0.04867086 0.030225435 0.07568341 0.0062424475 -0.09544685 -0.04865374 0.06910872 -0.04832509 0.0048859147 -0.07098133 -0.038486164 -0.00065283035 0.012934905 0.11427398 0.078211606 -0.082775034 -0.100640185 0.05970285 0.057677895 -0.016379215 0.0021124254 -0.016012052 0.053275365 -0.033042915 -0.06354907 0.048138514 0.00657743 0.052885097 0.028893722 -0.059115734 0.007118845 -0.0032330842 -0.007123466 -0.036125712 0.042251933 0.076754935 0.06110303 -0.08609234 -0.048966985 -0.07230449 0.07918386 -0.0025941017 0.013214427 -0.02231903 -0.0019205423 0.009876072 -0.0698516 -0.034535527 0.04664419 0.06903683 0.093702614 -0.0998237 -0.053360954 -0.1266257 0.08451585 0.083481975 0.14750005 -0.04795536 -0.06832817 0.074724846 0.030388048 -0.062354293 -0.049673922 0.05287996 0.06690403 -0.02605399 -0.052594103 -0.031711202 0.033845708 -0.0014566509 0.06480547 0.010431352 -0.018207494 0.072403766 0.10834974 -0.024522005 0.06110303 0.023299843 0.045988604 -0.067970425 -0.011387002 0.010749047 0.114352725 0.08941135 -0.094815224 0.036492016 -0.070686914 -0.0036189044 -0.005000599 -0.06683043 -0.02205885 -0.08165728 -0.00027450747 -0.081503235
đà_nẵng 0.01790522 -0.030853065 0.037452172 -0.07947007 -0.0730963 0.06952133 -0.054463204 0.009453177 0.04953623 -0.11084712 -0.037942186 0.027303137 0.1384364 -0.046939507 0.048611637 -0.006579972 -0.009893833 -0.05086857 -0.0054384517 0.024974672 -0.08008527 -0.059620883 -0.09075293 -0.026394643 -0.093050994 0.03495381 -0.044378553 0.023050379 0.12316546 0.00011442924 0.035155896 0.04582356 -0.0019664983 -0.015392374 -0.05271775 -0.055343088 0.015918335 -0.050133545 -0.0067722225 0.016440183 0.009449958 -0.025271542 0.01311595 0.018397024 0.090101965 0.115033716 0.012743789 0.0049681086 -0.030828027 0.0940972 0.0075036683 0.08972104 -0.012913506 -0.028234882 -0.09091567 -0.021496281 -0.02536096 -0.0029939204 0.0068800617 0.07595412 -0.0005461522 0.00016268142 0.06380032 -0.077703156 -0.09473386 -0.032902543 -0.03933891 0.046141893 -0.07687692 0.06282386 0.037802693 0.10125249 -0.015141465 0.058426246 -0.020664686 -0.12567991 0.0139142815 -0.014148737 0.023724597 0.0017587785 -0.052515663 0.011577768 -0.009213535 0.058009554 -0.01580531 -0.088206284 0.09794578 0.1016817 -0.056915067 0.051975574 -0.11117797 -0.07429093 0.0047247107 0.03626648 0.056106724 0.016431957 -0.07166738 0.012278275 -0.05086678 0.055965442 -0.092339225 0.05408407 0.0067427144 -0.15905996 -0.016887635 0.0042042932 0.053177364 -0.070660524 -0.050092414 -0.034199115 0.04221283 -0.050589584 0.12598573 0.049496885 0.045866482 -0.021206563 0.03773116 0.069812834 0.008198631 0.039610744 -0.030847698 0.00025820575 0.10838275 0.06347841 -0.030393451 -0.015304386 -0.003318332 0.047334738 -0.04951119 0.15809065 -0.010015622 -0.052218795 -0.02287154 0.013992612 0.018209245 0.028242035 -0.14761971 0.09567812 0.007187841 0.06511835 -0.015607873 0.01165127 -0.035422366 -0.08514101 0.12416874 -0.010375264 0.021324595 -0.032151423 0.07918035 -0.056578852 -0.028132943 0.054495394 -0.108402416 -0.07395293 0.12271479 0.06995054 -0.105355024 -0.020729067 0.056598525 0.0027440842 -0.017870348 -0.023272138 0.05376753 0.09254846 -0.034935925 0.11741941 0.09421344 -0.039059922 -0.12246084 -0.016738664 -6.133951e-05 0.045456942 -0.042232502 -0.0038736225 0.053202398 0.11034996 -0.06666887 0.08247811 -0.00898498 0.12268439 -0.027052766 0.03582475 0.0035969608 0.069784224 -0.052326094 -0.025192853 -0.057008065 0.006679227 0.0033381828 -0.011967097 -0.09664921 -0.015070109 -0.0778641 0.031516552 0.058143683 -0.013039944 -0.0034934138 0.07224861 -0.07050315 0.021399708 0.04801432 -0.015988082 0.02474397 0.073153526 0.035785407 -0.011542895 0.0895726 0.007287454 -0.054708213 -0.04359703 -0.102232516 -0.01791774 0.08380688 -0.004262952 -0.03159524 0.03217646 -0.10057291 -0.010847574 -0.020872137 -0.122577086 0.061133847 0.02864442 -0.05377647 -0.08445069 0.06983609 0.016401734 -0.039551724 0.028724896 0.074131764 0.04868854 -0.14814013 -0.00020764835 0.045837868 -0.028279591 -0.009412402 0.05437915 -0.042230714 -0.06961969 0.04507602 0.070494205 0.0074868575 0.037425347 0.055961866 -0.032337416 -0.04661939 0.054221775 -0.011552552 -0.039607164 0.14102776 0.0021219081 -0.0031829518 -0.048493605 -0.0035755003 -0.024275417 -0.010189809 -0.02727989 -0.040002394 -0.015343373 0.013397798 -0.03328168 0.07444473 -0.06455501 -0.06366261 -0.041835483 -0.08317022 0.011037857 -0.023467071 0.044516258 -0.005606738 -0.00213085 0.031588085 -0.06378064 0.04005247 -0.0007306947 -0.04761909 0.018642033 -0.09411508 0.06365725 0.0024940693 0.04091268 0.023184508 0.051544577 0.00035095093 -0.025085552 0.08221523 -0.010336992 -0.034737416 0.15484834 0.0070102555 0.07018303 0.008976396 -0.035794348 0.001741306 0.0007454667 0.018350527 0.030237863 -0.035245314 -0.03704442 -0.015493775 -0.014021405
cậu -0.08036337 0.00078773126 -0.05742215 -0.07967243 -0.037764512 0.028935902 -0.005126954 0.03711525 -0.010589066 0.10433332 0.03974519 0.012754214 0.085487254 -0.049062937 -0.033184603 0.048565026 -0.015226882 -0.09308095 -0.09622635 0.007011341 -0.060593866 -0.12824623 0.0018731785 0.008814352 -0.05766123 -0.025547033 -0.059681393 0.11713644 -0.0114188455 -0.014111736 -0.047961827 0.01749578 0.09294277 0.058439907 -0.029920759 -0.0726578 0.018941259 -0.00141907 -0.044818625 0.0053645037 -0.038951162 0.019862067 0.005491943 -0.013193341 0.055757325 0.061466858 0.06961989 -0.035588615 -0.03919683 0.043517914 -0.0149375675 -0.08574608 0.058233723 0.021732854 0.032052785 -0.078012 -0.018002246 0.0050872527 0.023132052 0.054654025 -0.0503461 -0.17898057 0.038014565 -0.068459556 0.026891613 -0.021538734 -0.12396463 0.05196925 0.017157113 0.030308997 0.047354244 0.17654586 -0.022474019 -0.05476808 -0.023026766 0.044838365 0.06434465 0.061100554 0.09023606 -0.008268623 -0.034180425 -0.014134548 0.01977038 -0.07166637 -0.060826372 0.026744653 -0.0024766168 -0.027110957 0.092146546 -0.025540452 0.1031686 0.0116509115 -0.007911092 0.042015404 0.015037588 0.03495471 0.016620377 0.03003043 -0.103594124 0.017825674 -0.049626652 0.08405932 -0.07252839 -0.04650538 0.0346235 -0.039727643 0.0319475 -0.0630593 0.045777157 -0.087700434 -0.052997973 -0.054629896 -0.08812158 -0.028534502 -0.011156948 -0.020037541 -0.0012610104 -0.035424106 -0.08696344 -0.045200285 -0.08625934 -0.05297604 0.14233692 -0.06033943 -0.03918367 0.022261254 0.014362666 -0.032015495 0.020954182 0.03139475 0.0838663 -0.13073799 0.06514965 -0.06035259 -0.099575736 -0.08136797 0.12840416 0.06604896 0.064324915 0.0076768314 -0.038512476 0.022559563 0.1273206 -0.056470193 -0.010036099 0.058942202 0.054504868 0.050541315 -0.028503794 0.009940026 -0.010358974 0.03461034 -0.01494327 -0.028286643 0.025024993 0.017506747 0.06115758 -0.017057091 0.028277868 -0.047242377 0.05463209 -0.019088 0.11192482 -0.013547363 0.08940255 -0.022392862 -0.03751446 -0.060567547 -0.015576079 0.080227375 0.016722811 0.08634489 0.004828646 -0.040346194 -0.04510816 0.17393127 -0.010015261 -0.032019883 -0.01731153 0.028117748 -0.058012184 -0.04040103 -0.04507745 0.07636034 -0.15868683 -0.026865292 0.03354652 -0.0133431535 0.0011938034 -0.056832112 0.044513736 0.031089863 -0.07060035 -0.030877098 0.07505085 0.059510306 0.054452226 0.059139613 -0.061102744 -0.06588226 -0.024031363 0.05469131 0.07452881 -0.025693992 0.0365976 0.09762796 -0.07985449 0.07409012 0.06093824 0.08217735 -0.10955152 0.0031796151 -0.009283529 0.03984609 -0.06987871 0.094440885 -0.061490986 -0.050030246 -0.08354606 0.040118076 0.017220942 -0.045902185 -0.021000244 -0.111143954 0.055197995 -0.11279562 -0.06053245 0.025573354 -0.01622468 0.026928902 0.042884007 -0.015288518 0.048705406 0.015699789 -0.04277653 0.004129157 -0.048161432 -0.05604028 -0.0069174618 -0.0064476263 0.009327617 -0.0331517 0.03319118 -0.032008916 -0.07310966 0.01151426 0.06425472 -0.103591934 0.00018063224 0.06594367 0.037646066 0.034066364 -0.08626154 0.05467815 0.046849754 0.011421259 0.08221902 -0.06400248 -0.051598556 -0.07467797 0.048786562 0.007564089 0.06835207 0.020498164 0.09931691 0.011094655 0.057310283 -0.021048939 -0.023805438 -0.032467347 0.09611668 0.004380745 0.049466528 0.015052284 -0.002504254 0.056171887 -0.03518941 -0.059426956 -0.00058185466 0.016132994 0.04856941 -0.0061962577 -0.04940073 0.0053824903 0.024746425 -0.04323057 0.0019975028 0.035163086 0.025323302 0.12448229 0.032682303 0.070391975 -0.09827722 -0.030124748 0.028122135 -0.050028052 -0.061269447 -0.078781895 -0.029885663 0.028595919
bé -0.14693412 0.013599428 -0.06200521 -0.091307834 0.02005298 0.018185446 0.0010826087 0.0032253936 0.007817577 0.0043444685 -0.0036308803 0.020815473 0.15269217 -0.082747325 -0.045218024 0.12859474 -0.03878595 -0.07326826 -0.025624115 0.06735925 -0.04690631 -0.15135472 -0.048537187 0.025798472 -0.026770193 -0.0478993 -0.1271361 0.10517135 0.009375309 -0.052547403 -0.027905641 -0.020056807 0.12791857 0.036806356 -0.034960724 -0.020590086 -0.031475708 0.026355565 0.062164683 0.020217981 0.0007865206 -0.000980461 0.022485686 -0.060416862 0.074161306 0.011839697 -5.378491e-06 -0.0017816531 -0.0018884361 0.04443767 -0.096532166 -0.049736425 0.08468014 -0.0037325176 0.0728515 -0.074061364 -0.08637268 0.0033712583 0.0153763825 0.040859096 -0.041775536 -0.15369153 0.05244534 -0.05878386 0.039681125 -0.02864772 -0.09527765 0.01908551 0.050106402 0.052239086 -0.00027948167 0.10897531 0.02695093 0.017975578 -0.05533499 0.0199641 0.0875783 0.060667764 0.10323004 0.027212465 0.03856694 -0.051847845 0.021010881 -0.10719559 -0.04983636 0.010030849 0.065571025 -0.03377212 0.088435195 -0.0540911 0.013239232 0.036751073 -0.0017946236 0.039553545 0.004384443 0.057788745 0.015897753 0.025224369 -0.053510617 0.040733647 8.9579145e-05 0.054461077 -0.021275818 0.012056155 0.0023742334 -0.015311104 0.00033621152 -0.01937639 -0.019456126 -0.068392634 -0.042011555 -0.044588637 -0.110317014 0.0028726396 0.0049494025 -0.005220294 -0.040055353 -0.036697917 -0.1270319 0.016170982 -0.07804394 -0.076604426 0.10804399 -0.07033183 -0.007169904 0.009418898 -0.1057816 -0.022910947 0.00461536 0.032851428 0.075035214 -0.07723169 0.03175213 -0.08588788 -0.08822256 -0.07848621 0.07420596 0.081977606 -0.01511187 -0.02863709 -0.018197564 -0.02928774 0.11528832 -0.03130773 -0.010418475 0.08537119 -0.053684976 0.096136674 -0.07286213 0.018800799 0.011230511 0.08692977 0.0831088 -0.056281194 0.0340294 0.057565484 0.054509982 0.005441855 -0.06754637 -0.05328523 0.024529066 0.0008665973 0.14837363 -0.01728623 0.06277919 -0.040986676 -0.031784024 -0.012583905 -0.1088775 0.06184574 -0.010187983 0.059742823 0.0041920124 -0.032685578 0.014173105 0.13693412 -0.0025547568 -0.0076691606 -0.04988952 0.08075923 -0.019240092 -0.02017992 -0.052630328 0.013393177 -0.14028516 -0.019971117 0.10161404 -0.028773174 0.036612865 0.0002715718 0.03225819 0.05037857 -0.06743155 -0.026780825 0.062704764 0.039651357 0.068577625 0.06732523 -0.113750994 -0.008564549 0.0023049158 0.011283243 0.10849902 -0.0796493 0.033550985 -0.015840767 -0.04020207 -0.011029575 0.034050666 0.07432928 -0.059798107 -0.0071784095 -0.04371685 -0.009167781 -0.032957744 0.10082518 0.020649834 -0.07208815 -0.08473968 0.02897092 -0.015789948 -0.06077408 -0.041205686 -0.021248389 0.074914016 -0.09940906 -0.029764032 0.037465513 -0.019868629 0.045171246 0.014132493 -0.008651939 0.053085357 0.039627966 -0.007610262 -0.036834 -0.025955819 -0.03728903 0.06607709 0.033263933 0.03792692 0.007899652 0.0060493406 -0.06954509 -0.09743372 0.02390606 0.07434842 -0.10422727 -0.053891227 0.07723381 0.06338306 0.012574549 -0.07449088 0.00077357143 0.004162457 0.035800613 0.0857114 -0.050333917 -0.09951538 -0.09262615 0.035132956 0.03627053 0.025015991 -0.0070610372 0.06708495 -0.029740643 0.0050808084 -0.018422741 -0.0029379171 -0.0142947305 -0.0042845067 0.025466768 -0.023215009 0.007831823 -0.032047685 0.042889718 -0.01334172 -0.017348956 -0.062749416 -0.0072145564 -0.00023750839 -0.0024127194 -0.0747269 -0.008368502 0.03252823 0.04103558 0.047831256 0.014405086 0.011128448 0.080467924 0.09368079 0.09232421 -0.0939317 -0.018619424 0.08211369 -0.06817788 -0.07388063 -0.10048072 -0.06389975 0.028052356
cô 0.016424045 -0.0044595534 0.02060663 -0.10757088 -0.006335338 0.053082082 0.0020323745 -0.02391484 -0.030564439 0.06597907 0.062072683 -0.048435055 0.11716068 -0.048298758 -0.010563183 0.11826907 0.08270786 -0.09261655 -0.03164197 0.10105424 -0.019595701 -0.0766644 -0.12482172 0.023382759 -0.0807431 -0.061154593 -0.06936855 -0.0069427695 0.030651875 -0.045379896 0.0053133518 -0.013215101 0.15488468 0.088455565 0.042929083 -0.06788211 -0.034051638 -0.0024995203 0.035746377 -0.029533194 -0.03050529 0.0650584 0.026141146 -0.026825214 0.07819713 0.035792667 0.022110034 -0.005618096 -0.11324658 0.01368649 -0.019301243 -0.023419535 0.05330325 0.07735105 0.06312193 0.01904279 -0.049301714 0.011194274 0.030896185 0.09032518 -0.075916044 -0.09962695 0.087488614 -0.024256874 -0.0010053219 0.0017002932 -0.07313348 -0.06156349 0.06216012 0.036175847 0.10504806 0.096558936 0.022407064 -0.016721332 -0.06523585 0.02171914 0.06667342 0.019166488 0.09936464 -0.023139479 -0.045577917 0.03876553 0.0075149685 -0.15129718 -0.046969198 0.046550013 0.028720543 -0.023957787 0.0912407 -0.063788 0.05940585 -0.052192282 0.023705248 0.03056701 0.018744474 0.09756961 -0.04389861 0.07897378 -0.07016062 0.012846579 0.031600825 -0.026935795 -0.07278888 -0.0325292 -0.0463057 -0.009727901 0.01513229 0.059657875 0.063649125 -0.06250472 -0.02347611 -0.0722694 -0.068028696 0.032801803 -0.0011996381 -0.03196086 -0.06484239 0.06643169 -0.0050209514 -0.07832828 0.0029795505 -0.038014602 0.06193381 0.011275539 0.05960644 -0.038914688 -0.042113863 0.031400234 0.065351576 0.02819592 -0.050783 -0.08163547 0.0008529497 -0.091310136 -0.06896222 -0.050407536 0.058966093 0.10798749 -0.016557517 0.046861187 -0.0056399554 0.06821129 0.15638654 -0.1040271 0.0058806646 0.021252379 0.01003213 0.10650106 0.028144486 -0.025026836 0.019636847 0.062046967 0.0026511468 -0.053264674 0.11469701 0.054216195 0.0062535587 -0.06315022 -0.06403745 -0.045611348 0.038500648 -0.010963851 0.11996896 -0.07302548 0.09988669 -0.053436976 0.04833219 -0.096484356 -0.020647518 0.06832187 -0.028188204 0.088561006 -0.01014297 -0.051029883 0.01273754 0.042211585 -0.046400856 -0.0430551 0.019285813 0.017969884 -0.02599456 -0.08004617 -0.057459086 0.04714407 -0.05050526 -0.041738395 0.068146996 -0.0016529484 0.051474784 0.039171856 0.071557045 0.027596718 -0.08723145 0.08439745 0.022825733 0.05656414 0.06761466 0.11221791 -0.031662546 -0.14238116 -0.04850449 0.11361176 0.05339583 -0.081460595 -0.00533624 0.012370561 -0.021780087 0.055347737 0.09065178 -0.030528435 0.029018857 0.053377826 0.03499802 -0.005532459 -0.00742496 0.1638547 -0.07305376 -0.018253284 -0.0015073142 0.022424037 0.025219455 -0.058405466 -0.031017054 -0.08068652 0.05838232 -0.04443352 -0.026889505 -0.012397564 -0.03192486 0.008814182 -0.05492598 -0.013614226 0.031042771 0.02802876 0.02651404 0.051294766 -0.012462113 -0.040241677 0.021383792 -0.036098696 -0.071071 -0.0011923346 0.03908699 -0.033995062 0.0034488824 0.05773683 0.1192926 -0.03506231 -0.046863757 -0.047977295 0.0629522 0.06336881 -0.012446169 0.03605755 0.031366803 0.041676674 0.03301525 -0.06505583 -0.036656752 -0.061038867 0.07540686 -0.030667305 0.05460452 0.021863153 0.09703984 -0.0027115813 -0.041769255 0.008767121 -0.01014297 -0.011038173 0.066200234 0.020206733 0.02865368 -0.012891841 0.025207369 -0.011911516 0.0106837945 0.010654992 -0.017543241 0.02737041 -0.034018207 0.040167097 -0.08544927 0.017077252 0.027414128 -0.0061355187 -0.0009097324 0.012122651 -0.14547747 0.084009126 -0.040190242 0.11646633 -0.0072935466 -0.043096244 0.04944058 -0.108805284 0.01844873 -0.08965912 0.029517764 0.04313482
gái -0.075459816 0.12198829 0.01626295 -0.115438595 0.017398998 0.024213467 0.023060251 0.00030961083 0.036634255 -0.02329453 0.077643044 -0.0053686076 0.16990021 -0.10427402 -0.000729595 0.037979335 -0.0034178372 -0.011386125 -0.018420128 0.11546889 -0.0119877765 -0.049594283 -0.06569889 0.036353525 -0.03928604 -0.047142442 -0.10356513 -0.057105325 0.04271337 -0.07333112 -0.018963816 -0.14757511 0.19109835 0.040659398 0.034731753 -0.047639273 -0.06817901 0.03973642 0.050438493 -0.020345856 0.0062620966 0.046106365 0.0041659116 -0.003683016 -0.046970773 0.046894025 0.015846299 -0.053932473 0.025499977 0.018070124 -0.015036827 0.05213297 0.079798006 0.099113844 0.07532652 -0.0101743415 -0.07843879 -0.04759888 0.03596575 0.106158346 -0.06797705 -0.039542533 0.09324073 -0.025007185 -0.07663525 0.030034069 -0.061883796 0.028046744 0.041469272 0.079388015 0.07103276 0.07950717 0.0066446164 0.05260759 -0.0525369 -0.016540853 0.02082249 0.093515396 0.03719773 -0.0049523595 -0.038490303 -0.018500308 -0.010251491 -0.11100145 -0.029381726 -0.017969143 0.00023641907 0.03435206 0.034992285 -0.0036135402 -0.0067098504 -0.08721412 -0.024760788 0.022082746 0.05484939 0.0475908 -0.04306075 0.10513641 -0.017247122 0.023946874 -0.029506942 -0.018837184 0.039027527 -0.07687356 -0.059644014 -0.034166254 0.047293913 0.00882502 0.050468788 0.036242444 -0.052074403 -0.123123325 -0.07663525 0.03328165 0.017694067 -0.0013703663 -0.010149904 -0.009092016 -0.031413484 -0.007740271 -0.00089845713 -0.07387642 -0.036729176 0.0070216833 0.036220226 0.06364492 -0.056333825 0.043688856 0.1339587 0.070370324 0.05462723 -0.085323736 0.027119728 -0.075498186 -0.07077021 -0.03515184 0.040065624 0.093026645 0.031932533 -0.021751525 -0.008296076 0.094450496 0.12223468 0.030989358 -0.019257471 0.048031084 -0.029486747 0.11326748 -0.08339296 -0.013522904 0.025609037 -0.025413133 0.037751116 -0.04287898 0.03445304 0.062495746 0.013669531 -0.10227256 0.07048544 -0.10630376 0.03317865 -0.016380897 0.13124631 -0.027761973 0.062118072 -0.022238258 -0.025465643 -0.07184668 -0.04383023 0.08057758 -0.00039376924 0.08704043 0.09016482 0.0028987895 -0.013227633 0.06611292 -0.13077573 -0.042464953 -0.005678824 0.024833497 -0.014316825 -0.04051398 -0.11150838 0.079163834 -0.06935041 -0.041786354 0.11228795 -0.02155966 0.09025974 0.02525358 -0.036490858 0.14023371 -0.06955439 0.04327483 -0.044775423 0.027131846 0.11086007 0.054433342 0.031694215 -0.07094996 -0.054253593 -0.016574379 0.022973407 -0.05237129 0.001231112 -0.0018582103 0.009118877 0.01365297 0.09591271 -0.0598379 -0.036490858 -0.016667888 0.005933501 0.013291454 -0.04289514 0.027479224 0.008124406 0.0026960177 -0.025800904 -0.062178664 0.05528361 -0.06378226 -0.07964249 0.0071406397 0.08330208 -0.012838247 0.006566658 0.05467974 -0.0024791083 -0.020462994 -0.038498383 0.08553782 0.08268609 -0.09551282 0.011301503 0.057676885 0.006157681 -0.072284944 -0.009370524 -0.01837186 -0.03255862 0.021848468 0.012837035 -0.0046726395 0.09813028 0.017436968 0.046734475 -0.053987 0.008820779 0.015871545 0.060726542 0.06285928 0.009676096 0.04186916 -0.0431173 0.039605144 -0.0066973288 -0.06618159 -0.056505494 -0.05742241 0.024144799 -0.020978002 0.0567014 0.030450115 0.038754877 0.0005619043 -0.06942513 -0.08344749 0.06224733 0.009422631 -0.060431674 0.00036406034 0.066928856 -0.052690394 -0.022914838 0.025394956 -0.015597075 0.07610408 0.0082682045 -0.0038437792 -0.025586821 0.059534952 -0.013629946 0.023532847 0.03319077 -0.03519223 -0.041515723 -0.02048723 -0.12360804 -0.015621715 -0.042089302 0.19446914 -0.05360125 0.017656503 0.047392875 -0.06292795 0.049864918 -0.029426157 -0.013789295 -0.021767681
anh_trai -0.0398523 0.04264466 -0.064397275 -0.14651462 -0.057926144 0.057192776 0.019339852 -0.06266422 -0.011514476 0.077741 0.12901317 -0.06022761 0.13198043 -0.07633388 -0.038600206 0.009977583 -0.041714534 -0.0985297 -0.07201119 0.054293092 0.03296778 -0.044761293 -0.012248837 -0.07800135 0.046396963 -0.054163907 -0.014473388 0.011378733 -0.013536505 -0.036443826 -0.025161086 0.009994874 -0.022555541 0.047639117 -0.013834026 -0.06973357 -0.012795982 0.0006077416 -0.00421796 -0.04304414 -0.01084093 -0.004338399 -0.051401354 -0.041736398 0.04648441 0.08395773 0.008571265 0.009430041 -0.029692465 -0.03219665 -0.007451736 -0.007751443 0.011608283 0.008328995 0.11065909 -0.04616443 0.034979075 0.018029328 0.05740941 0.093837336 -0.0615274 -0.087195285 0.11643461 -0.031405646 0.0006995219 -0.061809618 -0.089272164 0.052724995 0.0132940365 0.004729926 0.113364 0.08235983 0.039854284 0.04296265 -0.081884824 0.0063882526 0.021400835 0.08768618 0.09470585 -0.055020496 -0.03633849 -0.03199393 -0.04053797 -0.14246222 -0.11416495 -0.008124686 -0.021090792 0.029803762 0.0017733795 0.020987445 0.12505417 -0.081475414 -0.039299786 -0.0097764535 0.019683084 0.041658886 -0.0020917885 0.0255387 -0.09125564 0.051305957 -0.029336713 0.03792646 -0.054151982 -0.06599717 -0.01624003 -0.03998347 0.032154914 -0.085557625 0.03713148 -0.022046756 -0.053792253 -0.037582632 0.10298953 0.023887131 0.022978868 -0.104597375 -0.06854706 -0.1031843 -0.033639535 -0.08397761 -0.0297978 0.009778043 0.05174121 0.013212352 -0.104265474 -0.021844035 -0.023426045 0.068103865 0.072786294 0.057856586 0.07162165 -0.13240574 -0.081382 -0.06426809 -0.1273139 0.05425732 0.080116 0.13507886 0.076824784 -0.09263493 0.036109935 0.018245762 0.07957541 -0.027553972 -0.007356537 0.110655114 0.096232206 -0.056465372 -0.028621232 -0.012182457 0.023487655 -0.036467675 -0.01423549 -0.0064526456 0.050371855 0.07632593 0.06602698 0.0050520916 0.028655019 -0.00658342 0.00018280742 0.072142355 0.044061713 0.019975835 0.08902374 0.0018356065 -0.08159068 -0.06534926 0.044620182 0.09711265 0.079171956 -0.04956893 0.0036491523 -0.06864644 -0.03351234 0.11490428 -0.06493985 -0.04700711 -0.0054857526 -0.03535868 -0.03660282 -0.017322792 -0.11241798 0.06294843 -0.042092152 -0.015549789 0.029094243 -0.014513137 -0.089455016 -0.038149055 0.017145311 0.08736621 -0.0911205 -0.02135115 0.03951642 0.018148974 0.06823106 -0.013984277 -0.05508211 -0.057800937 -0.009624413 -0.05561077 -0.019655855 -0.12203524 0.052140687 0.064488694 -0.025721546 0.06864445 0.005456537 0.049354285 -0.14101139 0.018195082 -0.012866338 0.006404152 -0.02743075 0.020154705 -0.055779703 -0.09416129 -0.013289068 -0.033679284 0.021951357 -0.075165264 -0.040410772 0.0065086917 0.0041146125 0.027188282 0.022265375 -0.09168095 -0.03207939 0.008351652 0.007639947 -0.009892123 0.1404867 0.013939162 0.039488595 -0.0009723189 -0.06695512 0.04338598 0.028168093 0.06584811 0.035919137 0.047611292 0.014764748 0.005085083 0.10437677 -0.050149262 0.017379235 -0.07873472 0.041324995 0.017258795 0.11046233 0.0020585982 -0.10336913 0.08415449 0.07401255 0.0084593715 -0.005046328 -0.026252193 0.001555277 -0.10741756 0.03300554 0.028645081 0.080177605 -0.047750413 0.035984725 0.0034710772 0.014733147 0.01960756 -0.07399267 -0.026148846 -0.025894454 0.043709934 0.03502479 0.00686683 0.046434723 0.026140897 0.03348849 -0.04884351 0.011190323 -0.013776588 -0.0050169136 0.014145061 -0.06917112 0.04701307 0.008398556 0.09560616 -0.060768194 0.031240687 -0.02027594 0.044429388 0.0005257395 0.056642253 -0.06851129 -0.009433221 -0.038178865 -0.0661661 0.006167447 0.06698096 0.049686186 -0.08363577
em_gái -0.06148516 0.08541983 -0.0051264795 -0.07397274 0.027254906 0.068333365 0.069373846 -0.06670548 0.059294954 0.036004987 0.10595011 -0.039128225 0.17573406 -0.018730473 -0.04199358 0.023744846 -0.0081456695 -0.052294534 -0.032933682 0.105375245 -0.06743077 -0.13206066 -0.063985184 -0.07069907 0.001128019 -0.09563125 -0.026517076 -0.035827693 0.06461019 -0.010705148 0.027188644 -0.10604861 0.038150422 -0.009772116 0.058401324 -0.0907297 0.002884876 0.01863914 -0.007943662 -0.060749125 -0.016149502 0.06521908 -0.042657983 -0.0053163096 0.043777265 0.09629207 -0.004189508 -0.03043545 -0.08678804 -0.0083107855 0.024337616 -0.01000439 0.12645352 0.031295057 0.060827922 -0.018017715 -0.010976819 -0.016629808 0.10530899 0.12203729 -0.09673441 -0.090448536 0.08573682 0.012560287 -0.088824235 -0.023895277 -0.07168941 0.047643702 0.043055553 0.035705913 0.086046636 -0.015050102 -0.026527822 0.064434685 -0.042031188 0.03150638 0.018889857 0.05369856 0.060459007 -0.059864447 -0.040627163 0.020444313 0.042237133 -0.089067794 -0.10712491 0.026868083 -0.0068716602 -0.007380619 0.0893597 0.037120685 0.022770625 0.0030569765 -0.021097973 -0.021860873 0.017594 0.10982551 0.009556141 0.023850504 -0.046526212 0.0914532 0.010567074 -0.025315419 -0.03945953 -0.06456721 -0.018667793 -0.0111097 -0.03971383 0.008083527 0.055743705 -0.06096044 0.0011294158 -0.034772884 0.023854086 -0.002994655 -0.038028643 -0.028735936 -0.04818633 -0.029330498 0.00046936318 -0.078165114 -0.014785593 -0.028306132 0.027761715 -0.021226913 0.004440585 -0.021757005 -0.029495256 0.06173588 0.119954534 0.108091965 0.01606999 -0.13943538 -0.020496247 -0.13419177 -0.06939712 -0.00043689512 0.03161204 0.15530407 0.02384155 -0.03142221 -0.023103721 0.011834098 0.11848067 -0.029305426 -0.047581024 0.0051365085 0.060894184 0.052808505 -0.014856691 0.004062895 0.03787284 -0.048093203 0.053822126 -0.010605219 -0.016102403 0.06437201 0.07084771 -0.06642253 0.0015295269 -0.041597802 0.018519152 -0.0037330212 0.06323482 0.04085102 0.057138775 -0.083766885 -0.021250194 -0.10880293 -0.059321817 0.04068626 0.055372998 0.12947468 0.0005478023 0.014922056 -0.03962787 0.09210328 -0.08635824 -0.094477944 0.046647992 -0.020752339 -0.038791545 -0.07296987 -0.12397678 0.14804755 -0.006186482 0.025161406 0.0032353448 0.039552655 0.0708495 0.042849604 -0.016427621 0.10337845 -0.09352879 -0.024532817 0.021302128 0.011115073 0.08774973 0.040003948 -0.04007558 -0.064099796 -0.058933206 -0.005325264 0.029217673 -0.10604145 0.09749552 0.023918558 0.039853517 0.03330976 0.091836445 0.030600209 -0.043856062 0.0065262057 0.054534882 0.024994856 -0.023680374 -0.012855239 -0.04480342 -0.09191524 -0.00080434117 -0.082726404 0.018861204 -0.03996097 -0.028820107 -0.0514403 -0.021952206 0.025286764 0.01859795 -0.029869543 -0.07592656 0.015323564 -0.007481802 0.0077423705 0.12429913 0.0061198627 0.09480029 -0.029095897 -0.039801583 0.02035298 -0.026277103 0.07437031 0.06846051 0.057120867 0.06169648 -0.0022964035 0.09683111 -0.0045911954 -0.016560145 -0.050582483 0.007368441 -0.0076501416 0.029346615 0.045474987 -0.015689077 0.023619486 -0.0055378373 0.057036698 -0.030743476 -0.01646917 -0.08400865 -0.08477155 0.07653007 -0.054932453 0.06500059 -0.037023976 0.013384256 0.045446333 -0.10068502 -0.020956496 -0.042949893 0.018757336 -0.059977267 -0.026973743 0.12115799 0.013261045 -0.003440934 0.044332426 -0.056137692 0.06405861 0.05110183 0.002124303 -0.049131896 0.00025351235 -0.064980894 0.06708156 0.03022055 0.026024593 0.02827569 -0.014540248 -0.11021591 0.048553452 -0.011304903 0.08950655 -0.018422447 0.0011727543 0.019341152 -0.11130833 0.0686575 0.038125347 0.028664302 -0.03624496
người 0.04369242 0.06947802 0.02227145 -0.10719573 -0.08246602 0.085925065 -0.0056109205 -0.016023535 0.08384502 0.10410307 0.10382324 0.08748293 0.06286285 -0.059793275 0.0117728645 -0.03797447 -0.024922423 -0.085172094 -0.030372651 -0.051175956 0.07041562 -0.07703656 0.00075118075 -0.066760406 -0.13970612 -0.07583066 -0.043605875 0.102776 0.056691963 0.046952404 -0.0059934636 0.052350126 0.028567834 0.00047336103 -0.05938073 -0.001610316 0.041026738 0.038006205 -0.03238634 -0.058503706 0.040253572 0.039595805 0.043193325 0.069117405 -0.06901643 0.06740375 -0.10018533 0.03857454 0.04547243 0.03580788 -0.021694174 0.078698285 0.09090158 0.08726367 0.09937754 -0.0031792042 0.03750711 0.04753228 -0.13053201 0.0561294 -0.07091183 -0.016971815 0.060301024 0.028347423 -0.036312744 0.07842999 -0.0477573 0.027669175 -0.10523686 0.08450856 0.07107051 0.13148116 -0.03071019 0.020590397 -0.057133358 0.02569299 0.045553207 0.060699146 0.11564284 0.028795455 -0.07757605 0.061082844 0.036356017 -0.055950534 -0.059934635 -0.017181551 0.048943013 0.03873898 -0.05578609 -0.006559489 0.08791279 0.009686476 -0.014313054 0.06551123 0.020749068 -0.0080677355 0.029259065 -0.08058792 -0.012187142 0.029310994 -0.03287101 0.009166321 -0.015735619 -0.014173712 0.011804022 0.047431305 0.068892375 0.0063174423 0.10082866 -0.09043134 -0.029184056 -0.14613953 -0.0039419825 0.01535221 0.0808793 0.026896011 0.049384408 -0.051268276 -0.034105767 -0.04769672 -0.010991623 -0.02538286 -0.010370207 -0.047520738 -0.004066035 -0.02534074 0.04029108 0.07525944 -0.033096034 0.0800369 -0.0018251287 -0.03141123 0.008414794 -0.08455472 -0.124378435 0.011435326 0.019289289 -0.008885905 0.014178905 0.098563984 -0.012493523 0.038583193 0.028137978 -0.08044945 0.0010945175 0.018854816 0.09060444 -0.034050953 -0.07397564 -0.009989683 0.027839098 0.02740578 -0.041580647 0.08611258 0.042183597 0.012852409 0.044768505 -0.08460665 -0.010596386 -0.047041837 -0.03900151 -0.034293287 0.026550395 -0.011728725 -0.014051391 -0.0057196827 -0.11020761 -0.12625076 0.013689331 0.1337343 -0.016591292 -0.04482909 0.0038888997 -0.097862944 0.007766548 -0.021116033 -0.0417047 0.06097033 -0.03513569 -0.0002921579 -0.07048486 -0.0076436494 -0.061065532 -0.014650304 -0.09605409 -0.039682355 0.04838045 0.06514195 -0.01859921 0.011684297 0.031500664 0.07202542 -0.090284206 -0.023485145 -0.022340978 -0.025791943 -0.04974791 -0.064146645 0.018641619 -0.093890384 0.05155677 0.070205025 -0.084003694 0.01567763 -0.039471753 -0.02550749 0.05135482 0.0024634795 0.012149926 0.0043046195 -0.024481893 -0.035375137 0.02462585 -0.051158648 -0.0618762 0.057271834 -0.025784442 -0.028551102 0.09510495 -0.048677597 -0.01791721 -0.017088367 -0.024576807 -0.021199984 0.059366304 0.072735116 0.021770338 0.115934215 -0.08975049 0.03916595 0.052635737 0.02476 0.075294055 -0.042304765 0.077102914 -0.0018674508 0.0045155087 -0.051894307 0.039431363 0.13048874 0.030199556 0.019211683 0.04709088 -0.016305683 0.07625763 -0.03560882 0.074826695 -0.012239648 -0.0008518075 0.03197091 0.008335747 0.041580647 0.02833848 0.022122588 -0.002205133 0.09139779 0.063904315 0.012947035 0.035375137 -0.15820436 0.026827926 0.008951104 -0.012048953 0.0021242392 0.017463697 -0.0051602926 -0.03316239 -0.08623664 -0.008368058 0.014279301 0.07034927 0.1006873 -0.036050215 0.054643657 0.035519388 0.051966432 -0.009699458 -0.08803107 -0.020094186 0.14623186 -0.076635554 0.027864197 -0.015275471 0.028843634 0.109451756 0.03935924 0.05585533 0.053729128 0.039258268 0.10126429 0.04123734 0.11697568 -0.053521413 0.042700004 -0.036084834 -0.059011456 0.11527645 0.028455032 0.02654347 -0.0397891
đàn_ông -0.046945542 0.02122014 0.039321635 -0.13117437 -0.033976946 0.13391943 0.008920312 -0.05257201 0.058062132 0.056451 0.07622544 0.028382296 0.07303044 -0.012799074 0.01750658 0.014419524 0.00016738965 -0.07966358 0.06995133 0.033379305 0.081885986 -0.0097965505 -0.04161676 0.0447754 -0.1305631 -0.081297435 -0.08111792 0.0018383728 -0.0039301184 0.011792628 -0.0415395 -0.05681231 0.10909118 0.026762072 -0.06838338 0.009708836 -0.034360982 0.01047668 0.0071494295 -0.069156 -0.030386552 0.07631406 -0.0068276576 0.07577323 -0.043684646 0.08822826 -0.10972518 0.0721442 0.0138127925 0.02681661 -0.04252118 0.020834513 0.11275202 0.056989558 0.0949523 -0.012492527 0.035488095 0.03809681 -0.088591844 -0.0069335513 -0.06638367 -0.067678936 0.06647002 0.009913351 0.08801693 0.016970068 -0.033547465 -0.047029622 0.033067986 0.028098244 0.067444876 0.12889062 0.06776756 0.067910716 0.01656967 0.073189504 -0.027721027 0.070028596 0.032999814 0.016798502 -0.037921835 -0.034779105 -0.03124552 -0.08984848 -0.066865414 0.09226405 0.13143343 0.07495971 0.049767867 -0.020235736 -0.0057609924 -0.07341902 0.041650847 -0.01833669 0.04074643 0.045604825 -0.041221365 0.016398786 0.051888015 -0.013905507 0.007238962 -0.0063343192 -0.0059666447 -0.07470974 -0.076307245 0.03775368 -0.0062559214 -0.079022765 0.08838506 -0.05164487 -0.09162778 -0.024057915 -0.09220042 -0.017396824 0.06518157 0.035947118 -0.02028073 0.04255072 -0.08115882 -0.045800254 -0.0034885907 0.0701604 0.04060554 -0.018330326 0.031656824 -0.006706766 0.0057109995 -0.051088132 0.0051763034 0.010324202 -0.02920945 -0.0058314367 -0.048774827 -0.1631516 -0.18843208 -0.034697298 0.016401058 -0.06010502 -0.045141257 0.065615594 -0.0026112166 0.10116504 0.10734143 -0.061502546 -0.011182715 0.075589165 -0.026487112 -0.031861342 -0.065020226 0.027502876 0.032177206 0.038289964 0.0073050894 -0.008919857 0.11735136 -0.0041196365 -0.0074566584 -0.107598215 0.09465916 0.021854822 0.06872651 -0.045504842 0.123448215 0.013070626 0.07467111 0.02252677 -0.06935369 -0.12214613 -0.031384137 0.094563715 0.010392373 -0.036215264 0.060189098 -0.055378426 -0.0058121216 -0.054142237 -0.04734094 -0.073696256 -0.04025332 0.05053139 -0.04459588 0.010014701 -0.086046755 -0.06458392 -0.02905947 -0.046616044 -0.06433396 -0.005702137 -0.013974133 0.06615415 0.02565314 0.058777936 -0.09232313 0.06387948 0.01958242 0.01832669 -0.0007932499 -0.008003852 0.029263986 -0.071930595 0.10694149 -0.04137134 0.028068703 -0.009759055 0.015540045 0.008910995 0.022730833 0.03343157 0.0334952 -0.062334247 -0.06651547 0.04033058 -0.029707106 0.026868876 -0.0062884167 0.12532067 0.045395765 -0.016612165 0.061375294 -0.019342909 -0.03904213 0.020914048 -0.15486644 -0.00063986285 0.05910062 -0.019217473 0.018941376 0.14826284 -0.045927506 -0.022121374 0.043046102 -0.019161116 -0.032770302 -0.03148185 -0.10601889 0.044225477 0.012657504 -0.09939257 0.06601326 0.074132554 0.059332404 -0.058789298 0.111449935 -0.009243902 -0.06595645 -0.0009049839 -0.018530753 -0.018522572 0.02845274 -0.03755371 0.036606114 0.10159453 -0.07471656 0.0061191227 -0.057273608 0.03564716 0.007972721 -0.031795442 -0.049570166 -0.025007779 -0.0013935502 -0.007088302 0.063097775 0.010825721 0.09970161 -0.03281575 0.007417573 -0.051517613 0.048933893 -2.8934488e-05 0.016674427 0.035322208 -0.0977928 0.054983027 0.03812181 -0.012145531 -0.061170775 -0.009957891 -0.039885193 0.073053166 -0.02840729 0.010933887 -0.039653406 -0.037658237 0.0056700963 0.027518783 -0.03748781 0.033511106 -0.047772698 -0.012538203 -0.037758224 0.068862855 0.052967407 0.07117844 0.008371755 -0.12624554 -0.004804993 -0.017951973 -0.01015059 0.038167257
phụ_nữ -0.0651103 0.012414037 0.08028758 -0.06546647 0.0025881303 0.09292083 -0.03682489 0.0023598033 0.037236176 0.03487446 0.04136387 0.026504593 0.13876644 -0.044791956 0.023962678 0.005332295 0.037976064 -0.07212972 0.049962703 0.045379203 0.033695728 -0.0048025 -0.047713354 0.05942439 -0.17018314 -0.0649195 -0.09096829 -0.009882087 0.004742291 0.07739799 -0.027308082 -0.058784142 0.082282536 0.08177373 -0.07749763 0.016151434 -0.039421923 -0.013493343 0.08868714 -0.008193909 -0.02855042 0.03086337 0.017443804 -0.009712061 -0.03846155 0.07497904 0.0037123812 0.091606416 0.012819175 0.013835728 -0.03242795 0.08099992 0.10467003 0.024658049 0.09883359 0.03838311 -0.01194551 -0.02852498 -0.04294541 0.06549191 -0.07143647 0.021902012 0.05714536 -0.025065092 0.02406868 0.06557671 -0.07490271 -0.049180415 0.051707488 0.03238131 0.092973836 0.10217052 0.0008108048 0.06760982 -0.0006073881 0.012578551 -0.011005066 0.07322789 0.013953601 -0.02629471 -0.034304176 -0.037009332 -0.021014992 -0.019384477 -0.08012859 0.008535021 0.058464017 0.003994133 0.06498522 -0.0392078 0.096569404 -0.063581765 0.008604558 0.019158907 0.029631633 0.025465779 -0.04977402 -0.0008617067 0.06539227 0.005796157 0.06737874 -0.08028971 0.011899294 -0.03541083 -0.058177814 0.05943075 0.031955186 -0.05131528 0.08622791 -0.08511277 -0.03402433 -0.013207776 -0.0801625 -0.063448206 0.0010005897 0.0037208614 -0.013213923 0.030369403 0.03849123 -0.023449631 -0.06297332 0.044785596 -0.025120214 -0.015136153 0.05734252 0.025947025 -0.03838311 -0.036515366 0.056322787 0.008485201 -0.0914877 -0.053002823 -0.0027344124 -0.084673926 -0.12812391 0.04519264 -0.019706085 0.055375136 1.8252382e-05 0.07590337 -0.040246613 0.025686262 0.06879704 -0.056888837 -0.0074010184 0.06519723 -0.03766442 0.008013071 -0.09557935 -0.0030950292 0.006164194 -0.01404985 0.024980292 -0.018901747 0.0039684805 0.00617861 -0.04608517 -0.13920529 0.038785916 0.0042701606 0.007377698 -0.06788966 0.13627966 -0.064054534 -0.019266816 0.0034821462 -0.044980638 -0.11314166 -0.0065701795 -0.0077855913 -0.059786916 0.026536392 0.0480568 -0.016265493 0.059988316 -0.059833556 0.019800639 -0.09245019 -0.07515288 0.10181011 0.004221188 0.021770569 -0.10008017 -0.009144317 0.018271463 -0.056780715 -0.044649914 -0.03618888 -0.0143998675 0.05777713 0.059093665 0.1299429 -0.07934629 0.05030191 -0.027920771 -0.008839246 0.014535337 0.06386161 0.0038715955 -0.15497194 0.122225985 -0.032887995 -0.031389136 -0.00045101478 -0.04436795 -0.10604169 0.0347727 0.043081094 0.037005093 -0.068966635 -0.14379515 0.03384413 0.053074904 0.06082149 0.051766846 0.15446101 0.04205076 -0.04193416 0.041230306 -0.01949069 -0.02640495 0.03750118 -0.08292914 0.016651973 0.040064294 0.012310156 0.023665875 0.088386096 -0.056823116 -0.03309364 0.021965612 0.038092665 -0.11632383 0.017032942 -0.08113984 0.045353763 0.05935443 -0.15936676 0.0046962863 0.024609286 -0.024725888 0.08260266 0.065992236 0.011119547 0.0072729685 0.11517901 -0.010619433 0.027534926 -0.0031030853 -0.030922731 0.05648603 0.0059854756 -0.06658372 -0.08067131 -0.059875954 0.028092492 0.028444419 0.007064146 -0.03542567 -0.034955025 0.049880024 0.011185693 0.02562478 -0.022962024 0.027948331 -0.0017471365 -0.057698686 0.0114765605 0.0006893484 -0.042691007 -0.030689528 0.021172933 -0.028022533 0.0479614 0.059975598 0.044628713 -0.14318882 0.05203609 -0.037276454 0.101125345 -0.05425152 0.06516542 -0.04642014 -0.015409425 0.04739959 0.028828142 0.024185281 0.042763088 -0.10394498 0.0024560527 -0.06014096 0.10632365 0.124524094 0.05399076 0.025245296 -0.12709993 0.071979195 -0.0067334217 -0.04300477 0.07344202
hoàng_tử -0.05606376 0.11831273 0.057630375 -0.1136091 0.0010470828 0.03866466 0.005970723 -0.04510499 -0.03294622 -0.07513908 0.037251115 -0.11243555 0.16990529 -0.14259626 -0.03672576 -0.0042825933 0.03385709 -0.11995871 0.012341889 0.11193665 -0.099726856 -0.088136904 -0.0072493404 -0.006379291 -0.026020221 -0.02733172 0.053213987 0.06943009 0.0131998435 0.034461815 0.000110925626 0.012562802 -0.07104395 0.0012072029 -0.075207114 0.006209023 -0.052834146 -0.011709194 0.060752273 -0.10161284 0.027879752 -0.016932892 -0.012923748 -0.013780191 0.03508544 0.107108295 0.062061884 0.036844812 0.028331408 -0.15278967 -0.05129209 0.036364812 0.08249406 -0.017792737 0.03172921 -0.03336575 -0.08183642 -0.05064579 0.026912192 -0.029157236 0.033509374 -0.097069845 0.06632142 0.013036567 0.013245764 0.030956296 -0.041559786 0.024415808 0.103787966 0.061948497 0.110770665 0.054376196 -0.0063178735 -0.021023674 -0.08655517 0.02807251 0.05890975 0.009062195 0.15351911 0.026460538 0.007724617 -0.012676189 -0.015318274 -0.04640515 -0.115882486 0.034603547 -0.0066644573 0.033889215 0.014625106 -0.055113204 -0.07611798 -0.0777205 0.021821156 0.030585902 0.043459002 -0.018782597 -0.07261435 0.026409512 -0.11047208 0.040921044 -0.05759825 -0.023867775 0.12871969 0.013322489 -0.014883438 0.02970149 0.0017810122 0.029992513 -0.03288953 0.025893606 -0.009117376 -0.03354906 -0.04077364 -0.054695565 -0.005414753 -0.047552243 0.047385942 -0.079487436 -0.13063402 0.14610933 0.03851537 -0.019931387 -0.005148863 0.060914792 -0.055905018 0.04763539 0.030362908 -0.0034735831 0.05525116 -0.009491362 0.00464335 -0.10134072 0.034342762 -0.06952269 -0.08639643 -0.001341471 -0.052185953 0.05187603 0.056360453 -0.010632781 -0.008247705 -0.050299965 0.04757492 -0.013063213 0.035100557 0.0855706 0.10388057 0.028520385 -0.14174019 -0.058405183 -0.045023732 -0.040427815 -0.0101061035 0.071083635 -0.04766563 0.097058505 0.07803043 0.040471278 -0.0128717795 -0.07080206 0.019519418 0.009405377 0.106016 0.08055705 0.10120843 -0.007621625 -0.049423113 -0.07651294 0.049321067 0.05793463 -0.021235328 0.046165153 0.006356236 -0.10560592 -0.03998183 -0.027845737 -0.08244681 -0.0015837204 -0.021137059 -0.0006045747 -0.024251398 -0.016573647 -0.04471381 0.046397593 -0.010495206 -0.028161328 -0.0041461517 0.027807942 -0.09443173 -0.06637812 0.07696649 -0.05761337 -0.13399592 0.019464614 -0.025801009 0.029435033 -0.015800353 0.10265033 -0.092536286 -0.0745457 -0.029225267 0.032033462 -0.0073253093 -0.13272788 0.0009758197 -0.015993487 -0.019460835 -0.027966682 0.03940356 0.049746264 -0.14241105 -0.0725123 -0.01023404 -0.011525319 -0.07777531 0.06413496 0.021189973 0.007904334 -0.012136092 -0.013157134 -0.045246724 -0.03456953 -0.029567316 0.06884993 0.018322628 -0.012703779 0.054448005 -0.002030556 0.054051153 0.037731115 -0.007238947 -0.0050139334 0.12856472 0.067455284 -0.04871256 0.083576895 -0.013177733 -0.011092184 0.088503525 0.049806736 -0.057959195 -0.063220315 -0.012964 0.026243214 0.03860986 -0.03792576 0.07590444 -0.029244166 -0.0072880806 0.0025468408 -0.06751953 -0.099832684 0.0072912932 0.05580864 0.0826906 0.018553745 -0.049324844 -0.008764368 -0.018367793 -0.09422385 0.109315544 0.039282616 0.012552787 0.015535219 0.07820807 0.0487787 0.01909044 -0.02855251 0.062141255 0.010794735 -0.034331422 0.040019624 0.021652967 0.00187654 -0.02040005 -0.0018015729 0.0569614 -0.030852359 0.02456321 -0.02416258 -0.015070147 0.02944637 0.013956696 0.050475713 0.062770545 -0.014416476 0.054689895 -0.025345573 -0.0756153 0.05922345 0.006711134 0.026322585 -0.08195736 -0.034616776 -0.037345603 -0.018229462 0.068386935 -0.042081363 0.0074880184 -0.01949485
công_chúa -0.041238517 0.13020861 0.054651156 -0.05877231 0.019714944 0.030140199 0.023387989 -0.05283173 -0.001749546 -0.04403334 0.021428192 -0.08918245 0.13925175 -0.10720575 -0.07405476 0.07217775 0.09973728 -0.1293322 -0.049227074 0.12283193 -0.06695522 -0.058594145 -0.053873718 0.08076918 -0.07790238 -0.057768118 -0.06739973 -0.007568343 0.066823855 -0.012229924 -0.033788048 -0.027066432 0.01851999 0.059389584 0.0148586435 -0.026323184 -0.0033066398 -0.016384369 0.049416035 -0.068880826 0.02128422 0.056396797 0.020742534 -0.030417342 0.04074002 0.06898521 -0.020697542 0.07701336 0.0015662177 -0.08905108 -0.030464133 0.06964027 0.110655636 0.03782102 0.0049023717 -0.013728656 -0.04293377 0.0010749729 0.049108297 -0.03845269 -0.002678029 -0.110425286 0.075309105 0.00048039318 -0.061849676 0.0486242 0.0027833073 0.07130673 0.11040369 0.08287835 0.111544654 0.03601599 -0.042208515 0.0048091505 -0.07320174 -0.0051840134 0.036125768 -0.026244001 0.05405188 -0.023533758 -0.025799492 0.01818706 0.01380712 -0.028362166 -0.080898754 0.022103053 0.00051435217 -0.017484844 0.1190995 -0.036444303 -0.019135464 -0.038229536 -0.028560124 -0.042559445 -0.0019364016 0.02974608 -0.06120721 0.045482043 -0.031272165 -0.008383036 -0.0427718 -0.037691448 0.042782597 -0.055405203 -0.10966944 0.049606796 -0.043254104 0.038585864 0.00068258157 0.07881299 0.014568543 -0.0578563 -0.03654868 -0.0534598 -0.066516116 0.019338822 0.018968098 -0.04583657 -0.0860475 0.04988574 -0.0003520616 -0.008936781 -0.030791666 0.02552775 0.054469395 -0.008277217 -0.099607706 0.018851122 0.11150146 0.030176193 -0.10781222 0.011208095 0.07650406 -0.05662895 -0.08599891 0.031806655 0.002654454 0.088500395 0.1322008 0.032051407 -0.017909555 -0.014134472 0.10408339 -0.059281606 0.04622349 0.08523946 0.057685334 0.013089247 -0.10286324 -0.046392657 0.022182237 0.014043411 -0.023843296 0.055590563 0.007805174 0.0753163 0.08470318 -0.03320317 0.02921519 -0.073577866 0.059949268 0.033923022 0.059128635 0.051717762 0.0228445 -0.10277326 0.01083881 -0.060120232 -0.027914058 0.043135326 -0.0029207992 0.09854953 -0.003091044 0.0019302829 -0.061957654 -0.0012870772 -0.046882156 -0.034142576 0.064189196 -0.0074295914 -0.024566745 -0.13495064 -0.030501924 0.08637503 -0.03344252 0.017484123 0.020042477 0.03185345 0.030043019 -0.059004463 0.00018984295 0.014345209 -0.07036193 0.045183305 -0.032382537 0.02858712 0.051690765 0.16952333 -0.015060741 -0.102559105 -0.011853442 -0.06080409 -0.009762991 -0.10143973 -0.032107197 -0.025797693 -0.008825565 0.08916086 0.07910813 0.004686956 -0.13721277 -0.1040024 0.030228382 0.06783524 -0.046648204 0.03805857 -0.04768119 0.014559005 -0.05866973 -0.050673977 -0.028426953 -0.11694174 -0.0558983 0.15109871 0.017721314 0.03086185 0.009648535 -0.030856453 0.03154931 0.028223595 -0.020922495 0.061174814 0.19761735 -0.009569711 0.04651863 0.031070609 -0.054068077 -0.072836414 0.0077896975 0.009063476 -0.0061529344 -0.07558445 -0.0039284118 0.0053108875 0.047812562 0.07398098 0.09687767 -0.019180454 -0.0025993853 -0.020593164 -0.05449279 -0.088468 0.060413573 0.027233798 -0.016835896 0.03422356 -0.002061296 -0.0077344486 0.04622889 -0.087802134 0.017787362 0.03398241 0.062987044 0.041089147 0.067945026 0.04074182 -0.0665899 -0.023449177 0.04637106 0.017625755 -0.052680563 0.033953615 -0.02877788 -0.073059574 -0.004608492 0.082665995 -0.035001 0.0850559 -0.013634355 -0.02659493 0.00036086177 0.021106059 0.071335524 0.017089464 0.07947705 -0.017423296 0.007764143 0.020443795 -0.13594224 0.045998536 0.015377297 0.050754957 -0.06888983 -0.01619217 0.01477856 -0.041783806 0.034671668 0.013267411 -0.0056366203 0.0316051
