23 1624
tôi 0.0025431418 0.0026816446 -0.004852841 -6.852528e-05 -0.00568619 0.018213535 0.0008957476 -0.0060372576 0.007893484 -0.000913476 0.0012018823 -0.009175873 0.014790334 -0.00635421 0.004073144 0.006658916 0.014469007 -0.0020942185 0.0010091449 0.0067895455 0.0049242796 -0.004840886 -0.008027031 0.010057624 -0.016629942 -0.0019432359 -0.016412709 0.004775863 -0.005068322 -0.007950053 -0.008390345 0.005438634 0.0021562094 0.0025704924 0.012787731 -0.0012811058 -0.006889559 0.0032581654 -0.0007916228 -0.007026604 0.005579761 0.019282777 0.0124798175 -0.0006086827 -0.004222144 0.0013045784 -0.0041941516 0.0021992472 -0.015110201 0.0032068468 0.004886957 0.006050087 -0.005603088 2.1260887e-05 0.00025311578 -0.0022931665 -0.0061092786 -0.0041795727 0.0015066756 0.0064268145 -0.010057624 -0.0068752714 0.002050189 -0.0036605522 0.004599746 -0.00118013 0.003478312 0.0068134554 -0.0019236414 0.0024661345 -0.00022895508 0.008814017 -0.00082460104 0.0007261038 -0.00855684 -0.0008113631 -0.0029659977 0.0133615695 0.009582926 -0.0018982444 -0.0048496337 -0.0075750747 0.011480266 -0.011250497 -0.009577385 -0.007014357 0.0070764646 0.003724409 -0.0027071873 0.002750167 0.008006036 -0.004066146 0.0076307673 -0.0015058592 0.0057739564 0.012970846 -0.005764918 0.0026350785 -0.015402078 0.004792775 -0.005946283 0.00057649176 0.0044775717 -0.008824514 0.011089251 -0.004588374 0.0049347766 0.003504846 0.0049082423 -0.0039048998 -0.004605286 -0.013668608 -0.009725219 3.799638e-05 -0.005574513 -0.002943254 -0.0012227888 0.016932022 -0.004520435 -0.010245989 -0.0081191715 0.002265641 0.013298295 0.0011417867 0.003790307 -0.0026172625 0.006400572 -0.015231792 -0.0014801414 0.0066522094 -0.01054807 -0.0068697315 -0.0007957925 -0.0085530495 -0.014387364 0.001637772 0.0038970273 0.009806279 0.014904343 0.0043212827 0.0033010284 0.004652231 0.016286746 -0.016424373 0.011377628 0.0017243142 0.0047055907 -0.003678047 -0.0027631717 0.0042909575 -0.008493274 0.01699792 -0.005522028 -0.0068198703 0.011740068 -0.0015224211 0.00020839837 -0.0060153888 0.00386262 0.00097231776 -0.0024533048 -0.0016833758 0.01744142 0.00087527843 0.011172645 0.004166743 -0.008225891 -0.0046461076 -0.0061745937 0.017668271 -0.0028805053 0.0012075098 0.011933388 -0.00079946645 0.00654753 -0.0014271605 -0.008008952 0.010890681 -0.011659882 0.006484548 -0.009193077 0.007819714 0.0007819714 -0.009137384 -0.0045116874 -0.0118106315 0.0018258732 0.007207386 -0.003933767 0.002461965 0.0028360677 -0.0018785624 -0.0073490962 0.003738697 0.0060725394 0.006227371 0.0116689205 0.002241556 -0.0027972287 -0.005564016 0.0014562606 0.009610626 -0.0007698415 -0.0010630005 -0.0007802219 0.004210772 -0.0054765404 0.008039569 0.006855152 0.004253635 -0.014310968 -0.0017428007 -0.005462836 -0.0019106077 -0.0015372628 0.008797397 0.007325186 -0.0019382207 0.004747871 0.005694354 -0.0035698693 -0.0031438642 -0.009233899 -0.018154344 -0.0012143912 -0.010598806 -0.009879759 -0.002202892 0.0005225778 -0.0034042494 0.009218445 -0.0018009135 0.00084381644 -0.0011087501 0.006374621 -0.0055010337 0.005412392 -0.007913895 0.009650282 -0.0029913657 0.008646356 -0.002462373 0.008819557 -0.002158192 -0.0035331296 -0.006936796 0.0009642992 0.0067434753 0.008736746 -0.0037427791 0.00018533404 0.018756174 -0.017717259 0.003474521 0.003477437 -0.0041591614 0.009939241 -0.006457431 -0.018011175 -8.9224864e-05 0.007968422 -0.0057757064 0.00960771 0.0069230916 0.007974254 0.0043731844 0.0065046675 0.0028523381 0.005653824 0.0109329615 0.012032235 0.0022940412 -0.006675536 -0.0064169005 -0.0069499174 -6.249239e-05 -0.00029555007 0.0024744156 0.004138459 0.008236388 0.0064906715 0.0024107625 -0.0027288813 -0.0020882408 0.00038996513 -0.008707297 0.0043533565 0.010598806 0.00079722126 0.015199426 -0.006784297 0.0022647951 -0.003243003 -0.002595044 0.01147181 -0.008421836 0.0003836086 -0.003264289 0.0059521147 0.0026397146 0.05968847 0.07045163 0.0029574877 -0.059095427 0.122786686 0.0083529735 0.016057678 -0.11612437 -0.021990282 -0.005808205 0.06620715 -0.016433362 0.009087324 0.03560308 0.10811014 -0.02519923 0.01800949 -0.0032098764 0.072105356 0.008539591 -0.11765055 0.047214765 -0.028793473 0.012539735 0.052427333 0.04101862 0.010738594 -0.02141 0.078350775 0.07838543 -0.010969173 0.053201765 0.046440277 -0.02854052 0.0796965 -0.05924489 -0.034006618 -0.058340784 0.039124392 0.077022195 0.035240598 -0.00958795 -0.004929948 0.08500201 -0.085296676 -0.021535372 0.017231131 0.040355258 0.019552797 0.016998136 0.016617095 -0.027147504 -0.0010015217 -0.067256786 0.01390649 0.048812963 -0.031350177 0.06637645 -0.051535763 0.02733743 0.00095541007 -0.0058249487 0.01880739 -0.030061504 0.0671774 0.0036837508 0.010050954 0.03664594 -0.028397607 0.0067928787 -0.0010244565 -0.017098753 0.10686401 0.016331725 -0.005646445 0.052483324 0.0442204 -0.001276919 0.03775132 -0.002931366 0.033648986 -0.032319907 -0.05478381 -0.027295664 -0.046646405 0.019653114 -0.08211406 0.019762605 0.048400816 -0.030373825 0.017318161 0.008060534 -0.057844277 -0.018694308 -0.10152961 -0.050810598 -0.0005899123 0.040310085 -0.017509546 -0.023993934 -0.14791827 0.022766197 -0.0033594046 0.027604463 0.022759492 0.046478596 -0.017058529 0.07094901 0.10264939 -0.022210741 -0.060465716 0.03689191 0.050003216 0.015158959 0.09304553 0.008434896 -0.051816385 0.021799617 0.021246033 0.026053952 -0.015981453 -0.094536886 0.027967514 -0.03824384 -0.10140909 0.11973389 -0.05809107 0.07749859 -0.049494226 0.029356318 0.025594689 -0.04346701 0.0366611 0.023647672 0.036970958 -0.0061037405 0.04529145 0.07044672 0.004122513 -0.01877543 0.00087733497 0.05281356 0.013497968 -0.012358294 0.044381574 -0.026544537 -0.07453588 -0.004860981 0.014202957 0.009866673 -0.02697705 0.0016326262 0.03162571 0.05398452 0.028881943 -0.050806854 0.03417705 -0.009311264 0.05140075 -0.021558307 -0.047362365 0.0037412618 -0.062806204 -0.045199543 -0.052850533 0.06224418 -0.060276587 -0.020615174 0.047111772 0.018232469 -0.08992879 -0.02088197 0.031266134 -0.009394168 0.012622396 0.041650563 0.10647946 0.01831751 -0.023459045 -0.0065972633 -0.026839387 -0.0065188417 0.0456128 -0.03658007 0.09486249 0.007041195 0.018270269 -0.055841614 0.001823553 -0.08914399 0.036068816 -0.06473977 0.023699535 0.039629977 -0.045872357 0.005560958 0.06095427 -0.013605251 0.025700957 0.055837274 0.023828493 -0.008407532 -0.0047473046 0.051892623 -0.008469543 -0.087404825 0.089146614 0.0514877 0.026555618 -0.018682128 0.017423505 -0.048011106 0.115364745 -0.0124412095 0.05351046 -0.06682127 -0.0017645763 -0.047788706 0.0669867 0.041213512 0.006289876 -0.051128887 0.074807875 -0.043177035 -0.005617969 0.033409454 -0.004883451 -0.027159605 0.047305163 -0.009190364 -0.018584106 0.05916583 -0.026486568 0.024068795 0.0036256223 0.007532917 0.055803344 -0.08753455 -0.03747281 0.017291922 -0.06444001 0.0093271565 -0.004320589 -0.053086948 0.028459223 -0.01856772 0.0034850542 0.07843526 -0.017652657 -0.059421036 -0.057625115 0.047283117 -0.033175204 -0.0018376565 0.067318134 -0.00012704001 -0.040012494 0.10922802 0.03941536 -0.026344629 0.014035451 0.04211063 -0.05767289 0.029924182 -0.01477446 -0.017600117 0.005130227 0.04760252 -0.021546684 0.04839451 -0.081777886 -0.017001089 -0.056740087 -0.000606008 0.011587371 0.01465674 0.067293935 0.079827644 -0.031319138 0.04215147 -0.022366041 0.06926244 0.02196375 -0.008789091 -0.010638332 0.07034978 0.049358737 0.026323179 0.04932793 0.02808214 0.048931 0.04163988 0.023373608 0.021406379 -0.042677015 0.03131927 -0.0018826288 -0.023231063 -0.015345741 -0.02810362 -0.0021466452 -0.0010753637 -0.008136375 0.0102567775 0.0010400821 -0.014115023 -0.012432872 -0.00988005 -0.01564555 -0.010543697 0.020946559 -0.022047872 -0.012690342 0.013037035 0.007060136 0.0068732304 -0.0021892167 0.00450119 0.023152687 -0.006624509 -0.00015541456 0.0005741299 0.0400226 -0.0021317743 -0.0056275814 -0.014684197 -0.00791477 -0.006432646 0.029762032 0.003699041 0.00411105 0.018957367 0.0042460538 0.004798898 0.011203261 -0.012107755 -0.019777304 -0.014936126 0.017957523 0.030532397 -0.006549863 0.0016929398 -0.022209993 0.017582254 0.007926434 -0.011859326 -0.030674402 0.010488004 -0.008519516 0.0011237666 -0.010786878 -0.015546704 -0.0067417254 -0.02765475 0.027577773 0.009850891 0.011410286 -0.013395976 -0.0088586295 -0.010441351 0.010241615 0.014303387 0.014575436 -0.006177801 -0.006826577 0.025041863 -0.023131983 -0.017944986 1.3412889e-05 -0.035729893 -0.014179755 0.009316126 -0.013184286 -0.0114318635 -0.009391354 0.0072607463 -0.022044666 -0.008020616 -0.005733718 -0.0045487187 -0.022881221 0.02062348 -0.0009371527 0.010773757 -0.0016771941 -0.018368075 0.0023647505 -0.01776916 -0.018186709 0.016390549 0.0052628093 -0.02136644 -0.011596025 -0.037892867 0.047323294 -0.029238932 0.008237555 -0.004411965 -0.010057041 0.0016162529 0.008418046 -0.013461291 -0.018969323 0.012166364 0.009301547 0.0072187576 -0.025986305 0.0066178027 0.008497648 -0.012289705 0.021453913 0.0018670157 -0.008324155 -0.013028288 -0.0010858608 -0.029627029 0.012041566 -0.008771154 -0.011401538 0.011785555 -0.02424875 -0.005295758 -0.0002866276 0.017868591 -0.00937036 -0.0010532034 0.015283695 0.026814695 -0.0027659708 0.009967233 0.0035844485 -0.017173162 -0.020253753 0.01252997 -0.0038920701 -0.0031715648 0.005767542 -0.0020851209 0.003818008 -0.009697226 0.001629666 0.014301638 -0.003917438 0.009640951 -0.0027849237 0.049458567 0.008535262 0.008305202 -0.006415734 -0.007382629 -0.014540446 0.007374464 0.0018973406 0.005383817 -0.00684378 0.031148516 0.0052097407 0.01584441 0.0021069897 0.014968784 0.021211898 -0.021669688 0.013971273 0.0015806797 -0.011653759 -0.04169921 0.001435179 0.028704455 -0.011474434 -0.0041439994 -0.004503523 0.00019477846 -0.009386689 -0.011214633 0.0028808552 -0.02007297 0.00040267824 0.0049776393 0.00023968249 -0.011406787 0.0083410675 -0.027589437 -0.016810723 0.009505656 0.002742061 -0.021525936 -0.0053642807 -0.015493927 -0.0014068953 0.010145684 -0.011259828 -0.022432473 -0.0316133 0.0026207615 0.00430058 0.0027283565 0.020050226 -0.0068338662 0.011631015 3.6448066e-05 -0.0076762545 0.013693101 0.01107438 0.011823169 -0.021339905 -0.031200418 0.004782861 0.0014217661 0.05178483 0.011542373 0.010276021 -0.008395594 -0.00837489 -0.0065565696 -0.0057821213 0.037274417 -0.029822681 -0.019676123 -0.0014471341 -0.0123072 -0.006008974 -0.012006868 -0.008603201 -0.007362509 -0.0065959333 -0.029712465 -0.016370138 -0.014615383 -0.003178563 -0.027323803 -0.024460442 0.0020734577 -0.017895125 0.0049543125 -0.014216495 0.00023968249 0.02128538 -0.020473607 -0.012007159 0.0077943457 0.011873613 -0.013715261 0.016521761 0.0226879 0.010237533 0.019026766 -0.00075753656 -0.01579805 0.0064612213 0.002127109 -0.0109212985 0.009385231 0.012796771 -0.0059719426 0.010070747 -0.023136647 -0.0072747422 -0.019974997 -0.009941575 0.0011444692 0.010838488 -0.003330187 -0.004500024 0.006179551 0.034618665 0.012951601 0.022732804 -0.025071895 -0.002647879 -0.01647919 0.021994513 0.003417079 0.009664569 -0.004104927 -0.0067536808 0.017758954 -0.004577877 -0.0046758493 0.025506647 0.017011333 -0.0041894866 0.0023702907 -0.0043900968 0.0002805043 0.008436415 0.015013978 -0.010419773 -0.013388687 -0.0032701204 -0.02005985 -0.0065084584 0.013958151 0.010282436 0.02042433 -0.001943411 0.013664525 0.0032756606 0.008576375 0.017970353 0.010140435 -0.012003368 -0.017903872 0.008279835 0.009084899 -0.017497405 0.014014718 -0.021389766 -0.0038442505 0.004046027 -0.004009579 0.002451351 -0.022778874 -0.0022810658 0.006818996 -0.0128486715 -0.0029006829 0.009866929 0.010766466 0.018774837 -0.003362261 -0.0016763194 0.013289839 -0.017993096 -0.0059500737 0.009212905 -0.016056394 0.012075098 -0.013981477 0.008523891 -0.01236056 0.0008654229 -0.017701805 0.004144291 -0.019505838 -0.008686012 -0.033875998 -0.04643775 0.015986996 -0.02395921 -0.007355511 -0.0002528038 -0.025108052 -0.005554102 -0.015645843 0.009872469 -0.0024175274 0.022330128 0.018221993 -0.02470829 -0.014460551 -0.018742763 -0.0102637755 -0.029777778 -0.022173837 0.012990674 0.0012030777 0.010582477 0.03920529 -0.014185879 0.003870493 0.007906314 0.017947027 -0.0008887496 -0.01185087 0.008625362 -0.013391894 -0.0067023616 0.0036054426 -0.034079816 -0.014397569 -0.0155044235 0.009829897 -0.005695229 -0.0050219605 -0.010731769 0.0011622559 0.017398264 -0.014512162 0.008380139 -0.019306686 0.01026465 0.016246798 -0.0002356003 -0.008681929 0.002779967 0.008433791 0.0033319364 -0.0014404276 0.008846383 0.016109753 -0.006582812 -0.0009015794 -0.005233942 0.0066408375 0.012661767 -0.015563324 -0.017880838 -0.00456184 -0.026855517 0.020981256 0.0036357676 -0.00042163124 -0.0077506085 -0.0071505276 0.014282393 0.037748825 0.013571802 0.017247517 -0.0023530873 0.018195748 0.031637795 -0.054638565 -0.007315564 -0.014900845 -0.025267549 -0.008311908 -0.0014622963 -0.0065317852 0.016399588 0.008435832 -0.013895461 -0.005759086 0.001278015 -0.013987602 -0.012744868 0.011116952 0.011291028 -0.04114928 0.005333664 -0.012300493 0.013978562 -0.016893242 0.0037850589 -0.0052007018 0.016621483 0.012483025 0.0040227002 1.3704473e-05 -0.013773578 0.019027058 -0.010056458 0.013249309 0.009770414 0.002211377 0.010437559 0.01914748 -0.026212575 0.009262182 0.0015293609 0.057353508 0.0058346065 -0.0067306454 0.029526431 0.0058048647 0.002406447 0.009564264 0.016467528 -0.009122805 0.031635463 -0.0032946134 0.031135397 -0.0023557113 0.013402974 0.004120964 -0.006039007 0.003967882 0.012064893 0.006354793 0.0066393795 0.0033762574 -0.007536002 -0.004166743 0.018673947 -0.000106136766 -0.017409636 0.002062669 0.012208353 -0.021526517 0.0152772805 -0.012893576 -0.00056246656 0.025394388 -0.00032336725 -0.020353766 -0.0049586864 0.009546185 0.0010823618 0.02782591 -0.023220334 -0.006141062 0.0020536298 -0.008166408 -0.008578707 -0.008633235 -0.0021087392 -0.0024947973 0.004733 0.029918613 0.0044384995 0.021839973 -0.012836134 0.021558885 -0.0016445367 0.030643785 -0.0046038283 -0.0060760383 0.017826311 0.07743289 -0.013456917 0.012633483 0.038096976 -0.021642279 0.01808553 -0.0057786223 -0.017247517 -0.0052718483 0.010421814 -0.029046193 -0.01761783 -0.020300698 0.016684175 -0.011422824 -0.0036039846 -0.022102108 -0.018882431 0.017402932 0.016216181 0.013859887 -0.017342865 5.27768e-05 0.022247024 -0.014876351 -0.0063842433 -0.006362666 0.016683009 -0.011894316 -0.01451012 -0.010925089 -0.0084130885 -0.00030033206 0.014085866 0.028388668 -0.024261 -0.005951823 0.039426893 0.0022845648 0.004304079 -0.021579295 -0.0031677743 -0.016559085 0.026995478 0.021747248 0.005057242 -0.003552666 0.000637987 0.035733975 0.031519994 0.007817673 -0.035801042 0.037769526 0.007174146 -0.023221793 -0.006511374 0.0098258145 -0.01280785 0.010038089 0.042053778 0.003394627 0.01932214 -0.015862782 0.00095173187 -0.0030861306 0.00175738 0.04208381 0.027112987 -0.0051592966 -0.014556483 0.051166378 -0.014431101 -0.02482813 0.00055838434 -0.017044574 -0.020971052 0.0052458975 0.00011051053 -0.020675385 0.024673883 0.041326273 -0.016138038 0.01845876 -0.005399854 -0.025284752 0.0023956585 -0.0037663972 0.022505952 0.005281762 -0.04139684 0.017685184 0.005467793 0.00827342 -0.022784416 0.014622964 -0.0032569992 0.021124715 -0.010783962 -0.024459276 0.053925645 -0.03908778 -0.010129063 0.02058645 -0.030136134 0.0039101485 0.012325278 0.0057424656 -0.012211559 0.013384895 0.034090314 -0.011912686 -0.008692717 0.0063536265 -0.009469207 -0.035150513 0.025918074 0.023590647 -0.0056386613 0.013226566 0.011992872 -0.02668261 -0.0005994978 0.0058474364 0.021181867 -0.00053010066 0.0023761224 0.0057862033 0.014311551 0.0030015712 -0.035142932 0.0012371931 0.004008413 0.014825907 -0.007541251 0.031554986 -0.0062218304 0.0048808334 -0.00578008 0.00035544153 -0.008152412 -0.007031561 0.0014188503 -0.033152867 0.0003201598 0.0046175327 -0.010970284 -0.03295605 -0.013181661 0.037793145 0.010707275 0.036199052 -0.0034596503 0.0102608595 -0.0022087528 -0.007226631 0.0032368798 0.030975899 0.008050357 0.0062859794 0.010919841 0.027355295 0.00836556 -0.009939534 0.00976604 0.01653605 -0.010014471 -0.004624822 -0.008045108 -0.0085600475 -0.0129201105 -0.025749829 -0.012192024 -0.004833305 0.018266605 -0.0037439452 -0.003484435 -0.0057523795 0.024822883 -0.00011838332 0.017565344 -0.010646042 0.008973514 0.018002136 -0.003698458 -0.03218685 0.019024141 -0.030864224 -0.020175608 0.0021900914 0.004439958 0.0016101297 -0.017591586 -0.013142881 0.012030486 0.036662962 -0.021348944 -0.017223023 -0.02471762 -0.014819783 0.014229033 -0.023955708 -0.028643806 0.015385166 -0.0021845512 -0.007744777 -0.012517432 0.02810146 0.014349458 0.0078258375 -0.02217996 -0.026293343 0.001010632 -0.026258644 0.021627408 -0.01338927 0.017026788 -0.012040108 -0.012811057 0.012671097 0.0086396495 0.0067061526 -0.028369425 -0.018387903 -0.0071639405 -0.014746888 0.0421812 -0.027767887 0.014354706 -0.017215734 -0.012517141 -0.020064514 0.004037862 0.004738832 -0.006811415 -0.0029700801 -0.03494378 0.0077762674 -0.02019981 -0.015312853 0.0009628121 0.0059159584 0.004428877 -0.021746956 -0.012684802 0.008071351 -0.0048901644 -0.01845905 0.0016442451 0.025033697 -0.012825346 0.01917664 0.010415982 -0.0090131685 -0.017502652 0.017359193 0.009607127 0.016649475 0.012351812 0.012398466 0.019011019 -0.02612364 -0.0019696536 -0.008848424 0.004677599 0.0005292259 -0.028358344 0.012590911 0.012380387 -0.007067134 0.0033578875 0.026630124 -0.00030033206 -0.013380231 -0.009928745 -0.018001555 0.0042489697 -0.0026391316 -0.029317366 -0.011867781 -0.04005555 -0.0022489913 -0.020564873 0.020019026 0.015691038 0.0032590402 -0.01674949 -0.009054866 -0.035002097 0.017333826 0.0032846997 0.015488387 -0.033701338 -0.012876956 -0.020279704 -0.020603655 -0.0009840978 0.0017731255 -0.007250541 0.010449806 -0.013812942 0.011031517 0.010843154 0.022206202 0.03466532 -0.011479391 -0.028353387 -0.014569021 -0.025872296 0.030554561 -0.012337233 0.01053145 0.024863705 -0.01177185 0.001798785 0.0033613865 -0.005420265 -0.024597779 0.0046758493 0.012868208 0.021547513 -0.0032155942 0.012233137 0.02175308 0.022347037 -0.0028875617 0.008611075 -0.0104008205 -0.034536436 0.002973579 0.015348426 0.0018113231 0.04074252 -0.019570278 0.023990115 -0.023554198 0.006336423 -0.0069248406 0.016049394 -0.020350268 -9.214071e-05 -0.01133185 -0.01534551 0.015178433 -0.037213184 -0.016195187 -0.029683888 -0.011907145 0.041200016 -0.02632775 -0.012017948 -0.027128149 0.036424156 0.03797393 -0.042728797 -0.002588396 -0.005882426 -0.0203526 -0.031301893 -0.016056975 -0.0011156024 0.019166725 -0.036862697 -0.024711497 -0.00026067658 -0.032671463 0.018917128 -0.003336602 -0.019176347 -0.015055092 -0.0064892136 -0.024225716 -0.012900283 0.005415308 -0.011118118 -0.0019346633 -0.0007447069 0.023764431 0.0068152053 -0.027608389 -0.01856198 0.028304111 0.020129537 -0.00380372 0.024568329 -0.011924057 0.036561493 -0.010838488 0.002574108 0.002719317 0.013383438 -0.027250031 0.03850432 0.0022988524 -0.015509381 0.040111534 0.002527163 -0.00802499 -0.02356207 0.015045178 0.0069761598 -0.021274881 0.0043163258 0.008431749 -0.010098739 -0.0049219467 -0.0199403 -0.0027884226 -0.0016413293 -0.014264898 0.01640163 0.009722594 0.030122722 0.01193747 0.020057516 -0.0033538053 0.002739145 -0.07478939 0.01952071 -0.004250136 -0.012490314 0.017903581 0.012044482 0.0121167945 -0.00392327 0.013995183 -0.010754221 0.011581737 0.017179577 -0.012150618 0.01750965 0.0037801017 0.007140905 -0.008829179 -0.0077476925 -0.021286838 0.031994697 -0.016850961 0.020376509 0.027323803 0.061905436 0.00940331 0.022209119 0.0075721582 0.019832412 0.017887544 0.009141174 0.010622133 -0.0065373247 0.023937631 0.023995074 0.02719813 0.0036483055 -0.024174398 -0.0060614594 0.077167265 0.022414394 0.010110693 0.023888063 -0.00793693 0.018248526 0.055555306 0.01699413 -0.007097167 0.045504972 -0.0019189179 0.011804217 -0.010935003 -0.022948576 -0.034504075 0.016067766 -0.023731481 0.019721903 0.025970267 -0.024790516 -0.022794036 -0.03059159 -0.023546325 -0.014177714 0.014721228 -0.022179376 -0.009834854 -0.006213375 -0.0024939224 -0.0022166257 0.0025892705 0.002706196 -0.0019813168 0.0017620453 0.022498954 0.01098428 -0.0123287765 -0.013281384 -0.01027748 0.0020518804 -0.002618429 0.016706917 -0.031307142 0.008311908 0.03336806 0.00853847 0.02486837 -0.000848511 0.019654253 0.0041792807 -0.010860649 0.011700121 0.032549288 0.009987062 0.010990112 -0.027485339 0.009325748 -0.0042460538 0.07518566 -0.0019807336 -0.010430853 -0.009537438 -0.012457366
yêu -0.0040373337 -0.0011231028 -0.0018781476 -0.004099641 -0.0059635923 0.0045562955 0.0030653977 -0.019045953 -0.003080383 -0.008365434 -0.005902074 -0.004840489 0.008403554 -0.0043741073 0.0056065754 0.012539212 -9.041346e-05 -0.005139668 -0.014940265 0.012553671 0.006399215 -0.009354984 -0.0062509403 0.008491888 -0.003411898 -0.010000138 -0.011927973 0.00957687 -0.0012651207 -0.001983386 0.0045260624 0.009580814 0.012157484 0.008781076 -0.005636546 -0.009258763 0.0012197443 -0.0004068093 0.0023226566 -0.0019956897 0.012482425 0.024164325 -0.0030409482 -0.0037131798 0.006889258 0.008076246 -0.0030561963 0.0072249793 0.0019221569 -0.012799482 -7.543876e-05 0.0039040442 0.0019429784 -0.010883477 0.004520804 -0.004434311 0.0025793246 -0.010028531 0.0054972097 0.01390313 -0.0072467998 -0.008847063 0.010336122 0.005167272 -0.008442726 0.008703259 -0.0037016124 0.0013667047 0.00025185948 -0.005122579 0.012269741 0.0046617184 -0.003938747 0.006210454 -0.0071048345 0.00056071015 -0.0021088412 0.012584431 0.0055624084 -0.007907464 -0.007915089 0.003292805 -0.0026487035 -0.017492222 -0.003262309 0.0030887958 0.0016664354 -0.0058576437 -0.001998634 -0.0024291568 0.014232016 -0.0079174545 0.007751303 -0.007034641 -0.005509829 0.009903391 -0.00044222176 0.012404345 0.007935857 -0.0053421 -0.006975226 -0.0056980643 -0.008420642 -0.021087885 0.0016078878 0.005782718 0.0016025774 -0.0036024998 0.009719099 -0.0020822096 -0.009608681 -0.0086491015 0.0031900117 0.0046175513 8.682226e-05 -0.0024158016 0.00525324 9.0284644e-05 -0.011019921 -0.007830172 0.003988172 -0.00062635593 0.014508585 0.0016949073 0.0037915236 0.0046625067 0.00539652 9.237731e-05 -0.001373987 0.0013489854 -0.0062030926 -0.017297413 -0.0034862983 0.003041211 -0.0026458115 0.008741641 -0.011738423 0.0010801977 0.0021971487 0.0023339875 0.0019155846 0.0041361838 0.0014934218 0.005795074 0.004241869 0.008764514 -0.0032636235 -0.000389458 0.004264741 0.0035867256 -0.008232407 -0.0031787069 -0.013277167 0.00027454502 0.008893072 0.005874207 0.009613939 -0.0049900785 -0.008606249 0.003642723 -0.0016654889 -0.004213739 0.02686561 0.006052189 0.0055416394 -0.0055035194 -0.018294588 -0.00846665 -0.018190743 0.0022335078 -0.00061576115 0.005903651 0.004830499 -0.0051031252 0.013233527 -0.004802106 -0.0062469966 -0.008593893 0.0014903196 -0.010549069 -0.005025833 0.0038107154 -0.012631226 0.016538689 0.00016629389 0.0015612234 0.007822285 -0.008798954 -0.0038840643 0.008842332 0.013079994 0.009048444 -6.234641e-05 0.012253967 -0.0034500184 -0.0033417044 0.01563458 0.018699715 -0.010390805 -0.011578055 0.0049974397 0.0028771623 0.0065180454 -0.001373619 -0.0020094656 -0.016387785 0.0033532719 0.0020343882 -0.0049535353 0.003842263 -0.013432278 0.004975093 0.0028377275 -0.008741641 0.0039723977 0.0097574815 0.0021077632 -0.009135464 -0.0016316277 0.012426166 -0.003136906 -0.0017656272 -0.0027593838 -0.009588964 0.0013736715 0.003371149 -0.00675702 0.0032841295 -0.00488229 -0.0033093677 0.0017221962 0.010404739 0.008563922 0.0022663174 -0.004460338 -0.0057700984 -0.0038811723 -0.004444827 0.009209865 -0.0022057719 -0.0022413947 -0.012715355 0.004102007 0.0019708194 -0.008166419 -0.0004511866 0.01575788 -0.002213764 0.011954788 -0.0014831951 0.0031892231 0.011622485 -0.0034423945 -0.005188041 0.0017194095 0.0011639573 0.0059635923 -0.0054882714 -0.008839177 -0.007035956 0.0035422957 -0.0065430207 -0.0016937505 0.003627475 0.008319163 0.010443647 -0.0073911315 -0.0012493994 0.015425313 0.0060395696 0.014005136 -0.0024408558 -0.006387122 -0.008286827 0.009838192 -0.0022469682 0.009120741 0.005391262 0.0025207244 0.0006295633 -0.002139469 0.0016601784 -0.00075896195 -0.002460547 0.0067670103 -0.007649561 0.0006939209 0.006401844 0.004633062 0.005387581 -0.010958929 0.014144996 -0.011581735 -0.0019269153 0.0024035242 0.0030945796 -0.0034163673 -0.004271051 -0.0029994103 -0.008557876 0.022272043 0.097572275 0.021547874 -0.0069254017 0.10422718 0.028784966 0.016356 -0.007673549 0.025960114 -0.0022983474 0.08256579 0.02566994 0.03655346 0.04682039 0.011999277 0.009983762 0.047654703 -0.027087871 0.08629198 0.010378173 -0.03019447 0.014835953 0.03210673 -0.013099942 0.009744418 -0.006626316 -0.03754759 0.068785645 0.01941883 0.03846549 -0.056466408 -0.021190979 0.055244382 0.00095837447 0.010842345 0.02860111 -0.029661316 0.044933826 -0.037208233 0.066120245 0.06309511 0.013184509 0.06240604 -0.039571203 -0.031863857 -0.04173576 -0.037187412 0.023741867 0.030398378 -0.0083594965 -0.048551377 0.0064942827 4.317075e-05 -0.039437283 -0.024251359 0.058693945 0.022465311 0.03350866 -0.034058962 0.010275542 -0.0013866819 -0.0017634043 0.047987062 -0.016403295 0.04416781 -0.02045993 0.07889145 -0.019510029 0.0039190194 -0.07450658 -0.0025045727 0.076299906 0.028574754 0.012979749 -0.037320256 -0.024587246 0.044136357 0.0028897468 0.0689465 0.10856182 0.04734823 -0.07917431 -0.01599739 -0.015088385 -0.012029925 0.049204033 -0.031006608 -0.07881147 0.026348108 -0.09572249 -0.027178755 0.005610779 -0.02163499 -0.033420764 -0.04460852 -0.021537196 -0.018636782 0.035952777 -0.08385519 0.028104149 -0.066644356 -0.001985498 0.04553667 0.044129122 0.0072369976 -0.011767987 -0.0078022545 0.018625056 0.06531334 -0.07038142 -0.050423108 -0.011935147 0.05288345 0.029541623 0.049333252 -0.011506305 -0.018631058 0.030698882 -0.016668096 0.04581722 -0.0010244416 -0.07472263 -0.013912919 0.04937438 0.010106423 0.05399094 0.023110026 0.025885103 0.035363723 -0.011836898 -0.032058436 -0.086377 -0.06166478 0.032028213 0.022127694 0.03496158 0.030103229 0.056701407 -0.03286051 -0.008884711 -0.009959275 -0.007795247 -0.01861107 0.049269345 0.0018027734 0.0326938 0.0016573346 0.010250121 -0.031606965 0.0272778 -0.06002911 -0.05617642 0.07685875 -0.02837603 0.06372664 0.03614745 0.07262236 -0.016064418 -0.019297611 -0.007674523 -0.011962543 0.0057924003 0.08807029 0.08081413 -0.07593766 -0.00942553 -0.003454784 0.023431681 0.042920724 0.0070523145 -0.04544694 0.0057877824 0.05536382 -0.012473498 -0.0033856449 -0.036348242 0.08473222 0.027415931 0.024675481 -0.10629438 0.047408894 0.05480303 0.04452462 -0.06508237 0.06053475 0.08087644 -0.038862884 -0.0907283 0.03952709 -0.06771676 0.017174408 -0.0071612387 0.081658155 0.01638597 -0.03311069 -0.032222662 0.057052277 0.003137468 0.08929167 -0.008414647 -0.01175956 0.04622084 -0.100903265 -0.078969 0.014783686 0.0043347087 0.043710846 0.021953708 0.04924171 0.009378213 -0.008516976 -0.02795318 0.06880477 -0.008800094 -0.019533396 -0.057637274 -0.0038856864 0.030767146 -0.004907948 0.029278278 0.0154368915 0.006868224 -0.014563201 -0.038788263 -0.0073016975 -0.055383425 -0.003632047 -0.018246222 0.08708225 -0.017209046 0.014622707 0.019131782 -0.018039254 -0.08546533 0.02827213 -0.0001302315 0.065892406 -0.0383175 -0.032286793 -0.089777455 -0.023910142 0.065660946 -0.079388954 -0.022189284 -0.011508167 -0.07051957 0.0029807056 0.08751206 -0.007481446 -0.030889045 -0.044210996 0.007876371 -0.06302813 0.014882679 0.03193095 -0.011933992 -0.032961924 0.009022421 0.042866327 0.039586935 0.00097095926 0.031386364 -0.038966205 0.014600966 -0.026869107 0.06484705 -0.019321272 0.0026235394 -0.06415804 0.0065126666 -0.022393622 -0.008806492 -0.02450506 -0.022950226 -0.025036344 -0.00028864428 0.08718956 0.02191174 0.012640457 0.053901665 -0.060000047 -0.021027995 -0.032746732 0.041010633 -0.044416867 0.044385277 -0.026104994 -0.0132713355 0.06938581 0.023346597 0.016279899 -0.02673203 0.0022899301 0.013952875 0.014354467 0.10566069 -0.04338966 -0.11219684 0.034678005 -0.057557385 -0.00310641 -0.013192778 0.00078895874 -0.009470922 -0.022871127 -0.02434704 -0.011186336 0.021798238 -0.0022835373 -0.013794553 -0.033889208 -0.015769185 -0.02035729 0.02766298 0.030098738 -0.010438914 0.009717784 -0.03940929 -0.013618673 -0.016705628 -0.017910494 -0.009494583 0.01470208 -0.022081116 -0.01362288 -0.026492292 -0.018912662 -0.044333905 0.015149269 0.0051691127 -0.008989555 0.0061250115 -0.01676557 -0.004407232 -0.012822617 -0.016237143 -0.0052742716 -0.025612634 0.024612306 0.014877695 -0.007326458 -0.019396923 -0.020648057 0.015363795 0.016567344 -0.035373796 0.009749595 0.01093737 -0.005571347 0.024742177 -0.00054051954 -0.020866262 0.034382142 -0.027038597 0.01201394 0.004994285 -0.005831354 -0.011157154 -0.00037436764 0.009290837 0.044727992 -0.007168982 -0.02678963 -0.017745657 -0.023009412 0.020783186 -0.023459759 0.0038159734 0.015830178 8.4127554e-05 -0.008232407 0.022819337 -0.004799214 -0.018564586 0.006273024 -0.016241351 -0.020472966 0.01639094 -0.027304912 0.0026744674 0.0005076572 -0.0011465008 0.016532378 -0.015990809 -0.013997774 0.025813753 -0.010959717 0.02218575 -0.013665469 0.018747825 -0.008429055 0.0066245194 -0.0032215596 -0.0021420978 0.02104188 -0.0049756193 0.021045823 0.01874625 0.016159851 0.0071684564 0.035611723 0.018610328 0.021653907 0.0026090057 0.001052909 0.014274606 0.0038987866 0.0051714787 -0.0046349023 -0.01150497 -0.009739342 -0.021932842 -0.015160048 0.03274928 0.020505829 0.005183046 0.026324037 -0.0009466979 -0.01395124 -0.026519896 -0.0020182726 -0.017655483 -0.0006419984 0.015461331 0.024255814 0.017120745 0.04574909 0.008594944 -0.018788839 0.010342169 0.010989687 0.003308316 -0.042869564 0.021349996 -0.016047068 -0.021218546 0.030161567 -0.009947558 -0.019723706 0.010860342 -0.018013287 -0.026072182 -0.00937181 -0.018427089 0.0154605415 0.021437803 0.02032443 0.011877497 -0.024958279 -0.019019663 -0.021834254 -0.0018260936 0.032120164 0.006730993 -0.0034287237 -0.023178454 0.005990408 0.021527978 -0.032777146 -0.0008260274 -0.0088544255 0.0030141326 0.03759371 0.019555189 -0.009134412 0.023972148 -0.027841752 0.009139407 0.006479662 -0.0046709194 0.015688213 -0.011636155 0.00084101263 0.016248975 -0.0071723997 0.004239503 -0.032734033 -0.0040991153 0.0033614214 -0.0015858044 0.021437278 0.0011528104 -0.024049439 0.0020787392 0.0365529 0.013780619 0.010759125 -0.010149989 0.01366284 -0.0086409515 0.008271316 -0.0032060486 -0.0035746323 0.0028995087 0.026574582 -0.008792381 -0.0007119294 0.018446807 0.009260604 -0.015532049 0.029923383 0.011392185 0.020092288 0.024925679 -0.009211704 0.023821505 0.004887285 0.010383443 0.039695587 0.011713973 0.007967405 0.0023631956 -0.046536736 0.001976209 -0.01082853 0.013732246 0.039019674 -0.010992842 -0.026383715 -0.02596965 -0.009319493 -0.017576087 0.0013439377 0.026073232 -0.009431487 -0.012943287 0.021145198 -0.0020987196 0.0031108793 -0.016849436 -0.04271419 0.012604937 -0.010269083 0.0060987216 -0.03077202 0.0027241553 0.0033043725 -0.015647462 -0.015375625 0.009356825 -0.03188066 0.0064215614 -0.00072901783 0.027803104 -0.00482787 0.028103072 0.007689784 -0.011226034 -0.013992778 0.020064421 0.0062138713 0.023932712 -0.01930517 -0.009598428 0.017219596 -0.018875595 -0.025154402 0.018419465 0.00057048997 0.026008822 0.015475789 0.0015387455 0.016120154 -0.011130864 -0.008405394 0.025956769 -0.011910621 -0.015258372 0.009107071 -0.02093856 -0.0026644773 -0.022222556 0.039729238 -0.06937815 0.0035606988 -0.0011472895 0.001724352 -0.0256639 0.017202508 0.005224584 0.01456432 -0.00658561 -0.002497274 0.006029054 0.0411134 -0.03546187 0.008558402 -0.025008755 0.0014656598 -0.022868497 0.009672566 0.03802986 0.014710754 0.021113386 -0.016452458 -0.014133955 -0.028615987 -0.0012763727 0.0005702271 0.025671523 0.011572008 0.0063792346 -0.03185411 0.007399018 0.0096078925 0.025727784 0.02608927 0.0019409804 -0.006691032 -0.0049590566 -0.0055629346 0.0057903416 -0.011551502 0.003826752 -0.0056202463 0.002447849 0.032917798 -0.009402569 -0.012643583 0.029922858 0.01020809 -0.02163419 0.025043195 0.011390083 0.018797776 0.0023003628 0.02969913 -0.0058765723 0.039858583 -0.0070304344 0.007182127 0.0009785086 -0.02335565 -0.011224982 -0.008505821 -0.002113968 -0.0542373 -0.036641754 -0.0096588945 -0.0084553445 -0.02473797 -0.008212164 0.0147961965 -0.03169374 -0.0020269484 -0.016298136 0.011675591 -0.012294716 -0.012746113 0.013560574 0.017654167 -0.009148609 0.016065208 -0.025148094 0.025512995 0.006216238 -0.02911681 -0.0027028606 0.00916333 -0.037818488 0.0104136765 0.050607458 -0.012759784 -0.022167612 -0.004599411 -0.027725024 -0.004488994 0.010783049 -0.025919437 0.0024352297 -0.0018410789 -0.006499905 -0.01159935 -0.034661867 0.006479662 -0.015335139 0.009286631 -0.015124031 -0.02632167 -0.0079766065 -0.020183777 0.03250899 -0.023102477 -0.024981415 -0.00641236 -0.012378318 0.015119562 -0.04659878 -0.0016383842 -0.013336057 0.0122098 0.025396006 0.026740469 -0.024859956 0.0034773597 0.00980454 -0.0027446614 0.033401005 -0.0021271126 0.0040357565 0.0049556387 0.028594956 7.5189e-05 -0.032203764 -0.0028437744 -0.04025293 0.0020855747 0.00961762 -0.012496885 -0.016506352 0.0061250115 -0.03587015 -0.02347711 0.0085042445 -0.0027388777 0.011684266 -0.023545988 0.010556957 -0.016841285 0.020476647 -0.017041087 -0.005059484 0.005507989 0.02755151 -0.028394891 -0.013693337 0.017724624 0.030591145 0.0219218 -0.0060090735 0.023237871 -0.023354335 -0.020673295 0.016841022 0.024525022 0.0024930674 0.020746643 0.01938588 -0.009981471 0.036907546 0.020249765 -0.0151660945 -0.0040207715 0.014540658 0.015062775 0.017041614 -0.01083484 0.02323235 -0.0051885666 0.032588385 0.023316741 0.011743155 0.004918044 0.038982343 -0.012392252 -0.021987263 0.012006579 0.001954914 0.02775736 0.007849626 0.02967179 -0.006870592 0.006674733 -0.0012729551 -0.016539214 0.027600147 0.011531259 -0.026646877 0.0010200466 0.02534185 -0.02087599 0.0030493608 -0.017333694 -0.011968984 -0.014985484 0.0076366784 0.0046320106 0.01758818 -0.006949462 0.020901492 0.0152055295 0.02323419 -0.0016089395 -0.02419009 -0.004952221 -0.0057724644 -0.027261535 -0.021935733 -0.0058886656 -0.018585354 -0.0050889286 -0.0055411137 -0.0110270195 0.020129358 -0.0060966187 -0.031882763 0.033148885 -0.016213484 0.029561896 -0.009167801 0.038340606 0.027564917 -0.028757429 -0.029911026 0.015706878 -0.009193039 -0.0056533716 0.05923789 -0.012849958 -0.0030688155 -0.023491044 -0.03875546 0.008405131 0.017348943 0.010129483 0.012300237 0.0135476915 -0.0037255362 -0.014778582 0.009502207 0.005152287 0.031965315 0.009552421 -0.012074933 -0.021737508 -0.0024670407 0.033440437 -0.01159935 0.050439462 -0.01221164 0.013482755 0.005209862 -0.013675196 -0.0069244867 -0.0125910025 0.019233398 -0.008840492 -0.033043988 0.008255542 -0.017423606 0.020909378 0.01332817 0.0104136765 0.02727205 -0.012769774 0.040681455 -0.032297093 -0.026309317 0.017690185 -0.031187136 0.011325935 0.008437205 -0.008350711 -0.0072160405 0.0051020733 0.039059896 0.0138169 -0.024080986 -0.019858046 0.032272384 -0.021819532 0.036099397 0.015387456 -0.033347636 0.016169315 -0.0035819937 0.013282952 -0.012378055 0.0010087419 0.011054624 0.009109437 0.021431757 0.017992781 0.009542694 -0.01867658 -0.0020061794 -0.022503858 0.015273883 -0.019751571 0.0278733 -0.022939743 -0.011941381 -0.0121945515 0.027400345 -0.006611111 -0.023880132 -0.02632325 -0.013992514 -0.0029321082 0.0078827515 0.024950393 -0.0034455492 0.020091238 -0.015770761 0.050623756 -0.0069836383 -0.014739937 0.025537971 -0.021903923 -0.01458062 0.00044666475 0.017943619 -0.020163272 0.016374113 -0.022152627 -0.005430171 0.026201265 -0.015741317 -0.001806902 0.015205793 -0.029843723 0.002118437 0.06501193 -0.0054380577 0.019550193 -0.02660744 0.028657788 0.0050647417 0.001384424 0.021245362 0.010521729 -0.009246144 0.014607698 0.015912464 0.0040746657 0.027300969 0.036163807 -0.004689848 -0.025175959 0.024274742 0.02474244 0.015264682 0.013053704 0.0062814364 0.00090095354 -0.0024278685 0.017908128 -0.01351956 0.038785692 -0.006177066 0.0088299755 -0.011741315 -0.0019288871 -0.001986462 -0.043168478 0.025083682 -0.027935343 -0.033102617 -0.031932455 -0.008401713 0.02005601 0.013470662 0.0029394694 -0.004635428 0.004799477 -0.010213873 0.014559325 0.023803892 0.014379239 0.0014372667 -0.034482308 -0.016628863 -0.010173388 -0.022346383 0.030929497 0.039286252 -0.01789919 0.012672502 0.021248518 -0.026158148 -0.010360572 -0.009785875 -0.011944798 0.0062417383 0.01132462 0.0027911945 -0.009231159 -0.0060453536 -0.009739605 0.0074305665 0.02274809 -0.025880791 -0.021866066 0.0043499204 0.014990216 0.011713711 -0.008117257 -0.031490784 -0.028180892 -0.014758864 -0.01827487 -0.008571809 0.025231693 0.005532701 -0.00044061805 0.015823605 0.04455816 0.012336254 -0.0055397996 -0.0012327316 0.013686239 -0.025471983 0.012233461 -0.02173593 0.012560506 0.007388503 0.017629456 0.029130217 -0.01625397 -0.018651867 0.0044253725 -0.022341123 0.008156955 -0.009653636 0.010645027 0.012912529 0.015604872 -0.0048523196 -0.032584704 0.00958949 0.02614921 0.024883354 0.01951654 -0.011090377 -0.030498868 -0.030946583 0.0020711154 0.026359003 -0.013296885 0.051375646 -0.019015718 -0.0031229726 -0.012814467 -0.042173404 0.015233134 0.027045956 0.013944931 -0.023193704 0.025311615 -0.0023219206 -0.008244237 -0.013027152 -0.010791199 -0.0165379 -0.04876927 -0.008460603 0.00010331916 0.0038974718 -0.01309498 0.032393314 -0.020183515 -0.038536467 -0.016718775 -0.033989374 0.007955575 -0.02658457 -0.008344139 0.031606194 0.011854098 -0.031355653 -0.011632738 0.038475737 0.022292225 -0.03202394 -0.013757748 0.016082559 0.008126985 0.0038493616 -0.024576288 0.001060533 0.014200731 0.065965995 0.005090506 0.025038201 0.023745265 -0.0026205734 0.00018245164 0.010062444 -0.040914647 -0.0008344402 -0.009631554 -0.024396729 -0.0024977997 -0.029080003 0.0029983586 -0.04458366 0.020206124 -0.0047305976 -0.024968008 0.006949199 0.024772147 0.0004774239 -0.025566364 -0.030709714 0.004036808 -0.03570978 -0.00068984594 -0.03575237 0.0010350319 -0.027239189 -0.046726022 -0.02202249 -0.029626833 0.035764724 0.027152168 -0.0047984254 0.009486697 -0.016008947 0.023754729 -0.0088149905 0.014511478 -0.01974684 0.0027919833 0.011066191 -0.022378456 0.0073498567 0.008064941 -0.029612636 0.048301835 -0.018760445 0.009043975 -0.01722985 0.018360313 -0.02222913 0.01478016 0.024274217 -0.004112786 -0.034520164 0.00011015451 -0.012103326 0.0063263923 0.025322657 0.0029865282 -0.015195277 0.022435242 0.0031566236 0.011657976 -0.0057606343 -0.0021725942 -0.008172729 0.0016396986 -0.0048270817 0.003331188 0.010323502 -0.0019002311 -0.026809612 0.02181033 0.0055108806 -0.021431232 -0.014973916 -0.04476664 0.023448978 -0.028046813 -0.01493343 0.03767889 -0.018470468 -0.0227289 -0.0048399633 -0.012718772 -0.0227452 -0.023719763 -0.019074084 -0.0076003987 -0.017595805 0.0069602407 -0.0058266222 0.046136867 0.02124878 -0.008292348 -0.045677584 -0.0023468959 -0.029806655 0.014293535 0.013106285 -0.031615134 -0.014386337 -0.005991722 -0.035140343 -0.012971154 0.0043170583 -0.019293342 0.015188704 -0.035098277 0.019954793 0.025898932 -0.028963279 -0.00053105515 -0.017586865 -0.032989834 -0.022557227 -0.015632214 0.0021681248 -0.019451605 0.008250284 0.024537642 -0.019653775 0.0024147236 -0.0065722023 -0.012347822 0.02803577 -0.022927387 0.017680984 0.015773654 0.007905624 0.022795675 -0.031262852 0.010570364 0.0053846897 0.004725865 0.012639639 -0.0001516925 -0.011176346 -0.009203028 0.00065198855 -0.02139837 -0.011325935 0.0003541244 -0.008513971 0.02048138 -0.00038015138 0.0050949752 -0.0143371755 -0.015413483 -0.048494276 0.029103665 0.011127447 -0.015661921 -0.03337787 0.009444895 0.0040662526 -0.00065882393 0.021585554 -0.012600468 0.00903267 0.030831434 0.019867247 0.00047032564 0.002525404 0.032798707 0.032335214 -0.0034655293 -0.01530806 0.015511017 -0.010325342 -0.037391018 0.018074542 0.057943907 0.0025611583 0.008377001 0.014178648 0.010520677 0.0014046673 0.00058889284 -0.014243584 -0.005280318 0.010906086 0.018383974 0.0045741727 -0.009127314 -0.0010931324 -0.00013591857 0.042459965 0.023781545 0.00836964 0.00460835 0.019267313 0.04060916 -0.0040544225 0.017546117 0.001203024 0.0046811723 -0.021190679 0.022991272 -0.05202027 -0.02556321 -0.0308083 0.013658634 -0.0063566254 0.012318114 -0.021817956 -0.01331634 0.024516873 0.014713646 -0.020129094 -0.037930485 0.01565272 -0.029022956 -0.009672303 -0.031487893 0.014700765 0.008393301 0.028963802 -0.019442404 0.022038527 0.023919042 0.0038488358 -0.0055595166 -0.0038257006 -0.01894947 0.007157152 -0.0347084 0.0027478163 -0.014458109 -0.030790687 0.008940919 0.029359993 -0.018810658 -0.0074371384 0.001309498 0.022814604 0.032364924 0.007130599 0.019207371 0.019945854 0.0015808094 -0.002486758 0.014696295 0.03297064 -0.02478161 0.049677324 0.023267053 0.0067656958 -0.011666914 -0.015839903
hà_nội 0.03806966666666666 -0.0006308333333333336 -0.051610333333333334 0.0320145 0.019662166666666668 0.02743033333333333 0.017123166666666665 -0.01183 -0.031086500000000003 -0.026711666666666672 0.04209433333333334 -0.009205166666666667 -0.0081695 -0.012419333333333333 0.016702833333333333 -0.0092455 0.015280666666666665 -0.02959116666666667 -0.0051495 -0.037536 -0.020232333333333335 0.0064996666666666675 -0.00038299999999999993 0.016399166666666666 -0.004031666666666668 0.02554016666666667 0.004433833333333333 0.0012733333333333331 0.0055565 -0.015821833333333334 0.018062833333333334 -0.02881766666666667 -0.0006488333333333334 -0.024643 0.0239115 0.009652666666666665 -0.04004866666666667 0.031655499999999996 0.0020266666666666666 0.0314545 -0.016555 0.011230166666666666 -0.013026833333333335 0.0003226666666666668 -0.027044333333333333 -0.034407 0.039652 -0.0058085 0.0069165 0.029193833333333332 0.0095645 0.05322033333333334 0.03289583333333333 -0.0333645 0.054733000000000004 0.007356833333333333 -0.010812166666666666 0.03342833333333333 -0.014430499999999999 0.019609666666666668 -0.019463333333333332 -0.03300433333333333 -0.011020999999999998 -0.007117166666666667 0.013496166666666665 0.009390666666666667 0.0399865 -0.016841 0.028038499999999997 0.009026500000000002 -0.03734083333333333 -0.012780499999999998 0.02963666666666667 0.01310716666666667 -0.041399500000000006 0.018644833333333336 -0.011236000000000001 0.030222833333333334 -0.014920500000000001 -0.014925166666666668 0.015725833333333335 -0.0017855 -0.0014845 0.03185983333333333 -0.027765666666666664 -0.054007 -0.013385833333333333 -0.013685833333333333 -0.006777166666666665 -0.019546833333333336 -0.0010626666666666666 0.03483633333333333 -0.009448833333333333 -0.015097666666666669 -0.0009568333333333335 -0.011473166666666666 -0.0043525 -0.02437716666666666 -0.0033181666666666667 -0.0095425 -0.014108333333333334 0.009508 -0.0034043333333333334 -0.012438166666666667 0.018590333333333334 -0.007431333333333334 -0.0169365 0.0009001666666666666 0.04749116666666667 0.004678666666666667 0.026837000000000003 0.0208445 0.013685833333333333 -0.0091875 0.009862833333333333 -0.00041566666666666634 -0.017512666666666666 -0.0018515000000000005 -0.006647333333333334 -0.041799833333333335 0.007715 -0.006585833333333333 0.04467616666666666 0.024428166666666667 0.027953666666666665 0.014330833333333334 -0.012004333333333334 -0.013201333333333334 -0.010698333333333332 -0.005356833333333334 -0.011690333333333336 -0.008189666666666666 -0.024970999999999997 0.021584000000000002 -0.014264833333333336 0.020659166666666666 -0.023566666666666666 0.0161775 0.007670333333333334 0.043049 -0.010425666666666666 -0.0018168333333333333 0.030788666666666662 0.02442683333333333 -0.038671500000000004 -0.03095366666666667 0.040744166666666665 0.00040400000000000006 -0.006834833333333334 -0.037870666666666664 0.004013333333333333 0.006317666666666666 0.025773666666666667 0.027472333333333335 -0.005458166666666667 0.010036499999999999 0.005514666666666667 -0.0161645 -0.0007916666666666662 -0.029407833333333338 -0.006517166666666667 0.012812666666666667 0.016889166666666667 0.004668666666666667 -0.016295499999999997 -0.004509833333333334 0.021378166666666667 -0.0266115 0.023234666666666667 0.02598333333333333 -0.034936 -0.027029333333333332 -0.012105666666666667 0.021260166666666667 -0.027072833333333338 -0.018989166666666665 0.002310666666666666 0.006269333333333334 -0.01642633333333333 -0.02534966666666667 0.038177666666666665 -0.001084 -0.0021551666666666668 -0.010775666666666668 -0.006970666666666667 -0.004978166666666666 0.0015826666666666665 0.0087535 -0.06519266666666666 -0.017117333333333335 0.009076666666666667 0.02313833333333333 -0.03141766666666667 -0.025004666666666665 -0.018741 0.03302016666666666 0.000624166666666667 0.004927166666666667 0.008376999999999999 -0.0010623333333333333 -0.047593833333333335 -0.03268666666666667 0.013260666666666665 0.029077000000000002 0.027541499999999997 -0.0005896666666666668 0.012334166666666667 -0.009179666666666668 -0.008284999999999999 0.028058 -0.036138833333333335 0.004541666666666667 0.003402 0.0151605 0.008819166666666666 0.048056833333333326 0.012770333333333333 -0.023839333333333334 0.007907666666666667 0.015090333333333336 0.018601666666666666 0.013606 0.0011858333333333334 -0.011389000000000002 -0.015551500000000001 -0.010765499999999999 0.0147715 0.0094415 -0.005035 -0.014618500000000001 0.0015478333333333336 -0.010213833333333333 -0.016016166666666665 -0.037012 -0.036855 0.009446833333333333 -0.010948666666666667 -0.04583416666666667 0.02909716666666667 0.020170166666666666 -0.0010745000000000002 0.036534833333333336 -0.013304000000000002 0.011564666666666668 0.0027696666666666664 -0.013245833333333333 0.0366205 -0.00026783333333333346 0.03302066666666667 0.05719250000000001 0.008892166666666666 0.010886666666666668 0.009396 -0.04855966666666667 -0.0295455 -0.016317166666666667 -0.007827333333333334 0.02424916666666667 -0.015412 -0.031428000000000005 0.007667333333333334 0.0010611666666666669 0.014718666666666666 -0.028780499999999997 -0.029685 -0.028895166666666663 -0.01763416666666667 -0.008120333333333334 -0.0002966666666666666 -0.0024298333333333338 0.018052 -0.008666833333333334 0.007538833333333335 0.0004266666666666667 0.020361 -0.003049 0.008691333333333334 0.028030666666666666 0.036206833333333334 -0.04691816666666667 0.0006166666666666667 -0.007904 0.005151500000000001 0.018474833333333333 -0.03125216666666667 0.0029373333333333335 -0.001661 -0.004995833333333334 -0.035664 -0.008547 0.014048833333333335 -0.03899866666666667 0.018516333333333333 -0.05972266666666667 -0.008669666666666666 0.014016166666666668 0.014346166666666667 0.003952499999999999 0.043106 -0.009016833333333333 0.0 0.0 0.0 0.0 0.0 0.0 0.0 0.0 0.0 0.0 0.0 0.0 0.0 0.0 0.0 0.0 0.0 0.0 0.0 0.0 0.0 0.0 0.0 0.0 0.0 0.0 0.0 0.0 0.0 0.0 0.0 0.0 0.0 0.0 0.0 0.0 0.0 0.0 0.0 0.0 0.0 0.0 0.0 0.0 0.0 0.0 0.0 0.0 0.0 0.0 0.0 0.0 0.0 0.0 0.0 0.0 0.0 0.0 0.0 0.0 0.0 0.0 0.0 0.0 0.0 0.0 0.0 0.0 0.0 0.0 0.0 0.0 0.0 0.0 0.0 0.0 0.0 0.0 0.0 0.0 0.0 0.0 0.0 0.0 0.0 0.0 0.0 0.0 0.0 0.0 0.0 0.0 0.0 0.0 0.0 0.0 0.0 0.0 0.0 0.0 0.0 0.0 0.0 0.0 0.0 0.0 0.0 0.0 0.0 0.0 0.0 0.0 0.0 0.0 0.0 0.0 0.0 0.0 0.0 0.0 0.0 0.0 0.0 0.0 0.0 0.0 0.0 0.0 0.0 0.0 0.0 0.0 0.0 0.0 0.0 0.0 0.0 0.0 0.0 0.0 0.0 0.0 0.0 0.0 0.0 0.0 0.0 0.0 0.0 0.0 0.0 0.0 0.0 0.0 0.0 0.0 0.0 0.0 0.0 0.0 0.0 0.0 0.0 0.0 0.0 0.0 0.0 0.0 0.0 0.0 0.0 0.0 0.0 0.0 0.0 0.0 0.0 0.0 0.0 0.0 0.0 0.0 0.0 0.0 0.0 0.0 0.0 0.0 0.0 0.0 0.0 0.0 0.0 0.0 0.0 0.0 0.0 0.0 0.0 0.0 0.0 0.0 0.0 0.0 0.0 0.0 0.0 0.0 0.0 0.0 0.0 0.0 0.0 0.0 0.0 0.0 0.0 0.0 0.0 0.0 0.0 0.0 0.0 0.0 0.0 0.0 0.0 0.0 0.0 0.0 0.0 0.0 0.0 0.0 0.0 0.0 0.0 0.0 0.0 0.0 0.0 0.0 0.0 0.0 0.0 0.0 0.0 0.0 0.0 0.0 0.0 0.0 0.0 0.0 0.0 0.0 0.0 0.0 0.0 0.0 0.0 0.0 0.0 0.0 0.0 0.0 0.0 0.0 0.0 0.0 0.0 0.0 0.0 0.0 0.0 0.0 0.0 0.0 0.0 0.0 0.0 0.0 0.0 0.0 0.0 0.0 0.0 0.0 0.0 0.0 0.0 0.0 0.0 0.0 0.0 0.0 0.0 0.0 0.0 0.0 0.0 0.0 0.0 0.0 0.0 0.0 0.0 0.0 0.0 0.0 0.0 0.0 0.0 0.0 0.0 0.0 0.0 0.0 0.0 0.0 0.0 0.0 0.0 0.0 0.0 0.0 0.0 0.0 0.0 0.0 0.0 0.0 0.0 0.0 0.0 0.0 0.0 0.0 0.0 0.0 0.0 0.0 0.0 0.0 0.0 0.0 0.0 0.0 0.0 0.0 0.0 0.0 0.0 0.0 0.0 0.0 0.0 0.0 0.0 0.0 0.0 0.0 0.0 0.0 0.0 0.0 0.0 0.0 0.0 0.0 0.0 0.0 0.0 0.0 0.0 0.0 0.0 0.0 0.0 0.0 0.0 0.0 0.0 0.0 0.0 0.0 0.0 0.0 0.0 0.0 0.0 0.0 0.0 0.0 0.0 0.0 0.0 0.0 0.0 0.0 0.0 0.0 0.0 0.0 0.0 0.0 0.0 0.0 0.0 0.0 0.0 0.0 0.0 0.0 0.0 0.0 0.0 0.0 0.0 0.0 0.0 0.0 0.0 0.0 0.0 0.0 0.0 0.0 0.0 0.0 0.0 0.0 0.0 0.0 0.0 0.0 0.0 0.0 0.0 0.0 0.0 0.0 0.0 0.0 0.0 0.0 0.0 0.0 0.0 0.0 0.0 0.0 0.0 0.0 0.0 0.0 0.0 0.0 0.0 0.0 0.0 0.0 0.0 0.0 0.0 0.0 0.0 0.0 0.0 0.0 0.0 0.0 0.0 0.0 0.0 0.0 0.0 0.0 0.0 0.0 0.0 0.0 0.0 0.0 0.0 0.0 0.0 0.0 0.0 0.0 0.0 0.0 0.0 0.0 0.0 0.0 0.0 0.0 0.0 0.0 0.0 0.0 0.0 0.0 0.0 0.0 0.0 0.0 0.0 0.0 0.0 0.0 0.0 0.0 0.0 0.0 0.0 0.0 0.0 0.0 0.0 0.0 0.0 0.0 0.0 0.0 0.0 0.0 0.0 0.0 0.0 0.0 0.0 0.0 0.0 0.0 0.0 0.0 0.0 0.0 0.0 0.0 0.0 0.0 0.0 0.0 0.0 0.0 0.0 0.0 0.0 0.0 0.0 0.0 0.0 0.0 0.0 0.0 0.0 0.0 0.0 0.0 0.0 0.0 0.0 0.0 0.0 0.0 0.0 0.0 0.0 0.0 0.0 0.0 0.0 0.0 0.0 0.0 0.0 0.0 0.0 0.0 0.0 0.0 0.0 0.0 0.0 0.0 0.0 0.0 0.0 0.0 0.0 0.0 0.0 0.0 0.0 0.0 0.0 0.0 0.0 0.0 0.0 0.0 0.0 0.0 0.0 0.0 0.0 0.0 0.0 0.0 0.0 0.0 0.0 0.0 0.0 0.0 0.0 0.0 0.0 0.0 0.0 0.0 0.0 0.0 0.0 0.0 0.0 0.0 0.0 0.0 0.0 0.0 0.0 0.0 0.0 0.0 0.0 0.0 0.0 0.0 0.0 0.0 0.0 0.0 0.0 0.0 0.0 0.0 0.0 0.0 0.0 0.0 0.0 0.0 0.0 0.0 0.0 0.0 0.0 0.0 0.0 0.0 0.0 0.0 0.0 0.0 0.0 0.0 0.0 0.0 0.0 0.0 0.0 0.0 0.0 0.0 0.0 0.0 0.0 0.0 0.0 0.0 0.0 0.0 0.0 0.0 0.0 0.0 0.0 0.0 0.0 0.0 0.0 0.0 0.0 0.0 0.0 0.0 0.0 0.0 0.0 0.0 0.0 0.0 0.0 0.0 0.0 0.0 0.0 0.0 0.0 0.0 0.0 0.0 0.0 0.0 0.0 0.0 0.0 0.0 0.0 0.0 0.0 0.0 0.0 0.0 0.0 0.0 0.0 0.0 0.0 0.0 0.0 0.0 0.0 0.0 0.0 0.0 0.0 0.0 0.0 0.0 0.0 0.0 0.0 0.0 0.0 0.0 0.0 0.0 0.0 0.0 0.0 0.0 0.0 0.0 0.0 0.0 0.0 0.0 0.0 0.0 0.0 0.0 0.0 0.0 0.0 0.0 0.0 0.0 0.0 0.0 0.0 0.0 0.0 0.0 0.0 0.0 0.0 0.0 0.0 0.0 0.0 0.0 0.0 0.0 0.0 0.0 0.0 0.0 0.0 0.0 0.0 0.0 0.0 0.0 0.0 0.0 0.0 0.0 0.0 0.0 0.0 0.0 0.0 0.0 0.0 0.0 0.0 0.0 0.0 0.0 0.0 0.0 0.0 0.0 0.0 0.0 0.0 0.0 0.0 0.0 0.0 0.0 0.0 0.0 0.0 0.0 0.0 0.0 0.0 0.0 0.0 0.0 0.0 0.0 0.0 0.0 0.0 0.0 0.0 0.0 0.0 0.0 0.0 0.0 0.0 0.0 0.0 0.0 0.0 0.0 0.0 0.0 0.0 0.0 0.0 0.0 0.0 0.0 0.0 0.0 0.0 0.0 0.0 0.0 0.0 0.0 0.0 0.0 0.0 0.0 0.0 0.0 0.0 0.0 0.0 0.0 0.0 0.0 0.0 0.0 0.0 0.0 0.0 0.0 0.0 0.0 0.0 0.0 0.0 0.0 0.0 0.0 0.0 0.0 0.0 0.0 0.0 0.0 0.0 0.0 0.0 0.0 0.0 0.0 0.0 0.0 0.0 0.0 0.0 0.0 0.0 0.0 0.0 0.0 0.0 0.0 0.0 0.0 0.0 0.0 0.0 0.0 0.0 0.0 0.0 0.0 0.0 0.0 0.0 0.0 0.0 0.0 0.0 0.0 0.0 0.0 0.0 0.0 0.0 0.0 0.0 0.0 0.0 0.0 0.0 0.0 0.0 0.0 0.0 0.0 0.0 0.0 0.0 0.0 0.0 0.0 0.0 0.0 0.0 0.0 0.0 0.0 0.0 0.0 0.0 0.0 0.0 0.0 0.0 0.0 0.0 0.0 0.0 0.0 0.0 0.0 0.0 0.0 0.0 0.0 0.0 0.0 0.0 0.0 0.0 0.0 0.0 0.0 0.0 0.0 0.0 0.0 0.0 0.0 0.0 0.0 0.0 0.0 0.0 0.0 0.0 0.0 0.0 0.0 0.0 0.0 0.0 0.0 0.0 0.0 0.0 0.0 0.0 0.0 0.0 0.0 0.0 0.0 0.0 0.0 0.0 0.0 0.0 0.0 0.0 0.0 0.0 0.0 0.0 0.0 0.0 0.0 0.0 0.0 0.0 0.0 0.0 0.0 0.0 0.0 0.0 0.0 0.0 0.0 0.0 0.0 0.0 0.0 0.0 0.0 0.0 0.0 0.0 0.0 0.0 0.0 0.0 0.0 0.0 0.0 0.0 0.0 0.0 0.0 0.0 0.0 0.0 0.0 0.0 0.0 0.0 0.0 0.0 0.0 0.0 0.0 0.0 0.0 0.0 0.0 0.0 0.0 0.0 0.0 0.0 0.0 0.0 0.0 0.0 0.0 0.0 0.0 0.0 0.0 0.0 0.0 0.0 0.0 0.0 0.0 0.0 0.0 0.0 0.0 0.0 0.0 0.0 0.0 0.0 0.0 0.0 0.0 0.0 0.0 0.0 0.0 0.0 0.0 0.0 0.0 0.0 0.0 0.0 0.0 0.0 0.0 0.0 0.0 0.0 0.0 0.0 0.0 0.0 0.0 0.0 0.0 0.0 0.0 0.0 0.0 0.0 0.0 0.0 0.0 0.0 0.0 0.0 0.0 0.0 0.0 0.0 0.0 0.0 0.0 0.0 0.0 0.0 0.0 0.0 0.0 0.0 0.0 0.0 0.0 0.0 0.0 0.0 0.0 0.0 0.0 0.0 0.0 0.0 0.0 0.0 0.0 0.0 0.0 0.0 0.0 0.0 0.0 0.0 0.0 0.0 0.0 0.0 0.0 0.0 0.0 0.0 0.0 0.0 0.0 0.0 0.0 0.0 0.0 0.0 0.0 0.0 0.0 0.0 0.0 0.0 0.0 0.0 0.0 0.0 0.0 0.0 0.0 0.0 0.0 0.0 0.0 0.0 0.0 0.0 0.0 0.0 0.0 0.0 0.0 0.0 0.0 0.0 0.0 0.0 0.0 0.0 0.0 0.0 0.0 0.0 0.0 0.0 0.0 0.0 0.0 0.0 0.0 0.0 0.0 0.0 0.0 0.0 0.0 0.0 0.0 0.0 0.0 0.0 0.0 0.0 0.0 0.0 0.0 0.0 0.0 0.0 0.0 0.0 0.0 0.0 0.0 0.0 0.0 0.0 0.0 0.0 0.0 0.0 0.0 0.0 0.0 0.0 0.0 0.0 0.0 0.0 0.0 0.0 0.0 0.0 0.0 0.0 0.0 0.0 0.0 0.0 0.0 0.0 0.0 0.0 0.0 0.0 0.0 0.0 0.0 0.0 0.0 0.0 0.0 0.0 0.0 0.0 0.0 0.0 0.0 0.0 0.0 0.0 0.0 0.0 0.0 0.0 0.0 0.0 0.0
ghét -0.0028306853 -0.0031311049 0.0026483112 -0.004629887 0.008346397 0.003137134 -0.009465361 -0.011513375 -0.002162503 0.003226663 0.0038202072 -0.0035956313 -0.0001335309 0.0032601233 0.0019268942 0.010637075 -0.0011761766 -0.0022599904 -0.0020371024 0.0023684201 0.0028935063 -0.016688274 -0.0043091504 0.0096661225 -0.012272111 -0.0046515916 -0.0017637524 0.0044426904 -0.005331048 -0.001313575 0.0009591967 -0.0078095254 0.0015115036 -0.0005307535 -0.0026272403 -0.010734141 0.0038663284 0.004140341 -0.005476947 -0.008910703 0.0044475137 0.026531344 0.00094738015 -0.005581548 -0.003540768 0.014926331 -0.009739976 -0.0020170864 -0.012230813 -9.081018e-06 0.0109768035 0.00070640526 0.016841106 -0.004059856 -0.0031443685 0.0009966361 0.011388276 -0.0065573244 0.007324501 0.009013796 -0.015436074 -0.009453906 0.0034033093 0.007494817 -0.0062004137 -0.00016902301 -0.013064609 0.017253183 0.0035992486 0.0015950338 0.023077693 0.010858034 -0.0027744358 0.0012256436 -0.007001654 0.0039136554 -0.0037957903 0.011171236 0.013133339 -0.0037707705 -0.014575147 0.0021001343 0.0066363025 -0.014207687 -0.0057735685 0.0013989442 0.01242856 -0.015310673 0.0033807012 -0.011708108 0.014189299 -0.016590908 0.006756881 -0.0043824017 0.0096160825 0.0028469935 0.0034042138 0.0053844033 0.0011289703 0.0088778455 -0.0047721695 0.0021936123 -0.0057039345 -0.016591512 0.01865731 0.00588239 -0.00094864616 0.0033481452 0.014071132 -0.008619507 -0.015595237 -0.00558818 -0.0038970758 -0.008278573 0.0006274871 0.008178191 0.008580018 -0.0062613054 -0.011381342 -0.004457763 0.006625752 -0.002123014 0.013502909 -0.0052975873 -0.004681435 -0.0048514497 0.018443586 -0.008820872 0.0037626314 0.00072624034 -0.0044218907 -0.012813505 0.007949395 -0.014403023 -0.019213475 -0.004156318 -0.002398685 -0.006840079 0.014935374 -0.004410737 0.0103754215 -0.0036290914 0.0036948065 -0.010379642 0.0019983063 0.004079751 0.0061901645 0.0049578594 -0.0061660493 0.0031036735 -0.0077094454 -0.010457414 0.0072132675 -0.0022629746 0.00027436583 -0.00021704313 0.00028718324 -0.012866559 0.010026349 -0.0042066593 0.0137283895 -0.003986002 0.012121087 0.01572787 0.0009413512 -0.0072542643 -0.012809888 -0.014170006 -0.01159356 0.020612178 -0.0015361013 0.0061148037 -0.006455737 -0.009870501 0.011116975 0.012627816 -0.009832218 0.00055079954 -0.0012909365 -0.009125331 -0.0010699173 0.0022592368 -0.015030329 0.017596224 0.005387116 0.002797255 0.0020577514 -0.0047558914 -0.011544122 0.007927391 0.025622489 -0.009152461 -0.00941321 -0.0006549185 -0.01705453 -0.0003862108 0.013164689 0.014439799 -0.0017565177 -0.006487992 -0.017134411 0.009251034 0.0067957668 0.00063215947 0.002189965 0.0009921145 -0.0008048269 0.008952604 0.009270627 0.000629989 -0.013917998 0.0021588558 0.00092130515 -0.0050570345 0.005743725 -0.011696352 -0.0036996296 -0.0013323248 0.0052770893 0.010768204 0.016836885 -0.007190961 -0.004032726 0.0073344484 0.008356346 0.0047498625 -0.01228658 -0.0067906426 -0.0028659543 0.002978725 -0.0010799252 0.0110569885 4.5985373e-05 -0.004579245 0.008165532 -0.0049234945 0.005158019 -0.017167872 -0.009609752 -0.00097469095 0.00075894705 -0.0058965576 0.0094530005 -0.007750442 -0.007590978 -0.00822793 0.0066287667 -0.002587299 0.0102596665 0.005210771 0.00801511 -0.004545182 -0.017286342 -0.015728174 0.0003830758 0.0035905067 0.003702644 -0.007512602 -0.020544354 -0.011827781 0.0038437198 0.0046696784 0.009829505 0.0037397216 -0.0013834196 0.013265672 0.010627429 -0.004287748 0.008187838 -0.0046615396 0.020955825 0.0079909945 -0.0054311273 -0.0037107829 0.0064240857 -0.005184244 0.019164642 0.006680615 0.0045575406 -0.0052388054 0.008471196 -0.01626987 -0.004600045 -0.0011141694 0.0090752905 -0.0063640983 0.013696738 0.006482566 0.0030934245 0.0067201043 -0.021430902 0.004553019 -0.012018596 0.0017181135 0.0048577795 -0.01719862 -0.0020510894 -0.0030774479 -0.013200259 -0.0062685404 0.049138356 0.056168664 0.07802334 0.026632186 0.09910403 -0.02561962 -0.040353134 -0.031185206 0.0025875275 -0.009721745 0.067329675 -0.060774975 0.040834866 0.011447731 0.040485322 0.0022355216 0.05228793 -0.027146548 0.09424478 0.040194564 -0.03210566 0.028632792 -0.018455908 0.018206885 0.009152331 0.011948535 -0.020383896 0.0103111705 0.08416424 0.027664186 0.0041460637 -0.004069071 0.037867934 0.006527129 -0.0013465307 0.020683711 0.02397208 0.033868227 -0.027645912 0.021770442 -0.006064547 0.058654696 -0.029404929 -0.02663873 -0.041030753 -0.12268518 0.0011650987 0.0077903485 0.0070429225 -0.010736363 0.042398542 -0.0028404165 -0.023486866 -0.043681994 0.03657901 0.13279837 -0.005809499 0.004035847 0.02300612 -0.040151086 0.020895831 0.023222327 0.047042683 0.013620988 -0.03873939 -0.019161915 0.063684836 -0.03166824 0.02567942 -0.042516604 -0.0502733 0.032170724 0.07647562 0.013652236 -0.036328834 -0.02388673 0.011498108 -0.01303558 -0.022256834 0.060745437 0.08984526 -0.013319764 -0.050839283 -0.039335836 -0.04054002 0.0066887517 -0.069179595 -0.010344132 0.0146991825 -0.09366146 -0.036180172 0.036714043 -0.023559418 -0.04062748 -0.025466738 0.01456407 -0.039170995 0.068049885 -0.029755877 -0.024776287 -0.07151827 -0.031847756 0.022080572 -0.027125278 -0.044732597 0.0808992 -0.004902889 0.046290014 0.023909453 -0.012834941 -0.011831239 -0.0810211 -0.012125414 -0.055490304 0.035421748 0.0052904794 -0.057206616 0.00058941485 -0.035651717 0.017076122 -0.010461686 -0.06868995 0.006445121 -0.031209465 0.07066054 0.054988712 0.015755864 0.003347073 -0.0032641296 -0.0068467865 -0.01792456 0.06842004 -0.028073268 0.014369688 0.021433173 -0.026231162 0.04480421 0.07119654 -0.019752724 -0.04400349 0.027996222 -0.02870653 0.023581415 0.018690918 -0.03307864 0.100202195 0.00933509 -0.05485683 -0.06653036 0.04723658 -0.05585331 -0.038708042 0.040550105 0.0027379934 0.03702167 0.042122237 0.007782265 0.027953032 0.017485214 -0.026400078 0.0018284842 0.04305599 0.0545757 0.0457098 -0.032204 -0.007879176 -0.0545969 0.014185559 0.03752355 0.050562393 -0.038864907 -0.004246854 0.072206944 -0.07321332 -0.011146808 0.003390723 0.0136055965 -0.00047307604 0.04153565 -0.054603156 0.01279945 0.037518416 0.032214962 0.020804998 0.017853329 0.08249818 0.021893507 -0.063618354 0.042030558 -0.031042278 0.016810095 0.030576771 0.062171057 0.012855014 -0.06587988 0.06151217 -0.025228143 0.010569295 0.032134525 -0.005283863 0.039228614 0.042337134 -0.023524772 -0.077177174 0.0072151455 -0.03725818 0.03236725 -0.012786009 -0.030881085 -0.025351955 0.01711639 -0.042172503 -0.045527637 -0.035812907 -0.028430974 -0.020640645 -0.023425637 0.017198505 -0.043610476 0.03395488 0.055561084 -0.024569724 -0.014892648 -0.067705184 -0.029582782 0.027487867 -0.012717687 -0.026449503 0.06850345 -0.006621927 -0.02924623 -0.0026807513 0.0258282 0.04119673 0.0058569205 0.031118395 0.0035004765 -0.10567023 0.017714098 -0.083182745 -0.066649854 -0.011574444 -0.08948012 -0.047862355 -0.036872044 -0.04432388 -0.008070253 0.046005856 -0.00952591 -0.047480922 -0.041677814 -0.035925686 -0.029069401 0.093318745 0.03639539 -0.035381928 -0.043864433 0.020862112 0.009027946 -0.031021547 -0.0012708354 0.012146818 0.017333513 0.007793322 0.015710853 0.026776783 -0.012484876 0.01920034 -0.030063028 0.0060746144 -0.040219672 0.012733635 -0.013465831 0.021708174 -0.024647543 -0.010681743 0.06283117 0.034304187 0.010967528 0.043031294 -0.07421965 -0.0042958017 -0.034117624 0.052286685 -0.0032594413 0.05349576 -0.06216442 0.021849686 -0.020421276 -0.018930633 -0.009195792 0.052930713 -0.05954944 -0.04768199 0.043528765 0.05557106 -0.0012351461 -0.05377186 0.023782576 -0.016244603 -0.016661447 -0.035372414 -0.005662335 0.02640534 0.00354318 -0.06888672 -0.036568243 0.012880125 0.017935652 -0.012341443 -0.027777215 -0.018071603 -0.01115767 -0.00059716176 0.0037605215 -0.017184151 -0.029582867 0.02961422 0.0072735567 0.012367066 -0.025338527 0.0044631884 0.03361529 -0.009103626 -0.0014767771 -0.008682509 0.000609521 -0.021130059 -0.01879929 -0.008891711 0.013412777 0.006865401 0.0344307 0.017773775 0.014016872 0.00080485706 0.020980844 -0.04976398 -0.012401431 0.024536686 -0.02049582 -0.004921083 -0.002940592 -0.0014589918 0.012977492 -0.006595005 0.02034148 0.03495913 -0.009213051 0.008821173 -0.041765448 -0.015690492 0.015761634 -0.016895669 0.03872056 -0.037951574 -0.01078207 -0.012481917 -0.01617401 0.03947809 0.008806101 0.000998686 -0.02385964 -0.013151425 -0.0087397825 0.015781227 -0.009084937 -0.009864473 0.008158598 0.030779 -0.0111636985 -0.0022334028 0.011454894 0.023341458 -0.01493236 -0.01675821 -0.03705086 -0.008630962 -0.028812377 -0.01053157 0.0060120113 -0.007927391 0.013563801 -0.008462755 0.019576415 4.4312357e-05 -0.014152221 0.031940766 -0.016741028 0.017034333 -0.013322344 -0.027219543 0.044965588 -0.010318148 0.02585219 -0.011788595 0.026141576 -0.0011584517 -0.018855963 0.0032302802 0.019771148 0.015026109 -0.00848657 -0.0010237058 0.015716417 0.00854927 0.016683754 0.010420036 -0.0020465076 -0.028177535 -0.008784095 -0.0052559883 -0.015403518 0.0183004 0.00076597073 -0.048634466 0.040370967 -0.013586409 0.003971231 0.023465352 0.0046133082 0.032642834 -0.007892122 -0.002798009 0.0051815314 -0.022161001 0.011068745 -0.0032501756 -0.00397726 -0.011544122 -0.0057762815 -0.018799592 -0.015034851 0.012771303 -0.04223932 -0.04131509 0.0038705484 0.014671309 0.021119209 -0.013355202 -0.0059405686 -0.03275105 -0.027042594 0.014268277 0.004461079 0.010844469 -0.010757653 0.028446723 0.012230512 0.005786832 0.032220505 0.011158876 0.0065386347 -0.022917325 -0.0048680287 0.0096197 -0.016189383 -0.019271655 0.0012241665 0.019355757 -0.031974528 -0.0016383514 0.024245791 0.034586847 -0.02193944 -0.021289224 -0.02789508 -0.03186782 -0.0026053856 -0.025031658 -0.025695138 0.023009267 0.020813545 0.028626384 0.011100094 -0.0230789 -0.025153743 0.04272344 0.023468064 0.0012187405 0.0020193774 -0.006000858 -0.02828364 0.006440665 -0.002064594 -0.0061995094 -0.004946404 -0.0101740565 0.006917852 0.030019362 -0.0063674143 -0.0074116183 -0.013380221 -0.011485643 -0.00019111588 -0.006800289 0.0045819576 0.02692051 -0.015946418 0.021955717 0.0147192385 0.011107329 -0.027564999 0.019774465 0.0038862238 0.017101856 -0.00867226 0.012969352 0.03626861 0.023468668 0.017918168 -0.0017589292 -0.020901868 -0.032881577 0.042057853 0.0009338754 0.02969802 0.01700479 0.0034177788 -0.01214249 -0.018275682 -0.0032688652 -0.021304596 0.017441886 -0.004954242 -0.01288133 -0.013536973 -0.01680855 0.03526299 -0.03584719 -0.024358531 0.011065428 -0.023380043 0.014249286 -0.008713859 -0.013053756 0.005752166 -0.051252514 -0.005793464 0.026988333 0.025063308 -0.005213183 0.012168112 0.026194932 0.037234135 0.025100386 -0.011985437 0.019736482 -0.034298968 0.0026105102 0.0049979514 -0.026011353 -0.015119255 0.015463807 -0.00096221117 -0.027270788 -0.027023302 -0.0021110163 -0.008037417 0.005038345 0.0073446976 0.024083916 0.003998964 -0.0014535659 0.033345196 -0.0152310915 0.0176746 0.00488913 -0.035434812 -0.021272644 -0.014062089 0.0011286085 0.009628744 0.0028037361 -0.041605685 -0.007313649 0.009109957 0.023804476 0.024522819 -0.017141346 -0.004835473 -0.004901489 0.022384673 -0.017120244 0.006924785 -0.021676881 -0.00794005 -0.010689226 -0.025863042 -0.010696159 -0.0016073027 0.039520595 -0.006932623 0.027024508 0.0011243884 -0.011044628 -0.008112175 -0.004361602 -0.023280567 -0.0139547745 -0.0033602028 -0.010707915 -0.0048815934 0.026593141 0.021544848 -0.017258005 0.06665513 -0.0020844894 0.004637725 -0.011193844 0.043252476 0.013027531 -0.0065576257 -0.0014825045 0.0064677955 0.007644635 0.01445035 -0.019299086 -0.007873432 0.023895212 -0.013376001 0.03234621 0.026938898 0.021656683 0.009897029 0.0021239787 -0.028462099 0.013221661 0.004999157 0.015328759 0.0025538385 0.011043725 0.014582683 -0.020588966 0.0039579677 0.02850249 -0.059514508 -0.03761245 0.0021836646 -0.012646204 -0.0051999195 0.0030337384 0.014442512 0.0063882135 -0.014672514 -0.050065726 -0.026766773 -0.023264287 -0.026468946 -0.0063004936 -0.0057226242 0.009501835 0.007217488 0.0140853 0.0066188187 0.01787054 -0.0005495335 -0.022873012 0.0040058973 -0.004110197 -0.015970837 -0.0010900237 -0.024272319 0.011152848 -0.027760938 -0.018329037 -0.005533317 -0.013297626 -0.020807212 -0.010071565 -0.018030304 0.0037267597 -0.012196147 -0.01299799 -0.020697488 -0.022394622 0.0041771177 0.017633604 -0.016928827 0.011435301 -0.00806304 0.0057045375 -0.034669746 -0.027812183 -0.022804284 -0.015099059 0.0141178565 0.0060909893 -0.017102158 0.009681496 -0.0020525362 0.00046090878 -0.01730503 -0.0023063526 -0.0066287667 -0.017479565 0.0053337603 -0.005356068 0.030632198 0.019146856 -0.008919142 -0.014737325 -0.004479165 0.020578718 0.02880665 0.03617064 0.0029776697 0.029102666 0.03018847 0.008395231 -0.03105 -0.043119542 -0.012292007 0.016014848 -0.0055073923 -0.006650169 -0.011939014 0.006567875 -0.009179892 0.0056707757 -0.015724557 0.062733635 0.020013208 0.01442744 -0.03982686 0.023127733 0.01776443 0.017812964 0.003919081 -0.013200259 0.010325985 0.026810784 -0.0088672945 -0.023665208 0.046981044 -0.007668751 -0.0049364567 0.021109562 -0.006551295 0.011441028 0.013095959 -0.0032643436 -0.0085818255 0.014362027 -0.038792 0.0022141105 -0.0047860355 -0.0049364567 -0.005375963 0.04380834 0.027923416 -0.026293203 -0.0022813329 0.023954295 -0.00013896596 -0.0009402057 0.03775865 -0.016614722 -0.000968843 0.02952258 0.029327244 0.01634101 -0.024853503 -0.016644264 -0.025039796 0.009534391 -0.009627236 -0.020940453 0.016575836 -0.0381237 0.0009287508 -0.0052415184 0.00941321 -0.03056196 -0.03750423 0.004634409 -0.0018342903 0.008702706 0.0068729366 -0.020519637 0.007616299 -0.02711042 0.009528965 -0.02045573 0.055491127 0.017422894 0.014984811 -0.005772061 0.018174697 0.005425701 0.0057250354 -0.003058457 -0.0104372185 -0.009808104 0.008504054 -0.0311965 0.007666641 0.004511118 0.0039413883 -0.0076705595 0.01897654 0.026640467 0.023499114 -0.038268995 0.009224204 0.011885659 0.00550679 0.090317324 0.01520366 -0.0061350004 0.011315325 0.016493542 0.004485194 -0.010874613 -0.02026371 -0.006903081 0.026276926 -0.048607938 -0.007671765 -0.0038934585 -0.016487813 -0.016857987 -0.015877087 -0.018057736 -0.042878687 0.023842156 -0.008156488 0.02690815 -0.06589609 0.025227297 0.026871072 -0.0099464655 -0.030792566 -0.018316377 0.045534413 0.008677082 -0.0046136095 0.002884825 0.028209487 0.010224397 -0.005622243 -0.0065594343 0.055753384 0.0016350355 -0.0036911892 0.031359885 -0.007919552 0.0038202072 0.004443595 -0.054031834 -0.019624949 0.027257524 0.0065235626 0.0038401026 -0.02458763 0.033186335 0.013561088 -0.008783492 0.028305648 0.02726868 0.004463792 0.026039086 -0.023395114 -0.034410503 0.001553344 0.005486593 0.009083732 -0.020181715 -0.03193534 -0.0041279825 0.0028139853 0.034256164 0.0010978612 0.019638814 -0.028975759 -0.010744692 0.0029571715 0.030571004 -0.004313672 0.016277405 -0.019383792 0.02340657 -0.002164975 0.005926401 -0.005929717 0.005042264 0.017419277 -0.008397643 -0.014096152 -0.011375614 0.0010598792 -0.017520262 -0.03440749 -0.049739264 0.012706795 -0.0014484413 -0.022537204 -0.01180879 -0.034760483 -0.0058278283 -0.008730137 -0.0103501 -0.019841686 -0.019949604 0.030624663 -0.033347607 0.05234314 0.0009631155 0.015203057 0.037612148 -0.029490625 0.023642903 0.0416919 -0.0046515916 -0.023825578 -0.014207988 0.03329456 0.014729487 -0.0042609195 0.022803681 -0.033232156 -0.03270312 0.0043010116 -0.0031389426 -0.018845713 0.03629785 0.030700928 -0.059305005 0.02482336 0.001670606 0.0014858205 -0.016842917 -0.0114491675 0.02460692 -0.009092172 -0.01107628 -0.009462949 -0.0023184102 -0.014957983 0.050852798 -0.043992523 -0.0022930892 0.020057218 -0.041814588 -0.005603855 0.019639418 -0.0526476 -0.03007965 0.004993128 0.02536626 0.03647751 0.0060448684 0.009954002 -0.01584634 0.004453844 -0.014467532 0.020840673 0.029346233 0.0010568647 0.023903048 -0.007064354 -0.011473584 -0.010247609 -0.020296266 0.024152042 0.004575326 0.0117506115 -0.010485449 0.010566236 -0.015767362 0.044405505 0.015826445 -0.020839468 -0.010934602 -0.01893283 0.033298172 -0.03643802 -0.022907076 -0.0070040654 -0.0120650185 0.026110226 -0.012281154 -0.043273274 0.012656453 0.005721418 0.00325108 0.0034690243 -0.013183077 -0.036857028 0.05491808 -0.010236758 -0.0074342266 0.020557014 -0.030229166 -0.0657306 0.013094753 -0.013439304 0.016340407 -0.016191795 0.010366679 0.023230527 0.017515138 -0.008127247 -0.02609425 -0.005844106 -0.031483173 0.018305222 -0.01298774 0.0010984641 0.0005145659 -0.009840358 0.03580047 0.006141331 -0.025594454 -0.027370567 0.0029463195 -0.018770654 -0.00970742 -0.026157252 0.029200938 0.008709337 0.010543025 -0.00835725 0.0040559373 -0.021450797 -0.0032357064 0.021967473 0.033047974 0.040360417 -0.004015845 0.031109383 -0.007849617 -0.033469692 -0.012987138 -0.02753847 -0.005753673 0.012701368 -0.019662026 0.013403734 -0.015560872 0.02736695 -0.0404192 -0.014433469 -0.014869659 0.0070004477 0.014656236 0.0070504877 0.008693662 -0.0062100603 -0.002860709 -0.032268137 0.004639835 -0.0008931803 -0.008242701 -0.004052018 0.033386197 0.028192606 0.032033008 0.014766866 -0.004507803 -0.026648303 0.02108635 0.03747469 -0.012909667 0.01897473 0.03283847 0.00749753 -0.052671716 -0.055385925 0.007351631 -0.03191243 -0.0015165678 0.007414331 0.00392722 0.024506541 -0.016725352 0.0069437763 -0.010086939 -0.03178884 -0.01102835 -0.026796013 -0.03759858 0.006830433 -0.01980702 -0.010385369 -0.02046447 -0.027602077 -0.0019856156 -0.02208986 0.0201787 0.022923956 -0.009522334 -0.023935605 -0.0006592593 0.016134823 -0.011859132 -0.015156634 -0.0048719477 0.011966446 0.0013797119 0.013063404 -0.03497933 0.004965094 0.014078668 0.0144416075 0.039850373 0.007096006 -0.01147479 -0.021001345 0.0018807128 0.016794683 0.014136245 -0.0011524226 0.021376943 -0.021954209 0.010477913 0.01661653 -0.021770932 0.016886022 0.010008564 -0.015341119 0.005284324 0.02772175 -0.024518901 0.016227065 0.008995107 -0.0002655727 -0.020369213 0.02143874 0.028673712 -0.019458551 0.0014188997 0.0038461317 -0.0028341822 0.012312504 0.03479153 0.0064014774 0.01970031 -0.012197353 0.018887311 0.0022020529 -0.008642416 -0.005446501 0.04411099 -0.001455073 -0.040493052 0.0063993675 0.0238928 -0.021300377 -0.0057322704 0.0024908367 -0.028725259 0.0026720047 -0.016665064 0.04568001 -0.067296304 -0.012161481 -0.009301073 -0.018250663 0.009930188 -0.027075753 -0.036810607 -0.0013652426 -0.004230172 -0.014998376 0.015188587 0.027434172 0.04772169 0.02023688 -0.035721485 0.041670494 0.018509904 0.0077124597 0.012575364 -0.02338758 0.011993274 0.011813312 -0.01779548 -0.023040917 -0.017008709 -0.03335786 -0.009652558 -0.024119487 0.0042479574 -0.030410936 0.004592207 -0.028520577 -0.035704 -0.0018156009 -0.0060943053 0.04205996 0.020708641 -0.040881313 0.018439667 -0.024928562 -0.016892051 -0.0053415983 -0.036770817 -0.0030403703 0.018405605 0.00037288695 0.015334789 0.025440115 0.006520548 0.008433817 0.0009766805 0.008064548 -0.011263176 0.0012898814 -0.0037104816 0.009215765 -0.045989595 -0.007215378 -0.0135375755 -0.017940173 0.03144459 0.046872824 0.02662027 -0.015378197 0.042431343 0.014971849 0.0023389088 -0.017036442 -0.06678083 0.011961623 0.002037464 -0.006125354 -0.016361207 -0.010923749 0.00038102598 -0.0011705094 -0.008871816 -0.03694927 0.028505506 -0.019617412 -0.012002016 -0.008379859 0.0012739048 0.018940367 0.016266854 0.012542206 0.042277604 -0.0034738476 0.020685129 0.0068910234 -0.010687416 0.06887225 -0.027117051 -0.0096450215 0.017111503 -0.005860987 0.030304529 -0.01582132 -0.032148164 -0.0095898565 0.0047335844 0.0022674664 -0.00085037516 -0.03435413 0.00970742 0.014314398 0.041138746 0.009842166 0.006680012 0.012815615 0.004936155 0.018660024 0.0069226753 0.0009396028 0.019722918 0.01222388 0.008413921 0.028664367 -0.05961007 -0.023869287 -0.02164131 -0.002024502 0.026170816 0.029712489 -0.014228185 0.015090016 0.013972862 0.012030955 0.0052502607 0.0022153163 -0.032226235 -0.009686923 -0.0027024508 0.0019672276 0.02967481 0.027716324 0.008304497 0.029176822 0.009649242 -0.014445225 0.016164664 0.0051351087 0.014562186 0.0038874294 0.017118435 0.0023006252 0.0566535 -0.016856782 -0.009228425 0.01147268 2.5924235e-05 0.022519117 0.0028061478 0.008808814 0.018517742 0.0038916497 0.02514289 0.017451532 0.027528523 0.036646016 -0.0056967 -0.009038514 0.032032408 -0.021026663 0.047320772 -0.022373518 -0.009702597 0.012012869 0.020580528
em -0.004634901 0.008860398 -0.007916262 -0.017989555 -0.0036125048 0.01232056 0.0015739503 0.00067927677 -0.0078747645 -0.010600226 0.0026059553 0.00031997584 0.0208189 -0.014316335 -0.00680725 0.009742148 -0.0045304615 -0.02531399 -0.0065986486 0.013351868 -0.0075096427 -0.009197112 -0.010285236 -0.008373012 -0.007267342 -0.0076018283 -0.008632301 0.0075246817 -0.009766936 -0.007934921 0.001194207 -0.007005268 -0.0005144846 0.005578759 0.008190868 0.0028466124 0.0010363775 -0.007897324 0.0039670435 0.0024938565 0.0065947496 0.00806944 -0.0075191124 0.008120407 -0.004038898 0.008644556 0.00745617 -0.0022653977 0.002439269 -0.009697031 -0.0051119826 0.005046255 0.0035114072 -0.0044577713 0.00752134 -0.004330215 -0.00924585 0.0026398215 0.0022072457 0.010757026 -0.0068064146 -0.0046131774 0.012297166 0.0013703344 -0.0013566318 0.0009275372 -0.010934155 0.02150124 0.004355002 0.008499175 -0.0005347042 0.00149012 -0.0035729567 0.010283844 -0.005543667 0.0004815373 0.006219045 0.021977207 0.017299972 -0.0050195185 -0.005997632 -0.006025483 0.00025498364 -0.006876598 -0.007126697 -0.00026797038 0.0031947454 0.0072269593 -0.003802446 0.0067197992 0.0070941113 -0.0011957388 -0.0049381945 0.004440225 0.0063855913 0.014914568 -0.004837654 0.0071681943 -0.019710166 -0.0013960126 -0.0072400486 0.005943324 -0.010249588 -0.009088773 0.011188432 -0.009663054 0.0037915844 0.0043480396 0.010181075 -0.006083969 -0.0067824633 0.0050114417 -0.0016280919 0.0018215701 -0.0023851553 -0.0050813467 0.004045303 -0.0064777774 0.007068489 -0.013076147 -0.01117005 -0.010429502 0.008899946 0.0021258104 0.004982477 0.008965951 -0.0051259077 0.011942348 -0.00051047414 0.011663842 0.0011751851 -0.0187716 -0.0026386797 -0.0022102813 -0.018505627 -0.0010471835 -0.0054982705 0.016963815 0.0077455374 0.007501566 0.0022425323 -0.003145171 0.0105216885 0.0018408706 -0.011856569 0.013169447 -0.0019365653 0.007184347 -0.01629011 -0.0018028823 -0.00069955207 0.003953675 0.0013117645 0.0020240163 0.0066752383 0.015947547 0.015511128 -0.01753726 -0.0017078283 -0.0011663842 0.0018590013 -0.00034682386 0.014793138 0.0030424024 0.012282404 0.0017673171 -0.0153161725 -0.0015998513 -0.008823635 0.013744006 0.012014481 0.0013661289 0.008008169 -0.0071823974 0.0037595562 0.009845196 -0.010504978 0.0075789914 0.004415995 0.005365145 -0.002187778 -0.0043093273 -0.005951122 0.01840453 -0.015513634 -0.0047059203 0.017652841 0.011767447 -0.013526213 -0.0005549516 -0.013254949 0.009087659 -0.008279434 0.005263768 0.004210736 0.0056288904 0.01079908 -0.004356116 -0.013975444 -0.0043435832 -0.0076132473 -0.0021116904 0.015414207 -0.0025014875 0.005799336 -0.0012167938 -0.003563209 -0.013779097 0.007485134 0.013040499 -0.012454521 -0.0033858006 0.006017406 0.0027326755 0.0058870655 -0.009154779 -0.010656764 -0.0027942534 -0.0062446673 -0.002920695 -0.011402046 0.0014348364 -0.01453552 -0.0020501402 0.0076371985 -0.001569522 -0.0032047716 -0.007514099 0.006915589 0.0017202497 -0.005315292 0.0077469302 0.011265856 0.0035832613 0.0013320119 0.0020810266 -0.0035314595 -0.0007017522 0.0011219624 0.006695012 0.008206744 -0.002478873 0.003048251 -0.0043937145 9.23666e-05 -0.00045580333 0.0023857404 -0.004770812 0.015936686 0.0029223661 0.004586441 0.0023929535 -0.008186413 0.0007345881 0.0057751057 0.010414185 -0.000613605 -0.009597047 -0.007334741 -0.007413001 -0.00017088586 0.010443428 0.008229582 -0.007318588 0.00024467052 0.012218626 -0.02314944 -0.00050181255 -0.002648483 0.007184904 -0.0006979924 0.0017390209 0.0064184554 -0.001106199 0.005367651 -0.004901153 -0.0029763966 0.014473692 -0.005174089 0.007154268 0.0047340496 -0.004624318 -0.003003133 0.0051816087 0.012895397 -0.0055461735 0.013970989 -0.000105874155 -0.00039038222 -0.0014555851 -0.004228839 0.00071754353 -0.010116462 -0.010940562 0.0019482627 0.0031499057 -0.0014285143 0.00039567385 0.011482812 -0.010921901 -0.011700683 -0.012371501 0.056419052 -0.0035649296 0.12922892 -0.008573731 0.088575974 -0.08913916 -0.053303733 0.014817763 0.06440793 -0.112886116 -0.017678479 0.08394887 -0.016052594 -0.014274495 -0.008252184 0.0027837348 -0.012247504 0.03635735 -0.009824917 0.034662664 -0.025056835 0.050600387 -0.07071069 -0.0009052007 -0.025444806 0.0735025 0.11793371 0.091345474 -0.021021174 -0.0391444 0.045651395 0.022388613 0.054167952 -0.08580822 0.021708978 -0.08017308 0.020714538 0.10092027 0.0016583691 -0.025018593 0.023776045 -0.012250546 -0.06616055 -0.035442792 0.037584588 0.017897561 0.08890398 -0.04897631 0.029676583 0.008186725 0.025536997 -0.06091593 0.0463556 0.036177464 -0.07403127 -0.033119343 0.005777512 -0.020602293 0.027419591 -0.030156795 0.014592219 -0.056167003 0.0012583595 -0.02601411 0.048280835 -0.012382818 0.059029285 -0.033604298 -0.009632872 -0.023755787 0.03514748 -0.019771747 -0.013886277 -0.03519877 0.048546728 -0.06405852 0.004977978 0.0559487 0.04138694 -0.0041372944 -0.011417657 -0.0036049425 -0.047993027 0.035335317 -0.076457866 0.009435978 0.018984642 0.042400446 0.030621693 0.0843946 -0.05493561 -0.07045098 -0.083562344 -0.036720887 0.03009658 -0.045468997 0.0079003675 -0.050365306 -0.080589846 0.11258569 0.011488976 -0.026213601 0.05298167 0.039223745 0.032023817 0.063722 0.07972125 -0.10986541 0.046686374 -0.021352394 -0.04624131 -0.066793054 0.046408426 0.058138017 0.022827772 -0.007451725 0.00787803 -0.031518403 0.016081242 0.012454054 0.06666102 -0.013950862 0.010168447 0.09680342 -0.03095454 0.045479745 0.07790179 0.044255454 0.07459974 -0.07268447 0.0011700632 -0.037645694 0.0032804706 -0.006980113 -0.011787935 0.02145305 0.027018305 0.023661241 0.043225024 -0.009128923 -0.021127976 0.006145599 0.07127516 0.033726666 -0.026212785 0.010826405 -0.036620192 -0.0037838249 -0.06356577 -0.02832825 0.0058666673 -0.06020078 0.024277126 0.009005176 -0.030809153 0.0075422064 0.037014447 -0.024063071 -0.0053932094 -0.013686816 0.05881756 0.011547092 -0.07330952 0.0096303895 -0.045423485 -0.07366824 0.02523523 -0.015231246 -0.03827654 -0.072721794 -0.00835431 -0.019664558 -0.009518275 0.09226165 0.05058744 0.009776764 0.041756537 -0.022422165 0.014803643 0.04046741 -0.030252362 -0.013487803 0.060145184 -0.020591414 -0.030909985 -0.04293505 -0.00905154 -0.04185207 0.042543855 -0.0034109328 0.022446265 -0.010923808 -0.027250359 -0.01184088 0.032758273 0.03842075 0.01678356 0.008471135 -0.018832417 0.0032436615 0.0044535478 0.07585023 -0.055285215 -0.008436165 0.010835812 0.01020616 0.06476322 -0.006307893 -0.010687249 -0.022916814 0.09844934 0.02605234 0.055785872 -0.021935796 -0.015834233 0.0030039481 0.03331947 0.03756769 0.025854738 0.0230779 0.00017563038 0.00048928626 -0.031586587 0.027426237 0.044720773 -0.020849586 0.06460025 -0.017660145 0.0036208702 0.013319208 -0.026079666 0.010832253 -0.009693414 0.041392714 -0.0046851058 -0.028870078 0.02122867 0.019259807 -0.11448872 0.054997973 0.01853349 0.035875604 -0.0036473214 -0.115759715 -0.06350713 0.033728253 0.010240282 -0.01763494 0.0035838005 0.024910666 -0.00082604703 -0.07134037 0.031596437 0.010677016 -0.0051721623 -0.027860811 0.031384364 -0.0025461828 -0.020145074 0.051625688 -0.08541483 -0.015059941 -0.060302414 0.009232929 -0.016074022 -0.03402147 -0.06404809 0.047232255 -0.09521958 -0.019851753 -0.078864925 -0.114834785 0.028414514 0.008378352 0.032424543 0.08788418 0.0350535 0.0683155 -0.00493081 0.03527929 -0.010170904 0.044831857 -0.057685222 0.055520028 -0.039080344 0.0069924607 -0.007589223 0.038860552 0.03949841 0.008994209 -0.016500972 0.005266451 0.042326413 0.09260669 -0.037323996 0.016173512 -0.0003227861 -0.0017761296 -0.013816696 -0.02014547 -0.018664096 -0.0062761386 -0.0014719056 -0.02368807 -7.798176e-06 -0.029111423 0.00043753334 0.03522213 -0.026211059 -0.0021642721 0.013906096 0.0014861095 0.02170065 -0.0015239862 0.009668345 0.030884674 0.023997491 0.018627612 0.013666302 0.009184301 0.014253671 0.0009082089 0.000802098 -0.0052648825 -0.014440271 0.0004946271 0.011191496 0.025982684 0.013651262 0.024761992 0.0137069635 0.0097585805 0.0057024155 -0.017552022 0.010764267 -0.009036414 0.03000877 0.00810676 0.010272146 -0.010560401 -0.036723558 0.011774409 0.0045585907 -0.020450436 -0.024682894 0.008669343 -0.021089887 -0.0065966994 -0.008789379 0.008182236 0.017031772 -0.020541508 0.015272448 0.01530002 -0.0048888987 0.008134053 0.005103627 -0.024018658 -0.012465104 -0.032210086 0.027696334 -0.0072935224 -0.018222386 0.02426625 -0.003623088 -0.012528325 -0.03232288 -0.016734606 0.021572258 -0.022068279 0.014027247 -0.008000928 -0.012641121 0.0072419983 -0.03198171 -0.0092725875 0.00022001994 0.018030496 -0.033513494 -0.012223083 0.025354931 0.007060691 -0.011840137 -0.0011365841 -0.012903473 -0.0077884276 -0.0007168751 -0.0004314062 -0.019368997 -0.030119896 0.009137791 -0.005545895 0.021971915 -0.022940561 -0.018159723 0.014669202 -0.0036030356 0.009668624 -0.004753545 0.012867824 -0.0020258545 -0.0063460437 0.00030412883 0.03053097 -0.02906408 0.0120381545 -0.0006327662 -0.02617764 0.040021073 -0.006709494 0.00902973 0.011800588 0.0047989413 -0.005732773 0.009769721 -0.020047437 -0.006376122 0.0018721191 -0.013051918 -0.005995404 0.0021634365 0.023999998 -0.021067327 -0.013093415 0.01755982 -0.012606586 -0.019297142 0.0074230274 -0.005162392 -0.007339754 -0.02604841 0.013155243 -0.0013540974 -0.011358042 0.0063212565 -0.022650078 -0.03212152 0.0115374 0.012358715 0.0016955462 -0.0054757115 0.0025753472 -0.019579547 -0.001136027 -0.0026288205 0.00023478079 -0.025206208 0.01045596 -0.028784458 0.0021832106 0.009407664 -0.014366467 -0.008842853 -0.008474667 0.0221276 0.006354677 -0.01005881 0.029450646 0.0071136067 -0.0046995147 0.0062750243 -0.0031045093 0.009605402 -0.024855848 -0.0034710234 0.023032468 0.0003687423 -0.03266182 -0.010024276 0.0066880495 0.0027081948 -0.033722095 -0.017042913 -0.027700791 -0.00045591476 0.052218534 0.00096084655 0.0010577668 -0.0021999208 -0.025662122 -0.04130359 0.0053144563 0.0068055787 -0.021776125 -0.011612597 0.012597674 0.0021043934 -0.016076773 -0.011106829 0.01980068 -0.02380198 0.007223338 0.007326107 0.0052083456 0.04634734 -0.019138115 -0.026313549 0.014051198 0.02514828 -0.0146705955 -0.017044304 0.019722698 -0.011151112 -0.050540254 0.008889085 -0.0020940886 0.01782273 -0.018366653 0.018056674 0.012179358 0.02907438 0.011901687 0.022942789 0.030446025 0.009735464 -0.017877595 -0.0019358969 0.0019473159 0.011190939 -0.0055417176 -0.0018256085 -0.0036760042 -0.0057728775 0.011003225 -0.02338088 0.0044343765 -0.005869241 -0.03275512 -0.00470035 -0.013245479 -0.0024099147 -0.0067963884 -0.05682614 0.0069339704 0.03787741 0.013724511 0.006211247 0.029790424 -0.022622785 0.030253299 0.011401489 0.0055316915 0.005569011 0.021265067 -0.006473878 -0.036579013 -0.006903613 -0.020195602 0.0021202683 0.014248102 -0.011206256 -0.0111558465 0.012432519 0.014772808 -0.012757536 -0.025487779 -0.024205536 0.008994916 -0.008430942 -0.0056481073 -0.014432752 -0.0038890615 0.029204445 0.04244491 0.04915719 -0.0021314085 -0.043907348 -0.023499524 0.04587583 -0.0041196644 0.003989324 -0.042496435 0.007882284 0.004144173 0.0009602896 0.00039269382 -0.011955995 0.0035974653 0.01457479 -0.0075795483 0.0017715783 0.012663402 0.0080583 0.001799986 -0.015337619 -0.024160974 0.0017072433 -0.017312786 0.021509038 -0.011660779 -0.03259331 0.032430105 0.022625849 -0.009897277 -0.021260055 -0.011064218 -0.019550582 0.014914568 0.021592034 -0.0053506624 -0.013986305 0.005132035 -0.020062476 -0.011578341 0.019416343 -0.04036057 -0.020583283 0.0025430408 0.0061984356 -0.014632997 0.00872198 0.014877247 -0.010790725 -0.011608977 -0.0033186805 0.041665092 -0.005021468 0.015775708 0.01542117 0.0155607015 -0.0007427762 0.022528091 -0.014884767 0.0046212543 -0.005371272 0.014886159 -0.0009513774 0.0012112238 -0.031631626 0.031333625 0.0049883258 0.0032075567 -0.009474504 -0.0132582905 -0.0458218 0.0420667 -0.03326145 0.014852182 -0.013197854 0.0077611343 -0.042265553 0.014068466 -0.0032454336 -0.025503654 0.008423701 0.01549191 0.0028892239 0.027424233 0.0028262816 0.00093243894 -0.015391926 -0.016234687 0.020965395 0.01182454 0.009334695 0.015010651 -0.0182235 -0.0033885858 0.012312205 -0.0018801958 0.0017331444 -0.00075920805 0.0056957314 0.0028290667 -0.010397474 0.00393223 -0.026121937 -0.0135654835 0.014803444 -0.006334068 -0.0040712045 0.0013852902 -0.014223872 -0.0018141898 0.010313643 -0.027472693 0.011693642 -0.009000487 0.010431453 0.016214356 0.022047114 -0.016769141 0.016001299 -0.005613851 0.0035503977 -0.04083069 0.014046743 0.0027664027 -0.027298905 -0.018324876 -0.0033273143 0.0055670617 0.028096545 0.006974632 -0.004947107 -0.0052774153 -0.0025990203 -0.0048150946 -0.0026925986 -0.0022286072 0.0014050641 -0.0070882626 0.022611644 0.0068053002 0.015859261 -0.010845033 0.007245619 0.026191842 -0.0016749366 -0.0102440175 -0.00012699884 -0.0038077377 -0.024689302 -0.0072194394 -0.028413208 0.013420938 0.0066479445 0.029635573 -0.029349547 0.023228256 -0.011918675 -0.021169817 0.007696242 0.02647397 0.009775848 -0.03976206 0.011218232 0.016519876 -0.020393899 -0.023227422 0.009641051 -0.0025561305 0.020271078 -0.0020291966 -0.0002047021 0.03623617 0.012938008 -0.0026037549 -0.01412528 -0.011806995 -0.026073756 -0.013425394 -0.031316634 -0.018591128 -0.01804637 0.0020720866 -0.01329004 0.047182858 0.015991552 -0.014754704 -0.00506213 0.012049017 0.018516768 0.0073294495 0.0011978555 -0.004654675 -0.0053851972 0.0041205 0.0068275807 0.0019063753 0.003936129 0.01370223 -0.03542182 0.001045791 0.014838814 -0.04277327 0.025944252 0.0018551302 0.0064596743 -0.01774809 -0.018664654 0.012712418 -0.035486154 0.025232667 0.02338255 0.011128275 -0.0056625893 0.017971732 0.026316335 0.007876435 -0.013052196 -0.0014490681 0.025875181 -0.0025012647 -0.0031699582 0.021623226 -0.033687837 0.007794555 -0.015125117 -0.037704177 0.00700499 0.008991017 0.024286859 -0.016409032 -0.0069345273 0.0018445469 -0.010279666 0.0028098498 -0.00844988 0.0321438 -0.0119067 -0.012572051 0.0023656322 0.025408404 0.018917259 0.06194007 0.008510873 0.030435443 0.02412477 -0.03787769 0.009877503 -0.0042461064 -0.039372988 -0.00920853 -0.021228027 -0.03155309 0.014948545 -0.028499268 0.02383735 -0.01098568 -0.017625548 -0.007325272 0.00341198 0.019611854 0.0070751733 -0.013539304 -0.022846425 0.02468039 -0.0006773272 0.004937916 0.023871606 0.0146296555 0.017516373 0.018272517 -0.0382325 -0.003999907 -0.05876092 -0.0038935174 0.011405667 0.015237634 0.018464964 -0.03163079 0.025000114 -0.022329796 0.020001205 -0.011401211 0.011865202 0.015085291 0.010401374 0.030080905 -0.031680923 -0.018505907 -0.028940978 0.026580358 0.019141736 0.012885649 -0.011729848 0.026707357 -0.02067519 -0.032725044 0.011786663 0.010693247 -0.011210155 -0.0071957665 0.019483741 -0.025327638 -0.015389978 0.00015262142 0.032508925 -0.004863276 -0.003934458 0.003051036 0.014890059 -0.0042349664 -0.018209575 0.024174342 -0.0040054773 -0.052940696 -0.035877455 -0.040215187 -0.006758233 0.013295889 -0.00031387655 0.01886323 -0.029978415 0.018799452 -0.014925986 0.008380254 0.017662032 -0.024044001 0.016873859 -0.015884325 0.035514005 0.041015897 -0.024473738 -0.01574563 0.01543064 -0.010373801 -0.015738111 -0.0075486335 -0.0063750083 0.00056676025 -0.018528743 -0.020020144 0.028388143 -0.0017465128 0.007898995 0.0367489 0.013660732 -0.018309 0.0018662704 -0.00418205 -0.015477428 -0.013455473 0.027270775 0.029200826 -0.012816302 0.01246789 -0.015914684 -0.014372873 0.043221388 0.018063916 -0.002156474 0.03166644 0.006472207 0.0034804926 -0.0006193979 -0.00015819156 0.01767902 0.03739726 -0.010915774 0.025704736 0.0008823078 0.025606701 -0.011843478 -0.008759579 0.028115766 0.00038740222 0.01257038 -0.014120268 -0.00031109148 -0.006751549 0.010230092 -0.0065930784 0.016466683 -0.027271332 0.0063964534 -0.015118434 0.001160257 0.029516928 0.0076878862 -0.00853928 0.014271775 0.010227865 -0.0039313943 0.04680994 0.021378418 0.003449857 -0.023887482 0.008649012 -0.027625313 -0.037058324 0.014726576 -0.0034220063 -0.0010959221 0.0027755934 0.027604984 -0.0049947314 0.021992248 0.020528696 -0.00039854247 -0.012512729 -0.0135877635 0.014509619 0.011691693 0.026477868 0.0036899294 0.010628634 0.0045198784 -0.025731193 0.003840601 -0.01174628 -0.026616843 -0.028984144 0.005689604 -0.030116273 0.005274073 0.051389974 0.005219764 0.013283635 -0.022064658 -0.0010413349 -0.0382818 0.018171977 -0.008243507 0.015856475 -0.0077288267 -0.002580639 0.0048641115 -0.005872026 0.007565622 0.022030959 -0.010847541 0.02425511 0.023450783 0.013782997 0.007925731 -0.0015944483 -0.033407383 0.019324156 0.0098911505 0.015718894 0.009339151 0.00089595467 -0.0028301808 -0.019731054 -0.007923503 -0.011637941 0.017316962 0.0015490518 0.03722125 0.021872766 -0.00050883094 0.024262073 0.032246012 0.02777738 -0.011783321 -0.0018437115 -0.013007357 -0.024635829 0.02912117 -0.01893954 0.025478031 -0.011008795 0.0063686026 -0.03450163 -0.0047418475 0.026795087 -0.027792139 0.00052219926 -0.015290829 -0.0047685844 -0.029685982 -0.0018679415 -0.034117017 0.018710608 0.016304594 -0.007870865 -0.015634784 -0.0001517859 0.013474133 0.018129086 0.00335795 0.014879474 -0.0060719936 0.0051869005 0.0033256433 0.027997956 0.030584723 -0.0044722534 -0.020146308 -0.0039202543 0.014992549 -0.00817193 0.0021417132 -0.049256336 -0.0102771595 -0.010269083 0.0008589133 0.027361013 -0.0066496152 -0.024431963 0.009067607 -0.013697495 0.016030822 0.02217439 0.017323647 0.02163548 -0.016248612 -0.0109931985 0.02687697 -0.01629958 -0.022444263 -0.020120127 -0.011216004 0.0018827022 0.001602525 0.002323856 0.009288183 0.01683041 -0.015594401 0.029236473 -0.034274098 0.019010002 0.024293544 0.0089575965 -0.021219391 -0.0020807202 0.0012613549 -0.04781451 0.0011853226 -0.01186186 -0.01168278 0.041935246 0.023746 0.0038219413 0.005139833 0.02272444 -0.02688031 -0.018317077 -0.020335691 0.010776799 -0.009720147 0.02905043 -0.0012474295 -0.020961495 0.028519042 -0.004522663 -0.0093725715 -0.011700048 0.028628495 -0.014130572 0.03133251 -0.0054046926 -0.0076385913 -0.025891334 -0.009610415 0.034762874 0.006849026 -0.020786872 0.010732238 -0.009314642 -0.009088495 0.018336851 -0.0005751154 -0.0031212196 -0.0061683566 -0.003787128 0.0065565943 -0.06183842 -0.015143221 0.028400118 0.026452245 0.0023692527 -0.016399562 0.021878894 0.0049381945 0.040576693 -0.03047694 0.0062287925 -0.020283332 -0.014274282 0.012110845 0.004187342 0.013760159 -0.0333851 0.014358947 0.031434163 0.0022035416 0.014465057 -0.0028471695 0.008528976 -0.0047599506 -0.020705268 0.012368741 -0.0044218437 0.008820015 -0.01207436 -0.0055896207 -0.012317496 0.02452554 0.046552878 0.00068345433 -0.0051097544 0.0043048714 -0.0021926798 -0.0056514493 0.038058992 0.0032315082 -0.01513765 -0.007779237 0.01827224 -0.0020180563 -0.0012866989 -0.03686727 -0.0005107805 0.035987187 -0.03281277 -0.00015150741 0.03278297 0.020905238 0.028683636 0.0062374263 -0.004509295 0.0031551972 -0.021058137 0.010664005 -0.007835495 -0.013627868 0.0011014922 0.0026820153 -0.023625407 -0.014588159 0.019000812 0.04113816 -0.0027148789 0.0006230185 0.006974911 0.00077870354 0.011459419 -0.019130873 -0.018347157 -0.0026588992 -0.0047504813 0.01378606 0.0110672815 0.0014769187 -0.0014777542 0.02685831 -0.002734653 -0.020651795 -0.06716318 0.013552393 -0.0034924687 -0.024771739 -0.01642992 -0.013842597 0.021870818 -0.0136142215 0.0013287534 -0.0222209 0.004520714 -0.008651797 -0.028841551 -8.383039e-05 0.007191588 0.0137587655 -0.015785735 0.00081630185 0.015708033 0.028876087 -0.053894024 0.0061934222 0.015918026 0.059711184 -0.0077683753 -0.008932252 0.014420776 0.007740524 0.018063916 0.008145194 0.012593218 -0.019440573 -0.03161937 0.016283982 -0.023008516 0.00568487 -0.011480864 0.017599646 0.057705104 0.002806229 0.0005322255 0.0027212845 -0.005654513 0.02318871 0.011714252 -0.010189708 -0.010445098 0.02613057 0.0070581846 -0.009993083 -0.0028961867 0.0052261697 -0.039616957 -0.0005082739 -0.0070676534 0.04872857 -0.0036428617 0.0009316034 -0.016523497 -0.017931068 -0.014132521 -0.03627043 0.011766332 -0.02434089 -0.003160489 0.0032972356 0.010100308 -0.016446352 -0.006266669 0.028009932 -0.001090352 0.0040102117 -0.015453477 0.03213489 -0.0049095084 0.001754868 0.0021213822 -0.00940265 0.019397961 0.0024806552 -0.026449181 0.011897509 0.0053294958 0.011600064 -0.007712952 -0.01524014 -0.010417805 0.0039269384 -0.026936568 0.019327221 0.00010193329 0.007837445 0.0014128623 -0.031092439 -0.01873066 0.016516535 0.060578458 -0.013428736 0.030127695 5.0966646e-05 -0.040937915
