194 1024
2 1.965785 1.67536 1.894273 1.703323 2.555757 3.085151 1.985448 1.962525 1.874219 1.813196 2.503823 1.641451 2.063753 1.774113 1.855644 1.78057 2.137686 2.105074 1.495694 1.780504 1.860398 2.276974 2.08154 2.124225 1.660155 2.018527 1.926635 1.578094 1.550636 2.108266 2.301646 2.179844 2.604088 2.697796 2.008255 2.333486 1.890629 2.181864 2.572167 2.111698 2.115803 1.822957 2.04846 2.309944 1.919006 1.803664 2.433927 1.857598 1.795077 2.299897 1.555358 2.575047 1.92498 3.000781 2.223122 1.178429 1.677723 2.112217 3.008127 2.393158 2.471114 2.039067 2.155985 2.251765 1.959036 2.738857 2.082005 2.407351 1.652972 1.913513 2.201922 2.037614 1.700153 1.62054 1.880865 2.451617 1.697913 2.420439 1.579301 1.751902 2.248778 2.229532 2.483183 1.67931 1.494834 2.475756 1.899516 1.466487 2.088334 1.778291 2.351248 2.082185 2.448522 2.432859 2.108999 1.540492 2.117873 2.004505 1.214278 2.140856 2.183711 1.673546 2.0543 2.308758 2.794274 2.138529 1.130701 2.438146 2.313213 1.819705 2.206051 1.971398 2.175881 1.917323 2.115445 1.378391 2.251845 2.285696 2.180003 2.173015 1.649416 2.237425 1.739256 2.136626 2.103691 1.271803 1.978189 1.811435 2.246819 1.61177 1.347875 1.934264 1.801655 2.090762 1.937453 1.875982 1.497302 2.220444 2.026218 1.30136 1.989177 1.916213 2.467759 2.541043 2.182687 2.63022 1.609809 2.53948 0.899365 2.40163 2.135442 1.962006 1.8876 1.979642 2.157431 2.462665 2.656357 1.974344 2.030366 2.32492 2.288843 1.760175 2.314943 1.838769 2.049408 1.7391 2.444918 1.349314 1.897371 1.785973 2.590453 2.04788 1.34577 1.228285 1.26468 2.585462 2.128394 2.277656 2.489842 1.458011 2.177983 1.910171 1.355028 2.276563 1.712435 2.291512 1.677058 1.595334 2.322857 1.882639 1.679427 1.740354 2.124742 2.03223 1.854221 1.876406 1.982429 2.087185 2.400771 1.444446 2.299102 0.970739 1.761955 2.174353 1.590888 2.07982 2.093257 2.278345 2.601699 2.390581 2.330032 2.05736 1.825896 2.114986 2.978056 2.396339 1.871961 1.634672 1.299605 1.920875 1.522223 1.564916 2.146573 1.4828 1.618326 1.891962 1.112045 2.010713 2.206283 1.256874 2.50524 2.348834 1.811739 2.12047 2.35839 2.318247 2.075436 2.451169 1.453965 1.505537 2.58553 1.635375 1.672855 2.328891 1.431178 2.716499 2.83617 1.70534 1.67414 2.245574 2.118714 1.704504 2.915064 1.252303 1.329179 1.829914 2.356989 2.123891 1.437489 1.686948 1.982566 2.109436 1.69939 1.985123 2.553744 2.385246 1.591289 2.172401 2.057581 2.204165 2.887799 2.19998 1.950608 1.625464 2.352514 1.36549 1.932325 1.976318 1.734326 2.416242 1.648763 2.689582 2.276912 2.211904 2.229048 2.058153 2.095928 1.76064 1.698599 1.254229 1.948337 2.0092 2.15885 1.848157 3.001558 2.587782 1.9955 1.425048 2.379674 2.493805 1.885475 2.001991 2.827083 2.249241 1.879278 2.570607 2.122502 2.376726 1.753286 2.006737 2.292355 2.360198 1.639455 2.728608 2.027054 2.439059 2.10189 2.252848 2.157368 1.745 2.096265 2.364616 1.729041 2.001158 1.870431 1.577051 1.90408 2.27637 1.636644 2.416887 1.935811 1.44118 2.198758 2.372983 2.021287 2.295207 1.218343 2.242924 2.229658 2.786534 1.712592 1.547099 2.201797 2.399936 1.269335 2.394169 2.645776 2.421644 1.673245 2.218995 1.823064 1.829438 1.25676 1.885551 2.074153 2.480103 1.886929 1.402734 2.148072 1.748984 2.039109 1.853977 2.050453 2.162375 1.829286 2.296812 2.055138 1.938065 1.080679 2.364169 1.862725 1.269827 1.031833 1.556445 1.685301 2.344328 1.990098 1.460017 2.484824 1.699463 2.160556 2.487769 1.450072 1.806064 1.932319 1.967577 1.785451 1.488422 2.269574 1.544447 1.432048 1.864654 2.127346 2.130732 1.352293 1.76231 1.736391 1.564548 1.486613 1.713695 2.586624 2.007178 1.413345 2.401272 1.38982 1.963661 2.168621 1.580297 1.658273 1.878212 2.169251 1.31305 1.35263 2.369008 1.547625 1.270647 1.481399 2.001495 2.213886 1.313034 1.960549 2.218531 2.423217 1.241006 2.404651 1.849455 1.867522 1.451397 1.65855 2.412658 2.282584 1.957304 2.222469 2.224722 2.379459 1.675163 1.877564 2.543431 2.059016 1.982129 2.077779 1.405793 2.425109 2.254361 2.171983 1.93072 2.041661 2.103806 2.073524 2.719758 2.588501 1.994634 2.259796 2.299168 1.871294 2.486662 1.877159 2.175359 1.93122 1.733534 1.454137 1.924402 1.715785 2.252599 2.13926 1.635101 1.780669 2.064645 3.138224 2.295277 1.077604 1.78226 2.131196 1.91111 2.448261 2.472021 2.270994 1.504839 2.233315 1.714322 2.184608 1.81037 1.208621 1.422002 2.338066 2.295811 2.630607 2.406101 2.127778 1.756649 2.259526 1.655836 1.361964 1.743032 1.974542 2.042209 1.471835 0.950859 1.518288 2.484279 2.067987 2.081496 2.003149 1.656955 2.049735 1.365029 1.855028 4.188433 2.03602 2.54228 2.536449 2.249724 1.171172 2.088453 2.303428 1.357473 2.354751 2.845316 2.342983 2.113632 1.688288 1.694248 2.300279 1.103537 2.270509 1.904121 2.58373 2.348962 2.572634 2.085446 1.374189 2.17718 2.354015 1.467396 2.621676 1.642648 2.136235 1.686541 1.756284 2.095506 1.49977 2.602011 2.630114 2.651992 2.402081 2.384849 1.465063 2.135082 1.735078 1.993376 1.80004 2.468911 2.094386 1.092317 2.209892 2.169931 1.981828 2.10431 2.194892 1.752677 2.200453 1.702919 1.838891 2.218263 2.282918 2.263615 2.262109 1.44849 2.302882 2.073453 2.555267 2.285178 2.461003 2.278408 1.878583 1.545356 1.582236 1.997308 2.127323 2.636156 1.62976 1.976437 1.779147 1.735817 2.684373 2.073927 1.717399 2.520825 1.54045 2.357893 1.738176 1.224183 2.012638 2.116512 2.004715 1.891952 1.712296 1.919547 2.227098 0.749996 1.770754 1.588235 2.034289 1.900923 2.349823 2.841194 2.075882 2.17234 1.934335 1.727901 1.220766 1.735923 1.974751 2.061578 2.517211 1.925556 2.819002 2.415458 1.1971 2.715196 2.186693 2.006361 2.374978 2.378965 2.3459 1.863712 2.235759 1.550002 1.837869 2.281644 2.164577 2.118886 2.133121 1.685016 2.009622 2.047075 1.56167 1.883489 2.254393 2.212602 2.086929 1.392996 1.406682 1.856531 1.981629 1.9382 2.488657 1.794588 2.122527 1.803375 2.029616 1.739708 2.253912 3.125815 2.640514 2.556784 2.328294 3.024527 1.211848 2.160835 1.068022 2.712828 1.899911 2.595485 1.820405 1.604319 2.445302 1.985671 2.855669 2.387402 2.571487 2.280216 2.677404 2.483689 1.849644 1.598439 2.540999 2.624836 1.570696 2.117426 1.710454 2.081256 2.115934 1.778132 1.194275 1.609106 1.712149 2.117384 2.656607 2.25111 2.290334 1.560512 2.128349 1.281422 1.298227 2.785092 2.339855 1.831265 1.321882 2.209052 2.063216 2.075543 2.13359 2.137229 2.468994 1.921173 1.860446 1.946957 1.362493 2.60333 2.293181 1.908021 1.529287 1.762292 1.824297 2.393686 1.339536 2.610448 1.84984 2.376291 2.273639 2.134957 1.826238 1.995952 2.052529 2.649394 1.729669 1.775446 1.578388 1.63256 1.094991 2.061525 1.78103 1.37904 1.606078 2.704086 2.375795 1.628406 1.275751 1.739141 2.025286 2.168538 2.248164 2.211966 1.411051 1.903443 2.596408 1.867678 2.26828 2.417071 1.730908 2.050005 2.212242 1.768009 1.946649 2.2523 1.91568 2.44259 2.060801 1.948533 1.706803 1.393223 2.325105 1.604016 1.608289 1.707329 0.933777 1.531582 1.955948 1.566697 1.494322 1.247375 2.540757 1.498306 1.092328 2.362651 2.308923 2.361461 2.429506 2.096868 2.442231 1.789818 2.466044 2.297447 2.386312 0.851245 2.571719 1.744251 1.997173 1.672696 1.634634 2.164404 1.619555 2.809038 2.029583 1.960265 2.669489 2.199078 1.288404 1.868501 1.843227 1.777578 2.291929 2.390697 2.58924 1.882405 1.396375 1.924865 2.32898 1.971202 1.869082 2.552267 1.867665 2.582736 2.653166 1.796883 2.067082 2.767372 1.454253 2.650357 1.388445 2.073101 2.384499 2.523782 1.845279 2.799664 2.679243 2.288974 2.480592 2.068562 1.893873 2.056642 2.033069 2.31215 1.628753 1.832316 2.154693 1.70737 1.988233 1.711623 0.780388 2.635795 1.437638 2.549263 2.495428 1.562569 2.213589 1.460461 1.218455 2.463985 1.786407 2.412592 1.729536 1.714471 2.353435 2.533853 1.722406 2.349452 2.08148 2.661365 1.390354 1.920808 1.514188 2.272621 1.608176 2.429426 2.068716 2.449191 2.137807 1.86557 1.949208 2.409798 1.405612 1.88294 1.88037 1.87288 1.667541 2.447223 2.318845 2.099543 1.381192 2.710582 1.740507 1.287136 0.997796 1.734995 2.474612 2.035428 2.247996 2.000789 2.846196 2.200321 2.047223 3.222751 1.238998 1.863848 2.042519 2.077672 2.806853 1.946711 2.293304 1.444864 2.161123 1.558765 2.31728 2.05004 2.13245 2.103331 1.623681 0.979895 1.446144 1.48134 1.788299 2.573894 1.183132 1.919332 2.182524 2.589428 1.652947 1.595341 2.021063 1.940668 2.642396 0.354476 1.501486 2.000352 1.698679 1.810407 1.939142 1.934869 2.491011 1.727378 1.973828 2.3175 2.444084 1.831485 2.402415 2.023671 1.91346 2.065541 1.522217 1.655982 1.975131 1.535767 1.763658 1.43056 2.655535 1.328397 1.464713 1.74583 1.936643 2.569881 1.798165 1.469954 2.058902 2.215465 1.79752 1.53403 2.41731 2.122143 2.086474 2.796869 2.1142 1.607829 2.338057 1.872064 1.527135 2.544855 1.695286 2.07441 0.853966 2.703017 1.573255 2.139437 1.616535 1.728876 1.952227 2.424563 1.31309 1.639067 3.011308 1.972259 1.357965 1.996546 1.972547 1.497847 2.115993 2.631157 2.053705 1.773314 2.46075 2.116946 2.570903 1.909915 1.672755 2.17643 2.076693 1.935741 2.789816 2.093835 1.99804 1.775132 2.313389 2.163314 1.238475 1.924409 1.566876 2.099054 1.520938 0.841338 1.562103 2.400664 2.155001 2.371499 2.006724 1.636013 1.696922 1.409806 1.55938 3.735855 2.023051 1.695797 2.797203 2.147463
1 1.327191 1.15507 1.257969 1.128069 1.954988 2.467811 1.358204 1.344835 1.229708 1.214869 1.936133 1.17939 1.533774 1.180098 1.217255 1.165122 1.549446 1.578183 0.947866 1.30342 1.247803 1.735251 1.502059 1.499424 1.127243 1.429237 1.320969 0.994983 0.959193 1.554122 1.762261 1.681956 2.058788 2.066763 1.366342 1.696344 1.331145 1.600781 1.917692 1.432268 1.534408 1.263099 1.576352 1.75169 1.382682 1.161905 1.926405 1.179486 1.202591 1.718358 0.952442 1.997732 1.241543 2.426013 1.799114 0.797048 1.221721 1.515825 2.481591 1.751322 1.972566 1.494519 1.563543 1.612243 1.400548 1.999479 1.487255 1.833762 1.015634 1.436674 1.563031 1.462586 1.140757 1.144785 1.291664 1.828787 1.126237 1.901813 1.12388 1.172899 1.645009 1.576644 1.874557 0.914642 0.920266 1.764221 1.419937 1.020414 1.459416 1.313961 1.757149 1.449649 1.791248 1.84802 1.496974 1.08242 1.539691 1.447356 0.556739 1.734171 1.668821 1.129023 1.560913 1.637102 2.247242 1.560188 0.574479 1.808036 1.719783 1.241427 1.727803 1.466542 1.664574 1.284281 1.53092 0.826072 1.72043 1.708965 1.651617 1.631724 1.14673 1.633189 1.146755 1.676923 1.603796 0.775314 1.337185 1.246127 1.585707 1.103301 0.794496 1.489195 1.286572 1.450709 1.321809 1.20656 0.953262 1.700533 1.469665 0.737906 1.457972 1.303968 1.838325 1.946628 1.441424 2.17736 1.206575 1.987455 0.32758 1.79675 1.532398 1.402026 1.326982 1.309314 1.579466 1.794608 2.143627 1.438926 1.357577 1.687783 1.672248 1.072729 1.739318 1.194434 1.431626 1.259938 1.874402 0.781929 1.347469 1.163244 2.064728 1.476845 0.76873 0.632555 0.711248 1.952766 1.546705 1.664012 1.997583 0.983341 1.698585 1.312798 0.851573 1.702314 1.137877 1.73196 0.933986 1.01465 1.71907 1.23979 1.204352 1.124052 1.575163 1.557339 1.169841 1.37525 1.46429 1.48576 1.873548 0.928972 1.707133 0.451703 1.256976 1.737816 1.009859 1.474221 1.451867 1.607473 2.010381 1.823094 1.724166 1.467565 1.277733 1.627663 2.45251 1.775385 1.168524 1.041002 0.678966 1.268917 0.824089 0.981902 1.516204 0.995409 1.023196 1.398655 0.446031 1.373688 1.569311 0.731274 1.939947 1.812707 1.360013 1.51785 1.76389 1.834319 1.458305 1.939476 0.860596 0.935966 1.939817 1.105967 1.115122 1.635901 0.962599 2.055282 2.304948 1.1722 1.137791 1.798681 1.515942 1.07627 2.272553 0.787843 0.676021 1.347968 1.787533 1.476678 0.959381 1.009487 1.413921 1.502774 1.057001 1.260882 2.146239 1.818258 1.072045 1.548241 1.513502 1.660858 2.341521 1.543666 1.294105 1.022154 1.710824 0.793868 1.257199 1.484409 1.285379 1.83925 0.97756 2.187797 1.689137 1.646737 1.712422 1.513101 1.566126 1.143678 1.109036 0.725725 1.443234 1.46832 1.611121 1.211653 2.334654 2.025241 1.471758 0.980625 1.819408 2.027603 1.273356 1.426511 2.037964 1.697084 1.420966 2.008042 1.384823 1.813204 1.173731 1.339716 1.616251 1.742511 1.17549 2.124295 1.549868 1.731848 1.698947 1.560284 1.609875 1.148757 1.552582 1.842434 1.219463 1.35431 1.417708 1.021471 1.204077 1.77128 1.031691 1.82921 1.334034 0.850193 1.485228 1.781656 1.319592 1.751709 0.610998 1.66621 1.55021 2.072271 1.126178 0.969512 1.627426 1.765659 0.760347 1.761048 2.028482 1.810172 1.00589 1.591803 1.334011 1.269368 0.538709 1.464835 1.532158 1.795722 1.246138 0.766483 1.568871 1.150212 1.481592 1.264245 1.497327 1.557555 1.190489 1.545272 1.441513 1.35626 0.5434 1.787061 1.261208 0.697765 0.618052 0.849695 1.095118 1.744775 1.451903 0.891531 1.916169 1.156492 1.522955 1.930759 0.919694 1.31697 1.266371 1.288341 1.085155 0.914178 1.712396 0.96562 1.075297 1.283646 1.431198 1.421264 0.749871 1.17922 1.199755 1.004727 0.81418 1.160539 2.016031 1.433986 0.810843 1.884729 0.719147 1.378306 1.559899 1.187366 1.25434 1.468585 1.547843 0.761294 0.760971 1.871776 0.935963 0.691585 0.915737 1.443326 1.688119 0.784342 1.409548 1.677783 1.870633 0.752946 1.796348 1.254172 1.236451 0.976251 1.118813 1.844454 1.622778 1.452229 1.764654 1.596297 1.782951 1.151728 1.288737 1.910037 1.523149 1.447838 1.356562 0.974278 1.919218 1.625209 1.585174 1.370514 1.519973 1.478864 1.513802 2.107098 2.089555 1.406446 1.739843 1.742831 1.297358 1.876905 1.361442 1.488922 1.336553 1.014483 0.835408 1.402466 1.224663 1.657005 1.565838 1.01984 1.277341 1.466947 2.510825 1.760319 0.539943 1.227782 1.570855 1.291715 1.838631 2.012965 1.602338 0.928311 1.648895 1.354909 1.649744 1.22911 0.680335 0.874614 1.831071 1.736542 1.967885 1.84236 1.690203 1.13647 1.739052 1.099806 0.74953 1.218309 1.417563 1.386392 0.93819 0.437855 1.149742 1.782967 1.534019 1.482748 1.445058 0.985856 1.494831 0.75631 1.315898 3.625777 1.492485 1.883859 1.948627 1.579719 0.4686 1.522063 1.771324 0.76124 1.719276 2.450602 1.838915 1.511761 1.227808 1.069231 1.738171 0.433101 1.720053 1.463691 1.893157 1.661945 2.005576 1.45712 0.696157 1.599588 1.724465 0.940564 1.987775 1.136124 1.677394 1.169889 1.224537 1.585708 0.99739 2.006644 2.151208 2.109201 1.873311 1.730347 0.842728 1.621879 1.163191 1.449343 1.206895 1.98748 1.575267 0.479177 1.665005 1.647265 1.469052 1.587374 1.633523 1.040983 1.612375 1.07542 1.290612 1.625581 1.706699 1.785268 1.724714 0.951573 1.744259 1.671185 2.014011 1.766038 1.981732 1.685759 1.281751 0.871833 0.969306 1.289149 1.548986 1.972634 0.9998 1.457434 1.019477 1.24722 1.97781 1.469382 1.041055 1.863299 1.026886 1.932025 1.162124 0.730506 1.437028 1.456883 1.418318 1.098357 1.022333 1.329065 1.769775 0.310756 1.2201 1.098826 1.552142 1.289143 1.752979 2.242828 1.40042 1.7495 1.326509 1.220324 0.569148 1.384255 1.412931 1.520039 2.048619 1.280554 2.236755 1.855714 0.567724 2.037563 1.653035 1.407363 1.838366 1.722996 1.754583 1.235254 1.750491 1.084975 1.322256 1.69948 1.632561 1.631709 1.466122 1.19624 1.339331 1.790525 0.974112 1.353293 1.599879 1.668823 1.520475 0.87739 0.82003 1.289534 1.488732 1.286348 2.015981 1.247415 1.559678 1.249716 1.453674 1.234247 1.756288 2.452837 1.955021 1.948157 1.706756 2.556316 0.885403 1.755357 0.551432 2.216243 1.294521 2.082944 1.24574 1.032488 1.897914 1.36213 2.443885 1.829804 1.831399 1.621854 1.857867 1.738466 1.21434 0.819753 1.886165 2.083239 1.11944 1.418753 1.121195 1.369102 1.535832 1.147459 0.650976 0.892518 1.051977 1.570992 1.900956 1.644194 1.770314 1.060276 1.695312 0.723341 0.891578 2.232864 1.691359 1.197188 0.613361 1.597625 1.407525 1.627538 1.59606 1.507124 1.806558 1.384917 1.129547 1.417046 0.769293 2.071735 1.655098 1.331787 0.982504 1.215349 1.319779 1.86684 0.840921 1.852131 1.214378 1.715694 1.725164 1.573098 1.239504 1.380099 1.448534 2.092302 1.268112 1.119011 0.930025 1.006934 0.486412 1.397652 1.044775 0.88876 0.936737 2.147663 1.877169 1.081331 0.760102 1.113548 1.319021 1.634895 1.493065 1.51343 0.999505 1.320343 2.056078 1.357583 1.674055 1.90412 1.091252 1.423463 1.73208 1.126309 1.382417 1.519276 1.406357 1.675753 1.66586 1.503014 1.212884 0.932331 1.720749 0.912118 0.999964 1.097207 0.333784 0.948091 1.396431 1.187765 0.958565 0.53959 2.031358 0.849993 0.428018 1.616299 1.769082 1.851862 1.979691 1.564748 1.840305 1.130763 1.922992 1.642694 1.567062 0.272241 1.879938 1.136245 1.327477 1.185965 1.173392 1.631217 0.759416 2.250329 1.544526 1.399169 2.157178 1.643548 0.687576 1.362085 1.212082 1.307452 1.793288 1.746141 2.062448 1.19699 0.782691 1.431726 1.667409 1.515405 1.305174 2.125739 1.251354 2.076554 1.909104 1.186865 1.383392 2.205533 0.788606 1.98947 0.821537 1.395352 1.64899 1.899583 1.3372 2.055742 2.139145 1.613295 2.124971 1.335439 1.315601 1.475244 1.476335 1.788706 1.196238 1.272862 1.614718 0.972404 1.303412 1.245315 0.294946 1.956157 0.788864 2.048613 1.798729 1.002505 1.530646 0.899803 0.669531 1.834762 1.166435 1.715636 1.151207 1.093675 1.846897 1.805913 1.167539 1.849934 1.571017 1.963272 0.744745 1.380626 1.030329 1.659717 0.96323 1.901706 1.586526 1.799494 1.434947 1.177086 1.349205 1.823763 0.810592 1.257002 1.24423 1.221122 1.058093 1.824299 1.626353 1.505815 0.981046 2.26919 1.099768 0.681037 0.433013 1.057353 1.931588 1.543644 1.718586 1.397841 2.392986 1.575241 1.311371 2.744162 0.686869 1.202364 1.373509 1.357388 2.152263 1.360513 1.690646 0.746183 1.782796 0.994183 1.656555 1.361839 1.50441 1.65133 1.049058 0.420106 0.86561 0.868662 1.290772 1.953684 0.576909 1.297453 1.508616 2.088827 1.101502 1.135695 1.506053 1.434498 2.035076 -0.158235 1.019414 1.503142 1.046696 1.152557 1.394001 1.216477 1.995741 1.148346 1.449615 1.86168 1.794521 1.335905 1.754781 1.457099 1.333755 1.619192 1.04699 1.085276 1.323696 1.104429 1.301158 0.731839 2.040898 0.795692 0.837193 1.087497 1.352634 2.052509 1.277982 0.974406 1.520359 1.612756 1.345211 0.922382 1.91498 1.545333 1.607106 2.231666 1.571907 0.909015 1.860185 1.350019 0.890488 1.978009 1.185643 1.344554 0.305899 1.935487 0.923016 1.671111 1.025687 1.20243 1.406727 1.598401 0.71124 0.899307 2.541546 1.465811 0.792349 1.439593 1.376015 0.992713 1.515649 2.117884 1.453109 1.183427 1.804817 1.905234 2.062034 1.418315 1.198394 1.625051 1.56978 1.375793 2.179668 1.60293 1.576989 1.198466 1.580415 1.563736 0.700018 1.424525 0.938931 1.441462 1.096028 0.339966 1.150627 1.739801 1.597245 1.762818 1.451052 0.973107 1.226124 0.942592 0.992238 3.206534 1.572219 1.092751 2.319569 1.556643
9 2.15239 2.156151 2.294715 2.112006 2.962641 3.492373 2.452864 2.412498 2.165537 2.146062 2.859367 2.244706 2.498998 2.214924 2.078597 2.186394 2.416632 2.65226 1.919842 2.446023 2.265646 2.804878 2.374701 2.336959 2.026632 2.384498 2.363288 1.93198 1.858123 2.49693 2.766929 2.645861 3.156571 3.1462 2.392892 2.482819 2.323385 2.586921 2.90829 2.414114 2.503334 2.054093 2.720736 2.700957 2.346005 1.93803 3.041583 1.994239 2.017408 2.849827 1.916766 3.045625 2.088196 3.25888 2.966035 1.986677 2.326751 2.526534 3.567195 2.697569 3.056758 2.531999 2.477251 2.55423 2.356229 2.902538 2.425986 2.947036 1.898585 2.395687 2.546312 2.258559 2.035248 2.25274 2.352949 2.800529 2.069284 3.034296 2.117562 2.284477 2.58636 2.421633 2.755362 1.799962 1.791246 2.681018 2.457604 1.957981 2.407228 2.325361 2.561227 2.2669 2.631652 2.878162 2.523382 2.151148 2.520718 2.346305 1.552029 2.818714 2.632486 2.162536 2.607872 2.621779 3.175441 2.498591 1.500445 2.702709 2.716058 2.231396 2.769381 2.470813 2.502139 2.196883 2.396777 1.715801 2.776807 2.642926 2.738959 2.723418 2.225621 2.336752 2.171073 2.720309 2.694109 1.897245 2.152262 2.234368 2.56782 2.268789 1.831198 2.583379 2.378671 2.401075 2.396511 2.13282 2.012761 2.647663 2.523587 1.666723 2.38788 2.380851 2.801199 2.933627 2.279869 3.272145 2.196601 2.902703 1.262668 2.605419 2.544819 2.489869 2.359889 2.324802 2.568132 2.76296 3.155028 2.504388 2.310498 2.611024 2.822818 2.079816 2.620641 2.09053 2.280202 2.085979 2.815747 1.832585 2.192701 2.143576 3.107133 2.542933 1.760915 1.614523 1.74839 2.956168 2.576869 2.5237 3.035733 1.892706 2.78021 2.184967 1.815902 2.784976 1.934598 2.64328 1.947284 2.059514 2.72601 2.120693 2.260644 2.033691 2.576729 2.550448 2.095588 2.35585 2.339728 2.460239 2.948541 1.929942 2.635002 1.439439 2.202903 2.778107 1.914193 2.561147 2.344007 2.688616 2.827599 2.753028 2.736618 2.435478 2.148631 2.795204 3.55754 2.830059 1.982341 2.049419 1.558706 2.056301 1.725747 1.96285 2.456901 2.028198 1.85475 2.421134 1.191606 2.294302 2.461065 1.685687 3.051469 2.896805 2.269506 2.450992 2.683349 2.729406 2.510476 2.939463 1.831628 1.916745 2.868563 2.072308 1.893396 2.666379 2.099338 2.990237 3.496213 2.087519 2.344591 2.84853 2.382121 2.089351 3.174751 1.852588 1.614407 2.390762 2.762558 2.488233 1.909766 1.88834 2.229561 2.304113 1.996468 2.154902 3.299836 2.712359 2.042543 2.426253 2.514483 2.71995 3.433278 2.510847 2.211054 2.031321 2.789125 1.812437 2.243021 2.481255 2.192084 2.791329 2.073565 3.142442 2.630159 2.774074 2.731643 2.581374 2.652035 1.998613 2.058947 1.68083 2.40799 2.309029 2.605974 2.178125 3.329024 3.055982 2.539583 2.13788 2.952688 3.047015 2.217143 2.306046 2.798923 2.517401 2.640458 3.174097 2.09935 2.826235 2.279556 2.468129 2.549905 2.699006 2.184419 3.044915 2.536861 2.629894 2.869553 2.460197 2.724984 2.011324 2.493259 2.706527 2.094822 2.262945 2.555706 1.972257 2.148956 2.817119 1.946248 2.906552 2.368025 1.840174 2.392011 2.879144 2.275242 2.64921 1.516943 2.657777 2.443827 2.904584 2.232699 1.782017 2.408618 2.858582 1.783973 2.638178 2.858675 2.954742 1.858091 2.431215 2.419211 2.132921 1.531045 2.513732 2.56199 2.744145 2.237239 1.653606 2.532847 2.1512 2.574103 2.123916 2.494037 2.484789 2.131875 2.489256 2.364028 2.324196 1.482702 2.888911 2.218238 1.747846 1.708234 1.742138 1.983969 2.779622 2.347075 1.819002 2.850578 2.404504 2.459578 2.896927 2.045752 2.39177 2.071918 2.269879 2.038152 1.858292 2.714399 1.994467 2.295135 2.31379 2.454906 2.437544 1.538006 2.260665 2.195751 1.782255 1.695476 2.300661 3.074719 2.46828 1.817579 2.830577 1.570866 2.290532 2.468333 2.44369 2.370082 2.451388 2.539551 1.90646 1.682294 2.904785 1.764651 1.651264 1.992813 2.459418 2.757192 1.679852 2.356575 2.901074 2.935867 1.713464 2.720475 2.213496 2.320146 2.089024 2.134301 2.845378 2.596966 2.414082 2.856666 2.545802 2.730618 2.285072 2.356217 2.845699 2.554859 2.423538 2.086697 2.080161 2.998811 2.570575 2.449572 2.275424 2.533824 2.316431 2.546652 3.085394 3.12625 2.503973 2.790673 2.637029 2.121559 2.862539 2.545433 2.461831 2.450341 1.997827 1.760142 2.394703 2.263588 2.698989 2.519525 1.985909 2.236669 2.459928 3.419894 2.709584 1.551625 2.184014 2.62853 2.315822 2.818144 3.044413 2.385706 1.795009 2.616025 2.43122 2.673194 2.213894 1.638418 1.757125 2.842385 2.823406 2.811355 2.806619 2.748089 2.016908 2.695681 2.20853 1.685383 2.067778 2.648829 2.328687 1.886869 1.271002 2.350295 2.616946 2.602129 2.563771 2.47308 1.895628 2.451196 1.748814 2.369167 4.639306 2.543121 2.779908 2.88328 2.51288 1.188731 2.543871 2.723211 1.721862 2.782284 3.56809 2.910444 2.509072 2.283694 1.945766 2.73874 1.384053 2.838089 2.49319 2.897616 2.523954 2.961025 2.520806 1.733751 2.741035 2.791975 1.914418 3.002844 2.190861 2.606609 2.180611 2.375198 2.572897 2.008801 2.93008 3.216606 3.138062 2.879876 2.776049 1.719802 2.572057 2.046372 2.465837 2.297451 2.931549 2.623205 1.174802 2.800174 2.571084 2.471721 2.377416 2.852227 2.035085 2.519573 2.21209 2.076772 2.693826 2.772075 2.888323 2.902175 2.245567 2.795239 2.77034 3.100157 2.782254 2.922763 2.79906 2.246432 1.707295 1.967408 1.973182 2.540917 3.004395 2.04742 2.480487 1.766575 2.286497 2.961185 2.43904 2.188824 2.781431 2.07449 3.04271 2.052526 1.805859 2.28358 2.381013 2.232963 2.031389 1.833121 2.323162 2.81715 1.248415 2.260619 2.050407 2.503779 2.348277 2.479596 3.269912 2.35483 2.717366 2.052763 2.236872 1.45009 2.358421 2.434554 2.468138 3.115951 2.313452 3.207041 2.721119 1.503061 2.897693 2.573388 2.595261 2.906262 2.701459 2.566048 2.165261 2.895221 2.182633 2.43524 2.597559 2.69926 2.660477 2.264051 2.247221 2.35102 2.733119 1.900737 2.55218 2.424357 2.641717 2.67094 1.992536 1.849424 2.38538 2.572227 2.252189 3.120833 2.206938 2.641582 2.258841 2.38084 2.228273 2.657021 3.432756 2.805629 2.87802 2.606242 3.527143 2.039653 2.95546 1.553857 3.325871 2.359005 3.177888 2.142939 2.080554 2.983728 2.272621 3.563524 2.923795 2.637007 2.569304 2.862874 2.712696 2.147654 1.687722 2.746201 2.93486 2.01295 2.441312 1.867875 2.304727 2.637539 2.08465 1.669361 1.8962 2.091048 2.668664 2.913105 2.419806 2.699778 2.055599 2.75334 1.542562 1.943056 3.170734 2.599512 2.138067 1.502407 2.570828 2.434366 2.817464 2.751288 2.576299 2.776845 2.376905 2.107244 2.222629 1.547212 3.103938 2.546552 2.14314 1.931335 2.096021 2.217143 2.882137 1.883583 2.800434 2.065905 2.754912 2.591773 2.488951 2.24374 2.340603 2.394627 3.199775 2.327108 2.06823 1.909179 1.974796 1.246512 2.286465 1.890721 1.90951 1.87212 3.293701 2.729612 2.098658 1.721234 2.108183 2.25962 2.522093 2.451895 2.394096 1.967165 2.235572 3.028824 2.282466 2.765405 2.78073 2.008426 2.438141 2.901059 2.103784 2.237739 2.434665 2.355556 2.647404 2.685713 2.458234 2.333865 2.086598 2.7003 1.846542 1.936028 1.942622 1.329089 2.037676 2.312883 2.388034 1.948712 1.155634 2.921409 1.83834 1.356889 2.550586 2.819949 2.910664 3.065438 2.643306 2.829553 2.139563 2.806649 2.681841 2.404526 1.210731 3.026034 2.120817 2.401594 2.258809 2.257163 2.749549 1.505685 3.507972 2.530148 2.439968 3.151429 2.664851 1.754774 2.293105 2.146642 2.251475 3.032791 2.71499 2.896971 2.273108 1.702369 2.424605 2.673422 2.60126 2.465723 3.153249 2.091501 2.870324 2.896932 2.198796 2.290599 3.169821 1.570921 3.062141 1.779971 2.385394 2.63216 2.977804 2.285984 2.898247 3.104353 2.581807 3.339503 2.146658 2.388226 2.233347 2.504258 2.555598 2.105974 2.135507 2.573322 1.922321 2.205448 2.289161 1.17039 3.025269 1.697028 3.244391 2.757479 2.134863 2.488684 1.870167 1.598949 2.787249 2.057958 2.583619 2.195837 1.930854 2.834706 2.798692 2.158133 2.993711 2.566515 3.079206 1.656348 2.310462 1.935806 2.497278 2.046503 2.839037 2.649769 2.917012 2.429899 1.943816 2.155595 2.770991 1.939398 2.080342 2.067286 2.222049 1.90486 2.857068 2.740965 2.54626 2.121292 3.27098 1.982761 1.601916 1.279684 1.971431 3.011743 2.486871 2.66587 2.380326 3.450977 2.852356 2.195836 3.758772 1.743363 2.212838 2.229435 2.178249 3.223844 2.312923 2.58033 1.766825 2.958784 2.062812 2.66035 2.26933 2.331763 2.641525 2.073941 1.24511 1.774288 1.851577 2.39287 2.910126 1.613069 2.173498 2.326848 3.166132 2.034372 2.308458 2.447143 2.392759 3.045242 1.039098 2.090188 2.530846 2.044329 2.23666 2.432643 2.134078 3.189271 2.033288 2.33623 2.99975 2.761591 2.392866 2.715138 2.44083 2.245444 2.809275 2.055883 1.995395 2.344854 2.121129 2.361182 1.536551 2.877966 1.87835 1.853748 2.06145 2.336365 3.083305 2.352323 2.045001 2.540192 2.533378 2.393119 1.739028 2.943641 2.442386 2.555461 3.211373 2.653742 1.807124 2.98955 2.296037 1.676358 3.03452 2.195531 2.274912 1.412465 2.974083 1.887177 2.801199 1.957711 2.301659 2.391 2.421545 1.538518 1.828541 3.676367 2.405757 1.732421 2.341034 2.3618 1.941458 2.543322 3.090592 2.26249 2.250155 2.720977 3.038065 3.111459 2.558049 2.180345 2.638365 2.434326 2.378427 3.198687 2.710427 2.676997 2.005166 2.578793 2.63587 1.496943 2.446677 1.870922 2.400621 2.109165 1.222572 2.326458 2.665264 2.61134 2.778911 2.418666 1.874575 2.16442 1.884036 1.913014 4.140147 2.689556 2.111367 3.319907 2.644046
3 3.367436 3.17748 3.368189 3.14669 3.816373 4.285538 3.325331 3.316231 3.396651 2.975258 3.711961 3.064321 3.360896 3.044933 3.155556 3.122163 3.571581 3.294362 2.85699 3.176817 3.297975 3.560438 3.360878 3.649982 3.077022 3.194438 3.214054 2.915316 2.953701 3.435824 3.576472 3.672654 3.801948 3.972519 3.147899 3.779085 3.240724 3.421494 4.062058 3.373558 3.480731 3.300135 3.523875 3.753394 3.322789 3.19131 3.59049 3.308936 3.209976 3.558783 3.091521 3.797012 3.393301 4.409175 3.617429 2.662173 3.052233 3.419089 4.243991 3.703786 3.763387 3.539513 3.551315 3.60225 3.332044 3.993438 3.468515 3.761709 3.105485 3.413207 3.440187 3.452819 3.15719 3.137858 3.172034 3.791301 3.037486 3.830775 3.094005 3.051256 3.558983 3.741233 3.852203 3.142762 2.945429 3.964017 3.25426 3.009363 3.404584 3.160421 3.799626 3.434091 3.772205 3.810085 3.403081 2.83039 3.404479 3.538995 2.526531 3.469967 3.505215 2.88371 3.350527 3.510233 4.121036 3.52468 2.542359 3.794177 3.611573 3.262467 3.650888 3.294047 3.696233 3.183177 3.39406 2.747724 3.69979 3.571632 3.590279 3.479721 3.050926 3.754431 3.139659 3.367249 3.61609 2.582259 3.271615 3.177283 3.672182 3.055501 2.747318 3.313731 3.169815 3.438272 3.058275 3.24705 2.765994 3.645835 3.473788 2.70802 3.503132 3.239616 3.840938 3.72639 3.446374 3.884345 3.099504 3.974807 2.372743 3.682436 3.566173 3.366124 3.276996 3.322808 3.409086 3.811412 4.075985 3.337559 3.43972 3.569809 3.52329 2.993681 3.758178 3.220923 3.390724 3.21393 3.784309 2.692685 3.394271 3.309025 3.842063 3.455312 2.631687 2.632092 2.710734 3.876671 3.418244 3.696295 3.80408 2.777418 3.490325 3.157701 2.786889 3.621582 3.020064 3.603774 3.023191 2.870108 3.678714 3.255191 2.912892 3.168928 3.593016 3.445253 3.217114 3.195102 3.40913 3.379698 3.557048 2.707847 3.736314 2.35096 3.148898 3.469445 2.951843 3.45568 3.606545 3.500131 4.037423 3.756685 3.438183 3.418129 3.203181 3.480379 4.279074 3.722347 3.147339 2.960626 2.754611 3.264627 2.870887 2.824434 3.474863 2.888062 3.10429 3.344063 2.783528 3.366606 3.459335 2.79183 3.726095 3.41852 3.238331 3.558624 3.753409 3.72609 3.457134 3.819763 2.755239 2.915804 3.966419 2.94967 3.139231 3.735224 2.848374 4.136145 4.206804 3.206317 2.933207 3.662129 3.432988 3.165895 4.125574 2.67067 2.775413 3.179544 3.650733 3.619121 2.675844 3.013587 3.493473 3.568059 3.164544 3.295876 3.919117 3.924109 2.971725 3.405272 3.52798 3.635126 4.105353 3.585591 3.171643 3.01716 3.610152 2.792688 3.230008 3.363441 3.154399 3.769923 3.016339 3.995219 3.727102 3.509188 3.597542 3.493299 3.436023 3.084992 3.029907 2.630095 3.364257 3.486067 3.609887 3.26969 4.419684 3.839481 3.480761 2.825201 3.759752 3.889906 3.255553 3.422394 4.293597 3.629797 3.270839 3.736926 3.554217 3.755524 3.205997 3.297183 3.531334 3.787323 3.071882 4.098222 3.437966 3.771532 3.555643 3.598609 3.473338 3.127632 3.515759 3.692471 3.07909 3.226029 3.216989 2.813826 3.252683 3.615832 3.035114 3.858599 3.303399 2.873902 3.533775 3.654943 3.132589 3.703586 2.62541 3.432143 3.717964 4.096086 3.046068 2.944531 3.699275 3.569497 2.638957 3.720335 3.917399 3.726007 3.229815 3.752367 3.132298 3.313516 2.612016 3.382356 3.388762 3.680435 3.300519 2.869564 3.456525 3.108921 3.287617 3.230001 3.427082 3.559855 3.11646 3.603257 3.3421 3.314799 2.579845 3.648746 3.292285 2.656613 2.386318 2.899906 3.000589 3.408891 3.371595 2.86129 3.91713 3.062373 3.477927 4.104823 2.951893 3.142305 3.252459 3.224802 3.094002 2.970841 3.641776 2.958804 2.837842 3.120191 3.517349 3.547001 2.843498 3.07484 3.12772 2.997418 2.752339 3.138302 3.897253 3.269328 2.797594 3.722373 2.631262 3.380065 3.49968 2.932029 3.068341 3.458097 3.489591 2.579464 2.851708 3.689446 3.019897 2.591735 2.792624 3.393865 3.704628 2.778835 3.286636 3.575193 3.758721 2.770147 3.708804 3.199144 3.248857 2.783194 3.101214 3.592622 3.515973 3.280931 3.697856 3.514079 3.846407 2.856817 3.146954 3.909545 3.458623 3.347871 3.424418 2.902132 3.824877 3.657226 3.52609 3.525364 3.419533 3.548717 3.223387 4.07294 4.002486 3.298256 3.591633 3.672497 3.238974 3.824427 3.096593 3.544103 3.371387 3.038776 2.854879 3.235487 3.158049 3.459942 3.502442 3.059835 3.129586 3.440444 4.46063 3.69453 2.576283 3.070388 3.386992 3.163068 3.717534 3.823704 3.567034 2.878737 3.563556 3.087874 3.557432 3.340063 2.585054 2.833628 3.772577 3.554134 4.06328 3.699368 3.640432 3.089331 3.628666 3.182754 2.7649 3.184762 3.236209 3.504716 2.986685 2.300303 2.887472 3.743954 3.490906 3.410955 3.458364 3.133697 3.410724 2.874169 3.173019 5.447953 3.523995 3.939568 3.785556 3.442886 2.555151 3.480435 3.638652 2.912689 3.557085 4.057954 3.765391 3.582387 3.23631 3.132178 3.525316 2.432444 3.405824 3.124464 3.746983 3.677393 3.774871 3.261777 2.754905 3.445214 3.742337 2.863371 3.879424 3.003605 3.548506 2.991825 3.154749 3.312583 2.945119 3.976412 3.972241 4.126398 3.677277 3.752943 2.804267 3.724709 3.088494 3.314887 3.315048 3.789124 3.524143 2.573168 3.614794 3.548329 3.32982 3.435561 3.362427 3.098581 3.513552 3.163156 3.290233 3.701462 3.484316 3.526246 3.504674 2.756841 3.622192 3.438982 3.848597 3.751644 3.75241 3.6386 3.140249 3.042862 2.831891 3.268087 3.491286 3.918025 3.034644 3.41412 3.102669 3.154514 3.901603 3.546733 3.111227 3.841165 2.914156 3.877852 3.087543 2.670983 3.599157 3.464332 3.528349 3.175064 3.103171 3.253376 3.608936 2.330264 3.125699 3.009243 3.410743 3.369355 3.640912 4.178565 3.295283 3.762277 3.356415 3.33366 2.691641 3.256133 3.229411 3.263593 3.818257 3.225135 4.086172 3.712566 2.601487 4.111268 3.637603 3.301837 3.810895 3.519318 3.735208 3.173731 3.566559 3.058714 3.346747 3.626079 3.487678 3.524058 3.491345 3.054982 3.479642 3.628695 3.100155 3.106678 3.586501 3.405853 3.424102 2.969536 2.7191 3.319726 3.317686 3.269768 3.699924 3.14048 3.419227 3.291812 3.484387 3.157485 3.547529 4.311383 4.057341 3.685649 3.478637 4.326302 2.803432 3.455721 2.464414 3.978926 3.286542 4.032894 3.213532 3.034889 3.676252 3.501173 4.226214 3.568911 3.898335 3.54212 3.878422 3.754636 3.085164 2.954888 3.686881 3.888084 2.875808 3.311309 3.255375 3.396292 3.532489 3.215316 2.463563 2.783232 3.110532 3.473359 3.906666 3.717184 3.710755 2.812563 3.322397 2.66068 2.757532 4.200904 3.5536 3.136634 2.816572 3.496012 3.425423 3.341259 3.371266 3.448299 3.863131 3.329523 3.178867 3.309609 2.812176 3.940012 3.5484 3.264628 2.962365 3.17679 3.182788 3.737305 2.641235 3.983476 3.269717 3.63675 3.675841 3.527351 3.092324 3.353669 3.340968 3.895967 3.246606 3.10321 2.922376 2.935894 2.500839 3.469432 3.104456 2.701083 3.04959 3.931979 3.630107 3.019085 2.695292 3.165948 3.289992 3.607962 3.498561 3.457571 2.844915 3.303973 4.048637 3.370525 3.466699 3.764236 3.109249 3.360178 3.573115 3.121782 3.371679 3.598186 3.343045 3.653674 3.549714 3.277722 3.097344 2.659061 3.629477 3.026773 3.05863 3.030125 2.252772 2.962206 3.240311 2.990291 2.863084 2.795876 3.99406 2.865779 2.494504 3.631939 3.728205 3.862893 3.632612 3.173371 3.801086 3.175567 3.863304 3.661269 3.599382 2.480906 3.844008 3.155125 3.353332 3.223502 2.985674 3.51571 2.964224 3.953603 3.4971 3.400455 4.001129 3.630392 2.790711 3.160708 3.20464 3.197992 3.603306 3.630464 4.016659 3.174311 2.940473 3.312553 3.554232 3.4626 3.41304 3.857593 3.142505 3.925004 3.922614 3.01928 3.416784 4.132023 2.89469 3.915652 2.859784 3.435816 3.719632 3.866835 3.268835 4.072948 4.092797 3.680712 3.79684 3.384035 3.140367 3.437592 3.224295 3.726597 2.999173 3.175234 3.630821 2.973173 3.192892 3.292362 2.387685 3.920206 2.880689 3.878536 3.753129 2.920124 3.412562 2.883767 2.550137 3.772402 3.289021 3.712666 3.08305 2.997924 3.649369 3.742588 2.981283 3.577185 3.463052 3.923425 2.837218 3.380212 2.992797 3.669632 2.94576 3.773508 3.398808 3.793832 3.514651 3.215246 3.419495 3.778176 2.628134 3.25946 3.24195 3.204381 3.036772 3.864101 3.555487 3.553635 2.787757 4.062714 3.133113 2.680483 2.476611 3.076779 3.879462 3.424507 3.67231 3.431219 4.135989 3.39451 3.512889 4.641806 2.749817 3.203506 3.303883 3.462925 4.043515 3.310393 3.687651 2.803616 3.400817 2.750835 3.744195 3.488171 3.457832 3.477764 2.989935 2.47001 2.733636 2.816753 3.187791 3.896835 2.5581 3.349138 3.413818 3.961286 3.077129 2.948758 3.420836 3.452096 4.026576 1.641443 3.053702 3.470956 3.028128 3.102207 3.356209 3.289896 3.859155 3.11904 3.371834 3.750096 3.751684 3.209449 3.84421 3.439545 3.411024 3.314313 3.02282 2.975225 3.221657 3.066568 3.150485 2.851018 4.117052 2.668399 2.892104 3.248539 3.32669 3.830662 2.987592 2.933066 3.509 3.568555 3.172686 3.002009 3.794581 3.449771 3.513789 4.247253 3.523184 3.030185 3.576179 3.270022 2.966991 3.882577 3.13657 3.435523 2.278066 3.91654 2.989751 3.309055 3.063398 3.003867 3.200678 3.715245 2.717656 3.085949 4.287434 3.413322 2.733565 3.320901 3.289952 2.887628 3.378879 3.867096 3.521807 3.106571 3.79726 3.512874 3.808627 3.203907 3.012358 3.520072 3.422666 3.292512 4.063053 3.391585 3.336901 3.205189 3.578589 3.525915 2.782036 3.270834 2.925664 3.646169 3.006845 2.187795 3.05669 3.692512 3.54551 3.746883 3.445205 3.083198 3.219358 2.882784 2.974984 5.14784 3.595012 3.194922 4.102996 3.370995
0 0.882354 0.505156 1.27807 0.926257 1.707092 2.146198 1.186374 1.089179 1.046708 0.596655 1.554492 1.015672 1.082073 0.897872 0.922591 1.001613 1.431183 1.025972 0.526465 1.076916 0.965541 1.25912 0.96119 1.438519 0.578642 0.787586 0.997811 0.87197 0.690743 1.006169 1.51139 1.391378 1.509337 1.689092 0.764453 1.639013 0.719677 0.940535 1.891347 1.382844 1.423193 1.062997 0.856255 1.557437 1.072975 1.153236 1.449964 1.424213 0.923561 1.489968 1.006364 1.583942 0.932445 2.543489 1.179829 0.174254 0.490977 1.136694 2.122161 1.67684 1.477471 1.544324 1.40568 1.41092 1.28897 1.970452 1.492342 1.645278 1.121499 1.125259 1.420967 1.184267 0.881724 0.962323 1.184364 1.679075 0.785478 1.246776 0.729015 0.739969 1.235714 1.488682 1.763053 1.207001 0.837506 1.98068 1.109801 0.776135 1.143529 0.988198 1.651305 1.122856 1.765043 1.408087 1.293017 0.807925 1.213787 1.171818 0.446219 0.662983 0.978366 0.556118 0.992012 1.574703 2.117419 0.946272 0.383155 1.421351 1.509045 0.898859 1.341951 1.222971 1.536204 0.817506 1.363013 0.402947 1.438698 1.132024 1.09765 1.135957 0.716571 1.33248 0.898233 1.440234 1.282011 0.61087 1.287319 0.762885 1.550764 0.699558 0.44013 0.95022 1.016061 1.352887 0.798957 1.18267 0.441696 1.262339 1.097916 0.602703 1.296893 0.890585 1.326284 1.595538 1.215739 1.435331 0.828442 1.966202 0.135508 1.554873 1.330388 0.936881 1.036725 1.252024 1.366393 1.724839 1.842111 0.952784 1.140529 1.320081 1.258643 0.837769 1.781312 1.284037 1.112642 1.002306 1.472635 0.335168 1.217459 1.012241 1.732321 1.181562 0.631534 0.200712 0.753399 1.400207 1.031514 1.426063 1.460898 0.72885 1.3564 0.900276 0.435513 1.594423 0.977346 1.356745 1.180784 0.725624 1.666552 0.859152 0.657402 1.02467 1.283575 1.517397 1.037362 0.982987 1.345641 0.96892 1.181069 0.415094 1.680907 -0.044404 0.949918 1.012334 1.064135 1.271582 1.497722 1.100567 1.998813 1.433802 1.167642 1.378018 0.796168 0.991175 2.338495 1.763932 1.033467 0.955266 0.446718 1.020489 1.075897 0.338708 1.104429 0.807906 0.912334 1.075804 0.66473 1.365087 1.577813 0.562387 1.547903 0.979828 0.753087 1.471566 1.702948 1.48056 1.07173 1.733003 0.69104 0.977973 1.980299 0.78621 0.442442 1.75798 0.590606 1.793016 1.875958 0.880737 0.516146 1.00235 1.241171 0.787643 1.794806 0.521816 1.082758 0.771523 1.167671 1.323886 0.267135 0.855992 1.588049 1.48865 0.872154 1.177359 1.718135 1.750719 0.43223 1.18388 1.410183 1.215963 1.870168 1.649284 1.117284 0.954478 1.552738 0.463307 1.114212 1.142434 0.838261 1.640067 0.539989 1.643286 1.811321 1.229369 1.726097 1.013511 1.340638 0.828242 0.601941 0.496941 0.995879 1.216948 1.190812 0.971115 2.227188 1.760625 1.162025 0.244735 1.643028 1.668736 1.12188 1.348734 2.49793 1.430286 0.590021 1.238221 1.660704 1.534093 0.865027 1.258411 1.479671 1.399018 0.619659 1.742956 1.039747 1.854007 1.227591 1.456204 1.590037 1.158449 1.37272 1.293921 0.807004 0.974503 0.59823 0.369647 1.382434 1.683918 1.06512 1.245034 1.354334 0.589129 1.384584 1.419 1.365312 1.527837 0.459537 1.038824 1.519492 2.216856 0.721692 0.800992 1.098627 1.018483 0.219219 1.733593 1.722991 1.27058 1.100548 1.578336 0.633895 1.327888 0.708595 1.196041 0.98511 1.277495 1.275992 0.703798 1.044301 0.617986 1.252924 1.152205 0.965523 1.515408 0.981995 1.257195 1.145952 1.273897 0.162645 1.563476 1.375711 0.434278 -0.143186 0.681083 0.664243 0.802793 1.189219 0.557783 2.002449 0.681956 1.366347 2.007131 0.760169 0.850925 0.971006 1.200227 0.866082 1.039678 1.464805 0.502994 0.099946 0.892522 1.365674 1.544798 0.545927 0.689266 0.76655 0.900948 0.672158 0.994217 1.498577 1.08882 0.877374 1.397083 0.348666 1.624956 1.462408 0.405974 0.726103 1.231772 1.474679 0.345378 0.602544 1.555317 0.950632 0.228959 0.379772 1.116534 1.374727 0.799032 1.295644 1.349406 1.423846 0.782521 1.479347 0.936861 0.981327 0.468496 0.436786 1.237973 1.429944 0.895447 1.729504 1.321152 1.606728 0.472359 0.872369 1.860362 1.285316 0.82456 1.335281 0.615527 1.405375 1.516417 1.128901 1.157698 1.209438 1.114119 0.756457 1.976138 1.631455 0.706866 1.465698 1.578736 1.129889 1.740945 1.004173 1.487092 1.2782 0.881027 0.677033 0.872689 0.718027 0.991275 1.160182 0.808963 0.877724 1.418556 2.169746 1.746822 0.1553 0.967438 1.132939 1.093118 1.567699 1.692885 1.707995 0.62141 1.370762 0.894014 1.040208 1.028498 0.163122 0.677567 1.518616 1.334689 1.938335 1.438997 1.152725 1.038338 1.386393 0.857297 0.559904 0.739476 1.019901 1.236315 1.131112 0.274112 0.222509 1.690498 1.305004 1.457283 1.229348 1.000637 1.240949 0.661884 0.811295 3.155942 1.561514 1.809385 1.444313 1.587689 0.151417 1.23842 1.44045 0.598748 1.420463 1.594341 1.762138 1.445217 0.677242 0.913462 1.672485 0.417939 1.06803 0.968286 1.60024 1.640409 1.782281 1.388434 0.552666 1.310067 1.445921 0.486091 1.355638 0.652292 1.504451 0.739902 0.8548 1.167705 0.500275 1.62481 1.567675 1.673835 1.429881 1.537107 0.510007 1.464789 0.752996 0.931531 1.022027 1.884216 1.227999 0.571379 1.105817 1.353513 1.11149 1.133252 1.121514 0.832981 1.292613 1.093127 1.028151 1.423329 1.228097 1.258911 1.266148 0.457382 1.341185 1.065892 1.586366 1.667578 1.598411 1.617206 0.647075 1.137745 0.799746 1.332337 1.107828 1.720671 0.67817 1.151346 1.092607 0.774325 1.743283 1.267522 0.962165 1.653963 0.568018 1.520966 0.801203 0.316242 1.157848 1.141318 1.3813 1.04848 1.134636 1.281992 1.266155 0.385519 0.798874 0.787634 1.154526 1.288571 1.643487 1.6611 1.213742 1.580592 1.095414 1.033786 0.55695 0.857209 1.133089 0.818789 1.261644 1.090739 2.29294 1.211472 0.48374 2.080102 1.608728 1.035444 1.687853 1.218579 1.610544 0.77681 1.52872 0.609012 0.878707 1.208612 1.107695 1.128178 1.339809 0.670244 1.094941 1.384548 0.655757 0.98993 1.504235 1.249321 1.310566 0.829502 0.521131 1.070891 0.827607 1.198752 1.348762 0.833929 1.385787 1.162956 1.142617 0.97494 1.21762 1.842632 1.732389 1.390508 1.188829 1.846197 0.495027 1.183829 0.232146 1.452428 0.981887 1.576458 0.996222 0.822764 1.572436 1.313265 2.012276 1.380494 1.784001 1.270662 1.733453 1.664196 1.005262 0.959841 1.520347 1.831307 0.505659 1.023775 1.078168 1.092909 1.339431 0.776743 0.598404 0.675101 0.990978 1.249449 1.525781 1.564217 1.481433 0.607544 0.960147 0.507344 0.291013 2.166604 1.424808 0.876684 0.794062 1.318767 1.383872 0.594295 0.861254 1.424406 1.66305 1.251678 1.140436 1.219415 0.821847 1.551851 1.697299 0.988762 0.942602 1.069817 1.121077 1.322441 0.509196 1.998913 1.114605 1.235576 1.498326 1.214348 0.42527 1.306432 0.947803 1.6601 0.798631 0.976693 0.549692 0.763296 0.531706 1.23566 1.13038 0.183419 0.607484 1.658157 1.376298 0.813833 0.243007 1.080088 1.430016 1.462493 1.482178 1.275169 0.278293 0.984231 1.920771 1.351564 1.225662 1.801001 0.985284 1.124803 1.55419 0.82345 0.977902 1.713079 1.331633 1.541389 1.379015 0.996549 0.806433 -0.011821 1.302402 0.947862 0.841808 0.522188 0.136622 0.638063 0.886496 0.383715 0.60136 0.941109 1.799938 0.502142 0.400832 1.32507 1.143696 1.446089 1.298894 0.853041 1.645393 1.066496 1.828235 1.484565 1.83597 0.290198 1.742454 1.107057 1.136345 0.927157 0.888779 1.378263 0.861882 1.435289 1.478391 1.257564 1.888575 1.310409 0.51707 0.802489 1.049697 1.128793 1.081144 1.569243 1.934013 0.753858 0.601051 1.022403 1.503347 0.870341 0.824117 1.719859 1.09501 2.047643 1.715304 0.814998 1.181677 1.73839 0.662356 1.90492 0.485777 1.446279 1.505402 1.468256 1.084823 2.029115 1.794301 1.49646 1.455315 1.324338 1.013259 1.676216 0.966156 1.190171 0.736504 1.271234 1.495521 1.001152 1.191558 0.95155 0.114493 1.872911 0.683082 1.587178 1.657741 0.537305 1.394468 0.840977 0.416262 1.496315 1.097197 1.701651 0.603988 0.802564 1.16917 1.564384 0.789168 1.464436 1.171635 1.731141 0.585781 1.199276 0.832751 1.525315 0.842263 1.6674 1.25885 1.319004 1.473423 1.160536 1.402833 1.547125 0.446202 1.02662 1.092364 1.065032 0.908849 1.638356 1.305778 1.5821 0.169128 1.884568 1.211309 0.532077 0.39247 0.869461 1.334247 1.333741 1.132854 1.137517 2.10639 1.239618 1.28857 2.383389 0.331766 1.227827 1.056204 1.533393 1.684005 1.194691 1.436615 0.307018 1.047051 0.418156 1.572525 1.603265 1.39019 1.255787 0.711961 0.112192 0.358931 0.78917 0.845288 1.817737 0.576922 1.123471 1.337921 1.956886 1.060661 0.881964 0.966744 1.359402 1.877534 -0.710801 0.602619 1.148982 0.887439 0.821454 0.873358 1.139325 1.422195 1.144953 1.340929 1.292811 1.577924 1.002254 1.38267 1.206256 1.187717 1.043936 0.430332 0.503401 1.360965 0.840684 1.351952 0.818843 2.034538 0.439663 0.670685 0.99122 1.179128 1.531439 0.682519 0.630488 1.229547 1.443837 0.859184 0.657327 1.455984 1.172665 1.074903 2.263759 1.138893 0.824624 1.050253 1.088516 1.029697 1.596779 1.116528 1.310912 0.145511 1.857898 0.695523 0.859024 0.842841 0.701618 0.751583 1.977336 0.682424 1.081005 1.911851 1.314606 0.432345 1.237462 1.13857 0.74124 1.151511 1.686568 1.502384 0.592542 1.741044 0.995499 1.380662 0.744956 0.676282 1.288868 1.303519 1.252237 1.869838 1.053729 0.952983 1.036874 1.252349 1.309325 0.567986 1.034144 0.524895 1.571423 0.879576 0.169362 0.65957 1.480449 1.271354 1.536037 1.126183 0.883649 0.921714 0.72951 0.79143 2.981664 1.64279 0.999912 1.966861 1.213762
Đ 0.26937 0.877232 0.037246 -0.082395 0.056865 -0.17361 0.062863 -0.192044 -0.082816 0.018115 -0.180518 -0.140083 -0.195698 -0.096563 0.130298 -0.316198 0.222867 -0.315091 -0.069282 -0.099992 -0.108673 -0.282481 0.703838 -0.462663 -0.384835 0.280983 -0.288032 0.195458 0.357001 0.361798 0.459601 -0.173414 -0.156551 0.107533 -0.040692 -0.190903 0.056511 -0.076152 0.161603 0.116399 -0.061534 -0.011897 -0.085847 0.268536 0.206667 -0.556876 -0.316108 -0.581722 -0.043682 0.399975 -0.295575 -0.363668 -0.048807 0.305912 0.253999 -0.085308 -0.05408 0.080941 0.4154 -0.038571 0.043201 -0.18579 0.189677 0.218502 0.388653 0.255024 -0.103176 0.445238 -0.111874 0.012926 -0.284027 0.175272 0.198116 -0.148512 -0.171981 0.177938 -0.339131 0.527215 -0.306446 -0.020544 0.38576 0.540923 0.251659 0.293462 -0.200417 0.366345 0.062206 -0.10297 -0.363824 0.228735 -0.395716 -0.702604 -0.076858 -0.081347 0.525354 0.029046 -0.066406 -0.093611 -0.067886 0.180996 0.130179 0.042933 -0.282967 0.048587 0.345581 -0.160806 -0.214141 0.274036 0.251068 -0.142995 0.543199 -0.054581 -0.234419 0.34946 0.038956 -0.282482 0.056186 -0.038115 0.21049 0.214983 -0.207945 0.369465 -0.134997 0.005483 -0.081518 -0.379069 0.236515 0.049473 -0.47419 0.11267 -0.021892 -0.713489 -0.025609 -0.156801 0.147616 -0.595864 0.124009 0.066799 -0.253491 -0.148028 0.394885 0.213115 0.179069 -0.049094 -0.027111 0.355221 0.303567 0.327871 -1.004571 -0.037084 -0.173255 0.336279 0.052743 0.079649 0.228534 0.147904 0.103161 0.054203 0.586798 0.344008 0.217653 -0.249713 0.581347 -0.055113 -0.118515 -0.158292 0.088327 0.131893 -0.210947 0.154376 0.3385 -0.259126 -0.304179 0.056308 -0.473827 0.264226 -0.551106 0.126149 0.387665 -0.307485 -0.144369 0.121803 -0.512804 0.175292 -0.624237 0.07212 -0.092512 0.245424 0.035259 -0.04818 0.120967 -0.24712 -0.088159 0.226214 -0.187233 -0.09448 0.075531 -0.1502 -0.436116 -0.183376 0.138218 0.088866 -0.124468 0.01571 0.048799 -0.205653 -0.137921 0.118895 0.937161 -0.039232 0.160176 0.073235 0.206266 0.120429 -0.03554 0.556516 -0.164143 -0.190304 -0.27677 -0.266205 -0.170306 -0.631234 -0.091562 -0.23831 -0.181268 -0.1665 -0.185689 0.029223 0.110586 0.388831 0.104338 -0.034901 -0.318173 -0.268994 -0.188259 0.072059 0.112993 -0.225343 -0.227371 -0.078029 0.136912 0.263157 0.292547 0.435537 0.025207 0.108719 0.426008 -0.067598 -0.199789 0.161133 -0.235989 -0.333543 0.415944 -0.088351 -0.010071 -0.431729 0.020882 -0.034027 -0.12942 -0.128411 0.267362 -0.10691 -0.643711 -0.346916 0.061447 0.391851 0.066631 -0.280715 -0.120979 0.383715 0.663053 0.246207 -0.022113 -0.009701 -0.316236 -0.070915 0.311544 0.599084 0.134623 0.016944 -0.209064 0.226131 -0.061608 -0.118894 0.344891 0.086036 0.243037 0.138772 -0.220828 -0.982217 0.190667 0.295804 0.166301 0.470199 -0.106849 0.19246 -0.190613 0.316617 0.183197 0.110203 -0.04589 0.121824 -0.276032 -0.015886 0.188431 0.25769 -0.344778 -0.082865 -0.152432 -0.067771 0.11703 0.150461 -0.063684 0.464585 0.060334 0.162663 0.028568 0.432227 -0.122759 -0.123513 0.052346 -0.045638 0.188123 0.490903 0.477832 -0.079222 0.054988 0.061135 -0.226474 -0.176507 -0.229637 0.069464 -0.096896 -0.029888 -0.34905 -0.036273 -0.504364 0.167805 -0.060338 0.210566 0.185479 -0.101308 -0.096322 0.107539 -0.27008 0.106672 0.328014 0.627453 0.069644 0.039286 0.298918 0.236959 -0.200735 -0.1607 0.299763 0.019211 0.050566 0.465268 0.347262 0.209042 0.069667 0.209553 0.009827 0.102585 0.298972 0.008257 0.211365 0.319315 -0.979935 -0.248609 0.166698 0.025328 -0.220927 -0.215617 -0.450909 -0.00434 0.1663 -0.647535 -0.155601 0.086237 0.3502 0.196569 0.30952 -0.085131 -0.338406 -0.049299 -0.366135 0.138879 0.11307 -0.008002 0.342526 -0.335204 -0.126785 0.155033 0.315907 -0.057776 -0.274146 -0.277681 -0.148313 -0.365928 -0.381347 0.08419 -0.269266 0.147005 -0.048727 0.284136 0.106512 -0.152855 0.304398 -0.342162 0.16598 -1.189468 0.055686 0.114744 -0.097553 -0.116988 -0.354437 0.473007 0.184159 -0.539747 0.13451 -0.16107 0.443137 -0.260055 0.186365 -0.180145 0.297671 -0.392704 0.444092 -0.073727 0.327606 0.025313 0.074242 0.225897 0.279505 0.257982 -0.060005 -0.131063 0.112336 0.031974 -0.142325 -0.044603 0.370918 -0.281494 -0.120512 0.13904 0.111964 0.261495 0.073956 1.070403 0.241436 -0.209983 0.197011 0.551499 0.047338 0.356584 -0.308249 -0.518801 -0.11465 0.394868 0.48799 0.168478 -0.153132 0.007793 -0.198301 -0.208351 0.009858 -0.138842 0.334493 0.513862 0.1057 -0.328275 0.355357 -0.014903 -0.359031 0.121863 -0.361242 -0.904539 0.037457 0.182073 0.28689 0.066554 -0.330686 -0.381904 0.375314 0.566716 0.309231 0.444733 -0.110659 0.018601 0.540026 -0.129786 -0.000603 0.16562 -0.082319 0.119015 -0.312597 -0.133088 -0.045168 -0.143862 -0.206802 0.568814 -0.199318 -0.057057 -0.308178 -0.04968 0.298277 2.345111 -0.230271 -0.15889 0.344906 -0.19675 -0.064704 0.466198 -0.140716 0.415868 -0.070591 -0.030492 0.12803 0.08123 0.033684 -0.19785 -0.457549 -0.139665 -0.030114 0.236721 0.049935 -0.344299 -0.139556 0.116192 0.243163 -0.068872 -0.361656 0.316494 0.457948 -0.672521 -0.067512 0.091146 0.07965 -0.045478 0.385143 0.578964 0.688959 -0.062643 0.244907 0.388357 -0.571486 -0.64772 -0.186195 0.295146 0.345352 -0.080755 0.008559 -0.165635 0.31528 0.829917 0.575635 -0.385093 -0.254106 -0.121065 -0.004205 -0.02011 -0.39639 0.146246 -0.035729 0.07512 -0.018321 -0.689442 -0.40974 -0.534187 0.500745 0.230822 -0.136251 -0.499224 0.610429 0.080825 0.232556 0.006371 0.247542 0.151322 0.013794 -0.141267 -0.275659 -0.081982 0.534263 -0.073733 -0.432524 0.745388 -0.060251 0.161882 0.025971 -0.164578 0.511854 -0.117081 1.018115 0.039345 0.174992 -0.091897 0.093438 -0.226129 -0.506567 0.013296 -0.25137 -0.110133 -0.052395 -0.066735 0.308065 -0.039051 0.392777 0.374904 -0.190621 0.056506 0.318755 0.51631 -0.458406 0.408323 0.634132 -0.063765 0.143169 0.152842 0.291462 -0.349126 0.058757 0.019209 -0.238706 0.217018 -0.201905 -0.355734 -0.300411 0.14829 0.479263 0.402912 0.029063 0.077497 0.19317 0.276534 -0.474972 -0.560362 -0.041719 0.031204 -0.180441 -0.158185 -0.254259 -0.207992 0.089264 -0.331362 -0.31471 -0.456851 -0.458591 0.207183 -0.207621 0.169668 0.599397 0.442044 0.686441 0.205841 -0.485701 0.730167 0.158447 -0.00577 -0.490575 -0.298963 -0.338517 0.200499 0.429059 0.035737 -0.596817 0.377663 0.026798 -0.079095 0.52682 0.013465 -0.182257 -0.527017 0.175828 0.281253 0.181292 0.100824 0.189284 -0.157079 0.028905 0.160321 0.073304 -0.356741 -0.516929 0.053106 -0.396691 0.331749 -0.770424 0.412611 0.235629 -0.496592 0.088416 0.140803 -0.322825 0.483674 -0.224393 0.09656 -0.329432 -0.191829 0.032482 0.252216 -0.200388 0.103975 -0.03646 -0.227997 0.210389 -0.256945 -0.040182 -0.035543 -0.390905 -0.031483 0.483084 0.220822 0.069307 -0.055128 -0.006389 0.23262 -0.13311 -0.273616 0.577668 0.325236 0.14302 -0.020215 0.330885 0.650629 -0.28008 0.12124 -0.254477 -0.044204 -0.543011 -0.295652 0.306738 -0.314734 -0.262023 0.043836 -0.254743 -0.321244 0.09044 0.029837 -0.288753 0.19317 0.079933 -0.098076 -0.393844 0.153239 0.177393 0.132735 -0.32674 -0.226029 -0.405203 -0.332479 0.013816 0.548038 -0.075117 0.43315 -0.144634 -0.202781 0.283854 0.308626 -0.530394 -0.091036 -0.157093 -0.282676 -0.028729 0.312874 -0.234737 -0.350026 -0.112818 0.179998 -0.13735 -0.309431 -0.199816 0.080511 -0.300848 -0.217824 0.318613 0.385692 -0.292777 -0.398242 0.069252 0.426211 0.250365 0.196438 -0.182382 -0.155004 -0.251283 -0.399935 0.336354 0.386983 -0.332404 0.050468 -0.063037 0.169495 -0.164917 0.023731 0.707809 0.175139 0.067964 0.0422 -0.105736 -1.288262 -0.190596 0.150795 -0.32843 0.034663 -0.043664 0.123567 0.06211 -0.174705 -0.005033 -0.124861 -0.056241 0.267304 -0.332961 0.224068 -0.010958 0.534732 -0.410883 0.069827 -0.272715 -0.001031 0.281245 0.100805 -0.067668 0.40747 0.749665 0.105435 0.460096 -0.157523 -0.008267 -0.486571 -0.07078 -0.109677 -0.050383 0.617505 0.649289 -0.708332 0.383493 0.291187 -0.138362 0.182594 0.102717 0.464273 -0.294379 0.189904 -0.371312 0.340791 -0.363246 0.302695 -0.111014 0.212017 -0.224306 0.217107 0.00412 -0.105384 0.254398 0.239332 0.525501 0.611264 -0.131772 -0.507297 0.031458 0.060216 0.044419 -0.125758 0.29953 0.062126 0.693375 0.41389 0.612276 -0.237371 0.233191 0.221906 0.246444 0.192124 0.514729 0.073635 0.031833 0.094387 -0.633253 0.255659 0.262491 0.000315 -0.250251 -0.527551 -0.562259 -0.363806 0.088673 -0.26105 -0.181914 -0.192351 0.630788 0.448451 0.128733 0.035973 -0.687431 -0.527997 -0.069797 0.034148 -0.164283 -0.208007 0.351014 -0.010396 0.177141 0.329365 -0.059698 0.387232 -0.042068 -0.212796 -0.358804 -0.601241 -0.660205 -0.284926 -0.309895 0.276872 0.388012 0.000626 -0.291088 -0.248229 0.933937 -0.347033 -0.025669 -1.879787 0.106598 0.435155 -0.388736 0.341727 -0.612995 0.131878 -0.284011 -0.798505 0.74361 -0.175258 0.415429 0.034483 0.184836 0.228212 0.504371 -0.046889 0.030056 -0.299972 0.273535 0.224719 -0.646187 0.2972 0.670435 0.27063 -0.261567 0.117081 -0.069619 0.166564 0.326237 -0.391055 0.453774 -0.617613 -0.523484 0.190529 0.583123 -0.016477 0.030042 1.160374 -0.137926 -0.720633 0.144422 0.234546 0.488092 0.351275 -0.413964 -0.473888 -0.351783 0.199435 0.456925 -0.399064 -0.253676 -0.173403 0.172828 -0.457901 -0.080061 -0.241903 0.375042 0.136162 -0.395358 -0.343026 0.610271 -0.150786 -0.399275 0.526083 -0.258645 -0.872198 0.207168 0.274684 0.100042 -0.173538 -0.101323 -0.12228 0.50736 0.426316 -0.267987 0.753903 0.153643 -0.011105 0.042308 0.21542 0.082393 0.043755 -0.152155 0.003146 -0.31002 -0.257077 -0.038539 -0.390607 -0.244348 0.534957 -0.527916 0.072935 0.135191 0.124678 0.118037 2.136953 -0.269937 -0.447505 0.093251 -0.25456
ó 0.096387 0.016796 0.12103 0.003489 0.047603 -0.161483 0.018924 -0.318772 0.138418 -0.153722 -0.173189 -0.01959 -0.074765 -0.078295 0.125941 -0.316168 -0.09389 -0.206958 -0.328883 -0.481057 0.026672 -0.061409 -0.116012 -0.171235 -0.080245 0.142504 -0.213066 0.012875 0.12013 -0.245025 0.187362 -0.116188 0.234936 0.095043 0.289341 -0.433928 0.112526 -0.360808 0.333432 -0.054961 -0.034495 0.118768 -0.165285 0.435222 0.262668 -0.275581 -0.077365 0.258649 0.000881 0.158213 -0.416214 -0.077284 -0.03674 0.200883 0.000202 -0.025812 -0.094189 0.000932 0.091671 -0.245773 0.385574 -0.009737 0.076582 0.147312 0.012553 0.441195 -0.065895 0.300863 0.085057 0.046982 -0.597633 0.095855 0.001586 0.083815 -0.182724 0.108293 -0.44991 0.275993 -0.167918 -0.4172 -0.022268 0.074059 0.12488 -0.042932 0.19195 0.202829 0.052161 0.038178 -0.325271 0.098929 -0.319247 -0.250367 0.101715 -0.050117 0.495582 -0.334854 -0.150493 0.076974 -0.088724 0.213825 0.300049 -0.172274 -0.148175 -0.259316 0.122212 0.178422 -0.458155 0.473938 -0.169903 -0.267597 0.318453 -0.188491 -0.099135 0.421851 0.216191 -0.513232 -0.060057 0.117279 0.072494 0.206502 -0.191442 0.340607 0.003366 0.61528 -0.451823 -0.26446 0.046014 0.063652 -0.434139 -0.272954 0.056085 -0.031373 -0.15508 -0.127199 0.022973 -0.665373 -0.487331 0.041907 -0.100713 -0.095358 0.228295 -0.146273 0.121594 -0.113435 0.054612 0.414668 -0.059845 -0.243899 -0.805135 0.128988 -0.221278 0.018342 0.090584 -0.068245 0.211061 0.203571 -0.126176 0.309059 0.127763 0.29621 -0.115587 -0.193534 0.470958 -0.199272 -0.041561 -0.085975 0.103873 0.118719 0.057182 -0.053485 0.147736 -0.011201 0.089238 0.259249 0.207777 -0.14868 -0.086667 0.506078 0.399777 -0.159998 -0.045412 0.591538 -0.603211 0.297061 -0.373546 0.152636 -0.119121 -0.009918 0.342648 -0.099328 -0.08467 -0.182147 -0.17308 0.179491 -0.137644 0.080867 0.337208 -0.214708 -0.161691 -0.039619 0.245463 0.19766 0.000922 0.106114 0.013313 -0.206591 -0.125968 -0.024204 1.087975 0.002316 0.438867 0.334882 0.124478 0.05323 0.121784 0.194105 -0.050632 -0.669133 -0.304102 -0.412329 -0.264372 -0.518756 0.285955 0.254445 0.318031 -0.226925 -0.181719 0.117809 0.25925 -0.427865 -0.327529 -0.04249 -0.217518 -0.160558 -0.169182 0.126229 -0.133917 -0.107848 -0.218205 0.37274 0.155369 0.387801 0.197771 0.21093 0.267664 -0.150293 0.228226 -0.508133 -0.424596 -0.509568 -0.279166 -0.299446 0.283407 -0.011312 0.267989 -0.40414 -0.013754 -0.339424 -0.022161 0.480187 0.041834 0.240829 -0.132309 -0.322665 0.219002 0.15252 0.278806 -0.113214 -0.062451 0.012213 0.548887 -0.054761 -0.099712 -0.548914 0.144185 -0.147365 0.021705 0.050558 -0.188031 0.130808 -0.369047 -0.038938 -0.04355 0.324339 0.14785 0.311707 -0.199314 -0.220962 -0.09647 -0.24831 0.341126 0.317356 -0.317767 -0.023593 -0.369321 0.289106 -0.642402 0.061872 0.084559 0.145684 0.01091 -0.177177 -0.332047 0.235742 0.380866 -0.161972 -0.044529 0.063369 -0.152566 0.028327 -0.102027 0.124517 -0.080192 0.150604 -0.073601 -0.364261 0.519757 0.523379 -0.324412 0.052972 0.16008 0.38297 0.119245 0.198624 0.026 0.035367 -0.19195 -0.095711 0.34397 -0.108006 0.072624 0.168917 -0.003511 -0.157481 -0.218711 -0.038118 -1.694506 0.116356 -0.185433 -0.169746 0.026093 -0.157508 0.374697 0.01007 -0.106815 -0.091318 0.292131 0.107624 -0.28831 0.127458 0.111176 -0.036244 -0.001545 0.217534 0.038213 -0.032403 0.146594 0.141332 -0.045276 -0.025038 -0.036369 -0.131087 -0.200612 0.058265 -0.054428 -0.583548 -0.370781 0.093845 -0.861157 0.034002 0.100007 0.259748 -0.226867 -0.230646 -0.268215 -0.25448 0.079607 -0.823226 0.043105 0.064163 0.211033 0.02633 -0.008514 -0.129298 -0.154758 -0.156265 -0.080321 0.055741 0.112583 0.065261 0.262816 -0.293151 -0.061707 0.276644 -0.025583 -0.244042 -0.07565 -0.039214 -0.405559 -0.276726 -0.170672 0.038711 0.064635 0.227893 0.154626 0.441477 0.083621 -0.087639 0.389324 -0.019899 0.279358 -1.427852 0.1357 0.199961 -0.454246 0.038251 0.003453 0.399775 -0.059487 -0.049577 -0.302033 0.147408 0.19378 -0.196173 0.009135 0.050473 0.1962 -0.153429 0.22939 0.209211 0.378648 0.249259 0.005907 0.310855 0.239075 0.163721 -0.045723 -0.36001 0.291302 0.080832 0.033931 -0.182547 0.218789 -0.292155 -0.001673 -0.245065 -0.096929 0.32385 0.372973 1.181719 0.274602 -0.293601 -0.021747 0.199642 -0.233139 0.144493 0.093376 -0.175031 -0.068631 0.034674 0.439266 -0.1393 -0.279653 -0.049588 -0.145454 0.339834 0.221622 -0.165314 0.131234 0.201898 0.042575 -0.35083 0.09857 0.074893 -0.228289 -0.012584 -0.240116 0.030019 0.341239 -0.106089 0.307743 0.032352 -0.19495 -0.229639 0.290134 0.223003 0.131995 0.07833 0.238821 -0.034913 0.607584 -0.221543 0.033166 0.041197 -0.189446 -0.333475 -0.033495 0.032876 0.009926 0.246146 -0.164733 0.18599 0.030481 -0.145771 -0.125668 -0.01404 0.268165 2.46083 -0.077505 -0.064219 0.212868 -0.137879 -0.158434 0.15581 0.006801 -0.052991 -0.080148 -0.183849 -0.114743 0.026529 0.109697 -0.476814 -0.149051 -0.061159 0.040889 -0.129638 0.066161 -0.086208 -0.157447 -0.202307 -0.068474 -0.63465 -0.091149 -0.083884 -0.083937 -0.091527 -0.028341 -0.111562 -0.148793 0.066993 0.379442 0.26394 -0.054114 0.093189 0.354969 0.483759 -0.001608 -0.3379 0.105917 -0.214078 0.297732 -0.084465 -0.040194 -0.142299 -0.070518 0.322559 0.581838 -0.244042 -0.136833 0.116763 -0.034543 0.125232 -0.133994 -0.136189 0.183914 0.272595 0.127561 -0.505041 -0.339388 0.12324 0.025698 -0.186454 0.157944 -0.117071 0.131343 -0.098249 0.151134 0.292158 0.047165 0.298688 -0.103285 0.162834 -0.495595 -0.059628 0.057158 0.163476 -0.090198 0.410051 -0.181464 0.095818 -0.019847 -0.064059 -0.050833 -0.277114 0.17204 0.310116 0.272837 -0.047546 -0.081526 -0.032642 -0.242813 -0.094092 -0.195452 -0.010468 -0.018502 -0.22206 0.787953 -0.223242 0.177208 0.171231 -0.20725 0.314467 0.385146 -0.016566 -0.412991 -0.22234 0.43397 -0.050823 -0.234826 0.375338 -0.198409 0.080255 0.289322 -0.236127 -0.155934 0.304264 0.19887 -0.543876 0.045844 0.006975 0.099719 0.047105 -0.014366 0.293899 -0.018564 0.510896 -0.485839 -0.206908 0.065313 0.226979 -0.184634 -0.301918 0.095421 0.045528 0.092946 -0.38418 -0.257467 -0.677609 -0.525358 -0.226398 -0.131023 -0.075696 0.168829 -0.158063 0.219872 -0.162779 0.200209 0.5835 -0.096841 0.032111 -0.706382 -0.017017 -0.037919 -0.255592 0.226155 -0.029651 0.053835 0.383927 -0.055507 -0.08347 0.224376 0.277346 -0.192582 -0.169089 0.37104 0.047057 0.128513 -0.131329 0.343473 0.176354 0.426707 -0.045748 0.170717 0.046101 0.142276 0.275294 -0.252061 -0.129566 -0.355969 0.448674 0.093876 -0.214393 0.348446 0.262842 -0.738216 0.382447 -0.20346 0.547388 -0.116444 -0.077307 0.234034 0.138606 -0.129104 0.126858 -0.069922 -0.197571 0.121696 0.128624 0.27537 -0.179474 -0.155017 -0.141566 0.37935 0.190545 0.014075 0.182063 -0.10153 -0.010271 -0.288382 -0.148765 0.774889 -0.056493 0.393142 0.3114 0.206131 -0.029394 0.225012 0.366202 -0.157384 -0.38572 -0.375845 -0.274932 0.006793 -0.658436 0.351366 0.020549 -0.026204 -0.304948 -0.173854 -0.115348 0.255475 -0.165482 -0.449996 -0.179541 -0.24664 -0.037373 -0.147931 0.026777 -0.150481 -0.106796 -0.312748 0.275579 0.208173 0.405042 -0.066322 0.27839 0.113846 -0.124631 0.144906 -0.224314 -0.438557 -0.692668 -0.084587 -0.379983 0.012341 0.338191 0.145518 -0.40453 -0.254295 0.111151 -0.338771 -0.021024 0.146748 0.376801 -0.061786 -0.326226 -0.219482 0.118215 0.167214 -0.000192 -0.217156 0.154717 0.260555 -0.146757 -0.016997 -0.37808 0.106352 -0.035382 0.078237 0.287242 -0.047587 0.021529 -0.26302 -0.249441 0.040388 0.166563 -0.067249 0.322254 -0.152864 -0.2019 0.189763 -0.721567 0.174862 0.162761 -0.410541 -0.135276 -0.142918 0.225653 -0.25942 -0.022412 0.303825 -0.175284 -0.067224 0.289464 -0.36332 0.154668 0.395424 0.061086 -0.346049 0.115441 -0.145003 -0.070921 0.151562 -0.105741 0.072615 0.239974 0.115863 -0.321833 0.495876 0.401346 -0.436105 -0.209951 0.230043 0.1872 0.158606 0.275444 0.044932 0.189161 -0.154237 -0.224595 0.180254 -0.006272 -0.110421 0.39049 0.086803 0.189858 -0.174791 0.087113 -0.76526 0.172248 -0.162684 0.208943 -0.065995 0.048499 0.576069 -0.150825 -0.128333 0.052918 0.258023 0.164709 -0.138034 -0.001774 0.355393 -0.18479 -0.038209 0.099132 0.096354 -0.12491 0.375498 -0.116684 0.45605 0.035263 0.042717 0.238944 -0.345412 0.06436 0.147075 -0.323693 -0.171655 -0.180498 -0.785222 0.093869 0.006514 0.109304 -0.228722 -0.408644 0.02377 -0.279032 0.060554 -0.365893 0.059328 0.055171 0.029503 -0.065375 -0.158439 0.144752 -0.061325 -0.32255 -0.178297 0.38951 -0.070299 0.292102 0.205845 -0.214594 0.129217 0.470524 0.050599 0.103279 0.318804 -0.166572 -0.222219 -0.336167 -0.605058 -0.106255 -0.199436 0.126589 0.361963 0.238428 -0.056298 -0.071297 0.254806 -0.027764 0.000666 -2.158876 0.142348 0.304846 -0.464723 -0.23669 0.079748 0.132423 -0.012221 -0.147867 -0.289024 -0.133287 -0.032567 -0.104881 0.001801 -0.18692 0.160103 -0.173733 0.144445 0.249585 0.088464 0.212751 -0.285284 -0.021084 1.889132 0.088537 -0.139764 0.04199 0.149869 -0.242435 -0.0741 -0.52113 0.273279 -0.130759 -0.157984 -0.103488 0.098352 -0.034945 0.384965 1.441348 0.016114 -0.401322 -0.217131 0.108478 0.056857 0.234247 0.006888 -0.103186 -0.089892 -0.041919 0.303612 -0.128089 -0.484986 -0.225489 0.061356 0.194835 0.087374 -0.037751 0.185309 0.082614 -0.045804 -0.446824 0.006849 0.026045 -0.119578 0.256723 -0.21478 0.040823 0.220734 0.199297 0.235201 -0.25265 0.042348 -0.084133 0.365613 0.012795 0.130603 0.375404 0.003613 0.017954 0.406964 -0.123705 0.174543 -0.085929 -0.023109 -0.21072 -0.060095 0.239314 0.080268 0.100609 -0.311529 0.238863 -0.221156 0.036595 -0.041564 0.290768 0.230361 1.803482 -0.043236 -0.11969 0.135944 -0.019421
l 0.184414 0.21009 0.013526 0.052316 0.115074 -0.071978 0.031367 -0.104995 -0.069923 0.03479 -0.119779 0.010535 -0.235225 0.059526 0.184828 -0.224787 0.018328 -0.254857 -0.247659 -0.305457 -0.10043 -0.041066 0.078504 -0.252174 -0.125026 0.117609 -0.121731 0.192046 0.042466 -0.099033 0.296464 0.021931 0.124107 0.019946 0.079518 -0.156732 0.090208 -0.39327 0.358812 -0.030267 -0.012948 0.17183 -0.258274 0.410962 0.246735 -0.479306 -0.015958 0.156454 -0.000167 0.326719 -0.42103 0.009085 0.144637 0.016081 -0.010318 -0.108634 -0.117064 0.167334 0.248955 0.012924 0.303673 -0.112679 0.051525 0.049829 -0.055188 0.479198 0.030955 0.227685 -0.046987 -0.156592 -0.562605 0.1561 0.143898 0.136418 -0.130216 0.10128 -0.318987 0.319224 -0.073117 -0.246829 0.003294 0.343205 0.022857 0.076375 0.116033 0.13883 -0.090355 -0.166069 -0.397917 0.056918 -0.318672 -0.211233 -0.043053 -0.118798 0.586792 -0.084319 -0.284921 0.1044 -0.295767 0.095449 0.327695 -0.200845 -0.176538 -0.008095 0.198049 0.087734 -0.414886 0.297972 -0.366432 -0.241198 0.391281 -0.003674 -0.133724 0.314919 0.117701 -0.407125 0.103083 0.039796 0.153803 0.214419 -0.233916 0.208683 -0.151866 0.41734 -0.533275 -0.208972 0.090493 -0.054928 -0.394044 -0.137518 -0.164216 -0.176307 -0.260282 -0.021811 0.126109 -0.734539 -0.372082 0.101798 -0.212293 -0.091729 -0.016849 0.056182 0.179436 -0.035669 0.178517 0.229134 -0.13011 -0.204241 -0.825524 0.141641 -0.169794 0.020714 -0.01038 0.202343 0.203932 0.295143 -0.115967 0.32571 0.128046 0.335754 0.086657 0.152804 0.380207 0.068568 0.087298 -0.127106 -0.05008 -0.015371 -0.120099 -0.045 0.345032 -0.130918 0.113479 0.35034 -0.004348 -0.097535 -0.129623 0.253804 0.369418 -0.185142 -0.049172 0.320259 -0.61216 0.263539 -0.438229 0.168013 0.072255 0.075377 0.226653 -0.119437 -0.221412 -0.254065 0.008877 0.046887 -0.023705 -0.115742 0.254784 -0.108347 -0.222885 -0.018265 0.332643 0.183902 0.007828 0.05275 0.104887 -0.269275 -0.113562 0.114959 0.977224 -0.062369 0.262581 0.168075 -0.165197 0.164758 0.145575 0.144144 0.126425 -0.321507 -0.343898 -0.320815 -0.073599 -0.559443 0.221171 0.174694 0.336263 -0.104199 0.001464 0.095853 0.212023 -0.168438 -0.328342 -0.085292 -0.293215 -0.233178 -0.125861 0.172579 -0.093378 -0.058375 -0.203242 0.287201 0.092213 0.384018 0.087283 0.139888 0.156221 -0.197411 0.226271 -0.433065 -0.332458 -0.373813 -0.292524 -0.300092 0.306032 -0.116047 0.305396 -0.274003 -0.070937 -0.324402 -0.012801 0.406178 -0.147092 0.169267 -0.204624 -0.176157 0.323765 0.149608 0.234963 -0.186813 -0.047667 0.102856 0.554069 0.048894 -0.136776 -0.41016 0.043859 -0.224318 0.021365 0.10071 -0.061816 0.180949 -0.169168 0.075701 0.00843 0.27206 0.219494 0.110102 -0.234134 -0.155511 -0.027436 -0.302578 0.157494 0.283377 -0.101439 0.16687 -0.170111 0.491981 -0.466109 0.113692 0.025957 0.179734 0.078035 -0.106236 -0.230595 0.240481 0.34151 -0.153975 0.017381 0.027651 -0.174258 -0.025657 0.105655 0.048446 -0.298861 0.318446 -0.059143 -0.193815 0.350508 0.378739 -0.128099 0.071701 -0.090352 0.392152 0.088298 0.011348 -0.153609 -0.041738 -0.343239 0.025764 0.184302 -0.262016 0.038461 0.162301 0.022442 -0.055599 0.01545 -0.139017 -1.688217 0.07304 -0.124063 -0.221121 0.012781 -0.032345 0.258587 0.043265 -0.168509 -0.014072 0.296579 0.013794 -0.214112 0.008761 -0.132798 0.198487 0.025457 0.133532 0.13733 0.018519 -0.01778 0.088705 -0.08739 0.014323 0.027901 0.001876 -0.1435 0.151165 0.010042 -0.528745 -0.259661 0.14772 -0.829698 -0.009285 -0.017766 0.20342 0.045634 -0.053709 -0.413879 -0.084449 -0.140538 -0.651487 -0.115615 0.063486 0.222875 -0.006417 0.027269 -0.190544 -0.054755 -0.171828 -0.187756 -0.196848 -0.072768 0.048498 -0.028776 -0.248187 -0.018296 0.22457 -0.055655 0.003979 -0.089106 0.052449 -0.279982 -0.237328 -0.140584 0.226064 -0.163318 0.242277 0.199082 0.424833 0.175343 -0.080678 0.330099 -0.016142 0.225502 -1.43979 0.110862 0.280676 -0.113191 0.034628 -0.223848 0.398514 -0.053265 -0.202866 -0.135427 0.068008 0.289947 -0.1928 0.304013 -0.016061 0.261933 -0.129057 0.278258 0.186393 0.356929 0.070061 -0.067821 0.061202 0.362915 0.107013 -0.119833 -0.366481 0.034262 0.06095 0.056096 0.070093 0.203176 -0.180838 0.02392 -0.213582 -0.027524 0.299136 0.125726 1.18777 0.263033 -0.180498 -0.103429 0.248375 -0.035553 0.234121 0.007078 -0.237709 -0.026104 0.319499 0.373579 0.036231 -0.242924 -0.030602 -0.194198 0.022199 0.28385 -0.074647 0.048929 0.148381 0.103455 -0.257208 0.220941 -0.004797 0.001151 -0.11005 -0.180311 0.099175 0.045473 -0.258432 0.256023 0.05769 -0.254395 -0.289948 0.189129 0.29707 0.21481 0.133587 0.134823 0.013104 0.361399 -0.260094 0.046049 0.058612 -0.164782 -0.154559 -0.043636 -0.126229 -0.004037 0.128832 -0.040674 0.177435 -0.080403 -0.253495 -0.112285 -0.032447 0.285898 2.32645 -0.047719 -0.208315 0.268567 -0.032231 -0.078527 0.068572 -0.018319 0.082332 -0.074574 -0.034885 -0.024988 0.155256 0.007752 -0.443913 -0.213975 0.029177 0.01995 0.093122 0.043275 -0.04721 -0.072103 -0.297123 0.108377 -0.422772 -0.147654 -0.005656 0.014716 0.008178 -0.12609 -0.100612 -0.161163 0.135704 0.227293 0.10544 0.105804 0.120268 0.145672 0.198409 -0.13192 -0.267447 0.180953 -0.252648 0.288498 -0.043885 -0.064035 -0.109274 -0.214458 0.15159 0.381424 -0.149285 0.028008 0.073189 0.055074 0.193937 -0.229356 0.012651 0.173244 0.122957 0.149009 -0.478125 -0.370794 0.071295 0.205186 0.014982 0.129665 -0.025182 -0.057745 -0.029805 -0.095582 0.167442 0.212434 0.237094 -0.146562 -0.012868 -0.37113 0.015457 0.137277 0.168684 -0.106707 0.253954 -0.086384 0.033976 -0.099121 -0.022041 -0.023506 0.055623 0.119642 0.329568 0.086766 -0.042365 -0.048228 -0.128792 -0.296139 -0.029582 -0.248629 0.049626 -0.102419 -0.219811 0.877417 0.098561 -0.032833 0.169882 -0.232251 0.024997 0.343581 -0.074877 -0.355794 -0.029205 0.45216 -0.053376 -0.194686 0.236193 -0.342178 -0.078751 0.203385 -0.140394 -0.156197 0.10773 0.103286 -0.285124 0.181335 -0.02833 0.24072 -0.137335 -0.149803 0.17146 0.038697 0.274235 -0.48252 -0.09686 0.189551 0.15233 -0.163952 -0.31371 -0.051662 -0.175618 -0.081417 -0.323953 -0.191368 -0.82651 -0.38771 -0.164799 -0.16245 -0.114965 -0.001734 0.0066 0.260735 -0.111073 0.193401 0.409431 -0.241258 -0.039011 -0.660972 -0.058659 -0.064147 -0.221351 0.13874 -0.05993 0.044409 0.401242 -0.061457 -0.05557 0.19092 0.279226 0.050847 0.124886 0.12133 0.29585 0.327323 -0.167434 0.248639 0.212304 0.092015 0.001122 0.202097 -0.065265 0.183904 0.335917 -0.346276 -0.074027 -0.201602 0.324066 0.11008 -0.248682 0.341785 0.080992 -0.733904 0.447587 -0.196498 0.391103 0.098991 0.003668 0.281661 0.144668 -0.219537 0.050613 -0.004901 -0.202625 0.194423 -0.158583 0.222234 -0.086472 -0.133049 -0.037019 0.392863 0.178186 -0.028567 0.045495 -0.100964 -0.158579 -0.15576 -0.008831 0.752155 0.050842 0.210436 0.142789 0.029424 -0.016761 0.188028 0.305712 0.055503 -0.247371 -0.325816 -0.337333 0.235736 -0.75918 0.254494 -0.088401 0.089592 -0.212457 -0.06225 -0.085416 0.128708 -0.013292 -0.338996 -0.159962 -0.292581 -0.172641 -0.111145 0.00462 -0.230995 -0.05003 -0.274475 0.183803 0.080673 0.356774 -0.053629 0.267403 0.128598 -0.039889 0.080613 -0.165551 -0.33578 -0.56837 -0.041138 -0.23707 0.021796 0.194442 0.348505 -0.151796 -0.263693 0.184952 -0.196867 0.077225 -0.032499 0.311271 -0.091203 -0.240523 -0.026412 0.168271 0.180566 -0.087033 -0.328912 0.130647 0.27981 -0.083909 0.091262 -0.254486 0.170912 -0.203054 0.060534 0.215351 0.037877 0.093536 -0.011202 -0.092102 0.028996 0.14219 0.116882 0.105672 -0.137955 -0.122138 0.223189 -0.623833 0.056857 0.143971 -0.269594 0.092388 -0.067747 0.340395 -0.101984 -0.119758 0.052309 -0.012382 -0.056859 0.286864 -0.263185 0.184958 0.3558 0.019293 -0.216379 0.095996 -0.154232 0.082652 0.213626 -0.118927 -0.038589 0.387597 0.034719 -0.003216 0.318944 0.283949 -0.213092 -0.24093 -0.039982 0.053228 0.129559 0.211216 -0.051652 0.101241 -0.154322 -0.090032 0.113123 -0.245411 -0.108927 0.335564 0.056462 0.023919 -0.023216 0.004224 -0.85339 0.286357 -0.076483 0.087184 -0.036496 0.282527 0.402104 -0.104443 -0.243671 -0.006399 0.207578 0.177415 -0.028292 -0.144301 0.236836 0.029295 -0.080055 0.015788 0.201697 -0.038906 0.284989 -0.082184 0.435983 -0.013511 0.077708 0.276636 -0.276031 0.0884 0.157031 -0.246548 -0.120234 -0.063267 -0.804509 0.06347 -0.07173 0.048069 -0.084444 -0.12226 -0.097311 -0.247316 -0.030052 -0.341781 -0.05054 -0.046309 0.078214 0.012462 -0.036219 0.019072 -0.06846 -0.200404 -0.289469 0.043398 -0.173541 0.288316 -0.025747 -0.074924 0.077478 0.397974 -0.085013 0.217456 0.252758 -0.016767 -0.230658 -0.366265 -0.468506 0.130544 -0.210676 0.080886 0.380007 0.208271 -0.032494 -0.030539 0.2433 -0.079974 -0.054149 -2.193167 0.152023 0.377119 -0.174983 -0.157325 -0.129232 0.042437 -0.110329 -0.144345 -0.177322 -0.113008 0.042542 0.0073 0.12831 -0.260683 0.20954 -0.071427 0.161545 0.26873 0.17996 -0.061155 -0.260781 -0.04988 1.850014 0.163417 -0.175655 -0.01487 -0.159149 -0.140109 0.027438 -0.142489 0.262302 -0.111807 -0.032928 -0.142353 0.248196 0.021817 0.046769 1.410256 0.138861 -0.264243 -0.237908 0.258286 0.302466 0.29636 -0.085791 -0.125663 -0.058427 0.262179 0.246639 -0.095039 -0.476634 -0.146613 -0.220873 0.048349 0.240899 -0.125302 0.207883 0.179836 -0.082706 -0.299896 0.077404 -0.064213 0.06014 0.1701 -0.171855 0.107794 -0.027044 -0.048571 0.267355 -0.202758 -0.029194 -0.019932 0.245067 0.104222 0.146734 0.150216 -0.090748 0.170886 0.261899 -0.128853 0.117752 0.078918 0.033047 -0.095658 -0.075467 0.010439 0.168443 0.120257 -0.243213 0.156569 -0.223728 -0.022444 0.002161 0.163653 0.170441 1.667986 -0.100138 -0.072053 0.122491 0.028311
à 0.094693 0.337338 -0.066946 0.105201 0.034224 -0.238003 0.076899 -0.209618 -0.031054 -0.009695 -0.189308 -0.227818 -0.215281 0.03149 0.145907 -0.302469 -0.004719 -0.181742 -0.256758 -0.225962 -0.116504 -0.034218 0.366176 -0.30045 -0.190547 0.063038 -0.101463 0.008694 0.16576 0.071863 0.350716 -0.023835 0.113607 0.076514 -0.056322 -0.316072 0.084341 -0.254473 0.405807 -0.048321 0.202589 0.036325 -0.245109 0.432727 0.160129 -0.521739 -0.232086 -0.138163 -0.003817 0.206369 -0.476469 -0.155001 0.142691 0.052964 -0.037172 -0.159155 -0.040468 0.185795 0.174724 -0.064994 0.367365 -0.157523 0.014728 -0.034288 0.08281 0.382975 -0.137791 0.289252 -0.053227 -0.133954 -0.478572 0.043068 0.157653 0.0456 -0.091436 0.135952 -0.503887 0.344011 -0.099983 -0.341455 0.182272 0.266623 0.105886 0.067538 -0.040387 0.202421 0.000514 -0.207779 -0.389306 0.227194 -0.44294 -0.315689 0.099773 -0.086558 0.627595 -0.242175 -0.218027 -0.015474 -0.177813 0.018229 0.217445 -0.15966 -0.075509 -0.092396 -0.000609 -0.03165 -0.266001 0.154175 -0.248385 -0.109249 0.510228 -0.170165 -0.371548 0.261565 0.108551 -0.347027 0.220538 0.101989 0.131231 0.252407 -0.219274 0.289947 0.025878 0.330877 -0.344475 -0.204839 0.13425 0.013977 -0.45019 -0.08282 -0.080178 -0.300843 -0.090594 -0.117877 0.108834 -0.667733 -0.205337 -0.057659 -0.337194 -0.131231 0.092778 0.093063 0.340424 -0.145564 0.085662 0.327589 0.025505 -0.047971 -0.811072 0.117764 -0.338682 0.16676 0.097305 0.042433 0.193677 0.195375 -0.007503 0.296907 0.321043 0.275947 -0.013076 -0.027947 0.396881 -0.023967 0.139974 -0.035849 -0.072278 0.041178 -0.017958 -0.083228 0.268493 0.001803 0.026227 0.153091 -0.185706 0.015256 -0.291573 0.217848 0.263112 -0.249935 -0.065666 0.188201 -0.611875 0.31129 -0.58045 0.063747 -0.044388 0.013732 0.048688 -0.001258 -0.025898 -0.20408 -0.127746 0.116115 -0.089231 -0.011554 0.132629 -0.128241 -0.233879 -0.041871 0.20489 0.077731 -0.106286 0.025526 0.219665 -0.390002 -0.13117 0.098712 1.090397 -0.080948 0.292986 0.171918 -0.045072 0.030337 0.030609 0.25846 0.049119 -0.382529 -0.170862 -0.301227 -0.136841 -0.580441 0.163592 0.203632 0.118095 -0.323897 -0.184876 0.194752 0.284104 -0.030781 -0.191967 -0.087546 -0.27851 -0.198353 -0.213077 0.188799 -0.078238 -0.089826 -0.171206 0.155605 0.02584 0.385843 0.151002 0.174485 0.096869 -0.027802 0.28622 -0.352794 -0.408741 -0.155973 -0.32575 -0.294908 0.361485 -0.141748 0.223999 -0.219646 -0.089781 -0.222206 -0.133444 0.159713 0.08799 -0.038706 -0.309823 -0.218437 0.130241 0.195414 0.28247 -0.246736 -0.046724 0.2952 0.448351 0.214519 -0.022063 -0.296873 -0.084022 -0.097179 0.175366 0.233478 0.098898 0.002515 -0.23113 -0.092336 -0.02321 0.167514 0.204861 0.05903 -0.001772 -0.021679 -0.045647 -0.544243 0.305592 0.340147 0.045991 0.244486 -0.220672 0.458873 -0.473307 0.209985 0.122406 0.257427 0.035022 0.008493 -0.294993 0.049968 0.240249 -0.217875 -0.080077 0.050774 -0.15028 -0.051284 0.115459 0.128589 -0.244414 0.500168 0.169384 -0.102493 0.362501 0.393832 -0.055514 -0.013785 0.126132 0.168756 0.15881 0.166512 0.021092 -0.10995 -0.27325 0.027595 0.074261 -0.219199 -0.109163 0.177762 -0.030639 -0.109833 -0.118513 -0.165592 -1.33802 0.053885 -0.026769 0.00397 0.053402 -0.074458 0.163021 -0.066005 -0.216336 0.015431 0.193002 0.268199 -0.10528 -0.051201 0.079911 0.249582 -0.065267 -0.141004 0.1468 -0.017605 0.083928 0.266743 0.017772 -0.049542 -0.078755 0.118108 -0.035423 0.201767 0.22156 -0.221613 -0.256687 0.146118 -0.837286 -0.184156 0.052998 0.119508 -0.117085 -0.072493 -0.270005 -0.16893 0.014297 -0.628401 -0.060824 0.068397 0.221404 0.086408 0.071665 -0.023123 -0.212611 -0.263974 -0.106104 -0.012597 0.055828 0.067598 0.195885 -0.307533 0.016696 0.252832 0.025169 -0.12608 -0.188038 -0.011027 -0.25026 -0.3696 -0.28525 0.284446 -0.168772 0.17725 0.123413 0.405311 0.179005 -0.008318 0.269086 -0.032351 0.271878 -1.455901 0.109162 0.17908 -0.117572 0.099673 -0.229748 0.330347 -0.083662 -0.299259 -0.159195 0.162468 0.245753 -0.192993 0.305228 -0.035031 0.22058 -0.323301 0.108443 0.160221 0.279284 0.039153 -0.039476 0.074159 0.326274 0.244172 -0.06721 -0.297054 0.131189 0.255876 -0.071379 0.083206 0.398402 -0.227124 -0.125808 -0.171454 -0.081475 0.127969 0.06048 1.123158 0.297302 -0.457011 0.061995 0.367949 -0.151969 0.350555 -0.120746 -0.2671 -0.184667 0.096518 0.646454 0.243528 -0.2026 -0.214443 -0.216117 -0.095015 0.221185 -0.085505 0.146231 0.421868 -0.00815 -0.240268 0.091848 0.05129 -0.252122 0.028739 -0.268717 -0.353156 0.147613 -0.117557 0.175124 0.102084 -0.311305 -0.277837 0.259629 0.345154 0.269106 0.23228 0.06957 -0.01033 0.340101 -0.349497 -0.026929 0.193752 -0.175514 -0.086203 -0.067274 -0.114465 -0.106784 0.016735 -0.013858 0.441089 -0.151248 -0.037016 -0.137672 -0.043914 0.237612 2.426468 -0.030899 -0.174749 0.274975 -0.213539 -0.067637 0.098562 -0.132638 0.236197 -0.14977 -0.121755 -0.058995 -0.114517 0.049425 -0.336174 -0.240692 -0.236478 -0.009835 0.126528 -0.002172 -0.268345 -0.046102 -0.087476 0.061789 -0.364628 -0.198645 0.096774 0.25665 -0.149168 -0.060726 -0.018675 -0.018849 0.058383 0.253748 0.351633 0.32974 0.12877 0.27556 0.355013 -0.316743 -0.391753 0.009931 -0.166512 0.327405 -0.093552 0.164306 -0.006897 0.014785 0.567542 0.479853 -0.263096 -0.266863 -0.0463 -0.009335 0.072891 -0.267793 0.004543 0.101888 0.057587 0.074024 -0.569151 -0.253603 -0.166148 0.17846 -0.013784 0.075527 -0.201498 0.159846 -0.126 -0.010091 0.201176 0.193017 0.223642 -0.148518 -0.127961 -0.28532 -0.067017 0.323729 0.099938 -0.179976 0.505224 -0.208119 0.049002 0.021966 -0.113274 0.300944 -0.091521 0.421858 0.255342 0.115935 -0.008571 -0.026557 -0.140472 -0.358116 0.092531 -0.337804 0.034165 0.068533 -0.10743 0.74332 -0.127618 0.113462 0.124622 -0.180096 0.014083 0.26926 0.010689 -0.307964 -0.020222 0.238941 -0.052654 -0.032009 0.113938 -0.180102 -0.043195 0.27679 -0.17879 -0.331273 0.200062 -0.083318 -0.357427 0.042611 0.091656 0.267685 0.148726 -0.111461 0.259877 0.189361 0.217696 -0.417694 -0.168948 0.114225 0.121061 -0.207609 -0.172007 -0.087416 -0.115978 0.015545 -0.334479 -0.112161 -0.703492 -0.396127 -0.216635 -0.23636 -0.13491 0.098135 0.154417 0.48292 -0.19377 -0.024361 0.59042 -0.052631 -0.130865 -0.621141 -0.166903 -0.207015 -0.082911 0.199487 -0.052624 -0.182922 0.363323 -0.088936 -0.085905 0.358729 0.222563 -0.124929 -0.063351 0.253596 0.18427 0.29519 0.022974 0.243871 0.129723 0.139944 -0.000907 0.151573 -0.067799 -0.021731 0.198815 -0.361936 0.021811 -0.445676 0.343406 0.155099 -0.351656 0.052958 0.147281 -0.561496 0.481311 -0.256697 0.182622 -0.071636 -0.109345 0.152938 0.211035 -0.217923 0.045692 -0.173365 -0.160425 0.176362 -0.058026 0.132757 -0.046885 -0.19163 -0.030952 0.4873 0.198787 -0.099263 -0.055082 -0.015613 -0.113201 -0.194602 -0.107692 0.80377 0.142465 0.266397 0.117919 0.079758 0.143841 -0.068956 0.164833 -0.067473 -0.319019 -0.252203 -0.282803 0.184488 -0.610882 0.157933 0.080127 -0.098245 -0.415175 -0.021758 0.015183 0.174701 0.159074 -0.338711 -0.035396 -0.301601 -0.044198 -0.012483 0.095197 -0.266589 -0.140387 -0.232873 0.058048 0.060016 0.355202 -0.064418 0.309481 -0.023099 -0.145052 0.163043 -0.059018 -0.488129 -0.312499 -0.129242 -0.31915 0.036172 0.219279 0.125569 -0.129874 -0.231383 0.156851 -0.13789 -0.099332 -0.027198 0.166585 -0.184937 -0.235409 -0.021971 0.26838 0.129855 -0.218194 -0.089216 0.36248 0.217494 0.020241 0.024413 -0.187716 -0.007652 -0.25734 0.236501 0.320402 0.059442 0.004056 -0.196244 -0.127318 -0.042864 0.150326 0.199382 0.097622 0.069901 -0.10842 0.067099 -0.72944 0.054741 0.084607 -0.346936 0.008523 -0.052267 0.41151 -0.124893 -0.092958 0.134009 0.021831 -0.045867 0.172277 -0.14918 0.04168 0.269221 0.199167 -0.325958 0.172375 -0.177382 0.0084 0.368091 0.034502 -0.002498 0.513375 0.35018 -0.127999 0.476324 0.162151 -0.068014 -0.343379 -0.017293 -0.062239 0.182875 0.296666 0.038257 -0.224476 -0.039262 -0.005529 0.10492 -0.066036 0.054664 0.36505 0.005525 -0.022789 -0.134987 -0.053667 -0.724929 0.294708 0.026458 0.217246 -0.075072 0.201854 0.199508 -0.21529 -0.045709 0.013284 0.246844 0.324685 -0.129839 -0.327577 0.18869 0.043971 -0.087965 -0.17695 0.225671 -0.109182 0.388015 0.211731 0.319305 -0.127912 0.007708 0.275928 -0.069757 0.177752 0.357016 -0.063004 -0.205233 0.010207 -0.683579 -0.002347 0.034355 0.009544 -0.287805 -0.343255 -0.247725 -0.20532 0.055945 -0.29727 0.053413 -0.155803 0.247687 0.205518 0.103436 0.171093 -0.330194 -0.432152 -0.068266 0.147403 -0.174366 0.194037 0.182257 -0.037774 0.242277 0.367247 -0.044097 0.026221 0.161715 -0.051251 -0.267227 -0.546344 -0.535333 0.131906 -0.120028 0.143938 0.376239 0.113147 0.039654 -0.050366 0.444976 -0.129477 -0.073371 -2.188751 0.139791 0.403309 -0.117124 0.128612 -0.240881 0.058504 -0.174958 -0.396399 -0.021683 -0.014419 0.166353 -0.046103 0.224548 -0.038225 0.289229 -0.08848 -0.09592 0.176469 0.293741 -0.132893 -0.344714 0.028709 1.550082 0.179813 -0.021118 -0.039663 -0.00791 0.058609 0.13636 -0.185108 0.454183 -0.307145 -0.295788 -0.064062 0.272085 -0.09728 0.163558 1.377514 0.030902 -0.588754 -0.021448 0.288093 0.207229 0.394123 -0.130903 -0.213606 -0.278506 0.081829 0.354036 -0.038459 -0.373564 -0.270551 -0.111598 -0.309405 0.243148 -0.161129 0.12372 0.325475 -0.382919 -0.30077 0.113399 -0.062321 -0.22194 0.306183 -0.196306 -0.256447 0.2137 0.056294 0.1823 -0.147561 -0.11734 -0.037745 0.289347 0.151097 0.071533 0.36157 0.063345 0.030334 0.132761 -0.0683 0.129342 -0.008596 -0.112882 0.023502 -0.237511 -0.158862 0.07226 -0.144263 -0.144537 0.395562 -0.411161 0.03951 0.025245 0.094161 0.096933 1.965429 -0.153975 -0.186125 0.11026 -0.19544
c 0.166637 0.226133 0.029136 0.015139 0.007436 -0.222692 -0.068317 -0.096302 -0.044617 -0.063347 -0.180074 -0.064596 -0.128019 -0.017418 0.158552 -0.262448 0.026452 -0.165091 -0.167591 -0.236638 -0.142453 -0.112724 0.073746 -0.339494 -0.161934 0.070246 -0.166858 0.091737 0.042161 0.030024 0.325352 -0.031147 0.122546 0.045275 0.065718 -0.365177 0.138098 -0.199275 0.331378 -0.039137 0.092837 0.039202 -0.216813 0.458664 0.11972 -0.403536 -0.067282 0.029295 0.052582 0.252632 -0.439615 -0.128817 0.100699 0.121468 0.052548 -0.134545 -0.196005 0.062872 0.200861 -0.051518 0.199497 -0.127498 0.088046 -0.074095 -0.002323 0.401823 0.074387 0.321843 -0.006171 -0.036855 -0.500329 -0.016391 0.108479 0.031919 -0.190651 0.146775 -0.363435 0.246985 -0.0545 -0.272472 0.00722 0.327704 0.229229 0.066694 0.157703 0.190896 -0.143892 -0.139708 -0.403833 0.089538 -0.2692 -0.266151 0.049217 -0.046537 0.601284 -0.053613 -0.092957 0.112198 -0.159935 0.038708 0.263938 -0.379834 -0.159405 -0.099566 0.163244 0.01777 -0.333993 0.334805 -0.167312 -0.209707 0.361592 -0.08794 -0.123306 0.244363 0.061565 -0.383392 0.151783 0.036626 0.132947 0.20085 -0.273474 0.166605 -0.025395 0.372967 -0.280718 -0.156994 0.054655 -0.056617 -0.413081 -0.120714 -0.07041 -0.200654 -0.08504 -0.164402 0.084692 -0.654852 -0.351983 0.107395 -0.162342 -0.067829 0.101086 0.0248 0.121867 -0.192534 0.080204 0.20207 0.002631 -0.14867 -0.796127 0.073902 -0.152293 0.119654 0.01428 0.103822 0.175978 0.1678 0.037412 0.410467 0.116254 0.244312 -0.15182 -0.05069 0.459219 -0.007687 -0.016852 -0.054058 -0.081108 -0.035883 -0.021376 -0.127623 0.284478 0.004116 0.151305 0.26562 -0.027922 0.027703 -0.171223 0.245667 0.327133 -0.242721 -0.072099 0.259283 -0.474237 0.165394 -0.405902 0.123203 -0.018067 0.027985 0.144023 -0.125131 -0.180807 -0.194779 -0.11961 0.164348 -0.024984 -0.053682 0.176628 -0.152225 -0.281358 -0.002287 0.280446 0.21494 -0.130048 0.106437 0.13777 -0.292311 -0.130447 0.132886 1.120086 -0.073195 0.201057 0.171048 -0.08149 0.136966 0.075161 0.072117 0.032321 -0.39982 -0.327045 -0.298839 -0.100409 -0.4933 0.202676 0.199037 0.275529 -0.091096 -0.044458 0.09717 0.323592 -0.103049 -0.145831 -0.166507 -0.328354 -0.296184 -0.097974 0.185451 -0.051795 -0.105881 -0.201465 0.269846 0.069285 0.347007 0.046988 0.190614 0.05659 -0.131219 0.262948 -0.48171 -0.273162 -0.148303 -0.205824 -0.188537 0.349412 -0.023279 0.21372 -0.256972 -0.077802 -0.273505 0.036598 0.238222 -0.156628 0.052714 -0.220895 -0.197476 0.20273 0.091158 0.130827 -0.165774 0.024592 0.052915 0.406262 0.095404 -0.078153 -0.311902 0.100706 -0.066608 0.086876 0.116941 0.044992 0.112926 -0.202715 0.026018 -0.008152 0.169265 0.256683 0.155618 -0.151376 -0.165071 -0.015308 -0.289154 0.200012 0.24873 -0.119429 0.162716 -0.13074 0.299992 -0.455757 0.07178 0.069805 0.193817 0.120219 -0.095291 -0.213729 0.228555 0.339426 -0.159853 0.004529 0.06844 -0.115593 -0.080372 0.055623 0.070893 -0.214667 0.27563 0.141023 -0.190524 0.338412 0.406154 -0.124992 0.071651 0.096246 0.208418 0.19271 0.207961 -0.124483 0.01884 -0.241944 0.071278 0.098699 -0.249234 0.101197 0.284332 0.018221 0.001631 0.02311 -0.171465 -1.602329 0.041106 -0.120964 -0.081779 -0.093687 -0.039331 0.174596 -0.107316 -0.173872 -0.037 0.339091 0.096516 -0.154162 0.084924 0.077066 0.067915 0.061473 0.053963 0.125375 -0.007424 -0.004474 0.056726 -0.003664 0.012013 -0.043186 0.017067 -0.132103 0.20886 0.045776 -0.477349 -0.31739 0.207426 -0.891132 -0.056553 0.04104 0.29694 -0.052056 -0.119292 -0.201628 -0.22795 -0.070819 -0.63854 0.020053 0.057792 0.115168 0.038316 -0.013888 -0.243737 -0.2332 -0.109432 -0.174076 -0.05185 0.024926 0.124393 -0.009427 -0.227178 -0.149119 0.265725 0.085463 -0.055443 -0.066791 -0.001321 -0.367895 -0.225658 -0.266037 0.168775 -0.122899 0.265975 0.220521 0.426061 0.193359 -0.117021 0.308831 -0.060111 0.228688 -1.307502 0.183162 0.231916 -0.228046 0.113145 -0.252837 0.358164 -0.143323 -0.275295 -0.186845 0.196282 0.252488 -0.051732 0.099496 0.018499 0.328163 -0.233081 0.231316 0.140827 0.171517 0.061051 -0.066406 0.095028 0.348015 0.104544 -0.128881 -0.316863 0.072285 0.099072 -0.032276 0.016199 0.277011 -0.148323 -0.057801 -0.107063 0.004716 0.272929 0.099167 1.187724 0.232068 -0.223992 -0.056956 0.386258 -0.065003 0.158607 0.072124 -0.308168 -0.007996 0.031415 0.361505 0.151596 -0.233247 -0.058556 -0.240011 0.086506 0.346551 -0.113815 0.072188 0.210971 0.05797 -0.284899 0.184737 0.031753 -0.099254 -0.059869 -0.118228 -0.055589 0.058711 -0.122239 0.168696 0.033066 -0.183647 -0.253271 0.299732 0.271768 0.12905 0.179837 0.232305 -0.036652 0.422707 -0.265659 0.060735 0.076671 -0.201002 -0.26043 -0.005439 0.01902 -0.019696 0.138338 -0.100486 0.156826 0.019844 -0.168203 -0.173133 -0.085206 0.286542 2.32171 -0.114858 -0.100746 0.222333 -0.043763 -0.052403 0.055935 -0.014951 0.099265 -0.163299 -0.081566 -0.056888 0.051656 0.089447 -0.373603 -0.134501 -0.078646 0.03115 0.052752 -0.010289 -0.047527 -0.038292 -0.159926 0.061316 -0.319225 -0.120947 -0.009903 0.08891 -0.18013 -0.021267 -0.178011 -0.146275 0.13452 0.277279 0.264823 0.133351 0.092323 0.245258 0.265818 -0.086785 -0.456446 0.159225 -0.120539 0.228948 0.007848 0.005453 -0.091424 -0.076944 0.312399 0.303797 -0.164315 -0.069564 -0.030451 0.039071 0.109647 -0.238718 -0.073487 0.087772 0.235211 0.116352 -0.500713 -0.403988 -0.049115 0.213038 0.032472 0.052388 -0.138656 0.104073 -0.209524 -0.008968 0.119024 0.179727 0.257794 -0.127748 0.049997 -0.356256 -0.080647 0.184132 0.058829 -0.149999 0.362935 -0.09138 -0.024856 -0.06525 -0.092164 0.027165 -0.060388 0.295641 0.3108 0.167753 0.049376 -0.091228 -0.120098 -0.251588 0.033939 -0.21719 0.041562 -0.050268 -0.126699 0.845413 -0.017915 0.140121 0.209101 -0.200589 0.0464 0.263186 -0.180976 -0.377208 -0.088083 0.429676 -0.12203 -0.096413 0.241741 -0.159833 0.017544 0.247369 -0.151747 -0.025514 0.125789 0.012146 -0.430169 0.125859 -0.034321 0.202873 -0.009134 -0.165884 0.243016 0.054154 0.236582 -0.324666 -0.071612 0.135642 0.096133 -0.220174 -0.208324 -0.019526 -0.116976 0.136479 -0.349895 -0.067419 -0.74197 -0.433863 -0.184791 -0.066408 -0.102122 -0.001004 -0.015434 0.290895 -0.230653 0.102045 0.410645 -0.118861 -0.057594 -0.685112 -0.092997 -0.018957 -0.096569 0.151233 -0.035907 -0.094974 0.321385 0.058557 -0.003002 0.216278 0.205044 -0.164468 0.009407 0.28235 0.22454 0.162167 -0.094013 0.229543 0.226623 0.225044 -0.034019 0.119039 0.042386 0.170324 0.31551 -0.313721 -0.021919 -0.370989 0.364299 0.179857 -0.273588 0.20953 0.040932 -0.491077 0.408543 -0.220628 0.371884 0.003601 -0.080522 0.155576 0.152076 -0.272947 0.015769 -0.077938 -0.108925 0.143287 -0.066298 0.112 -0.145029 -0.119129 0.019169 0.419421 0.188539 -0.180587 0.078439 -0.043192 -0.188116 -0.172399 -0.013539 0.760153 0.116935 0.196264 0.184507 0.147113 -0.029203 0.033049 0.182636 -0.060484 -0.277752 -0.267615 -0.285276 0.24274 -0.67008 0.242681 -0.037707 -0.008607 -0.210344 -0.012746 -0.118165 0.20245 0.108965 -0.360561 -0.167025 -0.351978 -0.152356 -0.033272 0.053386 -0.182923 -0.067553 -0.254859 0.195527 0.085323 0.319815 -0.116832 0.252308 0.005966 -0.066177 0.131157 -0.168632 -0.283875 -0.330127 -0.027223 -0.233229 0.086929 0.362781 0.214032 -0.265238 -0.249077 0.134572 -0.132274 -0.035952 -0.062884 0.223099 -0.065067 -0.255132 -0.098745 0.123466 0.12545 -0.161438 -0.210296 0.052105 0.199505 -0.088001 0.080083 -0.148682 0.135028 -0.125445 0.209675 0.2488 0.118415 0.024591 -0.110637 -0.137802 0.062256 0.065217 0.10482 0.159021 -0.074731 -0.165583 0.16732 -0.630989 0.071263 0.090728 -0.275704 0.024793 0.04959 0.260277 -0.151364 -0.190981 0.122855 -0.008615 -0.036396 0.213532 -0.163108 0.120511 0.281835 0.098132 -0.196424 0.155273 -0.190108 -0.039694 0.251517 -0.112186 0.046158 0.322775 0.189837 -0.035814 0.350932 0.264392 -0.21006 -0.306859 0.169894 -0.033877 0.187786 0.284177 -0.037458 0.160583 -0.036603 -0.010888 0.112728 -0.166343 0.01137 0.389561 0.060143 0.126415 -0.089373 0.008002 -0.762282 0.287246 -0.041491 0.147192 -0.123086 0.188533 0.25933 -0.214652 -0.110373 0.072141 0.244026 0.208758 -0.034399 -0.109117 0.241158 -0.018637 -0.039703 0.004143 0.225683 -0.010233 0.150578 0.008461 0.432722 -0.003711 -0.020241 0.279417 -0.236889 0.160867 0.159416 -0.187193 -0.15424 -0.003399 -0.843319 0.051765 0.015925 0.21604 -0.172579 -0.163194 -0.008749 -0.343044 -0.035677 -0.387515 0.168519 -0.055629 0.043225 0.090772 0.002431 -0.006988 -0.222444 -0.212384 -0.266837 0.117106 -0.188242 0.301206 -0.00259 -0.149465 -0.001395 0.382602 0.034521 0.193988 0.287257 -0.05394 -0.3496 -0.473506 -0.549422 0.064653 -0.176476 0.082229 0.461427 0.147746 0.055177 -0.092694 0.338287 -0.167419 -0.025392 -2.060829 0.238471 0.388242 -0.206926 -0.075505 -0.148943 0.079457 -0.20321 -0.284304 -0.198933 -0.009426 0.013573 0.086326 -0.022551 -0.204589 0.29085 -0.154437 0.078859 0.123405 0.080711 -0.006349 -0.242095 -0.06969 1.820335 0.124166 -0.100768 0.008828 -0.064784 -0.158853 -0.032551 -0.178425 0.414441 -0.07797 -0.186778 0.000519 0.293482 0.023592 0.230354 1.476084 0.051215 -0.312263 -0.157446 0.324522 0.224893 0.18637 0.002261 -0.227083 -0.07029 0.01921 0.257802 -0.085669 -0.440927 -0.121749 -0.182877 -0.03174 0.252796 -0.071275 0.108653 0.108595 -0.124721 -0.420591 0.075047 -0.060386 0.027388 0.174898 -0.171696 -0.070471 0.020588 0.088102 0.195306 -0.151921 -0.051387 -0.053497 0.316298 0.093505 0.129793 0.256917 0.002347 0.090192 0.259154 -0.114079 0.142267 -0.014166 -0.106279 -0.226063 -0.026411 0.061107 0.146201 0.062025 -0.183609 0.147138 -0.144305 -0.038084 -0.062723 0.143807 0.174901 1.726703 -0.250397 -0.026957 0.129338 -0.016093
