23 300
tôi 0.07352853 0.08678736 0.0036432447 -0.07279798 0.15125743 0.010289791 0.019780997 -0.1430503 -0.027089203 -0.007154962 0.081558704 -0.02024379 0.011194416 0.04385842 0.1331778 -0.031042216 0.022185378 -0.0039541554 0.08882454 0.01051968 -0.14493038 0.058162525 -0.03546986 0.015447343 0.06458374 0.050529674 0.013228569 -0.026374368 0.09651809 0.096560776 -0.013512612 0.06553774 0.05720846 -0.035158254 0.098175846 -0.07298209 -0.041891787 -0.07186835 0.048196226 0.09488145 0.04341189 -0.011811122 -0.0060730632 0.10471156 -0.10507455 -0.026528813 0.02122654 0.049712494 0.024086535 0.020939521 0.020470127 -0.03344224 -0.0012337461 -0.082851715 0.01713101 0.0601313 -0.03861939 0.08176725 -0.063485436 0.033676203 0.0011769425 -0.0071755885 0.02316829 -0.03703191 0.08275393 0.0045379074 0.012381485 0.04514309 -0.034982204 0.008367954 -0.0012619988 -0.021063467 0.13164273 0.020118587 -0.006955695 0.06465271 0.05447385 -0.0015730002 0.046504777 -0.0036110661 0.04145123 -0.039813973 -0.067486614 -0.033624753 -0.05746238 0.024210112 -0.10115398 0.02434499 0.059623588 -0.037416648 0.02133375 0.0099295415 -0.07125672 -0.023028985 -0.12507144 -0.06259213 -0.00072669616 0.049656846 -0.02156951 -0.029557444 -0.1822163 0.02804503 -0.004138355 0.034005154 0.02803677 0.05725566 -0.021013916 0.08740007 0.12645087 -0.02736078 -0.074485995 0.045446094 0.061597537 0.01867389 0.11462014 0.010390708 -0.063831136 0.026854329 0.026172383 0.032095123 -0.019687096 -0.1164573 0.034452386 -0.047111496 -0.124922976 0.14749677 -0.07156074 0.095468305 -0.06097053 0.036163215 0.03152937 -0.053545777 0.045161765 0.029130893 0.045543473 -0.007519024 0.055793244 0.086781316 0.005078406 -0.023128917 0.001080764 0.06505952 0.016627762 -0.015223831 0.0546724 -0.03269946 -0.09181863 -0.005988104 0.017496219 0.012154474 -0.03323226 0.0020111857 0.038958814 0.06650199 0.035578843 -0.062587515 0.042101733 -0.0114702815 0.063319124 -0.026557066 -0.05834435 0.004608754 -0.077369176 -0.05568003 -0.065105066 0.07667684 -0.074253015 -0.025395246 0.05803565 0.022460058 -0.11078072 -0.025723904 0.03851586 -0.0115724085 0.015549172 0.051308144 0.13116902 0.02256482 -0.02889853 -0.008126982 -0.033062678 -0.0080303755 0.056189112 -0.04506195 0.1168584 0.008673848 0.022506624 -0.06878969 0.002246383 -0.10981394 0.044432145 -0.07975109 0.029194783 0.048819043 -0.056508847 0.0068503856 0.07508782 -0.01675992 0.031660277 0.06878435 0.029353643 -0.010357 -0.005848069 0.06392505 -0.01043339 -0.107671514 0.10981718 0.063426234 0.03271311 -0.023013981 0.02146352 -0.059143517 0.14211455 -0.015325972 0.06591801 -0.08231522 -0.0021737313 -0.05886955 0.08251902 0.050769754 0.00774832 -0.06298422 0.09215369 -0.05318856 -0.0069206166 0.041156154 -0.006015784 -0.033457145 0.058273885 -0.011321347 -0.022893231 0.0728847 -0.03262805 0.029649664 0.004466301 0.009279586 0.06874255 -0.10783132 -0.04616169 0.021301426 -0.079381816 0.011489858 -0.0053224107 -0.0653963 0.035058107 -0.022873046 0.0042931396 0.09662216 -0.021745805 -0.073199086 -0.07098674 0.058246728 -0.04086759 -0.0022637565 0.082927294 -0.00015649697 -0.04929025 0.1345549 0.04855466 -0.032453198 0.017289873 0.051874883 -0.0710456 0.03686275 -0.018200235 -0.021681083 0.006319781 0.05864019 -0.026542747 0.05961582 -0.100739844 -0.020943157 -0.0698965 -0.000746524 0.014274153 0.018055221 0.082897484 0.098337404 -0.03858116 0.051925197 -0.02755209 0.08532243 0.027056517 -0.010827031 -0.013105059 0.0866619 0.060803626 0.032426775 0.060765672 0.03459359 0.060276706 0.051294982 0.028793283 0.026369909 -0.0525726 0.03858132 -0.002319157 -0.028617684 -0.018903982 -0.03462005
yêu 0.029439084 0.1289706 0.028481884 -0.009153964 0.13776702 0.03804784 0.021619288 -0.010142863 0.034313962 -0.0030379454 0.10913509 0.03393041 0.048316203 0.06188698 0.015860591 0.013196493 0.06298977 -0.035804626 0.11406035 0.013717822 -0.039910916 0.019610096 0.042438533 -0.017315445 0.012880127 -0.008758634 -0.049630236 0.09092055 0.025667723 0.050843507 -0.07463705 -0.028010141 0.07302178 0.0012667752 0.014331362 0.03780482 -0.039206196 0.059393328 -0.049181677 0.08739744 0.083398834 0.017427227 0.08248802 -0.05230504 -0.042117503 -0.05516614 -0.049154155 0.031381894 0.04018044 -0.011049544 -0.064174995 0.008584114 5.7062898e-05 -0.052128024 -0.032055337 0.0775814 0.029694548 0.044291597 -0.045018986 0.013582165 -0.0018329099 -0.00233086 0.06342909 -0.021681802 0.058380812 -0.027043844 0.10427836 -0.025788268 0.005180142 -0.09848247 -0.003310533 0.10085287 0.03776998 0.017156573 -0.049329747 -0.03249931 0.05833924 0.0038196545 0.09113318 0.14349653 0.062584676 -0.10465225 -0.021145279 -0.019943759 -0.015901102 0.06503767 -0.040984396 -0.10417264 0.03482681 -0.12652555 -0.035924755 0.0074163023 -0.028597033 -0.044175413 -0.05896334 -0.028467769 -0.024634013 0.04752222 -0.11083941 0.03714794 -0.08809021 -0.0026244225 0.060190167 0.058329675 0.009565831 -0.015554872 -0.010312985 0.024618514 0.086330876 -0.09302984 -0.066649035 -0.015775824 0.0699011 0.039047983 0.06520847 -0.015208983 -0.02462645 0.040577643 -0.022031814 0.060560994 -0.0013541023 -0.09876804 -0.018390033 0.06526283 0.013358625 0.071364984 0.03054673 0.034214813 0.04674361 -0.015645958 -0.042374697 -0.11417273 -0.08150823 0.042334747 0.029248286 0.04621206 0.039790314 0.07494767 -0.043434877 -0.011743772 -0.013164124 -0.010303722 -0.024600029 0.065124 0.0023828975 0.043214515 0.0021906574 0.013548564 -0.041777946 0.036055673 -0.07934621 -0.07425374 0.10159156 -0.037507307 0.08423359 0.047779534 0.0959919 -0.021233875 -0.025507495 -0.01014415 -0.015812038 0.007656369 0.1164109 0.10681976 -0.10037406 -0.012458623 -0.004566518 0.030971888 0.056732416 0.009321718 -0.060071558 0.007650265 0.07317965 -0.016487414 -0.0044751302 -0.048044942 0.11199867 0.036238257 0.03261594 -0.14049943 0.06266487 0.0724384 0.05885245 -0.08602558 0.08001456 0.10690211 -0.051368784 -0.119924255 0.052246727 -0.089507714 0.022701055 -0.0094656935 0.107935384 0.021658903 -0.04376556 -0.04259177 0.07541145 0.004147091 0.11802533 -0.011122442 -0.015543733 0.061094496 -0.13337348 -0.104380876 0.019541008 0.0057295985 0.057776798 0.02901831 0.06508747 0.01239608 -0.0112577 -0.036948387 0.09094584 -0.011631926 -0.025819154 -0.07618469 -0.005136083 0.040667877 -0.0064873034 0.0386999 0.020404415 0.009078388 -0.019249573 -0.051270153 -0.009651351 -0.07320556 -0.0048008235 -0.024117775 0.11510492 -0.022746839 0.01932823 0.025288302 -0.023844207 -0.112967685 0.037369974 -0.00017213942 0.08709628 -0.050647903 -0.04267654 -0.11866744 -0.03160432 0.08679034 -0.10493597 -0.029329697 -0.015211443 -0.09321244 0.0039398833 0.11567304 -0.009888941 -0.040829003 -0.058437895 0.010410952 -0.0833103 0.01967186 0.042206187 -0.015774297 -0.043568924 0.011925796 0.056660514 0.05232583 0.0012834095 0.041486353 -0.051505357 0.01929949 -0.035515465 0.08571454 -0.025538772 0.0034677824 -0.084803805 0.008608413 -0.029599788 -0.011640382 -0.032390676 -0.030335506 -0.033092927 -0.0003815287 0.11524677 0.028962841 0.016708098 0.07124698 -0.07930779 -0.02779471 -0.043284483 0.054207668 -0.058710016 0.05866826 -0.034505464 -0.01754199 0.09171385 0.030859428 0.021518698 -0.035334278 0.0030268193 0.018442847 0.01897367 0.13966183 -0.057352256 -0.14830129 0.04583723 -0.07607909
hà_nội 0.05991782 -0.07886167 -0.0105381785 -0.0031745278 -0.0055090985 0.015794884 0.13955922 -0.03208075 -0.01390737 0.028386977 -0.03271584 -0.12841624 -0.0003971064 0.055412605 0.026983824 -0.060379546 0.017384036 0.013345908 0.055926662 0.01909528 -0.050354537 -0.021877332 0.03985728 -0.0015955364 -0.066327974 -0.010696701 0.0076100836 -0.027239248 0.04987617 -0.0082010375 0.012105547 0.13912311 0.05737816 0.042139858 0.02952455 0.049688525 -0.0038474563 -0.0639833 -0.042221457 0.08788929 -0.03232356 0.06340604 0.095874555 -0.037117686 0.00091377494 -0.0030340934 0.05176401 -0.00010610578 0.06416308 -0.046857137 -0.016072983 -0.020848649 -0.07738927 0.0245067 0.05389253 -0.058203463 -0.06825786 0.005140457 0.046756 0.009078568 0.049299702 0.06533556 0.06780076 -0.0025433642 0.0024609682 0.02062048 -0.021240467 -0.04422388 -0.02872343 0.11703605 0.00069675717 0.04742904 -0.026019255 -0.017205754 0.058880027 -0.011557243 0.14857887 0.11183804 0.12225217 0.012912871 0.065847225 -0.0033702117 0.116005644 0.0966647 0.08954 0.021989942 -0.062095776 -0.037980556 0.050584245 -0.18246084 0.08180594 -0.052432615 -0.025612785 0.042878956 -0.0019108851 -0.061620723 -0.048566893 -0.056652624 0.09014658 0.06780813 -0.014445311 0.037921652 -0.01153243 0.0830101 0.03749816 -0.0022277192 -0.037296396 -0.08141989 0.10455212 0.019274428 -0.04817375 -0.054890558 -0.040144783 0.047452137 0.06628084 0.02198446 0.03202093 -0.021558562 0.035697684 0.006228837 -0.006401845 -0.024775257 0.046780758 0.07916145 -0.032154568 -0.08304359 -0.041406136 0.034675397 -0.04538941 0.084017105 -0.031033844 -0.037709445 -0.106862746 -0.0052704914 0.076810144 -0.026301766 0.07818378 -0.07034343 0.075816795 -0.019988324 -0.0060670157 -0.0053730076 -0.022155397 -4.1604144e-05 0.026989982 -0.036895413 -0.01396555 -0.004636981 -0.0025341937 -0.07359927 0.047925316 -0.0012942489 0.03538337 0.013050395 -0.00860664 -0.013459193 0.06556805 -0.017405584 -0.08877797 0.050865315 -0.095054686 0.031356998 -0.006335628 -0.0043795416 -0.12633775 0.12307508 0.10223397 0.05959305 0.010485144 0.016227512 -0.07210469 -0.013234019 0.053394128 -0.025384074 -0.04153735 0.028793907 0.07132508 0.054825436 0.078185454 -0.041692056 -0.041050293 0.04224303 0.015165349 -0.12356219 0.09295355 -0.081023745 -0.030240016 0.021375697 -0.0035312802 -0.057676703 0.0009985947 0.0013630826 0.01912854 0.06074353 -0.038140647 0.0034056054 0.13449162 0.048556097 0.0103908 0.028127525 -0.07326538 0.01678464 0.026708907 0.10762111 0.024474613 -0.044127602 0.040612835 0.028154835 0.013093705 -0.11483206 -0.069599114 0.010153559 0.118341014 0.07025445 -0.043948047 -0.13861948 -0.06577867 -0.027192567 0.041671157 0.033939783 0.11415688 0.02084393 0.076444894 -0.06887384 0.023544254 -0.035098214 0.05580691 -0.085056596 -0.049265496 0.1107946 0.06916814 -0.029709145 -0.07513471 -0.045196157 -0.0479165 0.043308258 0.05656711 -0.012806993 -0.029019888 0.0015702887 0.002478932 0.1134827 0.08947141 -0.033473566 0.013198782 0.021883236 -0.02968571 0.0012578211 -0.014741279 0.106141806 -0.09103847 -0.01932356 0.06036639 -0.077746265 0.044650353 0.05985903 0.011052671 -0.026007298 0.013610955 0.052467927 0.04639182 0.018176282 -0.011352012 -0.020538617 -0.12138358 -0.039708674 0.02219369 -0.020666933 0.020622937 0.0049853125 -0.035981897 -0.05480347 -0.016373951 -0.042021245 0.015979776 -0.13886002 0.010483047 0.014600517 -0.024558648 0.0782329 0.029012943 -0.013285943 0.01416752 -0.112595014 0.032414272 0.043900866 0.048546553 0.06360732 -0.02710545 0.08804518 0.10361072 0.03335439 0.04166571 -0.06307444 -0.03673258 0.10880271 0.025350854 -0.040605824 0.10553439 0.03084779
ghét 0.06934056 0.07926123 0.11010099 0.037581448 0.13984857 -0.036152586 -0.05694348 -0.044006348 0.003651335 -0.013718636 0.095010854 -0.08576133 0.057623263 0.016154226 0.057130013 0.0031546094 0.073785014 -0.03830728 0.13299155 0.056719717 -0.045305226 0.04040456 -0.026043665 0.025692262 0.01291512 0.016860925 -0.028764307 0.014550392 0.11876659 0.039037734 0.0058506303 -0.005741984 0.053436536 0.009210621 -0.0019001284 0.029187385 0.033827696 0.047792435 -0.039011948 0.0307209 -0.008557858 0.08276934 -0.041494146 -0.037590683 -0.057899687 -0.17312461 0.0016441046 0.010993186 0.009938472 -0.0151503915 0.05982981 -0.004008194 -0.033142995 -0.06164093 0.0516177 0.18739563 -0.008197952 0.0056951004 0.0324646 -0.056658357 0.029486714 0.0327697 0.066383295 0.01922097 -0.05466628 -0.027039936 0.08986752 -0.04468797 0.036236975 -0.059996415 -0.07094211 0.04539704 0.107916966 0.019265065 -0.05126467 -0.033707257 0.016225312 -0.018394884 -0.031407263 0.085719645 0.12678325 -0.018795906 -0.071740784 -0.05550794 -0.057207193 0.009438691 -0.09762134 -0.014596905 0.020742442 -0.1321684 -0.05105489 0.051808245 -0.033245377 -0.057330616 -0.035936855 0.020551782 -0.055275325 0.096027166 -0.04198938 -0.034962535 -0.100921504 -0.04494129 0.031158535 -0.038277265 -0.063123465 0.114159204 -0.0069186087 0.06532118 0.033739325 -0.018111758 -0.016695404 -0.114331216 -0.017110523 -0.07830398 0.049984656 0.007465549 -0.080725916 0.0008317404 -0.05030917 0.02409661 -0.014762788 -0.09693037 0.009094898 -0.04404058 0.09971114 0.077596165 0.022233557 0.0047231517 -0.0046061077 -0.009661699 -0.025293864 0.096549496 -0.039615 0.020277483 0.030244973 -0.037015554 0.063224524 0.1004675 -0.02787364 -0.062094603 0.03950628 -0.040508617 0.03327642 0.026375297 -0.04667823 0.14139822 0.013173016 -0.077410065 -0.09388292 0.06665691 -0.07881623 -0.05462204 0.05722143 0.0038636618 0.052242354 0.05943991 0.0109817805 0.039445333 0.024673892 -0.037253916 0.002580227 0.060757555 0.07701335 0.064502425 -0.045443997 -0.011118534 -0.077043265 0.020017654 0.05295057 0.07135006 -0.054843392 -0.0059928596 0.10189331 -0.10331343 -0.015729584 0.0047847475 0.019199252 -0.00066757126 0.05861216 -0.077052094 0.018061675 0.052943323 0.045459468 0.029358534 0.02519335 0.11641557 0.03089456 -0.0897737 0.05931054 -0.043804657 0.02372121 0.043147773 0.087731384 0.018140081 -0.09296501 0.0868016 -0.035600163 0.014914637 0.04534596 -0.007456212 0.055356633 0.059743162 -0.033196487 -0.10890694 0.010181501 -0.0525761 0.045674365 -0.018042708 -0.043577194 -0.03577488 0.024153434 -0.059510842 -0.06424537 -0.050536633 -0.04011977 -0.029126612 -0.033056594 0.024269309 -0.061540004 0.047914717 0.07840385 -0.03467105 -0.021015447 -0.09554075 -0.04174512 0.038788926 -0.017946295 -0.037323657 0.09666719 -0.009344392 -0.041270204 -0.0037828856 0.03644692 0.0581339 0.00826487 0.043912068 0.0049396236 -0.14911433 0.024996879 -0.11738159 -0.09405154 -0.016333032 -0.12626798 -0.06753995 -0.052031208 -0.06254671 -0.011388168 0.0649202 -0.013442288 -0.0670017 -0.05881277 -0.050695773 -0.041020673 0.13168478 0.051358588 -0.04992846 -0.061898373 0.02943913 0.012739595 -0.043775402 -0.0017933126 0.017140727 0.024459822 0.010997383 0.022170039 0.037785493 -0.017617771 0.027094156 -0.04242281 0.008572064 -0.056755144 0.0179688 -0.019002026 0.030633032 -0.03478086 -0.015073318 0.088662885 0.048407633 0.0154765975 0.060722705 -0.104733504 -0.0060619307 -0.048144367 0.073783256 -0.004599492 0.07548942 -0.08772201 0.030832727 -0.028817056 -0.026713565 -0.012976448 0.07469206 -0.08403194 -0.06728544 0.061424702 0.078417934 -0.0017429504 -0.07587903 0.03356028 -0.022923231
em -0.015013661 -0.015874417 0.072393775 -0.0045743184 0.16581932 -0.011001333 0.11365573 -0.114378385 -0.06839637 0.019013325 0.08264465 -0.14484915 -0.022684034 0.1077185 -0.02059779 -0.018316232 -0.01058874 0.0035719327 -0.015715312 0.046651714 -0.012606784 0.044477195 -0.032151528 0.064927585 -0.090732 -0.0011615029 -0.03264935 0.09431429 0.15132594 0.117209405 -0.026973195 -0.050227907 0.058577314 0.028727813 0.06950528 -0.1101043 0.027855746 -0.10287361 0.026579736 0.12949523 0.0021279266 -0.03210246 0.030508092 -0.015719214 -0.08489351 -0.045478206 0.04822644 0.022965148 0.11407661 -0.06284366 0.03807933 0.010504747 0.032767646 -0.07816391 0.059480913 0.046420895 -0.09499279 -0.04249689 0.0074133803 -0.02643571 0.035183284 -0.03869551 0.018723918 -0.07207035 0.0016146565 -0.03337985 0.06195127 -0.01588894 0.07574308 -0.043119155 -0.012360363 -0.030482097 0.04509928 -0.02537 -0.017818093 -0.04516509 0.06229244 -0.0821963 0.006387463 0.07179025 0.053105403 -0.0053087445 -0.014650499 -0.0046256604 -0.06158197 0.0453403 -0.09810645 0.012107718 0.02436003 0.05440588 0.03929204 0.10829043 -0.0704903 -0.090398744 -0.10722252 -0.047118187 0.038618244 -0.05834327 0.010137309 -0.06462594 -0.10340838 0.14446366 0.01474201 -0.033635825 0.06798311 0.05032971 0.04109117 0.08176451 0.10229384 -0.14097315 0.059905343 -0.027398197 -0.05933426 -0.08570511 0.059548695 0.07459945 0.029291319 -0.0095616365 0.010108647 -0.040442653 0.02063455 0.015980346 0.08553569 -0.017900966 0.013047582 0.12421273 -0.03971913 0.05835706 0.099959224 0.056786124 0.09572222 -0.09326464 0.0015013595 -0.04830485 0.0042093163 -0.008956491 -0.015125618 0.027527353 0.034668375 0.03036078 0.055463932 -0.011713723 -0.027110236 0.007885688 0.09145629 0.04327617 -0.03363478 0.013891837 -0.04698898 -0.0048551923 -0.08156403 -0.036349222 0.007527779 -0.07724627 0.031151049 0.011554938 -0.03953258 0.009677737 0.04749487 -0.030876387 -0.0069202646 -0.017562157 0.0754714 0.014816582 -0.09406667 0.012357177 -0.058284875 -0.09452696 0.032380436 -0.019543882 -0.049114313 -0.09331255 -0.010719783 -0.02523246 -0.012213318 0.11838499 0.06491098 0.012544996 0.05357965 -0.028770866 0.018995207 0.05192552 -0.03881814 -0.017306793 0.07717493 -0.026421748 -0.039661966 -0.055091858 -0.01161443 -0.05370223 0.05458989 -0.004376718 0.028801793 -0.01401682 -0.034966134 -0.015193554 0.04203358 0.04929936 0.021535724 0.0108696865 -0.024164703 0.004162085 0.005714543 0.09732677 -0.07093889 -0.010824815 0.0139039075 0.013095973 0.083100535 -0.008093935 -0.013713279 -0.029405573 0.12632468 0.033428904 0.07158131 -0.028146787 -0.020317601 0.0038544983 0.042753678 0.04820476 0.033175353 0.02961227 0.00022535908 0.00062782475 -0.040530145 0.03519181 0.05738319 -0.02675302 0.08289143 -0.02266051 0.004646098 0.017090462 -0.033463966 0.013899341 -0.012438046 0.053112812 -0.0060116653 -0.03704447 0.02723944 0.024713106 -0.14690551 0.07057033 0.023781138 0.046033565 -0.0046800384 -0.14853638 -0.0814888 0.043278206 0.013139756 -0.022628168 0.0045985323 0.03196397 -0.0010599374 -0.09153997 0.04054278 0.013700149 -0.006636629 -0.03574943 0.04027066 -0.0032671192 -0.02584903 0.066243194 -0.10959952 -0.019324074 -0.077376686 0.0118471775 -0.020625286 -0.043654446 -0.08218293 0.060605787 -0.12218043 -0.02547266 -0.10119505 -0.14734957 0.036459915 0.010750633 0.041605357 0.11276806 0.044978686 0.08765863 -0.0063269394 0.045268405 -0.013050734 0.05752573 -0.07401845 0.071240194 -0.050145708 0.008972334 -0.009738066 0.04986369 0.05068215 0.0115408655 -0.021173123 0.006757615 0.054310888 0.11882772 -0.047892064 0.020752946 -0.00041418106 -0.00227903
iphone 0.03072166666666667 0.004917 -0.05740916666666667 0.03179333333333333 0.023989333333333335 0.035936666666666665 0.010432499999999999 0.0028074999999999997 -0.027209 -0.029381666666666667 0.04096666666666667 0.009431333333333333 -0.006907666666666667 -0.033794833333333336 0.025783833333333336 -0.007548166666666666 0.006965833333333333 -0.032232833333333336 -0.009158833333333333 -0.043303 -0.019336000000000002 0.001253 -0.0011205 0.016876 0.009200166666666667 0.028635166666666666 -0.0015273333333333335 -0.003199166666666666 -0.010332333333333334 -0.024356166666666665 0.020292833333333336 -0.03230683333333333 -0.0156915 -0.040363 0.0164455 0.0182625 -0.048473499999999996 0.041758333333333335 0.009593000000000003 0.023893499999999998 -0.0246575 0.008865166666666667 -0.005432 0.0018751666666666665 -0.025936999999999998 -0.030059500000000003 0.04392516666666666 -0.0030450000000000004 0.002037 0.027327666666666667 0.008807333333333334 0.06234466666666666 0.03180283333333334 -0.035453000000000005 0.04939416666666666 0.006079333333333333 -0.0068484999999999996 0.033415 -0.01911833333333333 0.024957000000000003 -0.02509566666666667 -0.035279666666666674 -0.014499666666666668 -0.015533333333333335 0.011771166666666666 0.016859 0.038387166666666674 -0.0135345 0.03344516666666667 0.013904666666666668 -0.045387666666666666 -0.0118155 0.027392833333333335 0.012338333333333333 -0.05676016666666667 0.0076528333333333335 -0.028375333333333336 0.0277255 -0.022151166666666666 -0.019960500000000003 0.011910833333333334 0.0002395 -0.004698333333333333 0.031633666666666664 -0.02948133333333333 -0.06369999999999999 -0.003086 -0.005049666666666667 -0.0210645 -0.008575666666666667 -0.006384000000000001 0.03641783333333334 -0.007193833333333333 -0.018957666666666668 0.005415166666666666 -0.013034333333333334 0.003939166666666666 -0.03495633333333333 -6.933333333333336e-05 -0.008446333333333333 -0.015165999999999999 0.001226 -0.0030151666666666664 -0.019868166666666666 0.014449333333333333 -0.0011740000000000001 -0.019388666666666665 0.015488500000000002 0.0378685 0.0019686666666666667 0.040536166666666665 0.024742333333333328 0.0255015 -0.012021833333333334 0.009826166666666667 0.005709 -0.019103666666666668 0.0006108333333333333 -0.011308666666666667 -0.046619333333333325 0.013969833333333334 -0.003277 0.044499500000000004 0.027506500000000003 0.035888333333333335 0.010437166666666666 -0.011149 -0.014328500000000001 -0.0138365 -0.014694666666666667 -0.022031 -0.009652833333333333 -0.0250185 0.02447033333333333 -0.021578 0.01590566666666667 -0.021744 0.007676333333333334 0.0018530000000000003 0.05576916666666667 -0.006080833333333334 -0.007535166666666667 0.024457999999999997 0.024118166666666666 -0.039818 -0.043513500000000004 0.04615266666666667 0.0018706666666666665 -0.001174 -0.045654 0.0030891666666666667 0.015712833333333332 0.02889816666666667 0.034903500000000004 -0.005251666666666666 0.006419 -0.0021845000000000002 -0.022263 0.0129325 -0.02398233333333333 -0.016069333333333335 0.018700166666666667 0.02378116666666667 0.006390166666666666 -0.010794833333333332 -0.009085333333333334 0.025845333333333335 -0.031636333333333336 0.023786166666666667 0.0316015 -0.035048833333333335 -0.025139333333333333 -0.012614 0.03526783333333333 -0.023195833333333332 -0.031631 -0.010654166666666666 0.0039180000000000005 -0.033515833333333335 -0.028063333333333332 0.03851266666666666 -0.011554166666666666 -0.0031753333333333334 -0.009036666666666667 -0.007991666666666666 -0.014837499999999998 -0.00044300000000000003 0.01563016666666667 -0.07151533333333332 -0.003841833333333333 0.008206666666666666 0.03231883333333333 -0.03728616666666667 -0.04564083333333333 -0.007421500000000001 0.037969833333333335 -0.013531833333333331 0.005183833333333334 0.008254666666666665 0.0001395 -0.04672083333333334 -0.035322 0.015181 0.028617 0.0183265 0.010058666666666667 0.017709333333333334 -0.009765666666666667 -0.00709 0.039724999999999996 -0.034767166666666675 -0.0006115000000000001 -0.0067625 0.026731500000000002 0.003937666666666667 0.067004 0.007000666666666666 -0.028757500000000002 0.0039045 0.003469833333333333 -0.0007631666666666667 0.014001833333333333 -0.004713333333333334 0.0026745000000000002 -0.02164416666666667 -0.0048088333333333325 0.005547666666666666 0.0146695 -0.012232833333333332 -0.020890500000000003 0.000593 0.0008991666666666667 -0.012067000000000001 -0.032927333333333336 -0.041550166666666666 0.005927333333333333 -0.0160415 -0.03969966666666667 0.031166666666666665 0.03238233333333333 0.002773166666666667 0.03114183333333333 -0.013237833333333332 0.015278166666666667 0.0097845 -0.019024666666666665 0.045553500000000004 -0.005195333333333334 0.038455166666666665 0.056924833333333334 0.020857666666666667 0.014059000000000002 0.008077833333333334 -0.05180166666666667 -0.04126683333333333 -0.025012166666666665 -0.0066166666666666665 0.018082 -0.020797333333333334 -0.031131166666666668 0.0090325 -0.005282833333333334 0.03338533333333333 -0.0208 -0.030290833333333333 -0.017673333333333333 -0.026581833333333332 -0.010422333333333334 0.004762666666666666 -0.002366833333333333 0.0247795 -0.007233666666666666 0.010296333333333334 0.004755166666666666 0.01634333333333333 0.005315333333333334 0.005272666666666666 0.02833933333333333 0.04043733333333333 -0.05361183333333334 -0.0009933333333333333 -0.018015833333333335 0.0105735 0.022856500000000002 -0.028274833333333332 -0.002980166666666667 0.005742333333333333 -0.009628666666666666 -0.027874999999999997 -0.018509 0.010911166666666666 -0.04564633333333334 0.015545333333333333 -0.07033433333333333 -0.011200833333333333 0.009007333333333334 0.01614866666666667 0.010901000000000001 0.039662166666666665 0.0003003333333333333
thích 0.020422436 0.04448443 0.046646167 0.07666239 0.04756087 -0.038745094 0.06816947 -0.043121602 -0.009904328 0.017522696 -0.047120176 -0.02038113 -0.030763632 0.008641562 0.053933095 0.030435808 0.017603386 -0.050838616 0.10471516 0.01028441 0.023364699 0.069689885 0.008942991 0.00025816192 -0.0061107767 -0.020570226 -0.0190494 0.025266042 0.11400378 0.053546343 0.009502435 0.040266205 0.10998075 0.03801754 -0.010540343 -0.0038872403 -0.013761757 0.09372426 -0.022985278 0.09288525 0.061118122 0.045185678 0.012263158 -0.00080790505 -0.084250055 -0.021427633 0.025655806 0.01342499 0.018405741 0.027006144 0.093966834 -0.03643421 0.045250975 0.031386193 0.033922102 0.03604422 -0.0055783014 0.024864042 0.0019531702 0.02393215 0.023613537 0.015537887 0.046685573 -0.053849846 0.007492559 -0.059254814 -0.00071405893 0.05742217 0.005810519 -0.080381684 -0.035410568 0.02877515 0.11049505 -0.10940728 -0.059853148 -0.108431935 0.09090037 0.013014479 0.048926592 0.13793422 0.031560734 -0.024354506 0.021727722 -0.039122593 -0.031108404 0.027505632 -0.052695416 0.051848292 0.01609799 -0.021716097 -0.06370066 0.029169027 -0.027427243 -0.09301319 -0.02911353 0.029352145 0.063898034 -0.0051302486 0.0014435702 -0.013741202 -0.09749939 0.050255034 0.0058440603 0.029758366 -0.08232465 0.0648821 -0.04597905 0.1379887 0.05791108 0.05422726 -0.00621843 -0.030794375 -0.0640167 0.0009150119 0.034961328 -0.05466276 -0.09563657 -0.016183669 -0.04285288 0.05951956 -0.0082922615 -0.078253865 -0.009985537 -0.021582652 0.011380158 0.07808075 -0.026372435 0.089186676 0.023633566 -0.024912331 0.023395028 0.043038104 -0.09634674 0.040012375 0.03776551 0.0033734813 -0.050552357 0.12594193 -0.038230836 -0.10078587 -0.012959482 0.0056410204 -0.0040518083 0.002257425 -0.021800946 0.15927917 0.0019272615 -0.022863934 -0.16136107 0.045590732 -0.07805866 -0.010131448 -0.04063658 0.04000732 0.05773497 -0.007819256 -0.012429701 -0.026779968 0.014109152 0.038020518 -0.024986142 -0.05767189 -0.07148062 0.067903325 -0.07657019 -0.018197505 -0.07293135 -0.0013527467 0.09763038 0.07745351 -0.0016741127 -0.0070783473 0.07644278 -0.09425698 0.02704613 0.03814367 0.0049612536 -0.088787936 0.028492087 0.0017854868 -0.052436918 0.11383069 -0.019419048 0.021006081 0.07246389 0.027227622 0.063711286 -0.07287996 -0.0077029327 -0.0962714 -0.007508707 -0.030562911 0.07063907 0.13224432 -0.009127692 0.098370634 -0.019568732 0.074468 0.034516677 -0.015981164 -0.025998224 0.097662486 -0.021741329 -0.06963177 0.04207809 -0.11784854 -0.04194471 -0.009193687 -0.084865294 -0.05701189 -0.0019522805 -0.022284893 0.079644784 -0.09848639 -0.044754643 -0.07887525 -0.07872978 0.061879437 0.071742244 -0.04672881 0.062433757 0.008872618 0.033498086 -0.04294635 -0.015972372 -0.07379104 0.041381016 -0.058749504 0.045180038 0.00083483156 -0.019426588 0.01296396 0.012568932 0.013260802 0.043864578 -0.03570971 0.077668354 -0.09359126 0.0121658575 -0.022982145 -0.06264402 -0.03289735 -0.084932856 -0.020979075 -0.05926776 -0.048077226 -0.025308251 0.040217426 -0.01957092 -0.06177171 -0.021096775 -0.10126178 -0.004027196 0.10212886 0.041213725 -0.018448155 -0.058559887 0.018070133 0.108130954 -0.13431221 -0.035064623 -0.06326241 -0.0014320257 -6.076443e-07 -0.03056927 0.040789567 -0.0708288 0.0866863 -0.025244517 0.01623614 -0.12420565 -0.024779432 -0.03479918 0.0029384864 0.051518973 0.0083878115 0.07168331 0.10777576 0.049806498 0.12662415 -0.024716903 0.023339232 -0.10381404 0.11360065 0.016872495 0.04826581 -0.10429107 0.061268773 -0.08984777 -0.12678857 0.01783981 -0.014768364 -0.061201688 -0.07511039 0.019667836 0.046822097 -0.07443656 -0.1287151 -0.023393543 -0.021259159
hận 0.048183467 -0.00918605 0.055858165 0.027801195 0.08913206 -0.06707716 -0.06059557 -0.09308578 0.044213478 0.039209846 0.04875213 -0.11604053 -0.0128863435 0.03627255 0.042014603 -0.007775614 -0.040388737 0.08831061 0.09361314 -0.03209579 0.017284065 0.07139899 0.00016884693 0.037353344 -0.041857343 0.058691856 -0.031745195 0.03972668 0.044684127 -0.089953154 0.03289618 -0.021354191 0.096112445 0.02665753 0.056057554 -0.02234979 -0.05944518 -0.056533124 -0.038542155 0.039962895 0.02700821 -0.021690585 -0.05696239 -0.005670354 0.063394755 -0.20097071 -0.02278259 0.011833924 -0.014139147 0.03467556 0.09810472 0.074484006 -0.00815516 -0.053157922 0.028561816 0.11483584 -0.0044024806 0.012389116 -0.12838168 -0.008767841 0.02408612 -0.043770913 -0.00772481 0.047910128 0.018596968 0.008422452 0.03508739 0.004157071 0.0073430687 -0.12941585 -0.0020805828 -0.039159816 0.04529197 0.06459223 0.0028971115 0.024656875 0.011733189 0.08974682 -0.010091259 0.0209926 0.057507884 -0.0008294222 -0.014655167 0.040383015 0.11411325 0.090879954 -0.08701823 0.005639908 -0.09921453 -0.056192514 -0.082759425 0.049686693 0.02390425 -0.00084889325 -0.08057032 -0.057534687 -0.07214964 0.087856136 -0.07262281 -0.09084255 -0.12342641 0.06308594 0.021846829 -0.112918705 -0.03586457 0.043728355 -0.054588217 -0.029721644 0.0655897 -0.039609965 -0.1126015 -0.0032565016 -0.032025963 -0.04230688 0.08425662 0.12671366 0.015458153 0.014241985 -0.014591132 0.014644658 0.0034709733 -0.13403001 0.052241188 -0.046823062 -0.0059241904 0.10463246 -0.021659996 0.0890357 -0.0502756 0.06808046 0.018628616 0.10189973 0.03816851 -0.04017365 0.06690312 -0.0021352107 -0.02055199 0.061758965 0.029870473 -0.07839389 0.0023593814 0.055072453 0.02261778 -0.00628005 0.073771976 0.017891394 0.0014869223 -0.12339359 -0.03780026 0.11110372 -0.019647462 -0.075544514 0.012634226 -0.028679594 0.05880867 0.026178725 -0.015693078 -0.029657917 0.05856949 -0.00028531367 0.0010360859 -0.031545367 -0.034837868 0.065282464 -0.08616596 0.058417965 0.11839723 0.009266717 -0.07034483 -0.034442365 -0.101750635 -0.02182912 0.14520547 -0.08455264 -0.062068425 0.04314271 0.020775238 0.07681933 0.08355731 -0.04001179 0.092639595 0.09111564 0.07838036 0.05097221 -0.12387393 0.0779257 0.033463202 -0.038168635 0.06454193 -0.05938584 0.07694567 -0.07026175 -0.018258372 0.099926434 0.023405915 -0.018117841 0.10285648 0.013475184 -0.019209705 0.034503143 0.06916879 0.05716971 -0.100236095 0.07153408 0.0879155 -0.009830401 -0.002754247 -0.026085813 -0.013856497 0.017774343 0.021823157 -0.030976662 -0.059277564 -0.001577584 0.019134995 -0.09394474 0.012789129 -0.021589067 0.0053204945 0.06073531 0.019369623 -0.014751022 -0.032099456 -0.072827965 -0.002421235 -0.051035177 0.01075019 -0.08026646 0.077457234 0.017460529 -0.0634862 -0.0003143619 -0.07114481 0.0692336 -0.06060702 0.0736755 -0.022589242 0.031357158 0.020350223 0.005949191 -0.12923996 0.014506867 -0.05671228 -0.04125332 0.0842656 0.029140268 0.024386838 0.0011841662 -0.02339011 -0.035178125 0.046822134 0.061466485 -0.013788119 0.020771723 0.0036730403 0.037785627 0.058634542 0.033769783 0.04096073 -0.031637393 -0.031312592 0.06355981 0.0032839223 0.0035885083 0.015493161 0.08715381 0.04290939 -0.028271155 -0.01686079 0.11341865 -0.054399796 -0.069468535 -0.02312066 -0.073873125 -0.05680443 -0.0029416368 0.08562051 0.087993845 0.044836193 -0.026824228 -0.048937906 0.043400124 -0.011399851 -0.005055082 0.00042782965 0.0868978 0.021987557 -0.059007134 0.029067943 -0.037638083 0.03795958 -0.023309782 0.0037724653 -0.026247896 -0.0063198726 0.01083723 0.0138808265 -0.0108614145 0.022550082 -0.07916056
đắm_say 0.035702 0.003980857142857142 -0.053504142857142854 0.03221771428571429 0.02075242857142857 0.03124714285714286 0.013928285714285714 -0.004067285714285713 -0.029518714285714287 -0.02486771428571428 0.039360285714285716 0.002806714285714285 -0.008131285714285714 -0.023265857142857144 0.022190714285714286 -0.006307999999999999 0.011657142857142856 -0.02956114285714286 -0.005587571428571429 -0.03802957142857143 -0.019681 0.0022124285714285722 0.0006238571428571431 0.01662257142857143 0.001853 0.02697257142857143 0.0027574285714285713 -0.0036337142857142857 -0.0029519999999999998 -0.019487285714285714 0.021438285714285715 -0.030772714285714285 -0.008924857142857142 -0.031124857142857145 0.01901614285714286 0.012129571428571429 -0.040841714285714294 0.03329128571428571 0.00568242857142857 0.027204428571428574 -0.018581571428571426 0.012166571428571428 -0.009059857142857144 0.001293 -0.026378142857142853 -0.03102371428571429 0.041379285714285716 -0.005009428571428573 0.005132 0.026112857142857143 0.010681428571428573 0.057486714285714294 0.02998428571428571 -0.03662714285714286 0.050667 0.0043487142857142865 -0.009377285714285715 0.034112142857142855 -0.01753942857142857 0.021653428571428573 -0.02217614285714286 -0.03190328571428571 -0.012284285714285716 -0.010972714285714284 0.01253842857142857 0.012757571428571427 0.038394428571428565 -0.016060857142857144 0.030459142857142858 0.011976571428571428 -0.04228085714285714 -0.013794571428571425 0.02658 0.013561857142857141 -0.049720714285714285 0.012235000000000001 -0.01875342857142857 0.027661857142857144 -0.019043428571428572 -0.01651657142857143 0.013259428571428571 -0.0019421428571428571 -0.0012818571428571425 0.03199085714285714 -0.023910571428571427 -0.054441142857142855 -0.00786857142857143 -0.00922042857142857 -0.01359757142857143 -0.015065285714285713 -0.0036342857142857145 0.03479271428571428 -0.006764142857142857 -0.017945428571428574 0.004744857142857142 -0.014016142857142855 2.6000000000000354e-05 -0.028157285714285718 -0.0038822857142857136 -0.008542571428571429 -0.014890142857142855 0.008143857142857144 -0.0027311428571428578 -0.015157 0.016174285714285714 -0.004676 -0.01785542857142857 0.009452285714285715 0.04152528571428571 0.005572571428571428 0.033860857142857144 0.022775857142857143 0.019242428571428574 -0.008984571428571429 0.010134 0.0050461428571428575 -0.019351142857142855 -0.002210857142857143 -0.007771 -0.04494942857142858 0.007641857142857144 -0.0035112857142857138 0.045478714285714296 0.024913714285714286 0.032718285714285714 0.012446571428571428 -0.013141285714285713 -0.014172714285714285 -0.011939428571428571 -0.008726857142857142 -0.014421999999999999 -0.006474714285714286 -0.023751857142857147 0.024041285714285716 -0.018005714285714285 0.018321285714285714 -0.020860285714285713 0.013666999999999999 0.0022405714285714286 0.04634814285714285 -0.007906571428571428 -0.0031347142857142854 0.026600142857142857 0.024695857142857148 -0.038662857142857145 -0.035913571428571434 0.04284085714285714 0.0004268571428571429 -0.004044857142857143 -0.040840714285714286 0.004995285714285713 0.009833428571428571 0.024998999999999997 0.03072 -0.004796000000000001 0.008971999999999999 0.00167 -0.021051571428571426 0.005271142857142857 -0.024544142857142855 -0.011376285714285716 0.01452142857142857 0.020447857142857146 0.006906857142857143 -0.014465142857142855 -0.007716285714285715 0.022790428571428573 -0.030101857142857142 0.02692785714285714 0.027322571428571425 -0.03298971428571428 -0.02493771428571429 -0.013454285714285716 0.02807357142857143 -0.024712428571428576 -0.025451571428571428 -0.0039049999999999996 0.0036442857142857145 -0.02271185714285714 -0.02618971428571429 0.036305 -0.005518142857142856 -0.004316428571428572 -0.007544285714285714 -0.010476571428571429 -0.010429571428571427 0.0011138571428571428 0.011214 -0.06572914285714286 -0.008236857142857143 0.010567857142857143 0.02773628571428571 -0.032573000000000005 -0.029272 -0.013520571428571425 0.03498885714285715 -0.005473 0.0028867142857142863 0.009524142857142858 -0.00017500000000000003 -0.043653571428571424 -0.033899428571428566 0.012689142857142855 0.027494428571428576 0.022720999999999998 0.004914571428571429 0.014784142857142859 -0.011413000000000001 -0.008312285714285715 0.03192242857142857 -0.035359428571428576 0.0013294285714285712 0.00038514285714285734 0.018208571428571428 0.007099571428571428 0.05693771428571428 0.009471714285714286 -0.024547285714285712 0.0037761428571428573 0.010671285714285713 0.009223714285714285 0.009572571428571429 -0.003733571428571429 -0.007099714285714285 -0.016010714285714288 -0.004519142857142858 0.008136714285714285 0.013723 -0.008729142857142855 -0.01835785714285714 -0.00041042857142857146 -0.006710571428571429 -0.012885428571428572 -0.03539485714285714 -0.03873457142857143 0.00922985714285714 -0.014655857142857142 -0.04312071428571428 0.02744342857142857 0.026921000000000004 0.002742285714285714 0.030405428571428576 -0.016467285714285716 0.010253714285714286 0.005501428571428571 -0.012715428571428572 0.03803371428571429 -0.002460571428571429 0.031764714285714285 0.053971428571428566 0.013786714285714286 0.013702285714285712 0.010443571428571429 -0.048286142857142854 -0.03447328571428571 -0.022426571428571428 -0.007564285714285715 0.020196142857142857 -0.018473 -0.03326342857142857 0.008520857142857143 -0.003727857142857143 0.023933714285714287 -0.02144357142857143 -0.030397 -0.02064757142857143 -0.02148514285714286 -0.010815999999999997 0.0018968571428571428 -0.0006154285714285715 0.02023285714285714 -0.007855714285714284 0.008901142857142857 0.0018198571428571428 0.017402857142857144 -0.00016099999999999993 0.008795142857142856 0.025696142857142855 0.03737185714285714 -0.04898142857142857 -0.002048714285714286 -0.013250857142857144 0.008211857142857142 0.02059357142857143 -0.030653999999999997 -0.0010755714285714286 0.004717285714285714 -0.004603 -0.030251142857142855 -0.01348042857142857 0.012580000000000003 -0.04157171428571429 0.014565999999999999 -0.0641227142857143 -0.009638571428571429 0.009994 0.012000142857142859 0.007542714285714285 0.03847642857142857 -0.0017545714285714287
đẹp 0.024198605 0.0022399367 -0.045302846 0.08952127 -0.007366894 0.023143025 0.059535623 -0.101623744 0.08247864 -0.019296998 -0.06261184 0.10584261 -0.08952162 -0.056864798 0.045854542 -0.058292158 0.008470771 0.00059958507 0.11049921 0.080689706 0.09321739 -0.0006795869 0.056371406 0.06299047 0.10613797 0.0034695417 0.051385067 0.021726696 0.124428034 0.14744397 -0.00069224235 -0.078487225 0.0707239 0.0015371958 0.054287273 0.01172339 -0.041580413 -0.005963012 -0.002278593 0.086315475 0.053482268 -0.004879512 0.037499215 0.06174701 -0.09568977 -0.07770263 -0.008016729 0.10894425 0.081719056 -0.044744205 0.026618002 0.021771165 0.012055486 -0.030474288 -0.017421963 0.05332164 -0.026585909 0.03345601 0.015817516 0.026377888 -0.020084267 -0.06086071 0.17757665 0.057912316 0.011686584 -0.033628054 0.016430957 0.11167193 -0.027756061 0.0078109493 -0.08235507 -0.04747257 0.04798897 0.026386995 -0.034743685 -0.044998825 0.05904129 0.014618776 -0.033776555 0.04073598 -0.00646814 -0.070508 0.0202216 0.04879181 0.06737999 0.01957038 -0.039986067 0.015342124 0.06034429 -0.10203988 0.012942351 0.12854314 0.024550833 -0.057493813 -0.08102955 -0.057307497 0.020719644 0.068671815 -0.027132953 0.024737624 -0.09230065 0.09371235 -0.049085837 -0.028127333 0.01627163 0.028614797 -0.07944286 0.034247544 0.020660426 0.037142098 -0.08245897 0.062826715 -0.08345757 -0.030671868 -0.025578126 0.06953795 -0.038440563 0.022746608 -0.015565126 0.055687334 0.013937676 -0.10086608 -0.024206111 0.02559825 -0.05924177 0.036858235 -0.0745214 0.030379623 0.07952315 0.033441026 -0.016340885 -0.09457289 -0.045930225 -0.03560413 0.028820153 0.056262095 0.004747544 -0.009177201 -0.05830973 -0.08220972 0.010674558 0.09436931 -0.009552099 0.04477452 -0.059568875 -0.06243209 0.015009336 -0.0908955 -0.1268678 -0.056194093 0.00024117519 -0.029887661 0.0026215801 0.021716049 0.07293006 0.03450569 0.026752083 0.023104837 -0.07399484 -0.023234554 0.06123638 -0.05493504 0.0029359634 -0.06795134 -0.016079266 0.073162235 0.014742181 -0.020862265 0.053300444 0.0017816557 -0.06407494 -0.039449517 0.036865547 -0.0031550152 0.046063613 0.06607269 0.10670794 0.0341963 0.043547064 0.023225153 0.018149152 0.09420039 -0.081834 -0.03556252 0.06433545 -0.00903933 0.024243148 -0.06814607 0.021304497 0.024678128 0.08288555 -0.07569254 -0.018513234 0.14710543 -0.05424535 0.0046413816 0.015283713 -0.03218668 -0.032973863 0.026192546 0.0072870925 0.03485534 -0.058417574 0.07620065 -0.074222386 -0.017905667 -0.0323787 0.054903254 -0.049105406 0.01597325 -0.022394542 -0.032762542 0.04360289 -0.028931903 -0.062219895 -0.12979497 -0.035020966 0.034217935 0.04021396 0.015933597 0.07751889 -0.013587611 0.053774837 -0.061323415 -0.0049706292 -0.03738011 0.07328384 0.072868325 0.020122401 0.021445291 0.09151521 0.023462692 0.019775424 -0.10933694 -0.01892914 0.045217656 0.0643716 -0.11051954 -0.0123802 -0.009872762 0.056554787 -0.07133871 -0.11174496 0.03803093 -0.011635366 -0.06875021 -0.019528793 -0.02446714 -0.012870537 -0.09570262 -0.05551382 -0.03926648 -0.06146985 0.010903402 0.08787928 -0.1272346 0.0017630601 3.3585333e-05 0.092771195 0.024716567 0.009416744 0.0008313053 -0.035764854 0.083975196 -0.058827173 0.044746567 -0.041073695 0.024191663 -0.018260285 -0.046401273 -0.060925066 0.07669007 0.038602524 0.01862674 0.052781265 0.08386494 0.07006137 -0.02059966 -0.12418325 -0.011407115 -0.08963947 0.111128256 0.02008081 0.015167023 -0.09425479 0.0732859 0.007138103 0.030744465 0.050368916 0.05269571 0.006812319 0.0007985205 -0.01958129 -0.031627093 0.0033323143 0.03168576 -0.09450239 -0.12833603 -0.0183436 -0.09233751
giận 0.12446177 -0.016245624 0.0824515 -0.01177319 0.098702595 -0.06469618 0.041248694 -0.12416619 0.0290584 0.006760187 0.046517063 -0.07770925 0.04152684 0.10240929 0.01698983 -0.004489177 -0.012738189 0.0015449694 -0.012220997 0.08298654 0.0019604366 -0.01420368 -0.008614051 0.029734306 -0.013247313 -0.06915537 0.083238415 0.020562602 0.07218065 -0.07118027 -0.035450574 -0.03542089 0.041750975 0.06906948 -0.02313028 0.09777204 0.095344305 -0.030681472 -0.019423869 0.013439839 -0.024419993 0.026047887 -0.13402006 -0.01941324 -0.057961684 -0.15006807 0.0033905583 -0.040563572 -0.054955542 -0.016860621 0.07517603 -0.08947319 -0.042558737 -0.074510895 0.024666509 0.13189058 -0.07185078 -0.018563425 -0.12719618 -0.09954316 0.00092647003 0.018381113 0.012740662 0.060973424 0.014928052 0.0005814379 0.032135077 -0.010954264 0.06655101 -0.07492325 -0.037775405 -0.048482217 0.0935454 0.04695552 -0.025203407 0.0509035 0.08663183 0.01696905 -0.012248205 0.08589947 -0.022627966 0.059004676 -0.05660021 -0.004333145 -0.014020785 0.076891564 -0.13195744 -0.024863055 -0.01957306 -0.111996494 0.025596887 -0.005344544 -0.07044205 -0.11126748 -0.027160477 -0.054781485 -0.052667476 0.056175716 -0.035374243 -0.0836559 -0.10883411 0.094644435 0.037547395 -0.07179227 0.003058682 0.069451034 0.012261008 0.019441346 -0.018759836 -0.012304102 -0.006939959 0.028913472 -0.06618028 -0.049993552 0.068207294 0.05430586 -0.08383908 -0.032540906 -0.06986224 0.08417668 -0.08401777 -0.01737301 0.10801028 0.043831993 0.049180195 0.10933634 -0.045423023 0.0061156754 -0.074249566 -0.0052661207 0.055313237 0.05659838 0.050084744 -0.03572657 0.047633614 -0.043381788 0.05520562 0.039978575 -0.031992152 0.043311756 -0.02244063 0.011852837 0.026043938 0.09257839 0.058264717 -0.034256544 -0.037511513 -0.11588595 -0.029285852 0.08222819 -0.026879609 -0.010955888 0.007434214 0.074588194 0.09866159 -0.036915712 0.0595549 -0.04431397 0.0037547143 -0.0680715 0.040485848 0.01632181 -0.013325536 0.039871003 -0.04885239 0.09343915 -0.03019012 0.0074111857 -0.02118441 0.017907694 -0.058338623 -0.0303739 0.048433222 -0.13245198 0.0021101597 0.03886507 0.08083113 0.101824105 0.046160765 -0.090811014 -0.025580099 0.086285576 -0.0036828925 -0.033178043 -0.035695843 0.059085246 0.053796623 -0.05430473 0.013878389 -0.051764186 0.101638496 -0.010871885 0.06780234 0.022943292 -0.037377067 0.081145965 -0.021234019 0.012896485 0.013391572 0.058507953 0.07221042 -0.076813586 -0.09145988 -0.01401145 0.073228575 -0.020078382 0.06214999 -0.05880057 0.024837926 -0.06709462 -0.041353565 -0.061897375 -0.080653004 -0.00038843698 -0.017023614 -0.06076072 0.08685115 -0.021374203 0.08309745 -0.010740365 0.08372814 -0.03478426 0.045615193 -0.06780214 -0.020877834 0.043809384 -0.062020946 -0.026023047 0.120380044 -0.013066167 0.003468067 0.038984396 -0.015821267 0.048151013 -0.05888576 0.08047545 -0.054816578 -0.0436177 0.046169683 0.015886929 -0.06601768 0.09069041 -0.033888534 -0.03834633 0.016562529 -0.11076196 -0.019719703 0.023020146 -0.026509415 -0.09096549 -0.047867604 0.06002538 0.063371144 0.006453967 -0.011331438 0.04624641 -0.02876071 0.0645907 0.02950419 -0.09487026 0.046708964 0.025057647 0.008050432 -0.06439795 0.008353052 -0.000295365 -0.101091996 -0.034217715 -0.09415785 0.0979184 -0.06343582 -0.034832492 -0.08312431 -0.038089715 -0.017583197 -0.007775379 0.06708927 -0.049548354 0.010777769 -0.029861433 -0.07247863 -0.0015117907 -0.014372959 0.018852208 -0.05742062 0.116211414 -0.024512192 0.036990844 0.042353522 -0.010604275 0.027344406 0.023964731 -0.02538268 0.010681326 0.05640706 0.05968788 0.059646104 -0.04669583 -0.0006689815 -0.066467024
đà_nẵng 0.056103278 -0.038827114 -0.048053317 0.030066928 -0.041587718 -0.013254391 0.13227035 -0.035680883 -0.0010324799 0.043013476 -0.10081516 -0.0892772 0.011963957 0.014628697 -0.010901445 -0.029735705 0.045577884 -0.005426327 0.015780414 0.02617437 -0.015830286 -0.03784375 0.012233246 0.030549334 -0.0659945 -0.023638703 0.022616344 -0.04678702 -0.0065457993 -0.05225301 0.026933601 0.043085348 0.000859717 0.024179803 0.0005906286 0.11916508 0.017467469 -0.030751776 -0.023335861 0.019567778 0.000111844136 0.05696778 0.12954035 -0.044015836 0.067928545 -0.072630435 0.028376512 0.055298366 0.13907677 -0.007890285 -0.09180925 0.024364095 -0.009792207 -0.016189015 0.04495026 -0.13529818 -0.04004909 -0.064659834 -0.0027340003 0.020475235 0.030230613 0.03879151 0.011272302 0.024895463 -0.04046652 0.008833104 0.0037252977 -0.001673811 0.004615195 0.11454664 0.08909599 0.09819175 -0.10534437 0.022964433 0.04459345 0.009094382 0.1892716 0.12886801 0.12468851 0.03684527 0.0009453352 0.08086995 0.08130967 0.095062464 0.11279898 0.07950821 -0.075476006 -0.06543415 0.09425416 -0.0929051 0.10964827 0.024997089 -0.03350427 0.020416409 0.035104893 -0.12044779 -0.093646236 0.04244756 0.058545224 0.0461498 0.028694822 -0.020201843 0.048508417 0.080575354 0.042212557 0.03457803 -0.14293626 -0.012455799 0.044397265 -0.024495281 0.0028392253 -0.0018564464 -0.0068039997 0.03547071 0.013330023 -0.025092337 -0.026958419 0.047070857 0.06434942 -0.07803835 -0.0059970724 0.04399078 -0.027838148 -0.04449835 -0.020026354 -0.016475162 -0.03250933 0.01681499 -0.031708825 0.004481896 0.0508846 -0.030448863 -0.022146452 0.0016566938 0.032234345 -0.037344005 0.08030531 -0.038143843 0.0043210457 -0.05786498 -0.0055773095 -0.021116909 -0.0015309849 0.0013086228 -0.077915475 -0.0601032 -0.03442889 0.030592332 -0.0026993023 -0.021948244 0.081601486 0.0052936324 0.027839692 0.0015571561 -0.02397057 0.0065549724 0.025031975 -0.01402924 0.046592318 0.032136023 -0.079462335 0.06696229 0.024622168 -0.0064883903 -0.11936202 0.08895618 0.09221192 0.033744894 0.025669953 0.009015928 0.017627925 -0.0022504316 -0.023148006 -0.010038084 0.0033662152 0.10594722 0.071722455 -0.003521555 0.05763649 -0.033258747 0.031818997 0.006660981 0.01926512 -0.061260615 0.034861375 -0.07085643 -0.049011618 -0.00022619778 0.0026696662 -0.030949602 0.018559622 -0.05801771 -0.03584147 0.030529961 -0.011684642 -0.050288852 0.07224534 0.041960746 -0.042060412 -0.042746514 -0.012248043 -0.00678738 0.02671826 0.09816952 0.001604482 -0.020035122 0.03452316 0.023835318 -0.015590383 -0.07677766 -0.006646106 0.046363186 0.10277635 0.14055543 0.02988086 -0.14573292 -0.050803296 0.00014546413 0.014903543 0.046998594 0.12238579 0.089980215 0.0786036 -0.09423452 0.066332996 0.060300414 0.084120736 0.026480597 -0.042818546 0.0625553 0.069562376 0.0031497707 -0.07974977 -0.041814193 -0.040817905 0.09093336 -0.024796244 0.007355551 -0.021025728 -0.012491377 0.023419749 0.022391353 0.05589965 -0.077718735 -0.007462316 0.06120888 -0.05114006 -0.021091642 -0.06163383 0.07776262 0.0090836445 -0.0075311684 0.10488322 -0.106717244 0.04199409 0.08059604 0.062299825 -0.022523154 0.103723906 -0.015553006 0.029420989 -0.05112986 -0.03710162 -0.018818099 -0.03762358 -0.14039458 0.071604975 -0.029788591 0.05705605 0.0516338 0.011686048 -0.097283185 0.02001665 -0.094861634 0.016745886 -0.20447819 -0.004617139 -0.0037987968 0.028918004 -0.014995294 0.03515325 0.024554204 -0.0032748017 -0.08046936 0.00180064 0.02650994 0.028962517 0.07823289 -0.032302327 0.037775937 0.08051944 -0.029679332 0.07328921 -0.0097799385 -0.014859438 0.12491189 0.017571185 -0.035924036 0.059635065 -0.011145971
cậu -0.009385057 0.01620315 -0.0063498495 0.04776901 0.11459701 -0.03123495 0.021409813 -0.13626398 -0.1420724 -0.03673628 0.054343436 -0.019478256 0.10627294 0.05706491 0.029455628 0.0033549396 0.04934172 -0.015737098 -0.061340857 0.033223744 -0.02019868 0.041473273 -0.028395612 -0.00651252 0.043474697 0.050145287 0.022761703 0.0663902 0.09704205 0.05141823 -0.04456734 -0.00056487357 -0.013633423 0.019788302 0.09608143 -0.07839902 -0.037596285 -0.056352668 0.040849928 0.12930666 0.05634199 -0.0051695467 0.08397305 0.00807341 -0.07472846 0.008347032 0.007753195 0.04224243 0.09825787 0.08917333 0.05246649 -0.054945055 0.055284742 -0.036732487 0.018692948 0.045872975 -0.1634557 0.054547053 -0.05048311 0.048775062 -0.008125404 -0.0175675 -0.024996068 -0.012397278 -0.015496537 -0.04090248 0.042152863 0.011736796 -0.04441202 -0.02545688 0.008682386 -0.004933107 0.055687655 0.0027576503 0.0016381444 0.07403902 0.036529467 0.016552433 -0.0066377195 0.039767783 0.0131583195 0.006840689 0.004237919 -0.017217996 -0.014565432 0.037684448 -0.15705453 -0.11101679 -0.0218364 -0.019603381 -0.050202828 0.059274167 -0.06378634 -0.16974382 -0.02922999 -0.042174015 0.04821988 0.09215981 0.005974103 -0.02067136 -0.11225192 0.043396313 0.0451975 -0.058266766 0.04425568 -0.012954008 0.070299074 0.061968233 0.028483542 -0.04918525 -0.010861584 -0.01179712 -0.013821409 0.020256892 0.08040433 0.07198015 -0.03256119 -0.006344624 0.04885468 0.02777864 -0.06740715 -0.06898989 0.032659907 0.03375616 -0.040866483 0.1272146 -0.105023116 0.09638237 0.008689984 -0.042935938 0.09642488 -0.052282315 0.022767413 0.024655767 0.019082585 -0.05254197 -0.0041322345 0.043208156 0.0093867015 0.045691125 -0.02596768 0.041320853 0.01517122 0.016833616 0.03366494 0.07959997 -0.063260265 -0.0313011 -0.04287387 0.07068249 -0.019361699 0.022600867 -0.06943686 0.024940714 -0.011086319 -0.030235648 0.031997006 0.002764828 0.008556658 0.009694417 0.0117092915 0.022650944 -0.0014704854 -0.018031659 -0.037124384 0.034595672 -0.0013706934 -0.092855796 -0.013596077 0.011209303 -0.019346973 -0.12722161 1.060929e-05 -0.0018346128 -0.02385513 0.04958661 0.05694029 -0.014781215 -0.03319346 -0.030997522 -0.002868398 0.04061758 0.044316433 -0.042553768 0.08792715 0.0022858814 -0.0683724 -0.17572007 -0.0036386284 -0.11012537 0.06877357 -0.07614781 0.014582947 0.11385233 -0.06832872 -0.026861016 0.018761246 -0.04308253 -0.020037094 0.02573204 0.022873145 0.041890047 -0.03034655 -0.070391536 0.042178057 -0.055983424 -0.018373689 0.07403884 -0.02198117 -0.0931341 -0.0077971853 -0.05601097 0.11539159 0.003337963 0.017613614 -0.032351743 0.043800946 -0.05640736 0.061046913 0.039794777 0.0641721 -0.058286987 0.02612332 -0.047593363 -0.06813762 0.0882533 0.07695892 -0.11681274 0.10505767 0.053353935 -0.0979287 0.06824155 -0.02820941 -0.04382239 0.01823084 0.0036192497 -0.0056751184 -0.05006868 -0.048125464 0.06577114 -0.11843154 -0.0059824027 0.074829094 -0.050923187 0.091307 -0.04626175 0.011988911 0.1174091 0.049817074 -0.10574615 0.062506616 0.002390233 -0.008082548 -0.10420177 -0.057335928 0.014929442 -0.0062050684 0.027769981 0.034753297 -0.046787698 -0.07369727 0.1008771 -0.024975456 0.06372819 -0.007484832 -0.047350854 0.009579572 0.038641185 -0.108969554 0.09207548 -0.004854968 0.005791917 -0.024753982 0.04439979 0.049280386 -0.010254904 0.13735704 0.17156133 -0.0626278 -0.004495783 -0.009497131 0.10847374 0.0021116554 0.037226416 -0.040122714 -0.02698943 -0.02501488 0.009175418 -0.003986821 0.012685651 0.11068667 0.07023986 -0.02338503 -0.009314187 -0.02383409 0.07480883 0.053923503 -0.058707226 -0.013974561 -0.025846004
bé -0.0814848 -0.026742786 0.041055266 0.043186612 0.032506477 -0.025230395 0.0257917 -0.10242199 -0.0037215962 0.027732205 0.00961043 0.008660815 0.11275265 0.08180435 0.032750558 0.049577996 0.08303964 0.0054378207 -0.033578485 -0.008455207 0.11750403 0.04141419 0.08057304 -0.014262438 0.028616767 -0.08037122 0.040341787 0.053336114 0.09205033 0.09634389 -0.020408347 -0.03630523 -0.0657765 -0.00016814121 0.10023541 -0.053003065 -0.01972753 -0.12088238 -0.0051542055 0.12703034 0.11919167 -0.025136504 0.070946984 0.021790259 -0.07145873 -0.008248658 -0.07340291 0.066894665 0.1533863 -0.010656436 0.03776576 0.012564061 0.089356326 -0.013621673 -0.0042465664 0.08061505 -0.08167962 0.07966569 -0.006597378 -0.018082049 -0.010252249 -0.052445307 0.03809353 -0.069057494 0.030110335 0.0027896755 0.001644189 -0.0425703 -0.048429195 -0.018842757 -0.034816176 -0.036768764 0.06009731 -0.034509666 0.11029315 0.046780087 0.09319459 0.054161824 0.07076896 0.04941057 -0.03173214 -0.05402671 0.016252993 0.13933755 -0.1379358 -0.010615858 -0.16965234 0.014439109 0.07616859 -0.047671262 -0.00082415994 0.027009863 -0.0007142977 -0.083752885 -0.058984824 -0.008759351 0.03086699 -0.027447116 0.026540477 -0.053353943 -0.03096535 0.06847233 -0.019056331 0.011314045 0.07650087 -0.0025738454 0.03808639 0.032715335 -0.0017480112 -0.017946433 0.020975808 0.045459684 -0.042648748 -0.00063644064 0.01886071 0.0338994 -0.008401069 0.06641209 0.015108091 0.05872342 0.028206 -0.024975965 -0.054179277 -0.03308599 0.07632819 0.1213842 -0.029908597 0.051590424 0.008593991 0.026283279 -0.040144738 -0.10624935 0.033911545 0.015639987 0.10013545 0.018661669 -0.05407599 0.05104784 -0.017871639 -0.04081877 0.010579582 0.08251801 0.018844366 0.0013308336 0.048901785 0.042586975 -0.04756376 -0.032500304 -0.02768484 0.08867194 -0.09309992 -0.03091578 0.018346945 -0.0076577114 0.06629004 -0.12160543 0.036365956 0.027616093 -0.0478241 -0.054148436 0.00028327716 -0.033162907 0.04099878 -0.0020458763 -0.016004682 0.0053118127 0.092380434 -0.0407314 0.014678349 0.0188788 -0.060363438 -0.124212444 0.05221929 0.0013527238 -0.015256957 0.035099853 0.05871844 0.025886117 -0.050683405 -0.050941866 0.005638546 0.023871707 -0.011446283 -0.054960284 -0.005262449 -0.004210848 -0.11454875 -0.1685986 0.021065896 -0.0128061855 0.11049228 0.030608468 0.13121936 0.11870176 -0.046971563 0.020704957 -0.048507735 -0.07820172 -0.100114755 -0.058086235 0.07677343 0.05634614 -0.028470818 0.061640706 0.050639592 -0.023106072 0.021855462 0.015214052 -0.03677892 -0.024020892 0.0042971214 0.039451838 0.09955735 -0.039543897 0.018943304 -0.063521974 0.0007641569 -0.03891476 0.06691219 0.04061154 0.049759116 0.011671057 -0.041900486 0.009204887 -0.012881248 -0.0028226404 0.0038046434 0.013308126 0.1182725 -0.031173687 -0.020931624 0.028389484 -0.03378721 0.015216528 -0.045846485 0.0075562294 0.033072565 -0.03653534 -0.02226104 0.0502719 -0.08799324 -0.06722535 -0.053410705 -0.057764374 0.033206597 -0.043159302 -0.016352033 0.106132865 0.034911085 -0.09602721 -0.045181338 0.057539374 -0.05750283 -0.14175296 -0.07162307 0.008923614 -0.0069437274 -0.010719356 0.05517648 -0.02639921 0.024296893 0.088615365 0.048265487 0.10924225 -0.117403224 -0.02146632 0.021250337 0.030009449 -0.037763633 0.08084487 -0.05312109 0.05185735 -0.06676685 -0.005266402 0.012858822 -0.025681233 0.025190432 0.0548681 0.02330153 0.0401857 -0.0083328495 0.10151433 0.121402055 0.08604061 0.021242332 -0.12010117 -0.068054825 -0.029884564 0.032362647 -0.0066369865 0.107444376 0.002660169 0.043972034 0.005955409 -0.017931096 0.034866188 -0.027473662 -0.0051571885 0.025052674 0.019573674
cô -0.04358617 0.0021936924 -0.039772823 0.0321109 0.13569807 -0.047806565 -0.002473261 -0.08920862 -0.07173239 -0.0029146618 0.04303514 0.0075409277 0.08443533 0.0744363 0.057378262 -0.0546363 0.031838898 -0.03468102 0.024910435 0.019067552 -0.01525688 0.015244141 -0.02996819 -0.016223378 0.06554814 0.086221434 0.052788455 0.010987779 0.20871523 0.08378216 -0.04601252 0.024517152 -0.031036831 0.0021307224 0.027378459 -0.059833836 -0.0616001 -0.004913224 0.10088977 0.106303096 0.06854009 -0.051433552 0.07875107 0.059100483 -0.056660343 -0.080461435 0.017683882 0.08990225 0.10940357 0.062663466 0.052819762 0.0100270985 -0.045557316 -0.027295856 0.012701041 0.021578224 -0.10751296 0.07218401 -0.07522156 0.041120503 -0.036141824 -0.016802931 -0.024724223 -0.012598078 0.03911967 -0.04733441 0.013291999 0.077012986 -0.058560137 -0.037607767 -0.0061107264 -0.009560669 0.054067783 -0.048897367 0.036598403 0.08849296 0.093979865 0.021006634 0.020110061 0.0688222 -0.03422772 -0.015194372 0.003148406 0.008385216 -0.058897458 0.0050515975 -0.13195978 -0.16078427 0.005676391 -0.06490111 -0.03645416 0.021994092 -0.07634848 -0.17240545 -0.08691152 -0.051820163 0.043443505 0.053999197 0.028546726 0.0143162245 -0.10470246 0.045760963 0.02913721 0.013639006 0.013640803 -0.062033027 0.017930472 0.0760086 0.0939385 -0.028067527 -0.07779399 0.104755946 -0.0032334148 0.009651435 0.102527805 0.015633516 -0.039399624 0.02603018 0.005891866 0.013319693 -0.031742807 -0.032217763 0.014098475 0.026498292 -0.01715897 0.048852507 -0.08397512 0.09282953 0.016798269 0.008644423 0.07640879 -0.088953614 0.006084286 -0.038347505 0.0029141055 0.0023270438 -0.06798783 0.0026700124 0.043648332 0.019975003 -0.004263476 0.044937126 0.057965867 -0.046429683 0.045967445 0.026020778 -0.04925398 -0.056554183 -0.02794358 0.038327392 -0.046012674 0.037122454 -0.054835916 -0.06612555 0.078246 -0.014238884 0.0057352735 0.005039568 -0.052288443 -0.04011169 -0.009242302 0.025183545 0.010458359 -0.018791452 0.019328387 0.087031946 -0.0015739781 -0.05061125 0.035877302 0.020408748 -0.0074921986 -0.10058045 0.07388472 0.001362642 0.024257792 0.031502593 0.072205454 0.054058414 0.05136518 -0.0043420526 -0.0517554 0.08538964 0.03836859 -0.04238558 0.09940839 0.0018141319 -0.08908056 -0.15534756 0.022740398 -0.13388556 0.033984497 -0.06652487 -0.01250505 0.12519602 -0.01887624 0.017611567 0.02094947 -0.061823633 -0.016703302 0.014812478 0.008777689 0.054824855 -0.029382804 -0.015488347 0.018014226 -0.07284457 -0.005307075 0.1277946 -0.009292672 -0.086652264 -0.024347842 0.014649594 0.15240021 0.046523407 0.06364051 -0.07898791 -0.0055017876 -0.041194938 0.11656644 0.034279343 0.04017593 -0.061726443 0.008181413 0.07007815 -0.004296082 0.043052446 -0.018737903 -0.01901046 0.07460892 0.021744559 -0.059819177 0.06260949 0.005744962 -0.043403108 0.035059735 -0.009277453 0.036687404 -0.07853931 -0.019851163 0.050681848 -0.112249844 -0.01833162 0.029626602 -0.04478743 0.10176818 -0.03191749 0.0022982403 0.1329545 0.037436303 -0.07795796 0.038158685 0.0067086304 -0.03663738 -0.07284117 -0.019908685 -0.0044535063 -0.019227847 0.05228374 0.08239829 -0.03195576 0.006322728 0.055889826 -0.096370086 0.073116116 0.015065612 -0.064577654 -0.033345953 0.04414725 -0.095521845 0.018335085 -0.03254095 -0.013364353 -0.013261232 0.07475019 0.05397101 0.05084103 0.081175566 0.07159516 -0.07721358 0.045792468 0.013942977 0.08128533 -0.05173873 -0.011164791 -0.004169846 -0.010951304 0.029339464 0.05392495 0.02953053 0.0240893 0.07538816 0.03138492 0.031337135 0.008742231 -0.053548597 0.07972677 0.026899219 -0.0914072 0.009724004 -0.08569785
gái -0.050861858 0.034409635 -0.0024809162 0.032270852 0.052931856 -0.07862184 0.054968644 -0.05179938 0.06995966 0.033644576 0.092507295 -0.070632495 0.043383125 0.13540426 -0.029303452 -0.0023870901 0.03401916 0.064834654 -0.008081258 0.041020233 -0.012863984 -0.028811986 0.050580945 0.06857134 -0.03030615 -0.013518866 -0.044634327 0.1779327 0.12090339 0.01402049 -0.09277366 0.03299921 0.010407364 0.0018695768 0.03294184 -0.0043790233 0.01385675 0.036942955 -0.016439795 0.05100537 -0.003552682 -0.05889192 0.09284848 0.033561528 -0.1594233 -0.042453296 0.01772357 0.037215114 0.08604653 -0.015777932 0.016893936 -0.040687703 0.051213562 -0.019066175 0.027140021 0.1222115 -0.050628982 0.009141573 -0.09275686 -0.022480456 -0.15173909 0.056962892 0.003195125 -0.007182801 0.011035279 -0.07938503 0.054606367 -0.033913758 0.028870668 0.028099585 0.013664579 0.041618958 0.061869625 0.03405293 -0.10325686 0.040495835 0.024779107 0.012281743 -0.050838996 0.054125477 0.022390494 -0.044676743 -0.021973753 -0.03400717 -0.12918454 -0.027719157 -0.084509954 -0.10652251 0.055955984 -0.014488076 0.012062103 0.05368137 0.008796136 -0.1232289 -0.044526316 0.0752291 0.03220599 -0.040687446 0.014659857 -0.14828046 -0.023918556 0.110677995 0.019496037 0.04530656 -0.027961023 0.042331684 0.02759137 0.020117624 0.10304267 0.0036224672 0.027200751 -0.032207325 -0.081803836 -0.04573511 0.058679882 0.025928238 0.12422435 -0.025491696 -0.002638501 -0.032393713 0.076470576 -0.064954974 -0.022375612 -0.021603698 0.062167883 -0.00093986676 -0.062058005 0.088451274 0.120926045 0.105923295 -0.0064905453 -0.03603108 -0.013533503 0.042924464 0.04473064 0.06011177 -0.060546495 0.02033872 0.06842632 -0.03983578 0.012583013 -0.008885989 -0.00953465 0.020464683 -0.0103937285 -0.012444559 -0.083341606 -0.11126522 0.002009405 -0.048342515 -0.061351918 -0.020050295 0.0022224067 -0.039349183 0.098396316 -0.04617351 0.038496718 0.03380141 -0.01853326 0.011222526 0.064008154 -0.021310931 0.011258231 -0.03803627 -0.0020956642 -0.031656593 0.048041414 -0.055048987 -0.008565815 -0.08384846 0.017638747 -0.06015576 0.005940111 -0.07884817 -0.008844032 0.085033946 0.021879498 0.019383408 -0.05330626 -0.11958748 0.03554813 -0.026268706 -0.07639952 -0.15281293 0.06656402 -0.022277452 0.009298437 -0.118570305 -0.017211575 0.03564272 0.08259577 0.05924699 0.1121011 -0.032658093 -0.08736308 0.004676866 0.07569495 0.006173935 0.054749858 0.015349272 0.06351432 -0.011711024 -0.049671266 -0.03152969 -0.008883935 -0.021154404 -0.024633491 -0.017833037 -0.037261806 -0.07354425 -0.08092865 0.11632924 0.111924656 -0.0020986511 0.04350478 0.046142012 -0.033515677 -0.072991885 -0.008192013 0.030008065 0.026728554 0.0018084291 0.09221655 0.03159324 0.020521527 0.014565243 0.058774374 -0.04128139 0.060614437 -0.021405216 0.014918664 -0.0113887815 0.02258798 0.005503623 0.028105868 -0.008607067 0.008533183 -0.04963144 -0.040943436 0.07047136 -0.06737285 0.016028019 0.011791564 -0.015506039 0.029825447 -0.08328222 -0.14353958 0.0113045955 0.057515696 -0.002397197 0.08773318 -0.030161425 -0.05931738 -0.11536411 0.08138629 -0.07908452 0.04969985 -0.03515328 0.02549936 0.0057232375 0.0031158123 0.07013502 -0.1048285 -0.0045678318 0.029776974 0.019251363 0.013532424 0.032964256 -0.07858198 0.032194488 -0.029157065 0.0036668933 -0.06326018 -0.040624693 0.0472221 -0.045897383 0.06473425 0.065538816 0.012667689 0.052136924 0.026118428 0.10709893 0.012160566 0.1001939 -0.101251625 0.020216787 -0.08086492 0.0064322003 0.009197701 0.016778465 0.053046387 -0.015404387 0.07951196 -0.0036607864 -0.049886372 0.07257035 -0.05296067 -0.09908277 -0.045650974 -0.06900318
anh_trai -0.09630182 -0.018965425 0.01430333 0.06499745 0.13414624 0.03561863 0.02406729 -0.061569348 -0.0827776 -0.013309138 0.014393549 -0.07309451 0.07843716 0.00073994277 -0.018921768 -0.026976122 -0.06429139 0.09805428 -0.025689723 0.09059548 -0.13802761 0.06373685 -0.06495981 0.026364448 -0.08803422 0.043974917 -0.057098377 0.13971636 0.18137583 -0.0006725423 -0.07878402 -0.0384302 0.04422029 0.007499828 0.03737062 -0.06974572 -0.015247811 -0.06703203 0.02643402 0.05542527 -0.020366883 0.014820945 -0.031206002 -0.01507132 -0.0015331819 -0.048838843 0.0074409097 0.030859724 0.16462766 0.11824564 0.032125827 -0.04108535 -0.025689395 -0.011056768 0.1314144 0.05715819 -0.1746727 -0.0026710487 -0.099294245 -0.03362793 -0.01942324 -0.012842295 -0.073709205 -0.054012273 -0.08381239 -0.076683536 0.023567684 -0.070152655 0.063982055 -0.025844323 0.007633365 -0.06455483 -0.019375317 0.014770359 -0.071247764 0.013391166 -0.03718858 -0.07999074 -0.05309191 0.028128704 0.019898545 -0.019977756 -0.023101963 -0.09549857 -0.06468723 -0.039057624 -0.05050474 -0.034116797 0.0055090943 0.0004488805 0.008170826 0.045979638 -0.03890461 -0.03741207 -0.0338821 0.043507982 0.024189489 -0.03648698 0.03179625 -0.031014804 0.00013517606 0.069626346 0.017964002 -0.00082423666 0.07817634 -0.041505393 0.07220668 0.007108864 0.042320218 -0.109808885 0.068788685 -0.0047585596 -0.0796948 -0.03226024 0.024692178 0.01392351 0.0037359053 -0.043889306 -0.014869175 -0.03578058 0.004345121 -0.07296587 0.031353142 -0.017278599 0.12839603 0.10816462 -0.049800653 0.022583118 0.18621297 0.0008856233 0.04221573 -0.091611624 0.067284144 -0.027512189 -0.013731519 0.047188062 -0.046446726 0.04342114 0.029103084 0.08278629 0.041229356 -0.007075659 0.026218759 0.027941864 0.040540833 -0.0018076554 -0.066729635 -0.064275414 -0.06300795 0.04966325 -0.047422912 -0.0008549429 0.06346346 -0.031571068 0.07137514 0.012759988 0.078921065 -0.0041372892 -0.06250287 -0.057685312 -0.031746008 -0.016529083 0.07116246 -0.05171839 0.010869375 0.018370738 0.0014934177 -0.065581344 -0.01106855 -0.048328225 0.0008726713 -0.041991286 -0.039817 -0.04145905 0.059844714 0.06633462 0.014753066 -0.0018424874 0.0020253481 -0.050987426 -0.029836025 0.08186651 0.07332567 -0.04493858 0.011608049 0.0023130486 -0.020272613 -0.12716848 -0.029485768 -0.05458685 0.043524243 -0.051788494 0.07160383 -0.027637577 -0.033317897 0.026154041 0.025182208 -0.0326719 -0.005498571 -0.049869034 -0.0032078708 -0.05076714 0.024304925 -0.080310374 -0.07393209 -0.078351386 -0.026967518 -0.03206887 0.025746295 -0.07349706 -0.021007763 -0.019871159 -0.018699124 0.09922103 0.06626166 0.1035127 0.03884584 -0.023737239 0.016890878 0.038591992 0.06669072 0.084830955 0.07855428 -0.03237851 -0.0052614883 0.0028241754 0.05332416 -0.10200871 0.013535434 -0.05141023 -0.0233013 0.09151427 0.007963917 -0.053661782 -0.007387713 -0.0017608383 -0.09757978 -0.043421417 0.007891865 -0.07234099 -0.06859205 0.008571036 0.031971686 0.0070778388 0.033311028 -0.12931338 -0.14184731 0.051003296 0.05100942 -0.06551126 0.060373865 -0.014517468 0.037088696 -0.042814832 -0.032896817 -0.049096633 0.029625565 -0.028814578 -0.060406722 -0.07420194 -0.041325174 0.099399455 -0.051357657 0.032851323 -0.09669541 0.0071261204 0.03247115 0.0019065794 -0.061980434 0.069000974 -0.0565608 0.009820817 -0.06590262 -0.026792863 0.06310364 -0.07079494 0.016777888 0.13954355 0.064667046 -0.011382321 0.008709502 0.0051846174 -0.061733935 0.056809634 0.017649788 -0.021857135 -0.13234344 -0.028992267 -0.038013935 0.0591213 0.04343565 0.014058887 -0.05602137 0.024001498 0.07131709 0.030253185 0.024512907 -0.011976854 0.08425743 -0.0088574905
em_gái -0.08052503 -0.0037573155 -0.041598912 0.058073856 0.0980071 -0.011768342 0.082950465 0.007431438 -0.06469483 0.025442012 0.048047513 -0.07949899 0.0692168 0.056280114 -0.035222095 0.0040921452 -0.012882998 0.116392285 0.039024632 0.03944375 -0.08702567 0.033037044 -0.01892018 0.04716317 -0.083103016 -0.020127458 -0.07302295 0.21561927 0.20890859 0.041427646 -0.038820155 -0.05385813 0.017331623 0.03449459 0.019754648 -0.07577377 -0.035150487 -0.031748004 0.017085407 0.04859286 -0.033521816 -0.04162142 0.06685752 0.027389988 -0.046111338 -0.07334871 0.0022564002 -0.016413026 0.15460628 0.054557472 0.051590215 -0.0531267 -0.0037463992 0.012923286 0.107459515 0.073488854 -0.13160048 -0.055602707 -0.08220736 -0.020128753 -0.050244823 0.0040410776 -0.033275053 -0.08725603 -0.077836595 -0.083007105 0.06646793 -0.035122238 0.06004973 -0.06080774 0.010380261 -0.030730905 -0.027370902 -0.014477331 -0.08076124 0.0012888405 -0.008711851 0.005606396 -0.07037984 0.030231358 0.033116337 -0.036190942 0.03217302 -0.07549004 -0.07855481 -0.027055578 -0.08468685 -0.07058973 0.019106932 -0.014695244 -0.00916342 0.119230084 -0.022818422 -0.1409615 -0.053180072 0.0124617135 0.066085145 -0.013372153 0.049154323 -0.05563572 -0.0503019 0.08990434 -0.009982175 -0.0012315968 0.080641665 -0.049236678 0.0743281 0.019984527 0.04631182 -0.08773031 0.13035186 0.05284551 -0.083365895 -0.016782636 -0.0056569385 0.007658471 0.025823308 -0.052091528 -0.019363413 -0.057640444 -0.0034974923 -0.027547501 -0.039234813 -0.0050973855 0.119566 0.04957133 -0.037747517 0.031406336 0.08351586 0.029083041 0.006478564 -0.07145443 0.076535635 -0.055647798 -0.033434976 -0.014506865 -0.07546019 0.025298025 0.07045866 0.09921355 0.0068666465 -0.034329843 0.014014969 0.002417688 0.0031751702 -0.026859816 -0.12637556 -0.0970801 -0.018778631 0.022029571 -0.04371613 0.040177558 0.11053211 -0.11541237 0.101040825 0.029326407 0.023784986 -0.007928687 -0.048127495 -0.0403679 0.07858049 -0.008630823 0.057768393 -0.07028062 0.031653233 -0.00021963223 0.058814257 -0.068907134 -0.03767545 -0.0843518 -0.029697012 -0.07885568 -0.032914396 0.003628966 0.04615397 0.06106385 0.019837802 0.0601112 -0.0008678269 -0.11061089 0.010592225 0.059602566 0.0017513181 -0.07906723 0.0642658 -0.018759085 -0.06183964 -0.083114944 -0.019322814 -0.019679004 0.081835836 0.0074621453 0.11335583 -0.0058957892 -0.03937861 0.026503015 0.0034715922 0.010428524 -0.011495202 -0.0017813753 -0.028602786 -0.013327338 0.024395838 -0.0052507697 -0.047392335 -0.065934464 -0.037707977 0.021058712 0.01853654 -0.00584249 -0.034723934 -0.03630597 -0.0060206223 0.03634997 0.037312936 0.12426861 -0.00016185574 -0.027544452 -6.4694425e-05 0.047146916 0.018635616 0.027692717 0.036832463 0.038412526 -0.0071445764 0.0016888555 0.03032854 -0.0422909 0.04870992 -0.03895551 0.024099063 0.02449042 0.015872428 -0.005052354 0.0046561765 0.058143195 -0.07442016 -0.041551776 -0.011313544 -0.04449847 -0.055894215 -0.030153958 -0.010534238 0.0050776773 0.039152477 -0.08562618 -0.16227366 0.018072953 0.011162772 -0.013992834 0.05157037 -0.03893589 -0.04519451 -0.10891556 -0.019718293 -0.09370073 -0.027666498 -0.024358843 -0.061216407 -0.033436712 -0.016830092 0.101723894 -0.093611114 0.0046020197 -0.05949972 0.07940156 0.017141793 0.013508454 -0.12429161 0.09517322 -0.10045583 0.008800762 -0.036060248 -0.035900567 0.07330836 -0.03993234 0.04055859 0.109312184 0.053974148 0.040890396 0.014780657 0.051658932 -0.040123 0.06085067 -0.028084567 -0.005058575 -0.09510452 -0.008908427 0.031623118 0.054548338 0.062993824 0.007491505 -0.016223395 -0.03678384 -0.00059125683 0.06710819 -0.02437742 -0.0029231785 0.042371467 -0.0010703279
người 0.01834908 0.043812152 -0.024715805 0.016290015 0.041084692 -0.041367818 -0.040663045 -0.17172478 -0.0024642409 -0.004527449 -0.007176843 -0.06666537 -0.016683418 0.12207632 -0.03963542 0.048283145 0.020034218 -0.00070669886 -0.0031691657 -0.013527454 0.010068973 0.003223263 0.01258525 -0.026329724 -0.042318594 -0.019919962 -0.021009175 -0.03667148 0.17598131 0.04196287 -0.014740687 0.033983957 0.04168113 0.07187308 0.0810113 -0.059983976 0.01853131 0.011164233 0.078873634 0.0343876 0.051870517 -0.09133714 -0.033474587 0.03802885 0.002519081 0.09337342 0.02489115 0.03177967 0.054299176 0.06028597 -0.028446535 -0.07783725 -0.01649664 -0.040027622 0.09803062 -0.0027812195 -0.020931495 0.018698711 -0.0837099 -0.08840659 0.0501054 0.05443727 -0.10118541 0.028491722 -0.06138876 -0.0035710928 0.030485397 -0.05492672 -0.025262792 -0.1156993 0.012321394 -0.016049227 0.11949415 0.040030155 0.0037458476 0.08023559 0.08561419 0.0152244335 -0.0038898971 0.06405588 0.061987884 -0.05551826 0.019686706 0.000990422 -0.07209213 -0.010041627 -0.100741714 -0.07003555 0.04810237 -0.038747568 0.038520668 -0.011232191 -0.027416142 -0.004870114 -0.14705548 -0.0027020962 -0.02117246 -0.0053805066 -0.046225 -0.013051665 -0.02834058 0.05643939 0.049580332 0.032372404 0.03843926 -0.025691716 -0.02769044 -0.051072065 0.0836457 -0.057627674 -0.061107498 -0.0025805961 -0.03004487 0.044855163 0.03245344 -0.05598628 0.049490128 0.025219578 -0.023841891 0.05496226 -0.032343127 -0.1139282 -0.05556351 -0.07861596 -0.06422927 0.028618768 -0.017099587 0.15054941 0.09583233 0.016513305 0.036882844 -0.08033588 -0.00042719228 0.044915136 0.09220701 0.025009163 -0.0015170482 0.08077886 0.103654765 -0.009968382 -0.073253825 -0.016535068 0.0085745575 -0.03167023 -0.0358404 0.06553685 -0.06317182 -0.111478016 -0.0617719 -0.06415978 0.01734174 0.0012557249 -0.041838713 -0.051335875 0.0079755485 -0.09684592 -0.0025115306 0.06177737 -0.08480951 -0.030586563 0.04595827 0.009386968 -0.08989331 0.010948815 -0.04145231 0.03203138 -0.007953368 -0.08452828 -0.08410647 -0.04749796 -0.0307895 -0.084004745 0.0041750846 -0.08354662 -0.002646348 0.07173175 0.10016029 0.030989181 0.08110818 0.039335493 -0.034449495 0.009302676 -0.0308504 0.007862356 0.0663248 0.07333841 0.031240985 -0.12825371 0.0013282166 -0.068101965 0.020415671 -0.12182236 -0.047678787 0.0904642 -0.07694699 -0.01799023 0.079648584 0.04100658 -0.036663465 0.027153594 -0.020712942 0.026900154 -0.010386761 -0.030469751 0.043248728 -0.047808398 0.023916991 0.05267458 0.11284579 -0.13905446 -0.020219538 -0.0018436593 0.02949519 -0.09498119 0.042050805 -0.011306785 0.053135432 0.071110845 0.080862835 0.08687339 0.12415878 0.006185577 0.08621369 0.02459697 -0.037902836 -0.0055197696 0.035416376 -0.023553858 0.030795926 0.008506853 -0.0091726035 0.018934714 0.030102726 -0.07067805 0.05885478 0.010107614 -0.013468885 -0.09234268 -0.056466006 -0.089222796 -0.058198385 -0.010566382 0.051294792 -0.06409457 -0.06484313 0.04141698 -0.0658282 0.082850486 0.053602573 -0.020159272 -0.082981795 -0.061172258 -0.035945725 0.029516201 0.01586454 0.058224287 -0.0029292149 0.05718889 0.03615634 0.006687458 0.008575832 0.065799415 -0.11921727 -0.03680502 0.114662215 -0.12277632 0.104704656 0.09767576 -0.034551717 -0.007948465 -0.031909786 -0.027125375 -0.048120417 0.029019713 0.021794787 0.016385918 0.012778812 0.09549353 0.0022744185 0.027143376 0.018088866 0.079367995 0.035811897 0.036927033 -0.025031922 0.03812381 -0.07687684 0.046005413 0.019282075 0.040111583 0.075150125 0.09789412 -0.031577054 0.09246325 -0.010083387 0.109623 -0.02142029 -0.051455747 0.023502568 -0.015009897
đàn_ông -0.04044652 0.017702315 -0.050916668 0.007861472 0.04408766 0.011539509 0.017003214 -0.01307855 -0.022552934 0.0481048 0.04937727 -0.033386435 0.059001457 0.007994353 0.085498884 -0.08801717 0.06545531 0.07444679 0.024371903 0.031398177 0.046552025 0.058112163 0.009774035 -0.027354302 0.06947178 -0.005647782 0.036930636 0.13006024 0.123693176 0.07529551 -0.008658856 0.084278986 -0.0150855435 -0.008629623 0.16138111 0.057462744 -0.035405837 -0.006365011 0.090487234 -0.0053938567 0.06332598 -0.02672663 0.03463591 0.08498989 -0.17332435 -0.014653455 0.071958885 0.09505015 0.09759561 0.005608223 0.09419849 -0.01224457 -0.08117244 0.0010777242 0.03307165 0.016642768 -0.038772944 0.093401484 -0.073875204 -0.09154726 -0.006207591 0.008156389 0.012658874 -0.037837513 -0.020319382 -0.07165113 0.125585 0.037144933 -0.04657695 0.035010584 -0.0040356736 -0.01094791 0.07538019 0.04501854 -0.00059836375 0.017813517 -0.04559172 0.042760998 -0.043827944 0.03873059 -0.02275484 -0.0095547 0.013793907 -0.025311878 -0.05680048 -0.08676648 -0.06515979 -0.07407305 0.09781613 -0.11336546 -0.034144282 0.0902792 0.0232193 -0.14417022 -0.097856015 -0.04278578 0.00064865244 -0.023333503 -0.021985237 0.020518279 -0.07227702 0.06315829 -0.054909226 -0.027148664 -0.019916415 -0.009356168 -0.020317946 0.054312706 -0.030588696 -0.09943453 -0.03643446 0.020470629 0.026602218 0.010994765 -0.013713413 0.025458192 0.053359296 -0.018102672 0.03151589 0.00028448386 -0.021147318 -0.091240436 -0.080848835 -0.07329151 -0.008185219 0.04496064 -0.034513507 0.12671432 0.08749043 -0.0310114 0.00011390399 -0.072435215 0.002393984 0.07156689 0.08122985 -0.016772324 -0.011865704 0.023172276 0.037797015 0.022742633 -0.028108463 -0.034372315 -0.012349187 0.020105358 -0.0011134091 0.023000201 -0.040118486 -0.03537158 -0.004334788 -0.0016097372 0.016684433 0.01115635 0.059143305 0.070732534 0.07853419 -0.014453983 0.06766648 0.04912964 0.00637807 0.08670117 0.014407374 -0.087331645 -0.032282814 -0.07049793 0.09405818 0.024077421 0.03647258 -0.000757567 0.030477941 -0.01201997 -0.06713123 -0.08409471 -0.0037909553 -0.036698427 0.0028734074 0.052995954 0.02263577 0.014504043 0.08159465 0.000981905 -0.012398894 0.02977659 -0.020966845 0.01040604 0.09877364 0.14775194 -0.0007625072 -0.123272665 -0.0048643136 0.0027151022 0.034762893 -0.010556091 0.04201583 0.1970335 -0.12847087 -0.014438765 0.015078091 -0.03886367 -0.05423888 0.019837305 0.04119764 -0.0106758205 -0.039685886 0.011744005 -0.047112238 -0.08478098 0.06678933 0.025683846 0.016991477 -0.09855873 0.027019098 -0.043404795 0.12779543 -0.064586855 0.022375176 0.059508886 -0.03554286 0.028799241 0.07814086 0.036061015 -0.0075585907 -0.039375667 0.06464527 -0.008212829 -0.014213188 -0.021318981 0.073490225 0.026481852 0.09139567 -0.0034624704 0.039060216 -0.002579684 -0.03587571 -0.09477292 -0.0060972613 -0.053673975 0.040768966 -0.114410035 0.0289397 0.05365117 -0.0548117 -0.12764636 -0.0571452 0.017118745 -0.08557631 -0.02038757 -0.0017905745 0.044459715 -0.031829733 -0.07303639 -0.017283842 -0.044968594 -0.08161829 0.0069161803 0.07600383 -0.020374823 0.00040944119 0.026389498 0.017677683 0.00735245 -0.10798682 0.102100156 -0.096229844 -0.05435664 0.012996623 -0.06028801 0.08166355 0.01993732 -0.093034536 -0.05351214 -0.049645215 0.04240438 -0.12727432 0.055776343 0.009727867 0.07354422 0.030850947 0.020955922 -0.028455969 0.053339005 -0.022343652 0.08760415 0.03778729 -0.008662646 -0.018291587 0.027161472 -0.044315062 0.08932015 -0.0195207 0.08361598 0.103061154 0.09470825 -0.0029272526 -0.0066964687 -0.04010378 -0.046868574 -0.034479517 0.017794752 0.028462548 -0.03411462
phụ_nữ -0.050706405 0.02875463 -0.10372417 -0.025429783 0.009195844 0.013073133 -0.026951337 -0.056089647 0.0028874956 -0.0024963685 0.050786287 0.0078272605 0.07455082 0.056160077 0.06002039 -0.014912033 0.040218364 0.021604765 0.043160513 0.020697614 0.04789991 0.091751926 0.012956749 -0.033122078 0.05238311 0.04937083 -0.0043284465 0.092261374 0.14753138 0.030668175 -0.0349777 0.09465443 -0.005598506 0.002100825 0.06855292 0.038822338 -0.032308403 0.01852747 0.023690648 -0.014296053 0.06268036 -0.048056852 0.066772744 0.0925415 -0.14391695 -0.019826425 0.04075018 0.07685464 0.023861919 0.029783323 0.110381715 0.060072284 -0.09593159 -0.020150712 0.062050868 0.04448102 0.01709462 0.06953635 -0.06563635 -0.036616117 -0.007048047 0.045109253 -0.018651899 0.008664109 -0.017652921 -0.06306788 0.11031012 0.063526414 -0.042648394 0.00047517274 0.009432333 -0.010721411 0.07083175 0.023372307 0.054865018 0.0049182177 0.03519039 0.093859784 -0.03535044 -0.0054443064 -0.046634495 -0.013517435 -0.010788155 0.05757725 -0.06450899 -0.05162666 -0.05482998 -0.08702506 0.110395335 -0.07115424 -0.06582869 0.096018806 -0.0043395483 -0.13608536 -0.08207483 0.032411553 0.0147795845 -0.053239018 0.028401745 -0.007996694 -0.039569058 0.08591411 -0.010852044 -0.008464026 0.0022258165 -0.006542864 -0.025305033 0.02813362 0.0750899 -0.14986448 -0.04491938 0.05751292 -0.02119874 -0.005106273 0.023944486 -0.06916414 0.044027667 -0.103058726 0.0038453257 -0.013540071 0.027142981 -0.07798972 -0.04402303 -0.026497612 0.013624764 0.03694045 -0.02973216 0.15857188 0.08285652 0.014608135 0.01893516 -0.04530846 -0.08385082 0.030615669 0.07929991 0.049474545 -0.012490464 -0.017150335 0.13788553 0.017365502 -0.025737686 -0.051471323 0.007750933 -0.038541853 -0.030832041 0.038597476 -0.021206407 0.0050795586 0.021469573 -0.07986246 -0.04065762 0.0116145685 0.055960122 -0.02738207 0.08987755 -0.055226963 0.088030666 0.044187773 -0.025598614 0.05582213 0.06842506 -0.03899304 -0.030668482 -0.064950064 0.066780426 0.047495402 -0.0070475917 -0.007457528 0.0078732325 -0.013865854 -0.08187421 -0.04869965 0.01518688 -0.057376854 -0.0002622907 0.09115307 0.08832855 0.016319757 0.08399075 0.01203422 0.00905592 -0.009729131 -0.027763072 -0.040393755 0.1050836 0.099626444 -0.023136988 -0.076438524 0.0023147755 -0.020232037 0.06650702 -0.057103004 0.05136686 0.12165968 -0.06374979 0.026280649 0.03656941 0.0040943325 -0.06264824 -0.024996934 -0.0183915 -0.029815424 -0.091497205 0.0011811992 -0.03567075 -0.07020823 0.02372105 0.092199735 -0.0068407375 -0.042403087 0.016253091 0.0033432893 0.1513045 -0.008156602 0.0566284 0.014468647 -0.026999082 0.057101965 0.08362534 0.11326727 0.049980633 0.03327462 0.045129474 0.025415504 -0.035251126 -0.08560985 0.101734936 0.034527183 0.035037402 0.01630898 0.07308174 -0.0062687844 0.02547722 -0.1013309 0.030214919 -0.075693265 -0.0021790615 -0.08555215 -0.009529212 0.039494824 -0.043485478 -0.08880043 -0.02649691 0.0069382684 -0.10493019 0.027657073 -0.071212605 0.024484558 0.011114978 0.008618829 -0.030853791 -0.058777157 -0.083860144 0.026913721 0.04018639 0.0011246268 0.012265586 0.019072913 0.077305436 0.056531604 -0.090474464 0.11493336 -0.087044396 -0.07525963 0.10622841 -0.062265016 0.12793772 0.025536606 -0.027622102 -0.0327488 -0.041925427 0.06108548 -0.0955547 0.09738837 0.0147866355 0.10215768 0.037078675 0.041285843 -0.03312729 0.08524542 -0.027864698 0.111613706 0.018104924 -0.023295823 -0.053368498 0.02809827 -0.00035067962 0.09264555 0.0045673074 0.07793134 0.048252862 0.08588345 0.04709037 0.059129704 -0.057129193 0.01830474 -0.060584527 -0.035338677 -0.0024774862 -0.053437747
hoàng_tử -0.1304136 0.0028030586 0.042176433 -0.051219836 0.083630726 0.017197123 -0.040695015 -0.06978061 -0.02170583 0.022061333 0.031491987 -0.038720682 -0.006211136 0.07010211 0.013026692 -0.07717585 -0.021915875 0.015829487 -0.0120813465 0.061219882 0.0045751184 0.064186305 -0.00025836786 0.09984864 -0.15184747 -0.07555354 -0.06744016 0.07557033 0.1362504 0.062108036 -0.03220404 -0.09270207 0.008126227 0.051180262 0.027664196 -0.052833885 -0.007706653 -0.025930412 0.001940474 -0.056192733 0.103084125 0.044312593 -0.013442241 0.06453601 -0.012033872 -0.012954678 0.0010446261 -0.022671213 0.1038023 0.019665482 0.08496265 -0.015563397 0.05178162 -0.03708027 0.07608123 -0.036259983 -0.048228886 0.082121395 -0.04827756 -0.007617045 -0.011005344 -0.018025892 0.020935478 0.06679673 -0.07644157 -0.12648974 0.050336935 -0.051258743 0.026844455 -0.0030060813 0.013965258 -0.030626522 0.073514685 -0.054237604 -0.05609166 -0.0009936084 0.025411364 -0.046824772 -0.010969044 0.1444192 0.03852526 -0.052857306 0.012606024 -0.060981672 -0.100218855 -0.02323765 -0.050786663 -0.030770577 -0.06533352 0.13479705 -0.007732505 0.12798423 -0.05722125 0.012979668 -0.062139045 0.027863864 -0.055694975 -0.001264728 0.09713746 -0.013852079 -0.066079795 0.11411177 -0.01773772 -0.014630749 0.055986512 0.018812224 0.039814446 0.014063015 0.06597439 -0.10434333 -0.015773343 -0.02767791 -0.088891044 -0.05529827 -0.030736743 0.02580517 -0.0016382568 -0.0041680285 0.02095516 -0.08796544 -0.02679743 -0.1203769 0.0514437 -0.017954595 0.07088702 0.094991095 -0.023065172 0.0065263812 0.15398584 -0.08581846 0.015992157 -0.02941256 0.047916833 -0.013834581 0.03292112 0.07194144 -0.022886563 0.05092237 0.07612202 0.009993866 0.012967039 0.044171765 -0.09050858 0.053090874 0.058739074 0.023291256 -0.0050381273 -0.07734936 -0.054630253 0.055034358 -0.146059 0.06874843 -0.020656358 -0.047271367 0.060522296 0.014803789 0.07931919 -0.030532349 0.0014815021 -0.07564243 0.11895638 -0.07948838 -0.00079777074 0.04238478 -0.06945746 0.008834069 -0.018260816 -0.062492006 -0.041756596 0.013068181 -0.045703918 -0.07895519 -0.03684249 0.08429085 0.014825074 0.0809388 0.08050006 0.022591343 -0.08357293 0.026233554 -0.009854235 0.09885667 0.014908827 -0.005093843 0.0638296 0.025572943 -0.029695058 -0.100313805 -0.04782648 -0.08802592 0.081677526 0.09303545 -0.03385166 0.034681246 -0.030413473 0.02221124 -0.036092572 -0.058921035 -0.00488662 0.023346204 -0.015090681 -0.080011316 -0.031703528 0.0017712418 -0.06527821 0.023127932 -0.11539248 0.0055642636 -0.05467606 -0.013890347 -0.13425824 0.05785392 -0.0005236606 0.0823647 0.028232178 -0.0068048835 0.07836341 -0.09207062 0.07802282 0.0039881254 0.05647172 0.08654901 0.015220337 -0.069483936 0.035256296 -0.05216662 -0.011189318 -0.0823287 0.08847225 -0.0021412396 -0.03737867 0.04615579 0.016844172 -0.061704375 0.019656828 0.05537602 -0.014380708 0.043713674 -0.021144819 0.023276336 -0.091526404 -0.04513131 -0.02852186 0.031571146 0.0332583 -0.058260594 -0.026539158 0.044672586 0.09085293 -0.029451791 0.04915286 -0.05351916 0.021212483 -0.010612478 0.026278734 0.0020337913 0.0038595367 -0.0059737433 -0.017351145 -0.08196811 -0.015054214 0.10819999 -0.072005056 -0.06572809 -0.010105412 -0.023891684 0.012634398 0.012750891 0.014069754 0.063156106 0.023180515 -0.0032396798 0.036432132 0.02967043 0.026597071 -0.06827743 0.036474656 0.06973185 0.012422101 -0.038418718 0.08492231 0.118112765 0.03340405 -0.006037399 -0.12224384 -0.04438152 -0.062070586 -0.06575768 -0.027310297 0.07811847 0.015788289 0.0055712736 -0.0031809043 0.039829787 -0.011146268 0.09166632 0.0037019139 -0.011071183 -0.06193723 -0.098442286
công_chúa -0.023620168 -0.06359199 0.012878508 -0.008815653 0.11803873 0.049786676 0.008520285 -0.0094687585 0.049396053 -0.0054366514 0.035575207 0.005354663 -0.014997054 0.09531749 -0.027677028 -0.017357782 -0.054640107 0.009209487 0.011816565 0.04119211 0.027135992 0.08811921 0.060407914 0.03321146 -0.049198505 -0.09608926 0.010975619 0.11210053 0.18554834 0.06796712 0.0041319886 -0.081916824 0.04043187 0.057789028 0.040760063 0.0027935547 0.023013411 0.023843896 0.018576616 -0.045532566 0.064367436 0.028120939 -0.030633125 0.08225125 -0.041159138 -0.039598025 0.048819512 -0.03256472 0.07846871 0.030572098 0.099515446 0.049447615 0.038652644 -0.010366343 0.0028235083 -0.032128748 -0.04352979 -0.011027668 -0.009978188 -0.046876337 -0.10595857 -0.0024686982 0.044351958 0.02240604 -0.05798062 -0.05102534 0.02489241 -0.034760427 0.053037263 0.004151213 -0.06784857 -0.0066253077 0.025124313 -0.0013334582 -0.052501995 0.024545068 0.068462774 -0.035485204 -0.107907385 0.08661255 0.0039879284 -0.05323715 0.03508585 -0.0036516648 -0.10140639 -0.021291077 -0.05038733 -0.09219229 0.019181455 0.076890975 0.008103292 0.0886312 -0.06983302 -0.03275479 -0.043715145 -0.012505928 -0.021937603 0.011700816 0.044422247 -0.069564335 -0.06183552 0.10949749 -0.057563484 0.0726953 0.034714293 -0.006614888 0.09870076 -0.048581637 0.114538066 -0.048609037 -0.023906613 0.090093635 -0.0742497 -0.060764354 0.014497714 0.0033554824 0.10414899 -0.042577643 0.012690915 -0.069588006 0.0017655231 -0.07812607 0.02063881 0.043165382 0.022681564 -0.015758602 -0.0014752734 0.07477996 0.059994314 0.003244381 0.023155512 -0.06968738 -0.0004122597 -0.025191307 -0.019641107 0.017987069 -0.12467833 0.060411822 0.07000843 0.003858877 -0.007339529 0.010811027 -0.05407543 -0.0187902 0.02012944 -0.059150904 -0.03993823 -0.117076844 -0.05856069 0.051283102 -0.17335846 0.020907387 0.054683987 -0.14503856 0.10797983 0.054391474 0.026081888 0.028956035 -0.03830129 -0.07614444 0.14147475 -0.09685319 0.03941471 -0.0065506906 -0.021270454 0.040839277 0.020943282 0.0064077084 -0.06240208 -0.047437556 -0.009541636 -0.09728142 0.0013540777 0.03518924 -0.010804002 0.055292696 0.051365424 0.10992859 -0.014357512 -0.014503327 0.06295254 0.058430683 0.010762293 -0.11540135 0.043772917 0.048103783 -0.044714503 -0.10988674 -0.06736977 -0.02907768 0.070298344 0.10550199 0.01581262 0.020413388 -0.04382587 -0.008569854 -0.10026957 -0.054941814 -0.0023302818 0.029654782 -0.046043817 0.004685588 -0.03953507 0.040318795 -0.07394716 0.013620323 -0.05964666 0.083641395 -0.06920407 -0.020386998 -0.1694321 0.06878726 0.04391292 0.022221968 0.025999695 0.001742399 0.07482577 -0.10597653 -0.0053980774 0.0849495 0.07592525 0.018724425 -0.04346884 -0.055207968 -0.042687617 -0.022338577 -0.037324622 -0.03713609 0.046010185 0.043975353 -0.009829897 0.006377551 0.025167879 -0.019643819 0.050501104 0.028722327 -0.026422728 -0.014189345 -0.007845672 0.00305112 -0.05434817 -0.031509425 -0.07141647 -0.021701768 0.02656731 -0.07192309 -0.07177952 0.07263161 0.043811947 0.039717555 0.01316761 -0.02321621 -0.08678503 -0.020840706 -0.026961338 -0.0771364 -0.018288044 0.07316591 -0.0047582607 -0.06965335 0.033810284 0.11198427 -0.08160276 -0.048446186 0.033635344 -0.02090606 0.002278786 -0.02968049 -0.025177723 0.08386139 -0.03819452 -0.05101312 0.041299723 0.017489986 0.0950731 0.019527324 0.06516568 0.080085166 -0.06859475 -0.004005343 0.027054053 0.12368928 -0.0627242 -0.03214593 -0.121534 -0.057767633 -0.098657 -0.04613282 -0.010425446 0.047272027 0.02369648 0.01769047 0.022324944 0.036161482 0.0086752195 0.014311732 -0.08038632 -0.0022474574 -0.066000536 -0.12928148
